{"l1_biases":[185,-1,-9,-37,-18,40,-84,-30,-39,-1,5,-80,-100,-48,36,2,61,60,-21,-343,-25,64,24,-16,20,-46,-42,-12,-20,-40,-17,13,-17,-45,186,25,-18,-38,0,-39,-5,-68,-23,18,-38,-61,-13,-138,54,-66,30,-66,-30,0,-3,88,-18,-19,-127,2,-34,-104,-29,-41,-66,-42,46,-35,90,-26,0,-87,6,48,22,-19,51,-6,-37,-38,-38,-32,-18,-55,-13,-151,28,-43,27,22,67,65,59,18,-50,-90,-19,-26,81,-46,1,-32,-22,15,-40,-41,-34,-3,32,16,116,15,-110,249,161,-29,105,1,-51,11,-110,-31,41,-33,41,-6,-53,1],"l1_weights":[0,0,0,0,0,0,0,0,0,6,7,3,0,0,4,5,1,9,4,0,-5,-1,2,7,1,1,0,-2,-3,6,10,11,-3,2,0,-8,0,18,42,11,-10,-9,0,-11,20,42,109,-495,12,-28,-14,-6,6,103,64,-398,0,0,0,0,0,0,0,0,0,-2,-3,-11,-6,-13,0,-29,-11,-9,-14,-5,-7,-5,-3,-7,-13,-21,-12,-19,-8,-4,-3,9,-23,-29,-18,-11,-3,-1,-2,9,-28,-4,-13,-9,-6,7,19,19,-28,-16,-10,6,9,1,15,13,-27,-10,16,-19,4,9,-6,36,-30,-14,7,-31,-4,-62,16,33,10,-6,4,-12,0,-9,-14,-19,-1,3,-3,-6,-9,-15,-18,-26,0,0,0,-2,-9,-12,-31,-23,-8,-3,-3,-7,-4,-14,-12,-5,-29,-2,-12,-6,-5,0,-1,20,-47,-28,-8,-9,4,-3,24,25,-45,-20,-14,-11,1,11,3,28,-12,-36,-24,-19,-10,-10,13,-7,-18,-28,-26,-26,-14,-7,5,0,-28,-37,-32,-29,-19,-7,-2,2,-27,-41,-30,-36,-18,-11,2,0,-40,-63,-40,-41,-19,-3,6,-4,-54,-67,-47,-45,-23,-3,2,-9,-52,-51,-33,-42,-29,-20,-21,-19,-25,-25,-14,-35,-11,-1,-6,28,-26,-43,-30,-31,-23,-11,6,32,-48,-49,-46,-58,-84,-65,-54,-73,-67,-49,-55,-68,-67,-73,-61,-72,-78,-80,-80,-72,-80,-61,-63,-74,-74,-117,-97,-107,-75,-71,-62,-65,-125,-111,-127,-99,-83,-65,-53,-33,-153,-176,-124,-129,-93,-65,-42,-64,-171,-136,-141,-103,-87,-72,-26,2,-132,-118,-113,-84,-69,-105,-86,-23,29,33,35,32,29,32,31,32,49,37,30,29,28,28,31,32,40,40,28,21,13,14,17,17,41,51,26,11,7,0,11,8,25,30,25,3,20,0,0,5,41,23,11,7,0,15,9,55,28,25,9,33,3,6,62,78,31,24,66,45,46,74,117,0,0,0,0,0,0,0,0,0,20,47,25,24,-1,-20,-11,-20,15,14,8,2,-3,-2,-8,-16,10,11,11,0,-10,-14,-25,-18,10,8,11,2,-1,-21,-22,-17,7,15,8,10,-9,-28,-41,-15,7,11,8,-1,-16,-33,-46,-18,0,0,0,0,0,0,0,0,-11,-2,-13,-7,-5,-17,-25,-32,16,12,0,-3,-3,-20,0,-19,5,7,-5,1,-12,-15,-7,-10,1,-2,2,-12,-14,-19,-14,-14,-2,-3,-6,-8,-17,-18,-13,-23,6,-5,0,-8,-12,-15,-20,-11,-6,-2,4,4,-9,-26,-33,-57,-8,8,-7,-15,-17,-22,-44,-36,-3,3,4,0,-2,-2,12,-14,0,7,-6,-10,-2,0,-4,3,-3,0,3,-5,3,-10,-2,-22,1,0,-1,10,0,-7,-23,-21,-3,0,2,6,-3,-24,-22,-21,-5,-3,2,-7,-10,-17,-30,-26,9,-1,-3,-8,-12,-12,-27,-17,-1,-11,-18,-14,-6,-12,-4,-19,8,1,4,-6,0,-3,-15,-4,0,-5,-4,-12,-6,-19,-20,-2,-2,-10,0,-13,-18,-25,-24,-11,-3,-5,-6,-23,-20,-30,-28,-22,-7,-5,-12,-20,-19,-24,-33,-39,-16,-17,-14,-22,-32,-47,-55,-41,-25,-25,-22,-30,-32,-40,-34,-33,-33,-23,-23,-25,-24,-28,-24,-16,10,14,10,-7,22,42,-269,10,3,0,-4,-10,8,-6,-14,-9,-6,6,-7,-2,-6,-31,-18,-31,-10,-26,-15,-28,-5,-3,-18,-39,-38,-28,-35,-21,-21,-14,-15,-19,-24,-48,-42,-47,-41,-33,-13,-7,-46,-73,-66,-45,-47,-25,-24,1,-51,-57,-81,-56,-38,-27,-18,-2,91,114,80,100,75,86,81,47,76,106,82,85,85,78,144,62,76,78,62,61,72,77,66,64,64,71,66,60,59,45,64,25,102,93,87,73,43,13,-14,-82,119,123,103,71,34,-15,-79,-127,179,166,146,87,14,-94,-119,-121,170,170,174,84,-92,-94,-97,-114,0,0,0,0,0,0,0,0,14,18,14,11,3,-2,3,1,19,18,18,-12,13,13,2,-4,23,32,5,20,4,15,0,3,20,111,15,59,16,35,-4,3,27,51,59,22,73,-2,22,2,31,-261,53,-142,31,161,-5,-69,0,0,0,0,0,0,0,0,-12,7,6,6,14,1,14,25,0,18,5,-3,14,-18,17,4,8,9,9,-8,13,15,-7,18,20,66,5,45,-4,24,15,4,45,8,-3,36,63,41,15,13,66,0,82,27,43,37,56,50,93,11,24,22,103,22,47,20,-9,68,42,65,0,36,43,107,-2,17,-4,23,14,37,12,44,9,8,28,-12,40,-28,31,7,7,46,-22,20,-3,20,-11,21,91,-41,94,-41,58,-17,12,24,-44,113,-26,95,-33,17,-5,57,101,9,123,-20,101,-5,67,10,-26,59,1,68,-33,94,22,29,101,-8,-25,3,77,-45,102,-3,-27,-29,-17,-10,-26,-21,-2,-15,-44,-48,-11,-16,-14,-86,23,-5,-27,-53,-7,-37,-13,-37,-15,-18,-22,-49,14,-28,-3,-19,14,-17,-49,-49,-2,-33,-19,-18,-21,-19,-4,-21,-7,4,-22,0,0,-10,-21,-46,-13,-32,-15,-31,9,-28,3,23,8,8,-3,-16,10,30,-5,31,16,19,16,29,27,62,-7,4,33,14,33,-28,74,27,-16,10,17,7,16,21,11,28,40,-25,55,-22,23,6,34,24,-69,14,10,-3,-42,33,11,53,-18,-45,-14,6,19,28,41,20,-57,-107,-51,-68,-15,-28,26,49,24,3,51,54,32,76,55,102,3,-8,0,-8,-8,-4,-9,-8,-7,12,13,13,-8,-18,-20,-26,33,13,32,4,20,-17,-17,-16,67,52,44,21,14,-8,-20,-67,37,74,41,39,34,0,3,-32,48,61,60,68,57,3,4,-1,75,55,84,68,65,-10,-231,-33,-16,4,22,50,76,-85,-272,-62,0,0,0,0,0,0,0,0,-147,-100,-50,-70,-203,-52,-32,-80,-38,26,-12,-21,34,-78,35,-87,-13,-3,-11,-19,-18,-25,-15,-33,-5,-27,-24,-29,-28,-18,-22,-20,-42,-7,-19,-25,-17,-8,-6,-9,-24,-52,14,-44,10,-13,-1,-15,0,0,0,0,0,0,0,0,-39,-8,39,-5,41,-7,61,-17,24,-27,-3,-8,32,19,-6,27,-26,38,-13,66,-14,38,-7,41,10,30,-11,8,13,-2,12,4,-45,26,11,0,19,-11,33,-21,31,-55,61,-29,24,-13,0,-9,-63,16,-25,16,-35,27,-9,-3,-38,-5,-34,11,-6,-5,-6,0,10,-16,40,-17,73,-28,87,-42,-8,47,-34,44,-25,45,-33,16,36,-30,70,-24,74,-18,78,-45,-6,37,-13,78,-37,38,-15,56,39,-17,24,-8,39,-16,27,-14,-24,0,56,8,3,0,1,3,48,-42,38,-22,12,-3,-1,-12,-56,28,-18,17,-22,-2,19,-6,-1,-16,-3,14,8,-17,12,6,0,-8,-10,-5,9,-20,3,-28,3,-8,-11,5,0,1,-12,-3,27,-3,6,21,12,-15,-5,-1,-6,31,-31,36,6,-3,-21,-12,43,-4,61,9,50,7,29,-8,6,29,13,37,34,62,3,-5,0,6,4,11,12,0,5,-2,-96,-100,-24,-94,-32,-51,-26,-42,-28,-39,-83,-11,-62,-29,-27,-37,-27,-20,-25,-34,-11,-50,7,-6,-15,-43,-11,14,-22,28,6,-5,-48,-20,-41,32,0,2,-3,-7,-4,-27,48,-9,36,-12,24,-29,-28,-14,-1,7,7,26,-14,-36,-31,-1,1,-1,1,-24,2,-16,-154,11,65,42,51,69,59,33,-9,22,30,40,43,47,60,21,42,1,30,37,47,29,26,25,15,40,5,36,24,15,23,15,-12,8,-5,14,30,9,10,9,-5,-72,9,0,32,1,29,15,-34,-65,-42,25,8,13,-26,-9,-38,-86,-52,-1,6,-35,-3,-19,0,0,0,0,0,0,0,0,-6,-10,6,-25,-2,-3,-14,-14,-6,-17,-1,-30,3,-15,-13,-12,6,-28,157,-32,38,-18,-22,-12,0,-8,10,-11,-16,-31,-22,-12,-4,26,-14,14,-28,-17,-43,-15,-49,46,-113,-20,-27,-27,-237,-38,0,0,0,0,0,0,0,0,-30,-12,-44,0,-31,-18,-15,-25,-9,-19,-6,-23,-7,-19,-4,-28,-1,-26,-7,-39,0,-15,-23,-8,-24,3,-28,-10,-27,-7,-12,-25,-3,-12,-21,-19,-8,-25,-21,-10,2,-14,13,-5,-1,-24,-20,12,-33,-43,26,-35,4,-40,-33,-51,-20,-5,-56,-7,-12,-8,-41,-19,-23,22,-20,4,-26,10,-9,6,42,-19,16,-21,7,-10,25,-17,-13,45,-26,4,-7,18,-4,3,6,-9,42,5,6,-6,-3,-17,-1,23,0,5,0,-3,-9,4,25,-22,16,-24,24,-6,7,-12,-27,-8,-26,11,-47,15,-1,-8,-15,-41,-28,-36,-9,-36,-11,11,-14,-14,5,2,0,-6,-22,-21,-31,-32,15,-6,2,-11,-13,-33,-35,-31,1,-5,-21,-12,-24,-25,7,4,-3,17,-1,-3,-16,-15,-7,-13,10,-21,7,-1,-17,-14,-18,-11,1,9,-26,-4,-25,-14,-26,-27,-14,-16,-24,-23,-37,-39,-34,-13,-24,-18,-23,-16,-38,-22,-21,-21,-5,0,-1,-15,-22,-31,8,-21,-1,-10,-4,-14,-12,-34,-12,17,-15,-19,-17,-4,-22,-29,17,19,2,14,3,-8,-27,-30,-11,8,20,-34,6,-13,-1,-15,32,13,7,21,7,-9,-31,-27,-5,5,-5,2,-44,26,-19,-52,-103,-20,-67,-46,-78,-22,-64,-28,23,-13,-39,-5,-2,-6,1,5,-22,-17,-29,-21,-14,-9,-4,-1,-33,-43,-36,-29,-20,-23,-9,0,-124,-19,-28,22,-45,9,-16,8,26,-12,31,-38,26,9,49,23,12,23,30,50,46,23,67,52,23,-19,-7,43,45,30,51,61,45,-9,-9,37,62,43,49,141,0,0,0,0,0,0,0,0,-3,-93,32,-29,58,24,53,26,3,7,6,-4,28,22,-1,0,6,-3,-12,1,5,13,13,5,9,-2,24,-187,18,1,10,3,2,3,-12,-1,-25,0,6,0,7,-1,19,-44,13,-12,3,4,0,0,0,0,0,0,0,0,15,27,15,18,31,12,53,1,-2,1,-26,22,-5,16,29,49,-105,23,9,17,15,41,24,55,1,10,-10,30,21,5,15,17,-5,-191,42,-229,36,8,9,26,30,-25,16,12,7,-6,13,19,-11,33,-39,35,-14,17,7,20,8,35,0,23,11,15,10,15,51,-1,0,31,-8,12,5,-17,-105,-2,11,-12,18,17,14,17,20,-71,33,-10,22,25,14,22,-7,28,-11,-1,6,18,9,13,13,-286,44,-269,37,-6,8,11,-82,-5,-13,37,-41,8,0,9,17,-22,0,0,10,-46,10,-5,-11,12,0,19,-6,15,-38,24,31,42,17,15,17,40,12,25,18,20,17,8,11,15,10,7,16,12,26,5,29,26,12,17,-18,-12,-3,3,22,15,9,6,-11,-209,-58,-59,-2,-12,8,6,3,-5,-28,2,-1,8,18,9,4,8,-18,-1,5,-1,10,24,8,10,-8,-14,3,14,13,19,3,6,-18,-42,-8,-63,5,23,-14,15,13,19,3,-6,26,34,-4,-1,36,-2,4,27,29,48,-19,-11,-2,15,40,38,34,28,0,-222,-6,-190,28,6,37,24,-47,-14,-25,27,-9,25,39,16,2,-8,-2,4,13,-11,27,37,2,7,9,6,15,39,16,28,38,11,8,18,28,38,61,-16,34,-4,44,13,62,22,39,14,-4,40,11,16,16,13,6,13,16,19,32,12,10,8,8,5,18,36,11,19,1,3,5,8,-16,-13,-40,-12,-20,-4,0,5,7,-15,3,1,-2,-13,-17,-16,12,7,13,6,0,-9,-20,-20,0,0,0,0,0,0,0,0,-3,1,-12,-132,-10,-13,-1,3,-1,-2,-13,-109,-12,-7,0,0,-4,-7,-6,-175,-12,-1,0,0,-9,-9,-24,-159,-29,1,1,-3,-6,-14,-51,-143,-46,0,5,-3,-8,-40,-108,-173,-52,-20,10,1,0,0,0,0,0,0,0,0,-3,4,10,1,0,-26,14,23,-11,-10,12,-8,17,-35,-4,5,3,1,-12,3,-19,-8,0,6,10,-1,-7,1,-13,2,-12,11,2,14,-9,-31,-10,0,4,14,3,12,-6,5,-6,7,30,14,25,-33,14,3,-7,-31,11,21,23,41,-30,32,-11,15,7,57,7,0,8,-7,-14,-3,11,14,2,12,-30,4,-17,-3,7,23,12,-16,-16,-2,-24,-1,12,25,-2,-15,-10,13,-11,-14,-8,0,-19,-7,-7,-1,0,-15,-19,-6,0,-10,1,6,4,-11,-4,-2,3,-5,-14,-12,-34,-11,14,9,16,-12,-30,-11,-17,-12,-44,6,12,14,11,21,-6,-11,5,6,12,3,-2,1,-1,-1,6,10,11,4,-2,2,-7,1,6,9,19,8,4,-5,0,0,11,16,15,8,7,-6,4,-4,8,16,19,3,6,-20,-3,-12,7,11,23,7,4,-11,-2,-2,8,4,25,12,2,-11,-9,-3,7,7,49,56,27,98,25,36,46,49,41,33,9,99,12,27,25,39,43,31,13,94,31,25,28,36,36,29,38,102,19,34,25,24,13,19,38,87,33,35,31,33,47,7,20,75,33,34,48,34,55,42,23,41,19,46,45,43,-3,-11,-54,26,2,3,27,12,-24,-33,-34,49,-37,-30,-49,-52,-50,-26,-21,52,-24,-51,-56,-69,-27,-14,5,54,4,-32,-80,-83,-41,8,33,57,44,-25,-89,-104,1,33,57,54,66,-6,-51,-101,31,49,90,93,82,13,-8,-63,39,69,119,111,95,78,1,12,36,68,113,103,71,27,-3,-16,0,0,0,0,0,0,0,0,5,63,77,73,50,10,-46,-15,20,24,22,-56,6,30,31,14,10,10,-7,-128,-4,6,19,15,12,9,-7,-263,-7,9,12,12,11,12,-9,-254,-13,6,5,5,14,7,-6,-173,0,8,5,6,0,0,0,0,0,0,0,0,28,41,47,27,13,42,38,53,26,38,11,12,2,43,25,-5,15,41,35,-34,9,36,13,7,15,24,17,-54,13,15,8,1,-4,-3,-1,-85,0,-6,0,-9,-7,-15,-9,-124,-9,-22,-12,-15,-32,-17,-13,-100,-14,-16,-10,-18,-37,-38,-37,-37,-25,-16,-15,-15,-6,26,7,8,-10,30,-3,13,2,11,18,4,20,5,-4,-2,-9,19,22,-31,17,9,1,1,2,17,31,-56,12,5,10,3,0,24,9,-73,-9,15,17,18,15,10,-6,-77,-4,0,9,23,12,0,-7,-80,-10,7,-4,13,-8,-11,-21,-26,-6,-6,12,3,19,6,5,71,11,10,21,12,20,23,27,41,17,10,25,25,21,27,27,54,11,21,25,14,27,24,21,50,13,13,15,12,18,26,21,63,25,17,19,9,7,18,24,102,23,17,11,6,13,9,30,114,30,12,5,0,19,18,25,122,24,12,2,3,2,14,20,28,23,-2,20,37,-10,-1,10,2,4,36,35,18,-6,3,11,-5,17,50,18,16,-2,2,8,-2,7,20,15,23,15,10,3,16,-2,10,12,-1,10,20,8,32,1,8,12,11,12,9,14,36,11,10,-10,5,18,-1,3,45,19,11,-1,5,68,38,32,3,33,48,51,89,85,42,59,24,40,55,62,75,36,49,26,10,27,45,72,56,60,38,-26,-35,-13,35,53,44,3,0,-46,-196,-45,-4,11,15,-12,-22,-47,-158,-58,-22,-4,-1,-11,-14,-29,-104,-33,-19,-21,-14,-10,-10,-16,-74,-26,-22,-22,-21,0,0,0,0,0,0,0,0,17,36,2,9,12,2,2,1,25,27,26,-4,17,-9,-2,3,-11,9,0,-7,1,-13,10,-18,-24,-39,0,20,11,4,14,8,-4,-29,-41,75,44,22,30,35,0,13,-36,118,65,-56,-1,49,0,0,0,0,0,0,0,0,53,23,64,31,22,13,13,26,54,17,29,-6,15,5,0,14,-4,38,-1,33,24,0,-9,10,-1,55,-25,20,11,-13,20,-21,72,-49,43,16,42,-35,9,6,49,67,41,0,9,-17,0,-41,22,2,36,-4,-14,-22,-3,34,-47,24,-27,50,-24,0,-73,16,31,41,23,13,22,22,-10,27,-8,27,-16,18,14,25,17,18,-19,37,10,-10,26,10,-23,21,53,-12,-23,-25,4,-14,-9,14,-40,13,10,-11,5,-6,48,-33,36,-5,-20,3,-13,-23,-4,7,-26,14,-38,20,-12,-42,-4,-33,-10,-52,2,-19,-45,26,-2,43,11,17,63,14,24,27,-6,21,3,23,42,30,2,7,-13,6,-12,21,38,16,-10,45,-25,39,13,21,67,0,17,15,-36,9,-7,17,74,-15,13,-1,-69,3,-11,49,24,-3,-16,27,-10,24,-29,29,82,57,51,50,21,49,14,23,60,25,28,98,32,50,39,83,95,54,47,89,70,93,47,95,56,71,48,64,74,71,0,73,65,59,36,88,22,110,101,30,91,49,101,85,78,127,36,97,83,86,111,132,121,121,72,86,81,69,78,118,90,122,-18,15,56,97,82,87,102,108,-10,-62,49,-36,36,50,52,90,-27,17,18,6,26,10,7,8,-36,4,-17,18,16,0,-7,-17,-77,-57,-9,6,6,12,-34,-26,-127,-92,-2,2,4,-8,-24,-43,-80,-58,-34,-35,-20,-13,-13,-43,-114,-57,-43,-23,-45,-17,-24,-11,-70,-41,-13,-44,-13,-21,-54,14,-118,-54,15,-24,-35,-31,-26,-62,0,0,0,0,0,0,0,0,-54,-83,109,-124,69,96,-89,114,-53,30,39,-33,46,7,6,13,-48,50,11,-35,18,0,5,14,-30,26,3,-18,3,-2,4,10,12,-2,7,-19,4,-15,7,-2,18,11,54,-22,27,-1,17,6,0,0,0,0,0,0,0,0,-5,-10,15,10,17,23,-74,3,-58,66,59,-23,39,-47,-19,-75,-19,-121,22,-74,35,-31,-46,-31,-30,28,30,2,-26,0,-17,-32,-15,14,-41,1,-44,6,-41,2,-10,-28,7,1,-12,-13,-40,3,-25,-14,4,-31,-7,-36,17,-29,-19,-11,10,-25,-8,-33,-12,-32,-19,-10,-17,11,32,-11,16,-55,-40,-25,3,-31,-6,32,-185,-21,-27,11,37,-45,1,-31,1,-18,-36,70,9,8,-73,10,-23,-27,33,-36,38,-46,-18,-30,-59,-22,-23,-23,-4,7,-19,-24,-40,-22,-29,-24,13,-25,-10,-12,-23,-7,-40,33,-14,-3,-54,-16,-13,-47,-47,-73,-7,-214,-76,-26,-88,-68,-11,-14,2,-56,-12,-38,-44,-67,-10,31,-1,-13,-3,16,-38,-51,15,27,11,-35,-28,-35,-24,-89,-51,-21,-38,-82,-84,-76,-76,-92,-49,-57,-14,-71,-62,-48,-82,-72,-31,-7,-50,-48,-51,-70,-48,-60,-24,-29,-12,-60,-59,-56,-53,-74,-32,-95,-53,-170,-107,-14,-87,-67,-67,-41,-42,-164,-60,-63,-142,-62,-43,-14,-9,-102,-38,-51,-51,-64,-14,7,-1,-68,-136,-30,-98,-70,-27,-44,-9,-103,-99,-112,-108,-99,-53,-34,-29,-53,-85,-65,-148,-68,-31,-32,-32,-33,-59,-75,-109,-83,-41,-9,-42,-41,-75,-60,-87,-94,-184,-206,-1,-33,-89,-78,-159,-6,-32,-149,-10,-41,28,-20,-172,25,-14,4,11,24,37,15,11,-14,27,126,53,28,29,34,33,18,74,65,55,-7,2,-3,-4,32,46,19,-23,-23,-18,0,-6,-1,-24,17,12,-12,1,3,1,-2,-25,4,2,0,-26,10,-12,-5,0,0,0,0,0,0,0,0,26,24,11,26,25,19,19,18,22,25,28,28,23,28,10,15,17,23,22,28,26,17,10,17,-13,8,-3,19,0,-7,6,7,-117,-121,-268,-94,-45,-19,-39,-22,-237,-281,-248,-208,-108,-63,-80,-65,0,0,0,0,0,0,0,0,36,49,37,46,23,49,53,43,49,62,43,47,55,55,36,46,38,46,41,35,42,31,32,38,40,13,31,18,48,17,51,13,-22,7,6,22,5,26,0,38,-50,9,-51,-72,-98,-26,9,0,-169,-174,-51,-83,-54,-64,-122,-63,-184,-196,-218,-214,-168,-95,-39,-100,44,45,39,35,56,26,26,44,40,62,15,38,23,53,33,37,48,24,30,15,34,18,23,40,22,38,11,32,-5,29,19,35,10,-3,22,17,35,-10,32,-31,-165,-10,-279,1,10,27,-27,9,-4,-231,-72,-235,-61,-54,-8,8,17,-120,-236,-277,-59,-95,-97,8,28,26,45,22,44,36,67,57,26,37,25,4,21,55,64,67,31,36,12,52,33,26,57,73,40,37,39,25,46,55,80,83,18,25,27,22,41,33,58,84,-6,-207,-26,-35,-1,-15,37,32,-229,-245,-136,-215,-229,-93,-69,-24,-251,-252,-238,-276,-243,-187,-137,-206,62,61,93,58,88,92,109,68,52,83,60,63,62,113,89,63,59,46,45,64,65,37,67,60,52,53,23,59,30,66,41,46,-6,10,6,-6,41,8,42,11,-23,-116,-82,-9,-10,30,-15,10,-187,-140,-148,-175,-191,-80,-52,-56,-264,-157,-232,-233,-162,-235,-144,-154,22,43,27,7,-7,-8,2,5,55,37,16,14,8,0,7,-6,34,34,26,28,21,7,-3,-17,27,43,36,32,9,1,13,-10,17,0,9,6,-3,-10,-12,3,-28,20,5,-10,2,-6,-36,-23,-56,0,-4,2,3,60,76,-10,-6,-155,-196,-50,36,59,32,-59,0,0,0,0,0,0,0,0,54,88,67,31,51,23,54,52,27,20,1,-2,2,0,-10,-2,-2,2,3,2,-14,-13,-4,-8,-5,-9,-15,0,-12,-16,-15,-7,-3,-13,-14,-11,-5,-6,-6,-4,-4,0,-22,-6,-39,6,-31,-2,0,0,0,0,0,0,0,0,-25,-55,-176,-181,-188,-45,-38,-27,-45,-105,-121,-114,-157,-131,-100,-21,-61,-45,-35,-230,-49,-117,-36,-68,-53,-19,-19,-13,-35,-65,-51,-40,-29,-1,-15,-19,-27,-38,-27,-60,-39,-41,-17,-20,-27,-32,-54,-30,-53,-60,-45,-65,-47,-37,-37,-48,-68,-37,-35,-12,-39,-33,-52,-42,-34,-92,-115,-112,-73,-82,-97,-29,-58,-67,-82,-100,-92,-98,-57,-44,-111,-35,-34,-53,-65,-54,-41,-58,-14,-13,-24,-28,-44,-62,-23,-58,-13,-8,-26,-3,-22,-58,-50,-51,-30,-19,-2,-45,-45,-32,-51,-43,-56,-45,-53,-44,-62,-35,-59,-44,-32,-46,-43,-50,-27,-65,-8,-71,-129,-284,-190,-170,-163,-207,-157,-122,-101,-146,-159,-201,-180,-133,-134,-90,-78,-99,-95,-77,-102,-108,-103,-93,-42,-65,-48,-59,-78,-82,-75,-69,-29,-38,-35,-31,-58,-72,-81,-80,-39,-5,-29,-22,-43,-54,-80,-42,-32,-54,-39,-31,-38,-54,-48,-61,-37,-41,-43,-44,-57,-43,-59,-44,-50,-151,-187,-173,-174,-189,-190,-78,-108,-196,-159,-221,-165,-189,-150,-113,-91,-109,-85,-105,-132,-154,-123,-99,-62,-64,-63,-91,-122,-111,-101,-107,-82,-56,-52,-60,-84,-108,-102,-108,-85,-26,-43,-78,-74,-101,-102,-77,-81,-82,-94,-102,-92,-106,-77,-107,-69,-86,-73,-102,-99,-98,-86,-84,-218,-159,-182,-146,-173,-165,-258,-247,-149,-98,-97,-103,-144,-146,-273,-102,-126,-71,-95,-87,-170,-159,-142,-139,-80,-62,-84,-91,-109,-145,-148,-163,-48,-31,-31,-28,-48,-59,-71,-116,-18,56,29,-2,-8,-20,-40,-49,64,53,62,29,-2,-11,-2,-23,24,55,48,23,10,18,34,13,0,0,0,0,0,0,0,0,30,26,32,27,49,55,44,38,36,42,47,49,57,51,49,44,44,55,56,56,56,55,50,44,47,57,56,54,51,50,46,43,51,63,51,47,38,38,35,44,48,101,81,53,76,43,86,43,0,0,0,0,0,0,0,0,-44,-67,-40,-50,-36,-35,-37,-39,-43,-48,-40,-42,-43,-40,-42,-38,-38,-42,-45,-46,-42,-41,-41,-38,-51,-43,-44,-44,-45,-41,-40,-41,-45,-51,-44,-42,-40,-39,-42,-46,-43,-48,-43,-39,-46,-45,-47,-41,-43,-36,-44,-46,-44,-48,-42,-42,-50,-43,-40,-46,-47,-42,-47,51,-55,-63,-57,-59,-56,-58,-55,-58,-44,-52,-50,-47,-45,-46,-44,-44,-46,-46,-37,-46,-44,-48,-43,-49,-53,-53,-47,-46,-48,-44,-58,-52,-45,-53,-53,-47,-46,-51,-53,-51,-45,-57,-57,-49,-54,-52,-57,-48,-47,-54,-51,-53,-51,-52,-49,-52,-50,-54,-47,-49,-52,-51,-49,-51,-68,-70,-69,-70,-65,-64,-60,-71,-81,-82,-75,-79,-77,-77,-67,-59,-79,-84,-82,-83,-81,-83,-72,-71,-82,-81,-81,-81,-80,-82,-79,-73,-83,-78,-75,-80,-75,-76,-76,-78,-79,-81,-79,-75,-74,-74,-72,-73,-75,-78,-74,-72,-70,-75,-69,-69,-79,-82,-82,-81,-81,-83,-79,-77,-139,-134,-132,-68,-124,-81,-110,-114,-66,-89,-108,-95,-105,-65,-64,-92,-97,-52,-45,-35,-72,-60,-24,-49,-75,-78,0,-45,-58,-68,-9,-61,-69,-82,-67,-33,-83,-68,-51,-26,-86,-76,-74,-66,-68,-75,-78,-45,-121,-89,-61,-79,-89,-103,-79,-80,188,202,161,160,176,214,197,199,-13,-14,-18,-15,-13,-15,-11,-12,-6,-15,-16,-13,-14,-15,-17,-12,-6,-7,-12,-12,-14,-14,-12,-13,2,-2,-3,-14,-12,-8,-5,-7,9,4,0,-8,-8,-1,0,-1,9,9,3,0,2,7,8,7,14,6,7,7,9,11,15,23,10,11,0,11,2,8,3,21,0,0,0,0,0,0,0,0,87,104,100,89,93,78,88,66,91,97,97,90,92,93,89,88,90,100,92,91,89,95,99,92,90,100,91,91,96,97,96,90,72,83,80,83,87,89,87,84,67,60,70,61,82,83,77,80,0,0,0,0,0,0,0,0,44,55,52,44,48,38,53,78,49,63,50,59,54,54,51,54,60,60,61,58,56,55,54,57,59,54,59,57,58,56,54,52,57,56,56,54,53,54,54,57,57,55,52,55,55,52,54,62,64,57,55,57,55,58,60,59,57,59,62,57,60,65,70,65,66,63,74,72,72,62,58,64,71,68,69,75,74,72,62,59,80,66,65,66,70,62,64,68,70,63,59,66,59,61,65,66,67,59,61,58,54,63,60,65,65,60,59,57,58,59,59,62,55,48,57,61,61,61,56,65,54,39,64,59,57,62,48,66,121,116,120,125,124,117,115,120,124,119,122,124,124,128,128,128,124,119,124,124,122,123,127,128,126,123,128,123,125,126,126,132,129,119,121,122,121,124,126,133,132,122,119,121,118,117,127,133,131,127,128,122,119,127,133,145,127,132,129,121,128,128,133,127,424,440,330,283,313,504,408,473,164,191,208,194,182,176,190,189,183,196,197,200,190,189,172,206,211,190,200,209,194,212,206,214,194,181,224,221,193,198,221,203,192,206,196,201,186,183,197,194,181,187,177,171,162,178,157,152,157,156,153,197,141,174,145,141,-37,-18,-11,-11,-1,-2,1,0,9,-18,-3,-13,3,6,-2,7,7,7,0,3,5,7,6,7,-2,1,1,6,5,5,5,-2,-11,-7,0,3,5,0,0,-7,-15,-13,-10,-1,-1,-7,-8,-12,-23,-26,-15,-6,-4,-11,-17,-20,-33,-24,-16,-11,-18,-16,-27,-32,0,0,0,0,0,0,0,0,1,-3,0,0,1,0,0,3,-6,-7,-6,-4,0,-3,0,-1,-9,-10,-6,-4,10,13,0,-6,-7,-9,-9,-8,51,40,17,1,-16,-18,2,39,102,93,49,25,11,7,24,43,244,159,105,39,0,0,0,0,0,0,0,0,3,-13,-11,-12,-14,-16,-15,-8,-15,-11,-9,-7,-1,-7,-8,-16,-14,-10,-8,-13,-5,-9,-8,-13,-9,-15,-9,-7,-4,-5,-14,-14,-14,-15,-8,-9,-2,4,-10,-4,-11,-12,-8,-7,-6,-4,-10,-12,-39,-3,-3,-8,-17,-17,0,0,-22,-9,-12,-6,-7,-7,-9,2,-4,-14,-8,-10,-9,1,-18,-17,-16,-7,-21,-11,-9,-13,-5,-14,-9,-16,-12,-15,-17,-9,-6,-12,-16,-9,-15,-15,-15,-7,-4,-11,-11,-6,-14,-8,-7,-11,-7,-1,-15,-15,-5,-8,-16,-14,-7,-4,-11,-13,-11,-19,-15,-18,-20,-13,-8,-18,-17,-12,-26,-10,-28,-11,-5,0,-3,4,17,9,-4,-9,-4,-4,-5,-1,12,12,-3,-22,0,-4,-17,-1,18,11,0,-32,-2,-2,-8,3,10,7,-4,-30,-5,0,-9,0,5,4,-2,-5,-11,-4,-13,-4,-8,-3,-16,-14,-26,-23,-26,-10,-34,-22,-17,-17,4,6,2,7,-149,-23,-4,-3,-17,-85,-33,0,24,16,-65,-2,-2,0,-30,11,28,30,18,0,17,15,3,15,41,40,5,0,23,10,-15,7,23,18,-7,-49,17,12,6,-5,14,14,-14,-18,-18,-2,3,7,3,-1,10,-19,-15,-75,11,-6,-11,-2,-45,-22,41,11,22,1,65,76,70,22,2,6,15,13,15,18,17,10,2,9,12,10,11,15,12,9,2,7,6,4,3,6,7,5,2,3,5,4,2,4,1,-2,0,1,1,7,4,4,6,4,5,-19,1,15,6,0,2,-1,-28,2,9,14,6,0,0,7,-3,8,1,6,-35,-20,-5,14,0,0,0,0,0,0,0,0,-8,-22,-17,-16,-13,-33,-20,-9,10,-2,0,0,-3,-2,-3,2,7,0,0,-3,-6,-7,-10,0,9,4,2,0,-11,-16,-10,0,9,7,7,3,-55,-45,-13,1,12,7,8,-28,-154,-100,-33,-9,0,0,0,0,0,0,0,0,11,-5,0,-3,-9,-5,-4,0,-4,-1,0,-9,-7,-12,-10,-10,-3,-7,-7,-8,-10,-8,-10,-16,-6,-8,-14,-25,-32,-27,-27,-18,-14,-14,-15,-73,-73,-101,-91,-75,-12,-14,-41,-166,-166,-189,-165,-102,-28,-38,-236,-164,-119,-79,-244,-165,-1,-14,-57,-53,-208,-161,-116,-74,-30,-14,-20,-17,-16,-16,-12,-15,-87,-21,-20,-11,-15,-12,-16,-8,-145,-87,-27,-21,-11,-17,-11,-29,-230,-145,-83,-20,-18,-11,-29,-40,-22,-210,-142,-86,-30,-31,-57,-258,-10,-12,-197,-136,-103,-60,-262,-140,-13,-13,-15,-219,-153,-314,-117,-114,-1,-12,-24,-51,-310,-161,-132,-29,-36,-27,-28,-30,-115,-84,-80,-33,-27,-24,-20,-31,-158,-114,-84,-32,-29,-24,-26,-37,-169,-113,-84,-30,-33,-25,-26,-27,-156,-117,-73,-24,-45,-26,-27,-26,-152,-91,-62,-20,-54,-39,-38,-35,-165,-84,-57,-30,-73,-61,-64,-51,-94,-75,-60,-58,-118,-123,-117,-79,-181,-117,-120,-155,-58,-61,-74,-61,-182,-87,-72,-63,-72,-67,-75,-91,-127,-117,-54,-101,-79,-68,-77,-69,-122,-94,-107,-99,-71,-79,-70,-72,-105,-106,-97,-95,-69,-79,-71,-68,-96,-79,-94,-76,-81,-60,-81,-71,-111,-88,-97,-90,-63,-70,-70,-94,-88,-93,-88,-77,-77,-78,-83,-89,-133,-108,-98,-161,23,14,21,18,28,37,36,43,24,19,22,25,28,30,28,32,25,28,29,28,31,33,33,34,27,26,29,29,31,34,36,35,31,30,28,16,12,6,18,31,36,35,23,-36,-96,-67,-27,15,37,32,21,-157,-242,-191,-44,3,34,46,20,-86,-381,-256,-58,-3,0,0,0,0,0,0,0,0,-8,-10,-5,-9,-36,-11,-1,-8,-7,-5,-4,-4,-30,27,3,-14,-8,-15,-3,10,-52,180,-64,12,-7,-13,-9,1,-38,30,-30,-9,-15,-5,-4,-29,21,-9,8,-8,-8,-10,-35,-18,109,-120,107,8,0,0,0,0,0,0,0,0,-47,-38,-43,-44,-19,-43,-37,-52,-33,-37,-35,-37,-13,-32,0,-37,-34,-44,-25,-17,-52,-34,-42,5,-46,-28,-50,-30,-38,-1,-31,-40,-44,-29,-34,-10,-50,-13,-55,4,-37,-31,-42,-45,-7,-34,-38,-24,-12,-34,-83,-83,-21,-30,-35,-67,-35,-60,-65,-21,-34,-25,28,-15,-15,-51,4,-34,-15,-45,-31,-32,-14,2,-37,-1,-34,-20,-22,26,-13,-17,-14,-37,-2,-43,37,-20,-40,-23,-23,-29,-37,26,-15,-36,-16,-33,-38,-34,-35,-27,3,-17,-37,-20,-23,-2,-30,-10,-58,40,-54,-9,0,-34,0,-37,-11,-49,24,7,-30,-5,-38,-24,-32,3,-32,-45,-32,-38,-29,2,-33,-27,-46,-41,-44,-40,-37,5,-44,-60,-42,-39,-27,-56,-28,11,-31,-51,-33,-31,-28,-9,-10,10,25,7,-25,-47,-29,-47,-47,-1,-60,-39,-27,-32,-42,-52,-25,-39,-34,-47,-24,-37,-40,-60,-27,-30,-34,-38,-35,-43,-48,-51,-24,-57,-44,-56,-36,-39,-20,-30,-37,-14,-22,-22,-34,-37,-44,-19,-34,-19,-32,-1,-35,-39,-22,-48,-13,-12,-6,-33,-45,-43,-36,-16,-26,-17,3,-9,-26,-55,-50,-51,-42,5,-16,-10,-33,-46,-40,-14,-24,-13,-18,4,-32,-56,-18,-65,-46,-21,-45,-28,-10,-7,-33,-34,-55,-74,-35,-80,-9,17,17,18,14,3,8,18,7,-6,-10,-1,-14,-18,-3,-12,5,14,-12,-9,-21,-15,-14,-31,20,-23,-4,-23,8,-9,-19,-56,-24,-24,-29,-27,-75,-14,-61,-17,-4,-2,-34,-27,-96,-71,-84,-48,-7,-11,-34,-7,-72,-47,-64,-10,-139,-79,-60,-41,-17,-56,-23,-50,0,0,0,0,0,0,0,0,2,79,24,68,51,85,53,64,1,4,-2,3,-32,-18,1,8,1,10,-5,11,-13,-47,-18,8,4,5,-7,11,-241,37,-290,7,-3,8,0,-14,-2,2,6,-12,1,2,1,10,-14,9,-2,-4,0,0,0,0,0,0,0,0,8,16,-4,30,21,29,10,-18,11,25,5,25,33,30,21,22,11,33,2,16,-11,-11,21,-152,11,22,17,24,30,-39,16,14,36,26,18,27,-251,47,-254,0,31,27,9,21,-8,32,-42,41,21,25,21,3,39,-36,37,-19,20,21,31,4,35,-17,41,-19,-11,0,-4,7,23,-12,31,49,19,-11,11,32,15,40,8,-168,8,25,-1,13,16,16,-72,24,8,20,20,29,44,-166,28,1,30,16,29,23,-251,28,-304,-9,21,10,18,-40,26,1,-1,-92,16,31,-31,20,2,15,-12,3,27,-38,18,-5,17,1,10,-8,52,30,36,33,47,14,62,17,26,29,29,19,46,7,51,12,42,39,47,32,17,52,42,47,28,23,20,2,14,-35,-28,-32,24,33,20,10,-168,-75,-155,-8,36,22,19,15,27,-1,19,33,31,35,29,26,23,5,18,29,31,33,27,20,18,3,27,36,44,31,-67,36,11,8,59,34,32,26,26,42,42,42,1,49,49,52,45,39,34,9,7,18,30,42,26,21,25,-6,-14,-13,50,51,45,37,-75,-21,-219,39,34,44,41,6,41,-3,26,-43,48,39,8,40,28,33,17,51,42,16,37,30,39,13,37,45,15,-34,50,93,96,97,19,-74,19,-4,52,91,27,28,19,37,33,19,28,45,21,22,12,20,-27,-21,17,4,20,27,26,-65,-1,-4,-9,-26,16,22,-6,-46,7,-5,0,-34,-26,-31,-29,-46,-5,-9,-7,-2,-20,0,-14,-11,-1,-52,-58,-20,-21,-10,-19,-25,0,0,0,0,0,0,0,0,-7,-5,-7,-13,-16,-11,2,24,-4,-8,1,-5,-7,-9,4,26,-9,-7,2,-2,-1,-6,7,36,-5,-10,-16,-1,-19,-21,3,58,-4,-22,-53,-29,-6,-18,45,106,-1,-56,-103,-57,-214,70,229,98,0,0,0,0,0,0,0,0,-9,-11,-4,-6,-8,-11,-20,-10,3,0,-1,-6,-9,-16,-9,-19,-7,-3,-9,-2,-11,-9,-12,-16,-9,-11,-5,-9,-12,-16,-48,-21,-12,5,-2,-8,-20,-32,-42,-11,2,-8,-20,16,-27,-71,412,-89,-14,-3,1,-83,-72,414,40,-21,13,-23,-22,-12,-29,-34,-14,80,-31,-43,-32,-8,-23,-23,-28,-17,-44,-30,-33,-28,-17,-25,-18,-22,-36,-38,-25,-33,-33,-11,-13,-15,-2,-46,-52,-33,-31,-36,-13,-20,-26,-10,-51,-55,-36,-46,-26,15,-22,-32,-8,-33,-63,-27,-12,-7,-41,-24,-38,-11,-55,-58,113,-46,1,-31,-9,-22,14,-1,-16,1,-36,-34,-33,-35,-34,-35,-52,-39,-36,-33,-36,-30,-30,-34,-54,-47,-39,-34,-34,-30,-29,-28,-56,-38,-36,-38,-35,-37,-24,-30,-57,-44,-41,-46,-43,-41,-45,-28,-39,-44,-42,-44,-51,-43,-49,-36,-60,-47,-34,-42,-40,-42,-53,-51,0,7,-14,-44,-35,-27,-13,-14,-1,-4,-47,-52,-54,-47,-54,-51,-59,-60,-59,-48,-51,-57,-48,-56,-49,-70,-55,-57,-59,-52,-55,-48,-54,-59,-40,-67,-59,-56,-48,-54,-56,-67,-65,-46,-59,-65,-34,-60,-59,-61,-51,-54,-46,-51,-52,-92,-19,-69,-66,-52,-73,-35,-38,-48,-59,-111,-47,-55,-53,-29,-61,-25,-72,52,-4,-1,0,14,8,4,-4,-8,-11,-7,-5,11,0,0,-4,-11,9,0,4,7,9,9,1,-11,-9,-6,1,-5,1,13,10,17,-7,-8,7,2,13,3,1,11,31,11,3,13,19,7,-23,17,11,22,0,5,7,-12,0,-10,-64,0,31,50,-5,33,-7,-68,0,0,0,0,0,0,0,0,5,11,0,-18,5,21,43,27,13,1,-1,-9,4,14,4,10,4,2,-5,0,-3,-5,-6,13,7,-2,-1,-2,-8,-9,-8,15,3,0,0,-3,-23,-11,17,51,9,-2,-1,-5,-15,-2,49,73,0,0,0,0,0,0,0,0,-7,-7,-1,1,0,13,27,-18,-14,-3,-9,0,0,-10,-8,4,0,-1,5,4,-8,3,-5,7,-1,0,6,1,4,3,10,0,-1,3,7,0,8,3,5,27,5,9,0,10,5,21,11,8,-4,1,13,13,9,13,20,47,-25,0,-6,-13,12,47,57,32,1,27,18,28,31,13,8,-3,16,1,25,24,21,12,-2,-15,12,14,16,15,20,4,9,11,12,7,14,16,11,9,15,6,13,13,17,10,10,10,23,26,7,11,11,7,10,21,27,39,1,10,6,16,11,27,39,29,3,-9,11,4,10,39,58,48,29,11,15,17,9,21,26,44,25,20,20,24,16,20,37,29,34,19,24,29,19,26,47,38,33,30,22,33,16,19,38,30,35,26,26,23,27,24,39,24,30,33,26,41,28,42,48,56,38,32,31,30,24,35,34,47,33,34,29,25,25,53,42,-486,26,33,42,26,40,26,70,77,27,30,27,31,38,46,42,82,37,33,45,35,45,32,51,75,39,46,26,37,35,45,66,71,42,37,48,37,43,45,67,74,40,55,49,65,52,58,70,76,46,53,60,63,67,67,56,53,48,49,52,60,60,82,57,-451,-63,-59,-39,-29,-15,-27,-4,-23,-32,-63,-37,-32,-29,-38,-45,-23,-47,-57,-51,-41,-31,-34,-43,40,-51,-45,-44,-45,-29,-22,-8,12,-46,-36,-50,-46,-35,-27,-18,-2,-47,-69,-69,-53,-49,-31,-67,49,-43,-53,-74,-68,-43,-28,-6,46,-88,-95,-93,-106,-111,11,60,66,0,0,0,0,0,0,0,0,8,2,14,-12,14,-5,1,0,7,-13,23,-9,21,0,-3,-2,10,11,18,-24,14,-20,-4,-6,6,32,-27,0,-25,6,-16,-16,38,20,67,-205,81,-191,42,-41,51,0,48,-193,15,-124,82,-235,0,0,0,0,0,0,0,0,12,-50,8,-58,4,-34,-2,-4,-9,-24,-15,-33,-20,-17,-18,-10,-46,10,-66,8,-53,0,-33,-7,-50,5,-39,-12,-39,-21,-37,-27,11,-112,46,-156,105,-79,25,-87,-8,-4,-9,-63,-23,-76,-9,-21,-80,47,-8,-47,-63,53,0,12,-60,52,-50,30,-294,12,-51,42,-10,-13,1,-30,-1,-21,13,7,4,13,-3,0,-18,-13,-9,-2,28,-5,-25,-15,-31,-11,-26,0,1,-28,4,-36,-9,-33,4,-14,-31,6,-41,-1,-24,2,-1,2,-28,-21,13,-26,6,-63,7,-30,15,26,-35,-3,-35,-28,9,-45,-35,-4,-6,-65,50,-54,-7,-29,-47,-39,-45,-31,-27,-34,-18,-29,-19,-25,-52,-26,-48,-33,-56,-18,-29,-43,-53,-50,-27,-45,-47,-31,-53,-65,-62,-46,-59,-64,-85,-66,-35,-49,-41,-40,-41,-48,-64,-42,-33,-33,-70,-33,-65,-47,-66,-65,-20,-59,-35,-106,-44,-69,-53,-40,2,-39,-9,-66,-33,-53,-38,-61,-62,-69,-71,-79,-61,-61,-46,-48,-38,-25,-71,-43,-62,-43,-37,-23,-46,-65,-51,-66,-47,-74,-24,-52,-100,-74,-95,-41,-68,-55,-53,-79,-59,-101,-87,-73,-33,-83,-49,-82,-101,-76,-96,-84,-90,-59,-77,-51,-70,-101,-79,-148,-54,-154,-40,-87,3,-24,-58,-112,-49,-1,-34,-63,4,-45,-14,-3,2,-1,19,-1,9,22,-23,10,-19,24,23,39,-13,-49,-29,-17,-11,-6,24,10,-10,-25,-22,-18,-7,0,12,17,5,-7,-15,-13,-7,-3,-18,-11,-9,-35,-9,-4,6,1,2,3,-20,-2,-19,-15,10,-28,-13,-16,-5,-79,9,-19,1,1,17,-23,0,0,0,0,0,0,0,0,-38,68,-53,59,-58,10,-22,29,49,49,51,36,17,5,8,10,22,29,23,-15,8,4,13,9,23,8,5,-12,6,-1,-11,2,15,25,-27,22,-10,18,-16,2,17,15,7,8,7,1,-19,8,0,0,0,0,0,0,0,0,15,47,38,38,35,4,-1,-3,22,32,7,5,0,13,-7,-6,49,-6,41,39,25,29,6,12,41,6,54,-3,8,3,11,-9,22,32,-4,-12,-5,-3,5,-1,-1,36,-10,33,-10,3,-16,6,10,12,-4,10,2,-9,6,-4,21,16,26,-7,11,-5,8,5,-22,52,27,31,35,35,50,29,48,-26,-5,-16,-18,4,22,7,-8,10,29,-16,41,-15,1,8,19,12,-1,25,12,21,-22,-2,-18,-9,29,23,0,-3,-30,10,-8,50,-15,46,11,13,-22,6,22,36,34,-21,0,-14,5,14,15,22,34,-37,21,7,22,-8,49,0,18,-2,20,0,47,-15,73,75,80,47,76,63,68,40,42,22,39,-1,28,8,31,5,37,30,22,7,20,10,28,-1,23,44,14,17,2,24,34,19,1,28,-4,15,-5,32,1,-1,0,-7,54,-57,30,-49,51,4,-7,-6,24,-9,26,0,41,1,50,18,21,30,60,53,113,7,114,125,120,94,85,144,93,101,96,99,92,77,86,60,76,92,85,78,90,104,78,84,76,76,75,82,85,90,63,68,65,88,52,117,49,101,55,82,48,60,81,68,109,23,90,34,98,84,48,26,68,14,75,41,73,65,34,-10,53,-1,-37,-34,-13,-153,65,27,48,23,1,-55,41,-35,43,36,52,34,-9,-36,-18,-10,47,38,23,18,-1,-34,-35,-33,70,22,8,-7,-25,-34,-40,-24,49,41,-18,-10,-28,-17,-27,-36,19,22,22,-21,8,-26,-10,0,75,49,41,-10,14,-14,-2,-21,0,0,0,0,0,0,0,0,9,14,10,8,-166,-7,13,9,7,7,8,-11,-223,-24,7,0,4,6,12,-15,-113,-11,10,1,3,8,8,-13,-88,-11,8,0,0,16,26,-8,8,-9,27,11,31,9,24,33,33,-5,11,7,0,0,0,0,0,0,0,0,26,8,-16,1,1,-6,-27,8,-11,-2,-18,10,-53,0,-33,-13,1,0,-21,-20,-47,-21,-37,-6,10,9,-2,-30,2,-28,-10,-1,12,10,-6,-27,-1,-14,4,-4,23,25,18,-6,30,-43,14,8,17,26,10,11,42,24,-1,29,22,5,29,29,50,5,47,37,2,6,1,-14,19,-11,-32,0,-5,4,2,-5,-64,-27,-13,-13,6,-8,-6,-33,-40,-38,-20,-4,-2,-12,-32,-23,10,-10,-27,-14,-10,-27,-19,-26,7,-3,-4,-21,-19,-7,-7,-8,14,7,6,-2,-26,5,-1,-18,50,-28,18,3,4,-6,10,8,39,-11,-23,10,-8,-3,-3,-11,-57,-25,7,4,-1,-8,-9,-10,-88,-16,-1,0,-13,-7,-16,-13,-139,-12,-13,-2,-7,-9,2,-22,-69,-5,-6,4,-4,1,-9,-15,-95,-3,2,15,-2,-6,-2,-18,-92,-12,-3,3,3,-4,6,-11,-65,-3,3,-7,5,-8,0,-5,-26,7,12,9,11,23,19,-3,65,18,13,37,19,14,11,0,31,12,11,20,21,14,9,-6,36,-7,3,6,23,28,-1,-11,54,7,5,20,22,26,17,9,38,13,18,22,14,9,13,25,38,56,29,29,3,34,43,22,50,38,77,48,2,23,18,43,28,12,28,40,-57,-16,-10,-23,89,-21,-26,-24,-102,-45,-28,1,42,-22,-18,-29,-77,-69,-46,-27,24,-17,-24,-24,-69,-70,-59,-26,29,-12,-24,-30,-29,-60,-44,-25,-9,-31,-22,-32,-59,-19,-14,-39,0,-18,-8,-29,-14,-13,8,-149,-39,-128,-10,-86,64,-62,-17,-28,-63,-43,-43,10,0,0,0,0,0,0,0,0,-14,-365,37,77,255,48,63,33,4,-12,14,12,137,15,43,6,-4,2,0,-3,-111,-5,17,5,0,0,1,-1,-167,10,8,0,2,1,-2,-8,-186,0,1,-1,0,0,2,-1,-112,0,0,1,0,0,0,0,0,0,0,0,20,2,30,32,64,11,57,75,-7,20,23,34,19,21,39,58,-15,22,52,27,-10,36,82,22,17,8,18,43,-22,32,28,9,0,5,21,11,-23,4,18,9,-8,4,-4,3,-51,3,-2,0,-16,0,0,-5,-45,-2,5,-20,7,-11,-4,-5,-17,0,-14,0,2,4,26,-6,49,48,36,38,11,10,19,25,26,13,19,5,14,14,28,57,-15,34,48,29,11,33,44,25,-26,23,37,33,27,39,13,34,-41,25,16,29,37,20,19,1,-49,-3,19,9,18,17,3,7,-42,3,-6,14,12,8,7,-2,10,-9,2,-1,34,48,43,71,116,65,45,53,39,39,50,66,100,57,50,41,7,3,26,28,60,23,31,10,2,16,11,32,66,31,41,22,12,6,17,28,83,26,15,20,16,21,29,32,105,27,20,19,15,10,16,28,115,21,19,4,5,9,8,21,115,21,6,3,59,72,94,102,159,95,100,87,47,62,66,89,158,92,89,98,44,56,63,84,92,99,89,79,34,50,72,62,108,70,75,69,36,66,57,71,91,66,59,77,58,46,70,50,104,60,55,60,33,49,44,49,115,48,36,47,45,35,32,36,132,46,5,57,19,23,25,51,83,61,51,42,5,30,10,42,-28,43,21,72,-13,0,8,0,-10,44,43,40,-19,-28,-20,-12,-45,-6,4,-14,-18,-18,-21,-32,-40,-25,-8,-22,-19,-25,-25,-35,-60,-20,-17,-19,-11,-21,-5,-14,-44,-14,-17,-25,-16,-15,-8,-6,-7,-12,-19,-27,0,0,0,0,0,0,0,0,6,6,7,4,5,10,6,13,4,3,-4,-12,-17,-19,-10,1,2,2,0,-9,-6,-12,-7,-1,3,4,3,-1,-2,-4,-2,0,8,9,5,0,2,0,1,2,11,13,5,9,-6,-1,-5,-2,0,0,0,0,0,0,0,0,36,23,23,17,12,24,21,25,18,16,16,15,8,15,19,23,17,15,13,5,4,-4,0,10,20,25,13,11,11,12,13,18,21,17,17,14,19,13,15,21,30,24,30,20,19,20,24,30,28,20,25,24,27,41,14,10,5,11,5,42,45,-10,18,3,24,23,16,28,23,28,23,34,15,20,18,19,16,20,23,16,17,20,17,7,0,5,0,16,28,28,20,12,17,13,23,16,21,19,18,21,21,22,15,20,27,21,24,18,26,23,24,16,27,33,23,25,28,37,39,18,24,10,42,59,49,26,38,22,50,48,46,41,39,45,45,44,53,54,48,44,44,40,45,62,49,45,48,40,43,32,37,47,50,49,49,49,43,42,45,47,55,53,51,39,44,46,44,45,55,54,54,45,51,57,52,58,56,57,56,57,61,57,57,57,69,72,68,76,78,82,75,75,184,176,176,186,173,175,162,166,184,182,184,183,179,177,182,186,185,179,180,179,176,176,177,182,180,176,171,180,177,176,183,184,183,177,173,173,171,173,180,182,187,180,182,167,171,173,174,183,176,171,172,179,173,173,176,178,231,233,237,246,220,218,212,225,-74,-83,-73,-86,-105,-79,-99,-97,-78,-64,-46,-35,-34,-35,-54,-61,-14,-24,0,8,14,6,-4,-11,22,15,26,39,46,43,38,28,23,15,26,48,43,47,39,48,13,5,21,33,42,38,33,39,40,53,48,52,47,48,47,41,38,30,49,52,64,60,54,70,0,0,0,0,0,0,0,0,10,21,11,11,21,9,16,7,-5,-12,-5,-10,-10,-10,-6,-6,-1,0,-2,-7,0,-7,-5,0,0,-1,-4,-5,-3,-4,-5,0,0,-2,-5,-10,-8,-8,-6,-1,1,-2,-4,-15,-10,-6,-8,0,0,0,0,0,0,0,0,0,10,8,15,20,17,26,1,11,-6,-1,6,10,7,17,7,6,-3,-6,1,0,13,4,7,-3,-5,-12,-6,-16,3,-13,-7,-17,-7,-5,-5,-7,-10,-7,-7,-11,-13,-6,-7,0,-6,-6,-11,-9,-16,-15,-8,-15,-13,-10,-15,-15,-12,-20,-30,-24,-29,-28,-21,-15,-10,-7,-1,19,14,26,-2,-11,-4,-9,-4,-3,13,1,-3,-7,-8,-7,-10,-13,-13,0,-9,3,0,-11,-6,-15,-5,-10,-4,-10,-11,-3,-8,-4,-10,-6,-4,1,-2,-6,-7,-13,-8,-11,-10,-7,2,-9,-6,-11,-15,-11,-14,-4,-9,-17,-20,-33,-34,-25,-43,-20,-22,-15,-12,-9,-13,-3,-3,-1,-12,-12,-12,-9,-13,-4,-10,-3,-11,-11,-4,-4,-13,-4,-7,-5,-10,-9,-7,-10,-12,-9,-8,-11,-13,-11,-14,-14,-19,-8,0,-10,-26,-20,-25,-17,-25,-16,-16,-20,-27,-37,-33,-28,-34,-29,-25,-20,-19,-21,-20,-18,-21,-20,-12,-19,-79,-78,-73,-67,-55,-94,-49,-46,-69,-63,-57,-49,-46,-53,-62,-62,-73,-62,-59,-59,-59,-55,-56,-67,-65,-54,-56,-54,-51,-46,-50,-64,-71,-58,-60,-61,-56,-52,-48,-49,-67,-65,-67,-67,-65,-69,-60,-57,-77,-81,-75,-80,-77,-81,-70,-62,-78,-79,-84,-98,-88,-91,-67,-62,-74,-289,-70,-64,-73,-68,-122,-122,-67,-67,-74,-58,-53,-64,-70,-47,-67,-61,-57,-40,-44,-43,-48,-42,-56,-45,-36,-34,-18,-19,-27,-28,-43,-35,-21,-15,-4,-1,-14,-19,-29,-22,-16,-7,-4,-4,-10,-18,-30,-24,-12,-11,-7,-5,-8,-10,-10,-14,-7,-10,-6,-10,-5,-7,0,0,0,0,0,0,0,0,1,3,-37,52,-51,-11,3,4,9,5,-304,47,-280,1,5,1,8,16,3,72,-4,6,8,4,6,8,13,-9,-5,7,7,3,5,13,3,5,11,6,6,-2,1,-7,-82,69,-46,-6,-24,-9,0,0,0,0,0,0,0,0,-29,3,-5,2,-6,-1,-21,11,-7,25,-87,5,-73,3,1,-5,-10,-71,-20,30,-14,-58,-6,5,-1,2,6,64,1,0,1,-7,-14,-70,5,-9,-17,-58,-4,5,2,17,-151,-1,-90,-1,8,7,-2,9,18,15,11,-1,14,-2,5,-6,-4,30,4,22,-15,28,-90,3,-15,-2,-6,7,-43,-1,-2,-80,13,0,12,-82,4,20,-5,13,-87,25,-79,18,-6,13,-3,-19,7,54,-1,-12,6,-12,-11,6,-66,-12,-73,23,-11,8,22,-49,13,0,17,-79,7,-12,-10,19,12,14,-10,10,-27,8,7,8,14,24,7,16,6,-88,24,9,-2,0,-8,0,19,13,5,10,3,-6,2,3,8,13,0,8,0,-22,6,10,-3,4,-3,3,-14,43,-24,-21,-6,11,8,16,0,-22,-6,14,7,15,8,11,8,-9,15,16,10,15,12,7,6,1,2,6,12,17,10,12,3,35,15,10,14,15,18,16,-1,-4,0,17,16,26,4,-3,11,1,11,-3,12,16,15,2,1,1,0,25,10,22,6,3,0,37,-8,2,13,11,13,22,-22,-6,-23,15,4,3,19,3,24,2,9,1,20,7,13,26,23,23,36,20,11,6,5,20,-7,29,0,28,4,9,18,-20,-1,8,0,-8,7,-28,-18,-1,2,5,7,2,-15,-8,-15,-3,-38,-20,-33,-4,-6,-36,-12,-10,-22,-4,-17,-9,-7,-3,-42,-6,-24,-20,-19,0,0,-21,0,-28,-3,-16,-2,-16,0,1,13,-22,2,-8,-4,-3,16,14,-9,-48,-175,11,-141,9,-1,12,0,0,0,0,0,0,0,0,34,31,48,-13,18,-40,4,-5,4,11,24,4,9,25,17,-8,4,5,12,-278,8,4,7,-6,-4,-2,22,-37,4,-5,-5,-5,-3,-5,0,-26,2,-14,0,-6,-2,-2,1,-33,2,-3,0,-7,0,0,0,0,0,0,0,0,36,5,26,-21,33,-28,21,-13,16,-6,96,20,96,-1,-15,17,10,83,-6,-13,-10,70,22,-22,-6,11,3,166,-1,3,1,0,4,85,6,-20,4,55,12,-10,-6,-13,64,-11,53,-17,-8,-10,1,-11,1,-20,0,-6,2,-11,-12,-2,-25,7,-8,3,-10,-12,83,-6,25,1,-5,-8,88,-14,2,66,-7,29,-7,63,-40,-26,6,5,63,-3,62,-13,14,-10,-9,13,2,200,-12,5,9,21,32,-5,87,-16,56,-11,30,-8,-13,66,-8,-7,-9,48,-13,19,79,-11,22,-23,13,-4,45,-15,-8,3,-18,18,-17,8,-5,47,19,18,-4,49,4,20,10,23,21,11,10,31,1,3,17,19,17,26,5,50,-4,13,15,17,21,16,47,172,50,22,14,16,-14,-10,-7,29,-9,1,-9,-1,-12,-18,-13,25,-6,-10,-4,-4,-1,-8,-5,17,-4,-3,-5,0,-9,-4,-8,22,0,1,-4,-7,109,7,24,30,26,19,33,34,33,33,16,45,34,30,28,34,15,33,56,57,46,38,49,35,30,33,47,141,49,43,33,39,5,6,43,44,45,13,15,30,3,29,12,21,16,22,5,20,23,6,1,6,3,11,20,11,12,7,-7,10,0,0,-1,36,-81,-112,-58,-57,-50,-67,-92,-61,-46,-74,-23,-39,-21,-30,-18,-44,-36,-14,-18,5,3,-5,-14,-25,6,-2,3,-188,7,-4,-13,-17,-24,-3,11,20,1,-7,-5,-3,-16,-19,-9,-18,-10,-20,-2,-7,-19,-8,-4,-12,-4,-4,-6,-3,-19,-5,-4,2,-1,-2,-2,-5,0,0,0,0,0,0,0,0,15,-5,-2,10,-15,-10,-18,-3,7,4,-11,21,-29,-2,-23,-11,11,-13,0,-4,-30,-32,-32,-43,36,-147,28,-38,-13,-43,8,-49,60,-200,76,-109,31,-65,66,-40,30,-152,42,-134,78,-81,-222,-111,0,0,0,0,0,0,0,0,-44,-11,-39,-8,-19,2,-20,-1,-16,-6,-17,-10,-25,-11,-16,-17,-21,-42,-23,-26,14,-29,1,-10,-25,-9,-13,-13,-67,-3,-15,-12,22,-65,-31,-14,-6,-11,-18,-23,-2,-50,51,-41,-31,-42,-27,23,8,-136,-28,-41,-28,-77,-26,-28,-58,-35,2,-25,-28,1,-26,19,-20,14,-20,-14,-25,-8,33,5,7,-30,-11,-29,-10,22,11,10,-38,-30,-4,-7,-5,-5,17,-5,-16,-38,-20,-45,7,6,-13,31,-37,-36,-57,43,-41,-8,-18,-16,-11,-43,30,-65,17,-45,44,-26,-45,-38,23,-84,-33,-15,-53,32,32,-27,-42,-58,-19,-112,25,-51,-24,-31,-18,-26,-50,-51,-18,-37,-14,-33,-31,-34,-35,-10,-25,-51,-48,-63,-15,-34,-17,-31,6,-12,-38,-72,-43,-19,-34,8,-6,-39,-93,-87,-52,-56,-50,-32,6,-37,-59,-65,-18,-54,-69,-33,-7,-31,-36,-66,-22,-64,-44,-36,-23,-64,-7,-26,28,-48,-17,-16,-37,-41,-39,-50,-52,-45,-65,-88,-42,-53,-10,-44,-34,-53,-34,-17,-23,-33,-53,-45,-45,-50,-7,-54,-16,-71,-39,-85,-40,-78,-28,-6,-54,-52,-83,-96,-52,-72,-92,-81,-18,-116,-47,-45,-17,-75,-77,-103,-58,-79,-80,-92,-2,-121,-59,-117,-71,-102,-75,-26,-23,-61,-54,-48,-92,-141,8,2,10,-43,-38,-3,0,-70,18,17,5,-25,-11,20,2,-5,18,-8,-4,-18,6,19,40,4,-26,-5,0,1,18,33,38,41,11,-9,19,37,2,38,7,41,151,158,157,86,61,29,19,89,149,251,152,111,56,45,17,42,191,163,155,117,68,45,-79,171,0,0,0,0,0,0,0,0,15,-39,-42,-16,12,-423,-65,85,-16,-22,5,4,30,45,36,23,9,-16,-7,25,44,43,-24,23,6,-5,3,17,19,22,43,24,-12,-29,26,20,5,24,33,13,-1,-4,-2,30,35,11,3,19,0,0,0,0,0,0,0,0,1,24,57,74,12,42,34,5,48,-34,22,-18,86,35,26,-323,0,15,67,15,-19,-36,-36,90,7,25,-16,3,18,30,-2,-5,-17,43,2,44,5,-2,42,27,53,-26,34,-16,22,-6,49,19,21,-30,19,-22,60,1,15,20,23,12,8,14,8,15,16,33,23,-5,43,22,41,30,87,-47,-26,-6,-54,51,-35,29,29,63,21,-3,-1,-7,101,-15,50,31,7,-5,-30,56,14,74,-22,46,23,5,56,2,55,-8,80,14,-1,-7,-4,41,9,38,8,41,106,-26,53,21,23,-8,24,-45,-15,64,19,19,12,7,-31,32,7,-28,11,-25,-16,73,20,-59,51,23,46,50,61,46,36,-21,44,12,66,33,8,39,25,-4,43,-4,48,-1,30,-1,17,-5,7,9,53,-12,13,-9,25,16,38,2,31,10,2,24,24,-20,23,37,28,18,16,-21,-5,4,5,17,37,-3,28,11,-1,15,65,5,40,59,68,99,49,-42,82,42,43,66,44,53,38,12,98,94,71,41,65,58,39,72,84,51,28,68,55,57,41,42,77,45,104,36,78,47,77,101,89,50,50,89,71,84,62,98,101,51,54,92,59,35,36,49,36,59,56,50,41,31,29,63,-131,19,80,31,-299,-299,75,-40,82,56,70,83,36,76,65,-259,61,46,31,45,34,44,54,51,-16,2,3,10,29,28,42,46,-15,-17,-15,6,9,34,45,45,-24,-31,-19,1,-2,24,40,19,-8,-7,-5,30,-10,17,-13,21,-38,-30,8,9,5,6,-17,-16,0,0,0,0,0,0,0,0,-29,12,-38,12,-1,2,11,-4,-20,3,-19,12,-1,1,6,-5,-8,8,-19,16,-1,5,-9,-4,-71,40,-96,26,-16,0,2,-11,-54,89,-91,43,-102,35,-82,39,-50,48,61,58,24,67,-281,102,0,0,0,0,0,0,0,0,-35,-42,-47,-43,-26,-26,-26,-38,-36,-41,-32,-27,-32,-28,-31,-16,-61,-30,-50,-41,-32,-18,-21,-25,-104,-23,-95,-14,-35,-31,-41,-15,-85,-31,-110,-63,-75,-4,-39,-5,-44,-102,-56,-232,-52,-53,-56,-44,-48,-27,-76,-122,-35,-103,-91,-12,-11,-8,9,-21,-6,-3,21,-30,-79,-70,-43,-30,-17,-39,-22,-11,-64,-44,-85,-23,-45,-5,-32,-16,-73,-75,-33,-49,-35,-39,-22,-29,-75,-74,-106,-68,-37,-21,-43,3,-32,-64,-63,-86,-47,-72,-37,-64,-88,-30,-76,-43,-102,-68,-94,-15,-1,-12,-62,-59,-34,-75,-117,-29,-37,-13,-46,-42,-92,-24,-114,-50,-64,-47,-89,-42,-61,-26,-42,-63,-54,-53,-73,-76,-65,10,-54,-61,-86,-61,-114,-56,-57,-63,-51,-45,-61,-68,-99,-59,-85,-45,-61,-77,-64,-65,-80,-48,-72,-47,-59,-66,-36,-32,-75,-55,-64,-56,-74,-53,-45,-37,-73,-37,-76,-48,-80,-68,-60,-74,-60,-65,-95,-93,-168,-92,-79,-71,-64,-46,-45,-38,-76,-47,-63,-61,-62,-52,-49,16,-60,-33,-93,-95,-110,-61,-37,-44,-59,-34,-123,-95,-93,-108,-74,-43,-64,-35,-60,-81,-110,-61,-103,-50,-65,-49,-61,-44,-72,-79,-46,-79,-70,-61,-34,-6,-79,-24,-77,-69,-133,-40,-73,-49,-22,-55,-83,-74,-111,-101,-68,-44,-43,18,12,35,-2,12,-53,-54,-43,-10,7,49,13,17,-32,-80,-27,-14,5,3,12,18,-24,-28,-41,-12,-5,3,-16,2,7,-27,0,-25,-23,-19,-5,-31,-75,110,-24,-31,-139,-6,-78,0,-93,98,-134,-22,-152,-21,-196,75,-80,-17,-42,-45,-98,-145,-157,153,0,0,0,0,0,0,0,0,62,61,121,-26,-19,-97,-63,-39,59,58,52,13,18,6,20,22,29,31,-9,-3,2,10,-4,-1,19,-47,16,1,11,6,29,0,15,32,4,16,6,6,24,11,22,8,24,2,12,12,14,12,0,0,0,0,0,0,0,0,50,-52,14,34,-252,-171,-178,-41,1,29,0,18,-116,-1,-137,-24,27,-25,62,-4,32,-86,30,3,33,21,13,-31,32,32,39,-35,27,-43,60,8,22,14,-4,15,6,41,-2,26,6,17,30,17,4,9,17,11,33,51,9,32,17,13,28,17,19,17,18,41,27,31,14,18,-1,-155,-26,-9,40,0,61,-3,-17,-26,-32,-17,-22,3,23,57,50,-82,66,4,32,3,53,32,36,33,21,35,19,8,67,-2,36,37,19,12,54,110,16,16,28,20,40,10,-33,57,6,53,34,48,17,12,27,5,42,32,33,19,-21,38,-12,37,1,33,-115,20,-183,9,29,78,34,74,17,14,-12,45,27,45,43,64,27,56,-29,43,9,64,31,55,24,59,-19,38,33,45,42,35,31,27,0,56,23,99,23,50,30,37,31,44,40,51,35,67,30,94,-3,37,49,39,43,41,44,45,6,55,-109,-149,-134,-21,-5,-100,-43,-82,62,39,90,59,39,-68,-27,38,26,77,41,87,72,38,43,42,73,52,84,79,61,63,48,61,-4,81,89,68,51,63,36,67,53,122,58,64,79,59,76,89,28,90,49,92,63,109,39,54,54,57,69,72,60,74,40,70,30,25,12,-18,-68,-53,-66,-89,39,40,103,20,-40,-50,-65,-159,43,38,4,3,-37,-19,-43,-36,21,23,10,-3,-19,-14,-34,-48,0,3,3,-16,-12,-25,-13,-52,-14,14,1,2,-5,-14,-8,-17,0,35,13,30,7,3,-8,1,7,33,16,38,8,4,-5,0,0,0,0,0,0,0,0,0,-10,-26,0,-477,-8,-53,-23,-12,-11,-24,-7,-8,-26,-26,-21,-7,-8,-20,-6,-7,-12,-14,-11,-9,-9,-16,-15,-10,-12,-20,-13,-15,-10,-6,-31,-22,-16,-38,-3,-14,-23,-69,-58,-130,-43,-80,-67,-53,0,0,0,0,0,0,0,0,28,2,44,27,20,3,22,13,43,17,14,-479,21,4,0,12,12,13,19,18,0,10,9,20,15,10,-4,27,-1,6,-3,10,-1,4,13,10,22,-12,12,6,0,9,-2,-9,-34,-5,-5,9,-2,5,1,-33,12,23,-6,4,27,15,9,3,3,30,-44,28,-15,2,-498,29,-29,24,-31,28,3,4,35,-504,18,-31,15,-18,-17,15,0,21,1,15,-11,18,16,-26,12,9,-7,6,4,-9,-17,3,-17,1,-2,-12,-11,13,1,-6,-4,-24,-9,2,-8,-254,1,17,-16,-15,-27,-9,-3,-33,15,9,2,-19,-3,-33,-12,-18,-4,-8,15,-21,2,21,10,12,-6,-29,-9,-136,-38,0,-5,-5,15,0,22,42,-12,0,-9,3,0,-16,12,39,-13,-5,-1,7,-17,-7,9,23,-2,-2,-8,7,-9,-12,4,11,-8,-7,-13,-6,-13,-16,-5,-7,-4,-13,-18,-6,17,-12,14,9,12,0,-1,14,27,17,-50,-4,5,40,37,24,-4,0,0,-378,-27,-13,-5,-10,20,19,10,21,-3,9,23,0,13,-18,27,32,-11,-8,10,2,-19,12,14,-4,12,-1,-16,16,25,8,-8,2,-16,32,0,-15,-15,4,-5,-4,-12,6,34,32,-11,6,23,-4,42,15,26,47,-59,-34,24,115,55,32,13,-2,-54,-30,29,-503,61,38,16,6,-42,-38,-9,55,36,17,14,-3,-21,-29,6,19,12,3,7,-3,-23,-14,-11,-3,-6,2,-7,0,-14,-21,-16,-23,-9,-19,21,-54,-41,-27,-48,-1,-51,-30,-26,-25,10,-48,-23,43,-98,-35,4,-31,0,0,0,0,0,0,0,0,25,34,271,-503,-80,63,7,28,25,37,-110,350,-173,75,60,23,7,-4,13,8,18,24,7,19,-3,0,0,-5,-3,1,2,15,0,-4,-2,0,4,6,-4,6,1,4,0,2,8,2,3,11,0,0,0,0,0,0,0,0,-10,-70,50,109,45,-107,-61,32,22,-1,73,83,40,-13,73,21,22,-102,-83,69,96,-91,2,59,48,1,14,-16,-15,40,46,-7,-6,5,-36,35,-15,22,5,13,-12,-7,-4,-11,-3,-12,9,2,-7,-5,-11,-2,-6,-6,0,-4,-9,-17,-7,-21,-8,-8,-10,-12,8,-14,-21,-57,-54,-32,30,1,22,67,21,0,21,60,25,8,37,1,-112,2,-20,15,60,12,-6,-38,19,56,32,-17,-10,37,-31,-18,17,21,30,-17,-19,-15,-8,15,-20,17,-9,16,-14,-4,6,-4,3,-19,14,-15,13,-3,-7,6,-19,-4,-16,8,-7,-1,10,30,98,-9,25,5,1,3,-2,14,17,27,0,-7,3,11,32,65,67,-7,72,42,22,32,9,26,43,-43,51,36,7,2,11,16,4,-26,-4,12,18,3,3,5,1,-36,14,-15,8,21,-7,9,-7,-29,-3,-3,15,10,-4,2,-2,-24,14,9,10,0,-142,89,248,-46,30,120,9,176,10,63,-6,77,24,80,119,38,41,30,-11,16,74,65,79,88,12,65,31,21,82,82,0,15,73,32,41,13,30,34,44,20,16,42,4,9,18,20,17,57,23,35,11,2,22,17,16,18,16,27,3,3,21,25,13,14,69,-5,-49,-83,-69,6,47,-115,42,-8,-26,6,-22,-4,22,36,31,-23,-22,-30,2,3,62,59,28,-8,-14,-9,13,14,35,46,41,0,6,-4,19,17,40,24,7,4,0,0,-6,11,19,32,-2,16,3,9,-2,6,10,25,3,0,19,2,12,8,11,7,0,0,0,0,0,0,0,0,14,13,17,7,-7,-18,15,6,15,36,23,-33,7,26,-14,8,35,29,14,19,9,-1,-11,23,40,39,26,8,17,17,16,15,25,28,33,2,35,49,10,36,-6,-1,52,-16,64,-65,48,30,0,0,0,0,0,0,0,0,-17,-8,8,-19,15,-30,7,-27,14,31,-6,-21,-41,-32,-4,-4,15,4,1,-23,-24,-7,-20,3,-1,53,-12,7,21,7,27,-11,15,-4,58,18,-8,33,-31,42,62,-8,79,5,116,0,32,-22,-24,74,32,79,-15,58,20,46,-25,32,57,9,78,22,28,-65,30,-28,9,-30,41,43,65,-15,-56,11,-30,43,0,2,-6,23,60,-26,57,-41,25,-13,28,1,-52,90,-34,81,-28,23,-35,34,68,-13,103,-60,73,-33,43,-43,-20,70,-20,78,-67,84,-72,87,76,-25,100,-33,104,-56,91,-19,-20,65,-24,103,-25,91,-53,32,3,1,-18,-8,23,-28,6,-15,1,-15,-27,38,-22,-33,21,-28,-17,-6,9,-35,-25,10,36,0,5,0,-40,21,9,-7,17,-13,35,-17,14,36,1,19,21,-4,42,10,16,29,23,-3,41,0,29,24,24,49,21,42,-19,28,19,-55,-33,1,-25,-28,7,-33,29,39,29,16,79,53,90,-1,30,13,29,90,25,36,88,27,36,31,69,0,39,37,87,15,2,69,9,80,63,32,37,43,74,18,43,20,69,37,65,19,45,39,34,46,22,50,14,75,32,26,55,45,40,12,0,47,8,-99,24,28,18,-10,52,-25,-14,-22,-12,-12,7,-21,-6,8,-9,6,-4,12,-43,-40,-16,-26,41,11,49,-28,-36,-14,-30,-35,34,87,34,38,-2,-4,-14,-33,83,71,78,40,29,25,15,-21,61,106,81,85,54,72,56,67,100,113,121,70,107,77,121,100,53,100,93,130,37,155,112,170,0,0,0,0,0,0,0,0,-33,-314,-46,-361,114,-388,-64,2,5,-50,-62,1,-16,-376,-15,-34,8,-34,2,-22,-14,-16,-28,-9,-15,-4,-32,-6,-8,-21,-15,-17,-33,-44,-38,-30,-16,-10,-15,-4,-14,-34,-28,-4,-9,0,-26,-10,0,0,0,0,0,0,0,0,-52,-143,-1,5,63,-47,9,-9,37,24,-10,-6,-24,8,65,-52,-1,-21,39,31,55,-115,-44,5,-7,9,2,-8,-57,27,45,-41,-4,-35,-10,5,19,-27,-4,-32,-4,8,-23,-5,-18,3,-12,3,8,-25,-13,1,-7,-15,-5,-3,-34,-11,-35,0,-32,10,-4,0,-17,14,-80,78,-100,77,-58,36,71,-62,51,-107,89,-76,72,-78,-51,53,-130,67,-65,46,-75,55,65,-107,65,-10,12,-44,31,-71,-79,92,-20,27,-29,-3,-5,4,66,-47,15,-42,19,-18,2,-8,-15,14,-38,25,-45,-4,-18,-1,-18,-43,3,-31,28,-19,18,-21,-82,-88,-128,-131,-32,-162,-104,-59,-49,-47,-63,1,-42,-62,-71,-45,-22,-45,-38,-46,-57,-55,-69,-64,-40,-13,-49,-16,-58,-61,-89,-42,-6,-5,10,-24,-36,-29,-43,-53,-34,-17,-51,-19,-69,-8,-70,-20,-28,-35,-12,-30,-27,-65,3,-27,-42,-32,-44,0,-42,6,-29,-21,-86,-107,-77,-62,-105,10,-33,-78,-79,-67,-69,-50,-52,-83,-57,-72,-51,-43,-87,-26,-61,-6,-85,-22,-27,-38,-21,-31,-47,-63,-56,-81,-18,-1,-35,-29,-33,-48,-5,-64,-7,-36,-64,-33,-48,-15,-50,-52,-32,-41,-39,-28,-28,-60,35,-49,-56,-30,-58,-16,-37,-14,-24,-26,27,47,24,-23,1,-33,98,79,-10,-5,-13,-12,34,-39,98,8,19,-4,-12,-8,-9,-5,39,17,39,-10,33,-4,1,-11,23,8,3,55,11,22,-7,6,15,5,32,12,26,9,19,21,4,28,22,5,12,29,30,-9,35,14,-17,-15,-43,31,13,30,0,-2,0,0,0,0,0,0,0,0,-7,-3,8,6,11,-15,3,0,-6,-10,0,17,-3,0,-3,-4,-9,-1,-26,4,8,1,-7,9,-17,-16,-14,-28,-25,-1,27,-2,-52,-36,-44,0,-13,-13,-3,-35,-51,-15,-54,83,12,53,-37,-30,0,0,0,0,0,0,0,0,9,13,38,19,58,28,39,57,-16,24,2,25,11,58,23,44,16,20,12,44,1,26,29,40,-38,7,18,12,44,1,75,0,12,-2,40,5,31,39,21,-20,-40,-30,-14,55,-33,21,-41,79,-33,23,-14,9,21,36,-182,-41,-21,57,18,40,34,-31,52,-55,1,-5,23,30,32,29,22,20,63,15,-5,45,20,27,12,14,0,57,29,15,5,1,48,17,21,-10,74,15,35,0,15,-17,-25,49,-7,51,-14,-8,14,16,19,-29,18,-7,53,24,11,-9,-28,33,-37,63,28,56,13,-18,13,9,65,25,117,35,67,-11,8,10,17,4,24,40,41,44,9,-9,-26,26,27,67,53,55,12,19,26,18,12,38,103,56,15,20,33,37,52,45,61,51,20,19,27,25,17,71,40,45,-9,-2,5,21,13,32,19,16,-6,-12,20,19,41,19,27,24,-10,-13,-11,0,20,-7,20,0,53,42,62,47,75,88,73,85,96,57,21,81,54,106,85,73,80,89,74,37,49,52,118,59,66,70,87,53,49,70,36,65,61,104,67,89,64,56,31,41,86,87,85,90,100,82,9,28,79,101,105,103,112,101,89,-6,74,71,142,123,123,143,41,-14,-17,5,8,8,11,15,4,8,-21,-28,-24,12,11,-5,12,-3,-11,-21,18,-3,18,-4,18,26,-14,-63,-57,-56,-23,-33,-15,-18,-107,-79,-88,-96,-60,-54,-39,4,-66,-91,-123,-108,-90,-120,-96,-67,-54,-73,-145,-229,-137,-186,-86,-63,-30,-68,-60,-91,-180,-103,-158,-40,0,0,0,0,0,0,0,0,-26,-43,39,-12,46,128,-33,49,-9,39,-58,75,-56,47,-77,50,6,-1,-1,29,-19,6,-13,15,0,-3,7,-35,-4,-12,8,-3,5,-8,24,-21,10,-9,7,2,20,0,35,-20,0,6,-5,26,0,0,0,0,0,0,0,0,-49,-91,-25,-68,35,-66,-23,-42,-26,0,30,-41,-61,-7,-15,-22,21,-24,-7,-15,-23,-45,-60,-30,8,27,-34,-7,-126,-6,-16,13,0,9,-9,7,-5,-21,5,-53,10,-25,1,-44,-5,-11,-16,7,-17,-15,-11,-17,3,-17,-17,-15,1,2,3,-20,0,-2,5,0,0,32,-43,35,-43,-18,-16,19,-11,-2,53,-13,-17,-2,-67,-4,23,46,-3,34,-49,-20,-90,-15,46,-7,-17,11,7,-50,16,-83,-6,-13,3,-41,-7,4,6,-3,0,-22,-26,-16,-34,9,7,3,0,-2,-34,-10,-21,0,-9,33,-6,-25,-16,-7,0,-27,35,4,-53,-43,-23,-79,-39,-54,-63,4,-5,1,-17,-3,-44,-11,-41,7,11,-5,15,-6,-2,0,-6,11,30,24,25,-3,0,21,8,53,14,24,1,9,-10,-6,21,18,18,-15,28,-21,-5,-1,3,74,-18,-4,-34,-28,-52,1,-18,-13,-26,-36,-10,-47,-29,-55,-1,-4,-80,-58,-55,-104,-43,-56,-19,-32,-33,-14,-28,-24,-73,-1,-51,25,-36,-45,-37,-45,-15,-48,-8,1,-2,-27,-36,-20,-54,0,-5,22,-32,-46,-27,-41,-16,-6,21,12,-31,-47,-46,-59,-52,-16,0,23,-51,-62,-109,-83,-111,-14,-36,-14,-87,-74,-85,-101,-76,-93,-48,-38,-89,-13,6,-18,35,39,-65,51,-14,-2,28,20,24,11,-29,36,37,40,23,35,25,26,12,36,62,69,35,50,51,36,40,17,70,53,73,26,46,53,53,40,14,47,6,12,0,34,14,19,36,28,-8,-44,-57,0,-16,-10,1,-11,-20,-58,-56,-43,0,-27,0,0,0,0,0,0,0,0,-3,16,15,187,177,-504,-112,-21,0,13,10,-24,-92,28,-302,173,-1,10,9,-15,-26,22,44,-198,-3,5,6,-20,-2,26,-458,-27,-13,-1,-11,-61,18,-287,24,-40,-129,34,-20,-46,-44,6,71,-35,0,0,0,0,0,0,0,0,-97,32,-14,-74,-52,-89,52,-24,23,30,26,231,21,-328,-287,79,33,16,30,-136,2,-473,-153,-104,30,36,34,38,-266,43,-198,-121,27,27,28,26,45,-101,-301,-68,39,44,114,14,84,30,-45,18,55,23,73,69,88,152,34,67,8,27,16,-47,-24,1,-25,-6,-28,80,18,68,-39,93,-121,-53,-22,2,-29,211,91,-307,-264,-136,23,-98,5,63,-206,-177,-188,-60,-57,62,-38,-268,-161,-146,-27,-162,59,-74,-94,-149,-70,40,-120,87,-115,-143,-28,-32,-7,-117,79,27,-158,-213,4,19,-71,18,7,28,-77,-39,-55,-35,-2,14,17,-51,-15,-12,-15,11,-36,-174,-180,4,-12,-21,4,142,-79,-504,-245,-153,-34,-51,-54,-80,-104,-295,-316,-92,-42,-26,-56,-77,-109,-173,-159,-25,-121,-58,-101,17,2,32,-149,-184,-84,16,-29,-138,-95,-34,-52,-90,-58,-8,12,-76,65,-17,-50,-125,-102,57,-30,-1,36,-90,-19,-9,-83,-68,-5,168,20,-133,-95,-30,-160,-20,18,72,-55,-239,-106,-101,-16,-12,-117,-128,-195,-177,-202,-78,-33,-76,-51,-173,-40,-135,-147,-111,-70,-75,-35,-29,-134,-12,-114,-101,-143,6,-21,-10,48,15,39,-59,-73,-88,-37,40,-91,-21,-82,-118,-151,10,26,-8,69,-7,25,-71,-245,-398,-337,-250,35,-231,-407,-263,-344,-404,-466,-463,-387,-267,-498,-173,-304,-382,-399,-487,-504,-360,-249,23,-336,-204,-409,-204,-142,-95,-18,-27,-124,-45,-208,-39,10,-63,-19,-117,-77,-111,-87,-131,-81,-43,-173,-116,-19,-141,-80,-56,-49,-113,-54,-76,17,14,-40,-60,-34,-58,-37,-33,0,0,0,0,0,0,0,0,11,-35,62,21,-127,-154,281,56,-23,-8,75,42,141,77,-340,45,-18,-26,-11,-50,-3,15,2,-412,-16,3,-5,-27,-4,4,-374,-17,-17,4,-11,-19,2,-381,0,-21,-6,1,0,-11,-504,3,3,-11,0,0,0,0,0,0,0,0,-87,-24,-18,-17,-116,-6,-105,32,-76,-79,-35,29,-121,77,-34,182,-28,-8,68,170,159,14,-91,-23,-31,-30,29,-4,187,12,107,-217,-26,-13,-26,-23,-34,65,-220,31,-27,-64,-30,-68,-87,-422,-68,-23,-27,-75,-59,-36,-368,-54,-22,-46,-70,-23,-49,-82,-122,-47,-17,-54,-126,17,7,79,177,154,67,-16,-4,-55,-46,-37,-11,-58,-5,114,1,-7,-37,119,105,31,-8,73,-13,-26,32,46,27,143,24,188,-40,4,44,-45,42,26,2,-50,21,30,-18,52,-2,-21,-20,4,-23,6,-18,-4,-18,1,-62,-7,-31,-43,5,45,42,-25,-124,18,-67,74,105,-73,-19,34,-36,11,-110,6,-64,-41,-15,-115,33,54,-143,-2,-81,-42,-62,-58,-122,92,-72,-128,-74,-107,-67,-151,-59,-194,-75,-59,-69,-23,-1,-10,-234,-81,-44,-57,-56,-50,-76,-230,-102,-58,-44,-137,-78,-72,-204,-29,-46,-48,-47,-60,-44,-86,-52,-48,-63,-56,-281,-173,-117,6,74,28,-154,-115,-174,-129,-168,-14,31,211,268,68,-72,-41,5,35,-73,130,255,75,-173,-102,-199,-21,-79,-19,67,265,-339,-186,-241,-272,-131,-156,18,3,-312,-302,-292,-127,-343,21,-128,23,-194,-140,-280,-318,25,-168,-180,-136,-268,-190,-293,20,-309,-64,-110,-142,-84,-13,-66,-14,-34,-55,-122,-21,-86,-24,-87,33,-101,-73,-116,-125,-48,-33,-24,-162,-190,-113,-88,-138,-74,-95,-82,-142,-194,-256,-129,-1,-95,-143,-113,-110,-148,-218,-245,-200,-99,-240,-139,-104,-123,-425,-160,-118,-18,-172,-144,-110,-456,-131,-130,-174,-99,-139,-208,-137,-124,-129,-137,-112,0,0,0,0,0,0,0,0,-4,-7,-6,-11,8,22,12,4,-5,-10,-8,-10,8,28,14,0,-5,-4,-2,-7,-2,38,4,4,-3,-5,-4,-15,-16,59,3,-3,-7,-15,-6,-12,-217,110,-208,-34,-38,-398,-421,-408,94,44,42,-386,0,0,0,0,0,0,0,0,-19,-31,-31,-18,-22,-27,-26,-28,-30,-20,-26,-21,-19,-19,-22,-18,-25,-21,-22,-28,-23,-24,-28,-20,-16,-5,-23,-11,-41,-13,-44,-36,-5,-22,-7,-24,-50,-14,-86,-46,-21,-30,-50,-44,41,17,68,-104,-5,-21,0,0,-12,-37,34,23,-43,109,-13,-139,-5,63,27,-146,-20,-39,-10,-22,-12,-23,-16,-12,-44,-17,-28,-14,-24,-11,-19,-12,-4,-46,-17,-31,-10,-18,-5,-9,-15,0,-61,-18,-23,-5,-10,-29,-19,-15,10,-73,-9,-12,-14,-98,-7,-31,-20,27,-85,61,-140,36,-10,-16,-13,-8,27,-64,31,-31,-16,-5,-6,11,-63,48,-11,5,-28,-29,-24,-25,-37,-35,-29,-36,-22,-21,-28,-33,-20,-32,-28,-34,-31,-29,-22,-28,-32,-39,-38,-40,-21,-20,-15,-27,-26,-35,-40,-37,-20,-16,-19,-15,-18,-30,-27,-36,-18,-25,-24,-8,-7,-15,1,-24,-38,-46,-27,-28,-21,37,-20,-23,65,47,39,41,29,39,50,26,-58,-62,-59,-64,-60,-74,-70,-68,-54,-52,-75,-59,-65,-70,-76,-68,-42,-52,-46,-65,-66,-83,-72,-63,-53,-51,-44,-45,-64,-68,-72,-82,-46,-40,-22,-57,-32,-86,-56,-92,-37,-44,-43,-32,-75,-28,-56,-56,-37,-30,-44,-46,-82,-164,-50,-47,-426,-448,-27,-64,-62,-200,-70,-12,7,-6,0,5,0,0,-3,-7,-4,1,1,7,0,-3,-10,-8,2,-2,2,2,6,3,8,0,-13,-1,2,4,17,4,11,9,4,3,-2,13,-5,-22,-5,3,2,-20,11,-4,-23,-79,-36,1,-35,-20,-6,-43,-59,-12,-26,9,-29,-83,8,-6,-43,-10,-18,26,0,0,0,0,0,0,0,0,6,19,7,24,36,46,32,11,15,8,1,9,10,2,-7,3,6,9,7,8,-1,18,4,1,7,4,-1,-1,9,19,15,2,7,7,4,-7,19,57,28,-1,5,3,1,-7,27,169,28,-7,0,0,0,0,0,0,0,0,-4,21,9,5,44,23,16,7,16,6,-1,18,37,25,-5,-10,5,17,25,19,31,35,29,8,9,15,11,19,32,25,23,17,19,15,12,20,27,26,24,23,14,18,14,24,23,32,25,25,17,20,13,24,30,138,21,27,12,15,27,12,39,41,36,31,37,18,-8,27,29,28,6,21,40,36,23,25,25,26,41,20,17,37,21,21,24,35,23,20,25,21,32,18,21,17,28,32,21,30,18,19,33,32,15,39,23,19,9,18,46,41,35,31,7,11,21,31,34,147,34,21,17,2,26,30,18,44,-93,40,23,12,17,20,15,34,16,24,16,12,19,19,18,33,29,22,21,15,16,16,16,30,23,31,19,15,14,13,15,30,24,35,27,22,20,13,12,31,35,16,24,17,24,17,19,45,44,30,12,6,14,16,11,152,22,37,9,9,3,2,7,-75,39,23,47,38,34,44,58,65,25,35,50,27,34,28,47,62,61,33,47,43,51,49,58,69,50,49,50,48,42,45,52,60,32,45,54,43,48,46,45,41,41,47,49,39,38,41,49,56,57,49,37,45,39,37,38,181,32,58,48,60,50,35,25,-33,22,54,18,-13,-29,-20,21,-57,7,13,11,-59,-43,-82,-74,-68,-79,-90,-50,-53,-49,-50,-71,-98,-81,-79,-35,-67,-43,-54,-57,-64,-64,-64,-61,-48,-56,-56,-38,-51,-55,-50,-67,-72,-48,-62,-29,-19,-1,-24,-62,-53,-43,-31,10,80,8,0,-79,-93,-48,-62,21,89,14,-19,0,0,0,0,0,0,0,0,-2,0,2,18,131,0,-3,-1,-3,4,3,21,114,19,-6,0,0,6,6,24,87,23,8,0,3,6,9,16,76,18,9,0,1,0,1,2,66,-7,-13,-8,-7,-11,33,-8,0,-4,22,21,0,0,0,0,0,0,0,0,2,14,21,19,27,18,27,19,2,12,17,11,63,18,9,2,17,8,15,2,45,-1,14,1,4,14,15,7,38,12,4,-3,20,18,15,18,33,20,2,23,31,28,9,10,39,-10,24,8,20,3,-378,-1,22,12,-2,0,2,-2,0,-45,-18,5,-51,13,6,-15,22,29,26,23,48,20,0,15,8,15,65,19,17,28,16,17,10,19,43,17,14,18,14,24,9,26,54,21,15,10,18,26,36,6,48,26,27,24,23,50,15,19,29,35,20,15,52,35,24,18,6,13,31,28,14,2,32,49,42,33,-2,28,-1,-10,-4,-4,-184,-2,7,0,0,8,0,4,-69,-1,0,14,10,10,24,7,-12,1,21,13,13,12,17,15,-33,-5,17,4,21,-6,14,1,-23,-3,12,13,26,12,21,23,-1,8,12,8,28,17,33,27,33,25,32,28,33,20,46,38,22,21,38,26,35,40,39,45,64,32,44,59,48,47,52,46,111,50,52,62,37,47,49,56,103,51,55,53,51,42,54,62,111,49,65,39,46,48,46,65,107,63,51,68,52,63,75,46,100,57,65,58,59,52,62,61,89,57,29,41,60,76,67,74,70,86,76,45,-30,-23,-2,21,66,1,0,4,-9,-12,2,10,88,-11,-2,-2,-68,-20,-5,28,85,23,-1,-10,-42,-26,0,47,78,31,11,8,-56,-77,-76,-9,-4,-16,-68,-60,-77,-76,-75,-8,-50,-56,-78,-70,-91,-68,-60,-35,-71,-78,-64,-58,-125,-112,-64,-52,-37,-37,-68,-121,0,0,0,0,0,0,0,0,7,-487,5,23,-370,28,7,-486,9,1,0,17,103,3,0,0,-2,-7,0,6,86,-7,-13,-12,-1,0,-1,-11,74,-8,-6,-2,-3,-4,-4,-7,56,-2,-9,-1,0,-1,-2,-3,40,4,-9,-3,0,0,0,0,0,0,0,0,-1,10,26,24,27,-4,89,-46,-15,15,54,-12,-17,15,149,1,13,-29,-11,65,-20,66,-46,4,-22,-4,-5,-4,34,-21,-11,-17,-21,-1,-13,-8,2,-16,-12,-17,-12,-21,-16,-21,-12,-24,-21,-21,-10,-20,-11,-22,-29,-16,-19,-11,-10,-17,-18,-25,-26,-22,-17,-27,-41,3,-7,12,3,0,13,-37,-3,-22,-4,27,-30,33,-52,-6,-8,-8,47,-35,-7,-27,46,-20,-18,14,-13,-21,4,-19,-9,22,4,-20,-18,-10,-4,-13,-15,-20,-35,-20,-19,-13,-12,-13,-29,-27,-26,-22,-19,-18,-21,-18,-22,-22,-30,-26,-19,-3,-21,-19,-22,-14,-1,-39,23,20,-56,1,-10,-36,-33,-35,-27,-42,-51,-57,-35,-35,-27,-25,-19,-23,8,-37,-17,-27,-38,-35,-13,-25,-27,-24,-25,-27,-32,-26,-19,-29,-46,-22,-23,-22,-45,-28,-38,-17,-58,-25,-29,-31,-36,-42,-39,-39,-73,-37,-35,-38,-37,-41,-32,-37,-101,-45,-37,-31,-10,-54,-62,-57,-80,-89,-73,-72,-68,-55,-58,-36,-136,-30,-23,-11,-44,-59,-24,-82,-126,-53,-20,-57,-47,-61,-75,-87,-128,-68,-54,-45,-59,-69,-68,-72,-133,-76,-67,-74,-85,-75,-76,-80,-126,-77,-89,-79,-54,-80,-87,-80,-113,-76,-77,-86,-78,-88,-83,-73,-123,-72,-75,-74,-42,-53,-58,-152,-86,-6,-68,-41,68,-51,-17,-148,-130,-135,1,18,29,6,-13,-101,-216,-126,-28,37,56,-6,-17,-83,-78,-95,-23,35,-12,2,-7,-36,-38,-25,7,41,42,19,10,-6,-38,-5,27,49,12,25,11,11,-27,23,29,34,13,13,13,22,-6,22,24,30,0,0,0,0,0,0,0,0,1,-2,-1,-4,0,-5,-37,-7,-1,-7,-7,-5,-10,-7,-42,-7,-2,-4,-5,-7,-3,-11,-39,-1,-10,-8,-9,-14,-1,-2,-76,-13,-14,-25,-29,-48,-22,29,-98,5,4,-14,-49,-374,-147,7,-109,41,0,0,0,0,0,0,0,0,-15,-20,-16,-19,-15,-5,-11,-2,-14,-24,-22,-19,-15,-16,-22,-6,-17,-24,-22,-20,-12,-13,1,-9,-24,-27,-28,-6,-15,-8,18,8,-30,-27,-27,-15,-6,29,-16,24,-28,-29,-36,-12,13,13,-30,23,1,-16,-46,-7,54,19,21,-5,-21,-24,-14,-20,11,69,57,20,-20,-8,-8,-16,-26,-19,-34,-23,-23,-14,-16,-15,-24,-28,-28,-33,-21,-24,-16,0,-16,-28,-25,-18,-23,-24,-25,-17,8,-3,-9,-23,-17,-20,-36,-17,-3,24,-18,-18,-11,-41,-26,-40,8,5,-34,17,-27,-18,-27,-9,-5,38,-8,-20,-5,-17,-11,-13,16,30,25,13,-27,-29,-32,-35,-28,-11,48,13,-25,-27,-32,-31,-28,-10,46,15,-17,-22,-19,-34,-21,5,48,26,-21,-24,-24,-23,-14,21,60,37,-19,-20,-18,-21,1,28,59,32,-11,-14,-11,-7,13,41,54,36,-26,-26,-40,-44,-11,32,24,8,-17,-16,-27,-44,-33,-1,66,7,-27,-37,-20,-38,-31,-27,-9,-23,-41,-35,-33,-23,-32,-23,10,-20,-35,-38,-26,-26,-16,-15,12,-19,-52,-49,-34,-26,-8,4,25,9,-24,-48,-45,-20,0,17,37,7,-50,-46,-64,-36,21,30,46,30,-48,-45,-74,-39,-5,46,0,17,-42,-54,-67,-45,-54,-14,-9,45,-13,-13,-4,-3,-8,-2,4,18,-3,-8,-7,-4,-6,-3,-1,8,0,-3,-10,-5,-7,7,4,34,17,0,1,4,8,21,13,43,-20,0,2,17,35,70,61,77,-33,-26,-5,10,40,42,82,-6,-23,-32,-19,-2,-11,-240,61,-152,-106,-85,55,-12,-114,-10,-24,-20,0,0,0,0,0,0,0,0,15,21,28,53,45,9,31,-481,11,31,27,30,36,26,14,13,13,17,17,16,9,9,-7,-1,8,14,9,13,11,-5,-23,-4,9,12,13,16,30,1,-76,-16,5,10,9,15,33,29,-59,-2,0,0,0,0,0,0,0,0,17,19,43,60,23,12,13,11,40,45,43,38,8,-2,18,11,30,27,30,41,16,0,28,0,32,28,27,20,20,4,25,11,29,28,24,21,11,11,34,3,28,26,20,17,18,20,4,9,24,12,22,23,16,14,0,11,17,23,21,19,6,13,15,20,30,-3,27,28,28,35,38,13,28,35,29,24,21,34,40,31,44,37,40,26,33,19,49,17,31,36,36,29,15,14,31,30,33,32,38,23,24,5,28,10,34,32,25,26,23,16,-3,19,44,28,19,15,23,16,15,-6,23,25,16,11,15,23,13,31,60,60,60,46,56,41,20,66,53,52,54,55,58,42,22,58,53,50,53,51,41,46,29,55,54,50,46,32,47,43,14,51,51,44,35,33,39,46,18,45,44,41,33,38,34,30,1,32,41,43,40,43,55,36,6,31,47,48,49,44,62,57,47,69,118,103,104,79,105,110,92,119,101,108,101,94,90,109,128,110,110,119,103,94,96,77,151,108,113,106,92,99,91,95,110,114,106,108,102,104,101,100,126,107,104,109,94,90,86,95,119,114,102,103,102,96,103,93,141,96,100,105,102,91,96,98,128,121,-40,-12,-18,-39,-39,-37,-49,-90,-15,-111,-24,-47,-45,-52,-69,-62,-43,-22,-16,-47,-47,-47,-56,-54,-31,-52,-33,-55,-39,-15,-32,111,-42,-40,-70,-50,-52,-11,112,129,-43,-60,-69,-65,-49,51,142,130,-27,-50,-90,-78,-70,29,128,115,-35,-48,-78,-98,-55,-29,97,0,0,0,0,0,0,0,0,0,9,-2,-5,27,-7,13,13,-7,16,16,14,-1,27,11,2,-9,9,-14,-2,36,-9,8,13,-3,9,-3,32,-94,23,26,2,16,-14,-46,-60,-13,-30,-1,45,18,-6,-1,-30,0,-11,2,22,74,0,0,0,0,0,0,0,0,64,13,53,17,33,6,10,-13,38,17,24,6,22,-13,14,-18,6,28,22,23,34,1,13,13,45,11,41,23,27,31,11,17,0,34,-10,5,27,5,62,28,-25,-4,-62,83,-88,-17,13,76,-1,22,-2,18,60,-5,13,20,-8,-77,35,48,-9,18,1,84,42,30,6,0,11,27,26,18,12,6,27,12,22,8,10,31,36,93,-11,24,30,14,16,-6,-21,11,78,54,14,9,-1,31,58,-11,10,39,9,-20,8,66,-1,8,-38,58,21,-33,53,35,49,5,4,-12,32,33,29,45,0,14,6,5,26,9,53,58,43,43,68,4,19,24,10,13,44,37,47,61,36,0,2,22,19,71,45,8,34,47,-2,3,42,22,34,24,12,33,-6,0,50,31,14,-3,22,33,14,-9,39,2,31,43,10,51,16,29,23,0,7,21,20,1,10,-30,5,3,28,4,10,25,-4,-1,70,76,67,44,65,116,87,72,70,35,67,62,46,25,60,55,53,96,24,51,28,71,38,33,-1,24,64,22,40,31,15,16,45,11,-10,60,34,61,44,73,23,-1,6,69,42,79,84,47,14,27,31,27,56,46,20,42,-11,51,-15,56,47,39,29,27,24,-19,-14,-9,-1,12,10,4,-1,39,6,21,0,1,-6,-5,51,47,2,4,0,16,7,-1,-38,-4,-50,-48,-4,-5,5,23,-86,-96,-143,-45,-35,-2,3,30,-129,-128,-212,-96,-50,-6,30,79,-159,-48,-156,-66,-35,-4,71,13,-184,-99,-127,-27,-28,62,53,12,0,0,0,0,0,0,0,0,102,-167,119,-95,-100,100,66,-41,42,-148,11,-4,7,-22,21,-35,-10,-18,-72,3,-18,-4,10,-22,-18,-37,-32,-1,-24,-13,-4,5,-14,-4,-50,51,-34,-10,0,0,-16,-2,-53,43,-43,-18,9,-2,0,0,0,0,0,0,0,0,-4,-7,-107,14,-70,-39,-62,-36,2,23,6,-133,-39,19,-24,-76,-61,-82,5,46,34,-24,-27,-19,33,-3,-16,-10,2,3,-3,-25,-80,-9,19,14,-5,-16,-17,9,1,12,-18,-4,-14,-9,18,-25,-6,-28,-17,-6,-13,4,-10,-2,-37,-8,-26,-20,-25,-3,-17,-8,12,-65,-30,-33,-3,-37,24,13,-9,-35,-2,-29,-18,32,13,-7,-41,-18,-13,-23,20,18,45,22,-50,12,-17,34,6,2,-10,1,-1,-15,47,-9,14,-11,-30,-4,-49,35,-18,36,-27,-7,-25,-13,6,-10,-10,-9,-19,-14,-8,-22,-8,-16,-1,-18,-21,-8,-34,-16,-25,-205,-21,-112,-110,-34,-122,-154,32,-16,38,20,6,-11,-23,-60,35,22,8,23,1,6,-29,-36,26,22,64,31,35,-10,-25,-28,-1,15,20,25,11,6,-41,-33,9,30,-3,21,7,-13,-3,-61,-28,-1,-20,-16,-20,27,-29,0,-15,-10,-13,-14,-15,-26,-12,-21,5,-263,-30,-63,-13,-97,-82,-72,33,-1,35,-50,11,18,-14,-97,12,41,0,26,-7,19,-26,-43,-13,24,63,-27,39,-35,-30,-65,-25,33,25,25,-1,-15,-82,-47,-14,11,4,-11,-14,-39,-22,-84,-38,-19,-36,-62,-58,-7,-64,-38,-43,-43,-37,-54,-49,-58,-60,-42,156,-180,-189,-185,-211,79,-18,-167,88,-238,26,172,50,46,-45,-15,130,55,54,98,72,42,-6,3,-20,78,57,110,63,56,11,25,56,44,86,54,73,29,-11,-44,-4,31,30,67,16,-8,-19,-23,-44,-16,-16,-21,-10,-4,-43,-34,-48,-32,0,-48,-17,-22,-29,-33,0,0,0,0,0,0,0,0,10,1,4,-7,11,69,63,17,0,3,0,16,21,58,45,18,0,3,0,14,15,31,29,15,7,0,9,8,11,23,14,8,3,11,16,6,16,19,17,8,15,13,11,17,56,26,48,47,0,0,0,0,0,0,0,0,-36,-21,-20,27,25,55,45,67,-22,-10,-2,-9,10,42,51,40,-14,-11,0,8,24,40,30,24,-10,1,4,14,38,37,41,44,-8,-10,9,18,33,44,48,23,-10,-8,9,9,38,37,21,31,-38,-7,-13,22,17,3,27,16,-26,-26,-6,15,0,4,10,42,2,-6,3,16,43,30,41,38,-11,-5,13,-3,23,43,46,49,-5,9,2,9,24,43,58,36,-4,-1,5,10,24,35,38,34,3,3,17,18,12,11,25,29,21,9,21,26,19,-2,-2,26,9,-3,23,14,13,-3,-31,-9,-2,6,-1,-25,-5,-17,-2,-1,2,4,8,-6,13,34,10,0,7,6,12,15,25,29,46,33,2,1,14,20,30,64,53,31,-3,-3,2,9,13,37,40,36,0,-1,2,12,19,34,41,16,1,1,6,13,12,29,33,22,0,2,5,19,18,50,32,30,23,19,24,28,35,50,39,32,-14,-16,-26,-26,-17,-5,-11,-10,-17,-2,0,-12,8,-7,7,-19,-20,-11,16,11,16,16,37,3,-35,-12,4,4,8,24,19,13,-24,-10,-9,1,15,3,27,1,-34,-20,-8,-7,-9,12,-8,13,-29,-25,-7,-13,1,-37,-8,9,-43,-34,-48,-73,-39,-61,-58,-29,-87,-124,-117,-82,113,73,97,112,-136,-116,-109,-85,55,72,91,91,-123,-105,-95,-69,8,22,51,43,-111,-88,-85,-64,-28,-15,-14,-17,-119,-83,-68,-50,-49,-44,-44,-60,-62,-70,-56,-53,-49,-44,-46,-67,-72,-70,-68,-70,-93,-77,-85,-98,-165,-67,-115,-128,-106,-110,-94,-181,0,0,0,0,0,0,0,0,-10,-397,-455,-57,-45,47,9,-50,-1,27,2,13,-4,60,32,12,5,13,21,23,12,47,44,7,3,15,12,13,12,35,21,8,4,13,12,13,15,26,9,4,3,9,6,18,8,15,7,4,0,0,0,0,0,0,0,0,93,-170,-46,-138,-111,-110,-128,-72,11,-18,-24,-64,-89,-95,-61,-95,24,11,-25,-80,-72,-78,-100,-100,6,20,-4,6,-57,-61,-102,-73,13,20,8,6,-12,-19,-44,-38,23,13,12,1,-3,-10,-10,-10,13,16,3,13,5,9,-13,5,5,16,13,17,9,11,10,5,27,7,-12,-25,-71,-83,-73,-13,22,19,1,-18,-52,-52,-68,-74,18,14,14,-28,-52,-48,-73,-96,-2,15,-18,-45,-16,-27,-32,-53,10,-18,-50,-22,-1,8,-16,-21,-14,-35,-14,-2,-5,6,1,-2,-45,-20,-13,2,10,7,0,2,-11,-21,-2,6,2,16,13,23,-87,-162,-165,-130,-127,-86,-103,-105,-57,-67,-78,-76,-90,-59,-68,-90,-14,-12,-26,-36,-43,-58,-66,-54,13,10,16,7,-17,-49,-42,-26,24,30,18,1,-5,-38,-40,-15,20,26,25,3,-5,-36,-34,-15,23,19,20,19,0,-14,-29,3,10,12,17,8,-3,-12,-29,-3,-135,-128,-171,-197,-185,-189,-182,-163,-84,-90,-101,-113,-133,-141,-154,-106,-55,-54,-80,-81,-95,-133,-143,-125,-34,-27,-69,-76,-79,-90,-112,-130,-7,-41,-66,-69,-51,-69,-64,-99,-42,-53,-43,-40,-37,-56,-57,-56,-59,-37,-35,-40,-29,-38,-35,-32,-37,-56,-42,-31,-23,-22,-57,-12,15,73,-204,-111,-137,-173,-140,-109,13,44,-30,-70,-100,-52,-71,-126,2,37,5,-45,-47,-43,-41,-71,19,17,19,0,-27,-22,-38,-41,17,19,14,18,7,4,-8,-2,-4,7,24,18,20,19,10,3,-11,0,13,16,14,14,4,1,3,0,-1,15,10,10,6,5,0,0,0,0,0,0,0,0,-16,-2,-37,-62,-14,-9,-11,-9,-1,14,-35,-32,-13,-21,-14,-5,-16,34,-32,23,-14,-6,-12,-9,6,32,38,63,-22,23,-5,-15,28,-58,48,-31,8,-19,18,-18,0,-206,68,-254,36,-358,99,-295,0,0,0,0,0,0,0,0,-39,-79,-44,-54,-45,-42,-42,-45,-75,-49,-45,-49,-63,-39,-39,-47,-63,-22,-62,-35,-41,-52,-55,-52,-39,-70,-68,-68,-46,-47,-26,-39,-43,-54,-33,-56,-39,-74,-34,-40,-39,-35,-72,-58,-29,-33,-24,-50,-101,-30,-42,-21,-70,-43,-69,-43,-14,-40,-119,-42,-33,-31,-23,-4,-13,-61,-29,-40,-35,-28,-4,-30,8,-21,-56,-25,-32,-10,-17,-34,-16,-4,-24,-36,-20,-24,-20,-12,-25,-30,-24,-18,-11,-41,-7,-31,-37,7,-18,-25,-29,-28,-35,-16,-42,-20,-30,-11,-43,-19,-9,-44,-29,-48,-38,-45,-39,-48,-27,-46,-45,-68,-36,-59,-41,-50,-30,-59,-53,-33,-47,-36,-26,-34,-40,-47,-67,-33,-44,-23,-27,-30,-33,-60,-54,-35,-43,-14,-26,-30,-41,-48,-32,-30,-18,-23,-10,-17,-28,-44,-10,-11,-39,-35,-29,-31,-35,-45,-22,-39,-53,-60,-74,-54,-54,-71,-25,-52,-49,-78,-54,-60,-42,-70,-24,-45,-31,-59,-24,-58,-50,-81,-4,-6,-28,-23,-9,4,9,0,-19,-8,-34,-14,-12,-3,-3,-38,-34,-8,-15,7,-13,1,-10,-11,-9,-27,4,0,0,-35,-7,-28,-19,26,-38,-59,-33,-30,-37,-44,-33,-18,-24,-63,-106,-63,-63,-82,-16,-24,-67,-109,-93,-106,-56,-156,-211,-173,-275,-277,-147,-304,-215,-212,3,-13,-37,-32,-5,14,1,9,-17,-23,-60,-36,-5,4,4,0,-17,-17,-37,-21,-3,-1,12,10,-8,-7,-11,-30,-5,-3,6,12,-7,-3,-21,-21,-20,-2,9,11,-22,-27,-26,-20,-16,4,25,20,-19,-36,-14,-30,12,15,22,67,27,-74,-43,-18,1,-21,4,-103,0,0,0,0,0,0,0,0,15,94,77,123,55,-18,-28,7,22,51,77,78,48,22,12,22,11,1,56,63,43,17,11,12,16,15,35,61,33,31,17,16,22,23,16,63,6,19,7,6,20,10,14,0,19,7,3,11,0,0,0,0,0,0,0,0,24,56,66,83,56,68,39,0,28,64,52,109,51,79,67,46,66,62,67,60,75,77,66,64,42,32,56,76,65,60,45,55,1,63,56,80,49,39,35,53,12,16,24,73,12,42,28,33,49,5,45,26,45,19,37,31,30,4,47,-27,46,-12,33,4,4,27,40,95,23,68,39,16,26,39,75,88,107,66,74,34,33,15,46,91,45,107,32,62,23,38,53,65,78,35,45,46,39,85,30,62,41,56,44,57,45,32,21,37,-10,28,40,32,19,-8,31,34,4,17,13,37,-43,0,35,19,19,-18,13,19,72,66,75,69,68,65,55,55,65,69,85,65,52,49,45,41,70,81,87,52,73,58,73,54,46,68,64,61,48,62,54,52,38,43,54,47,25,20,45,23,10,34,34,26,37,21,47,22,41,50,46,6,40,33,52,31,29,42,42,14,27,23,53,38,-17,-27,27,30,30,-3,57,80,10,8,26,27,17,32,78,68,-10,0,6,13,7,38,46,64,-4,1,14,10,21,21,36,35,-4,-3,6,42,14,26,24,23,4,-9,6,19,16,8,27,29,-5,5,3,1,0,6,-1,9,-9,-10,14,-3,1,-10,0,3,47,53,39,1,-5,-27,-72,-42,69,27,28,29,0,-19,-42,-40,-4,20,13,30,28,-14,-8,-20,5,28,40,36,28,15,0,-13,10,47,35,33,16,9,-10,-28,2,16,33,30,7,11,-3,-13,-30,0,-3,-15,5,-8,-19,-37,-7,-24,-20,-23,-28,-27,-24,-44,0,0,0,0,0,0,0,0,-3,-4,-3,-7,-11,3,1,-2,-2,0,-3,5,-13,3,0,0,-4,-1,5,-6,-235,-6,10,0,-5,0,10,6,31,-5,13,1,-7,-3,13,15,2,19,8,3,7,10,10,0,10,-2,8,9,0,0,0,0,0,0,0,0,-12,12,-14,10,-13,13,-5,13,-3,-3,-5,49,2,44,2,-4,0,11,48,6,10,0,48,0,7,-4,13,6,167,5,16,1,13,15,48,11,0,1,51,22,15,0,-1,45,18,43,-5,-6,-13,24,1,15,3,24,-12,31,-4,12,-1,-4,20,-21,23,11,2,55,-7,17,-9,17,-10,61,30,0,51,-7,13,-6,48,-4,2,30,0,53,-1,51,-3,32,26,1,26,0,196,0,26,1,-3,20,-5,35,0,43,7,24,5,5,44,-8,9,-2,52,-2,-2,48,-1,1,-5,18,7,56,42,-20,14,-15,10,-12,32,13,-2,6,2,4,20,7,-2,0,-4,-4,-4,1,16,1,-4,-2,-7,-5,-10,-2,27,-4,-5,-4,5,13,18,31,179,34,12,9,5,6,3,-4,29,-3,0,10,8,12,3,11,20,1,3,15,12,7,0,8,20,3,8,3,6,6,4,10,20,12,11,13,25,32,10,6,21,18,15,31,24,14,28,5,31,16,27,2,15,19,17,31,38,35,17,18,23,26,26,35,172,36,24,21,13,19,17,32,28,34,16,26,13,22,20,3,20,16,39,30,13,12,6,18,34,23,28,43,42,18,13,20,21,53,29,22,-18,17,19,-8,-6,-8,-3,-9,-8,-6,-9,-7,-3,-6,-10,-7,-25,-12,-5,3,17,-2,-7,-8,-8,-14,-10,13,-19,15,-6,-8,-26,-14,-2,4,13,8,2,-11,-45,-16,-22,1,-22,-11,-20,-9,-40,-52,-27,-26,-25,-18,-18,-31,-69,-59,-42,-32,-50,-15,-32,-82,0,0,0,0,0,0,0,0,-31,57,-13,-18,14,-7,3,6,-9,29,1,1,8,-6,15,-6,2,16,11,7,90,0,16,7,4,11,5,-269,41,-209,13,5,9,2,1,-24,5,-18,0,-1,9,2,-1,-17,-4,-20,-2,0,0,0,0,0,0,0,0,0,1,12,-11,-8,0,-12,-2,11,-3,-10,15,-228,-9,-199,-18,-9,1,-7,-88,-6,-8,-18,-128,-15,-5,-11,-5,0,46,-10,-16,-13,3,-16,-40,-20,7,-14,-61,-6,-10,-14,4,-55,0,-48,0,-24,1,-6,-16,-11,-16,-13,-13,-17,0,0,-11,0,-23,-2,-17,0,9,-24,-10,-7,5,5,11,-74,-16,3,-41,-7,0,7,-52,1,-13,-3,3,-80,5,-90,13,-2,1,-12,-16,26,29,11,-16,-3,-4,-5,16,-75,11,-53,8,-9,1,-1,-66,16,-13,20,-68,-4,-3,-44,1,-10,-5,-19,-5,-48,-58,0,-14,-1,-9,-4,-12,-5,-3,14,2,-3,-2,-4,1,12,3,11,6,4,-16,7,14,6,3,8,10,-1,-17,4,8,13,1,5,1,-17,35,-18,-4,2,-3,-2,3,-1,-22,5,7,6,4,4,2,5,-5,9,6,1,4,15,1,-2,-3,-3,3,29,10,2,2,-5,-4,-10,9,4,7,25,-8,-18,-6,-26,0,-7,3,7,0,0,-12,0,-17,-21,-5,-2,3,-15,-11,-42,-22,-20,6,0,-2,-4,12,-14,-22,-8,-11,-1,3,-4,-4,-4,-6,-10,4,-5,-7,5,-4,10,-15,-8,0,3,-9,-10,-11,-8,-12,4,-3,2,-7,-12,1,-9,5,4,-2,25,-19,-12,-25,-16,6,1,6,5,3,-31,-49,-39,21,10,0,-5,4,-33,-40,-40,13,2,-11,-9,-10,-31,-21,-13,0,0,-21,-1,-3,-30,-24,-22,-5,6,-8,-11,-2,1,-15,2,4,-6,-19,1,-16,4,0,0,-12,17,-10,-26,-10,-4,7,-13,-2,-14,0,0,0,0,0,0,0,0,23,45,23,53,-27,15,26,15,31,31,26,4,-10,16,24,17,22,29,28,2,-5,2,41,12,18,21,14,24,7,18,22,20,1,12,16,15,-16,22,11,18,76,25,-16,50,-41,56,-8,55,0,0,0,0,0,0,0,0,-108,-35,-35,23,-5,16,12,35,9,34,9,30,-45,22,1,18,2,18,16,18,-2,5,7,2,38,14,39,21,17,4,26,14,23,17,34,15,29,16,54,-3,31,-8,34,-5,12,15,37,23,19,25,26,39,11,21,44,44,45,42,37,46,54,20,46,43,-39,17,-85,9,-1,17,41,-4,13,-14,31,14,-19,23,7,12,-2,9,12,8,-11,14,14,-11,12,20,35,20,-2,29,23,-8,40,-1,34,29,17,24,2,22,13,35,-1,20,29,-1,49,27,33,-7,35,27,21,6,9,17,23,46,37,33,37,37,38,19,33,40,-16,19,28,2,1,11,-18,17,25,37,40,44,-7,31,-3,36,5,29,31,38,14,29,7,47,39,44,33,43,26,35,28,50,41,31,34,48,41,30,54,73,75,57,66,74,70,61,63,78,58,76,58,69,106,59,42,61,62,36,66,21,71,44,67,63,16,65,84,73,80,96,49,37,67,85,87,84,78,87,80,59,67,81,78,87,65,64,67,105,107,90,86,97,82,90,88,97,128,118,95,93,104,84,110,123,151,116,126,109,107,67,127,142,147,147,141,138,122,105,120,143,146,138,143,144,164,92,-59,3,-12,-20,-24,-11,-2,-15,30,2,30,2,-23,-10,10,-8,68,33,14,-10,-14,-3,-2,3,51,38,19,1,-14,-1,5,6,41,25,19,8,-4,-6,-2,4,24,30,22,-3,-19,-10,-16,13,25,18,24,-14,-19,-14,24,-10,-64,21,38,-39,-15,55,-9,-8,0,0,0,0,0,0,0,0,-163,110,-159,67,-146,-86,1,-61,-4,37,-13,65,-120,46,-11,9,9,26,9,3,-30,11,-2,-19,6,2,6,-7,-6,-8,15,-16,5,0,12,-16,0,-10,0,-6,-6,-3,-16,-39,-21,-21,0,-6,0,0,0,0,0,0,0,0,-14,-47,-8,-53,-32,-95,25,-1,115,-29,-1,-16,18,-13,-25,-29,-62,14,-5,-1,-2,-76,9,-49,-33,3,-56,-34,-43,-15,-35,-26,-17,-31,-14,-27,-42,-8,-63,-16,-27,-32,-29,-24,-31,-46,-37,-35,-17,-42,-15,-58,-20,-50,-20,-42,-29,-29,-38,-38,-17,-45,-32,-46,-33,-31,-52,-41,-55,-19,-24,-41,-9,28,-54,-20,-27,-8,1,8,-10,-19,-19,-36,-24,-18,-20,27,-29,-26,6,-48,-19,-25,0,-17,-26,0,-44,-41,-21,-29,-41,0,-1,-25,-13,-29,-15,-30,-48,-6,-18,-19,-16,-34,-30,-19,-19,-30,-12,6,-18,-24,-29,-37,-18,-24,-72,-33,-79,-23,-48,-50,-18,-32,-37,-34,-57,-64,-84,-73,-67,-40,-39,-35,-46,-48,-41,-39,-42,-20,-37,-41,-50,-53,-52,-53,-41,-39,-30,-49,-35,-50,-38,-44,-49,-46,-33,-25,-29,-41,-40,-41,-40,-55,-52,-64,-39,-62,-57,-43,-49,-48,-65,-59,-60,-77,-60,-69,-58,-65,-126,-68,-111,-84,-58,-83,-72,-90,-59,-35,-80,-46,-54,-61,-85,-63,-62,-60,-52,-87,-19,-46,-13,-35,-79,-56,-52,-69,-45,-42,-43,-35,-66,-72,-62,-72,-28,-53,-66,-65,-65,-49,-62,-51,-42,-59,-57,-56,-82,-72,-66,-95,-68,-63,-72,-49,-75,-74,-85,-104,-84,-67,-100,-68,-211,-118,-197,-110,-170,-60,-74,-45,-178,-185,-170,-48,-92,-13,-48,-4,-57,-153,-280,-46,-252,-1,-18,9,-30,-17,-14,-19,-6,-8,-6,-12,-20,-4,3,1,-2,0,-19,-4,-3,6,3,8,14,2,-9,-3,25,17,6,9,-1,8,-3,7,9,29,19,15,17,11,10,21,0,0,0,0,0,0,0,0,-1,0,-8,-2,-31,-30,-39,-30,-3,3,-4,-8,-12,-53,-28,-55,1,1,-3,-3,-19,-23,-48,-23,1,2,0,-9,1,-134,-15,-29,12,9,10,-19,-87,-51,-31,-39,-12,-48,22,-320,-36,-71,-2,-73,0,0,0,0,0,0,0,0,10,14,17,6,7,-3,5,-6,13,19,2,9,0,-3,0,13,9,15,16,20,-2,15,0,48,24,5,32,13,28,12,72,19,33,33,24,13,40,70,30,30,44,-114,58,28,155,45,45,39,-10,58,10,53,-45,40,106,61,-1,28,2,22,38,99,46,52,21,14,19,7,8,-2,7,0,-1,19,8,13,-7,11,-3,23,19,-3,16,15,9,-4,20,26,21,22,-10,7,1,14,1,30,22,10,3,-4,28,0,28,20,15,3,13,28,-10,13,2,27,-4,6,9,13,-13,-1,40,-1,-25,4,14,-6,10,-3,-4,41,18,29,19,29,12,10,3,-1,31,20,26,27,12,11,6,0,13,37,18,42,11,18,17,70,32,28,20,39,24,24,43,20,26,24,0,36,-1,32,6,8,35,16,21,21,41,-30,-3,3,11,25,11,3,2,0,10,21,9,16,35,12,-12,-21,6,7,15,13,4,11,4,8,10,11,6,-3,15,0,12,-3,-1,18,2,11,3,25,11,16,15,68,27,16,3,11,33,27,63,16,-19,45,-17,31,11,56,6,41,26,-6,-17,-19,76,-28,7,1,13,22,-31,14,-29,-66,-29,30,-45,4,74,-39,-18,9,26,-23,0,-8,-20,5,-13,-12,-25,-19,-13,-22,-7,-18,1,-24,-12,-16,0,7,-11,17,-15,0,-10,40,20,-5,19,0,19,6,22,31,33,20,7,23,26,23,34,38,19,18,23,20,42,30,32,39,20,17,7,40,38,41,79,37,16,14,32,56,43,67,29,47,0,0,0,0,0,0,0,0,27,29,62,2,-39,34,46,25,7,-6,13,19,0,38,35,31,8,12,13,8,14,29,8,25,-1,17,0,1,8,-99,20,9,0,7,9,-3,-278,-4,5,0,-3,19,0,-249,-6,1,0,0,0,0,0,0,0,0,0,0,28,24,0,17,22,-9,22,35,0,10,43,8,15,38,35,8,0,28,-3,9,-1,0,11,10,7,4,0,0,3,6,-14,-5,-5,-5,-2,-13,-4,-34,7,0,-8,-2,-11,-11,-76,-22,-15,-26,-26,-18,-9,-136,-22,-25,-7,-16,12,-12,7,-17,-19,-10,-21,-30,-17,-36,3,-55,4,-25,6,-48,20,-27,-33,-5,-42,-14,-17,-6,-18,-3,-18,-32,-30,-67,0,38,-11,-14,-8,-22,-47,0,23,-9,-14,-28,-15,-15,-16,35,-17,8,-8,-12,-26,-17,55,-21,-9,-24,-2,9,-21,160,-24,32,-27,17,-48,-5,201,-24,10,-27,31,-23,-27,-4,-10,-15,-7,-4,0,14,-17,-11,-11,-23,-12,-22,0,2,-18,-19,-7,-14,-9,-9,0,2,-27,-23,-14,-26,-13,-22,-33,4,-30,-35,-4,-32,-3,-56,-14,-1,-17,-20,-9,-8,-68,0,-20,-6,-23,-13,-19,-57,0,-14,-25,-5,-27,-31,-3,-11,-2,-14,-10,-7,13,27,-9,4,8,67,11,59,6,-15,-2,-2,0,15,22,26,-13,-31,-4,-5,0,-12,29,30,-8,-7,-28,-6,-14,3,-16,35,-2,-20,-16,-11,-5,-29,12,3,-10,-3,-13,-12,-56,-3,5,2,-4,6,-5,-23,2,10,-17,0,-7,-13,119,-8,2,-29,3,9,27,36,29,4,35,30,23,25,33,81,31,44,4,21,23,69,30,22,36,25,12,19,13,4,13,35,25,27,16,30,10,11,21,21,22,13,16,-1,0,0,-6,19,10,-6,-159,-17,-8,-10,38,14,-14,-192,-25,-17,-14,-15,46,37,0,-47,-22,-13,-15,-4,0,0,0,0,0,0,0,0,11,5,9,-6,27,5,68,40,6,2,4,11,11,23,65,49,12,14,12,14,17,43,46,46,14,16,23,18,19,30,31,35,31,31,39,21,26,26,19,38,59,42,38,22,42,24,22,25,0,0,0,0,0,0,0,0,-3,17,18,31,39,59,95,54,15,14,37,38,52,53,58,66,25,22,30,38,44,47,55,49,12,31,24,51,49,61,65,65,24,29,37,37,58,80,63,51,35,26,45,38,77,72,63,72,27,28,48,33,99,59,63,37,21,39,46,78,73,70,69,26,11,16,27,59,42,79,54,51,29,25,34,43,52,49,64,64,36,42,30,41,44,55,89,68,46,40,48,24,62,72,95,74,18,43,30,66,50,77,71,46,43,27,46,26,78,86,53,53,35,54,24,77,79,46,54,45,48,56,99,92,57,68,57,0,48,46,53,65,67,65,125,136,43,57,49,58,61,79,79,120,54,57,65,58,72,85,123,121,58,59,65,67,84,95,147,146,62,63,62,57,91,96,109,165,54,53,52,56,64,73,82,78,58,50,52,49,65,66,84,68,62,47,49,61,65,75,77,76,76,87,88,82,93,107,99,115,69,68,70,93,98,108,101,118,79,69,78,80,106,98,133,136,69,77,76,91,98,130,133,133,77,82,94,99,115,120,123,125,86,82,89,89,115,103,99,96,91,78,86,110,108,97,57,122,92,103,114,116,100,99,92,86,3,4,14,13,-3,4,-15,-40,15,9,2,8,-1,-11,-19,-52,20,7,2,2,0,2,10,-21,24,14,0,1,13,14,12,22,6,5,3,5,6,12,15,14,5,2,0,0,3,20,12,19,-8,-18,-2,-3,5,5,-5,-6,-78,-3,-2,-11,-11,-14,1,-14,0,0,0,0,0,0,0,0,-1,43,35,4,-19,-39,13,-69,9,12,8,9,-13,-1,-18,-30,5,11,8,3,25,25,21,11,1,3,8,18,22,36,55,28,1,0,5,0,14,19,35,40,-4,-1,-4,-2,-6,12,31,28,0,0,0,0,0,0,0,0,-13,-12,-7,26,-30,-41,-34,11,4,14,-14,-20,-5,-18,3,-45,-2,2,-10,-14,-31,-18,-13,-43,-8,-9,-6,-45,0,-44,-9,-36,-19,-18,-16,-11,-29,-6,-51,-7,-7,-14,-18,-20,-26,-18,-24,-32,-9,-15,-21,-22,-20,-28,-8,-32,-32,-7,-23,-22,-18,-17,-10,-26,0,-12,3,-22,13,-3,-21,-11,-7,-7,-37,9,-19,-17,-37,-11,-15,-21,-6,-19,-15,-45,-20,-66,-29,-12,-24,-10,-42,-18,-37,-20,-20,-24,-15,-43,-25,-34,-23,-41,-17,-9,-35,-35,-41,-19,-22,-19,-27,-34,-32,-27,-18,-15,-12,-20,-36,-36,-31,-17,-21,-11,-17,-16,-11,-48,-30,-41,-51,-49,-62,-103,-31,-38,-43,-44,-49,-68,-76,-85,-32,-38,-41,-41,-52,-54,-80,-88,-25,-31,-29,-46,-36,-59,-90,-104,-30,-31,-38,-31,-39,-51,-67,-86,-27,-30,-32,-38,-43,-51,-69,-56,-34,-28,-38,-42,-47,-53,-61,-51,-32,-36,-39,-37,-30,-40,-76,-55,-67,-55,-70,-35,-95,-120,-149,-163,-65,-58,-77,-63,-100,-81,-83,-137,-37,-66,-48,-80,-86,-109,-134,-127,-65,-52,-61,-73,-97,-106,-131,-145,-53,-70,-67,-90,-97,-108,-109,-136,-30,-43,-70,-70,-85,-80,-72,-99,-45,-58,-61,-85,-71,-60,-72,-104,-59,-47,-72,-62,-57,-55,-80,-102,43,13,8,24,52,-66,-49,-4,11,26,24,5,4,-29,-79,-32,16,11,9,-5,-19,-40,-46,-31,35,13,-4,-19,-34,-36,-48,-31,37,4,2,-14,-21,-27,-24,-41,30,12,0,-8,-7,-13,-13,-22,11,6,-4,-4,3,4,-4,-5,11,2,-3,5,1,9,1,-8,0,0,0,0,0,0,0,0,22,-1,16,14,15,6,0,18,16,46,8,22,-8,31,15,34,18,28,13,25,12,27,27,25,10,14,18,15,-11,5,34,35,-31,-28,-3,22,14,-6,33,0,-53,-98,-5,-2,74,113,87,52,0,0,0,0,0,0,0,0,9,13,22,32,26,35,12,13,29,1,53,24,24,35,19,23,14,53,17,27,25,17,41,26,17,35,22,44,7,14,-11,57,1,57,-45,61,-36,25,17,29,47,-12,69,-11,69,6,47,-6,62,-31,76,18,37,23,52,45,-13,-88,-76,-43,69,45,79,69,10,-15,43,-4,3,36,11,42,25,3,59,32,49,29,18,31,23,40,36,36,23,7,97,42,-2,45,-4,27,7,61,-69,44,30,26,14,-5,-40,0,51,5,-9,56,-13,95,-53,24,-3,22,-16,-14,96,-55,96,21,48,26,31,-24,-54,31,-31,45,-10,11,-1,-6,35,2,15,49,6,40,34,-50,66,-23,52,24,16,11,-20,11,57,-15,34,3,70,29,5,-51,43,-7,23,26,-13,34,-6,1,45,20,4,60,24,49,-19,-77,51,-4,49,36,-3,49,-16,-73,-8,-37,-5,20,-1,36,3,-47,53,-23,45,42,49,42,80,8,66,45,52,93,62,70,54,4,112,43,85,60,72,47,61,27,121,74,88,33,133,53,8,18,61,100,86,71,9,67,35,6,116,83,33,77,72,22,36,29,83,118,106,73,27,72,12,-5,71,3,64,81,85,59,126,-95,76,-11,51,-36,57,72,-71,-28,-14,-14,6,9,-2,2,-47,-33,10,-35,6,-6,8,-9,-47,-15,-29,-16,-13,-5,25,-8,-41,-22,-26,-14,-1,-5,3,5,10,8,-18,-4,5,24,27,15,0,13,12,17,22,28,37,36,-59,-89,93,17,58,50,48,36,-75,-93,34,0,6,39,30,-10,0,0,0,0,0,0,0,0,-128,-174,73,-96,-215,125,-238,115,14,-166,48,-83,0,14,-20,27,-31,-18,-11,-4,-27,-10,-3,17,-5,-14,-7,5,-22,32,-14,17,-4,-11,-19,3,-37,0,2,0,3,-18,5,24,-28,9,1,2,0,0,0,0,0,0,0,0,-47,-32,-106,-8,-65,29,-24,29,-101,-14,40,-61,-196,10,-80,28,-5,-19,-46,24,-92,23,-247,-31,30,-62,61,-97,-67,-79,-6,-16,21,-51,20,-71,35,-93,-31,-95,-24,0,-23,-16,-50,-24,-43,-9,-31,-40,-35,4,-43,-11,-73,-26,-21,-7,-27,-20,-47,-26,-28,-28,-37,-121,14,-102,-28,-40,1,-46,-1,-16,-43,-34,-50,8,-209,-21,-47,-63,3,-108,-8,-42,-58,-95,-90,-5,-42,-29,-47,-40,10,-99,1,-43,-25,-51,-40,-22,-36,3,-55,-25,-12,-30,-10,-52,-30,-44,-17,-73,-4,-61,-32,-47,-51,-49,-41,-31,-34,-30,-26,-32,-90,-50,-53,-13,14,-36,-45,-13,-43,-8,-41,-56,-20,-75,-47,-38,-44,-59,-34,-32,-66,-80,-79,-84,-75,-56,-35,30,-60,-25,-39,-30,-52,-25,1,6,-21,-20,-20,-20,-5,-24,-17,3,-40,-22,-35,-51,-35,-19,-8,-19,-5,-58,-18,-61,-28,-13,-20,-15,-50,-38,-56,-34,-37,-49,-78,-71,23,-80,-18,-53,-25,-19,-48,-62,-50,-109,-57,-45,-89,-34,-53,-84,-44,-123,-76,-72,-74,-90,-73,-24,-73,-71,-61,-44,-58,-89,-47,-39,-44,-106,-59,-44,-52,-52,-37,-45,-55,-56,-32,-82,-61,-53,-53,-79,-32,-101,-69,-99,-104,-58,-64,-53,-63,-63,-74,-61,-74,-59,71,-112,95,-20,56,-135,-166,-240,51,-62,16,-22,-133,-85,-246,-62,76,-13,17,42,-72,-57,-60,-58,25,33,14,-21,-32,-42,-37,-52,43,46,25,18,-4,12,-1,25,52,42,15,20,17,-4,-5,3,36,29,45,-18,8,-20,-19,-10,36,36,23,2,0,2,-13,-20,0,0,0,0,0,0,0,0,11,1,4,6,5,21,14,10,7,17,8,10,13,38,18,8,15,5,8,-5,0,-55,20,-10,15,13,3,-18,-58,-93,-131,-25,33,30,5,-28,-86,-49,-76,0,54,48,64,67,71,198,-16,59,0,0,0,0,0,0,0,0,41,24,38,44,11,40,-12,25,31,30,33,18,22,3,26,2,18,17,20,0,41,-14,48,-44,16,24,23,9,-20,10,-5,-18,39,-3,31,27,-21,54,-155,11,39,23,60,21,25,59,6,-35,18,4,-14,20,41,7,21,-66,-22,-16,-3,-47,-53,-32,82,-28,15,0,17,37,32,18,38,27,20,8,5,10,26,36,17,37,54,16,-5,22,14,48,3,14,32,19,7,-17,7,1,12,-15,-15,34,41,-34,-43,13,30,-13,53,25,64,23,-43,30,0,39,36,38,43,6,52,19,41,49,3,-2,-29,2,-51,81,3,-13,28,29,23,28,28,20,23,39,40,25,11,28,23,5,2,19,28,32,19,42,29,25,21,35,39,33,22,39,19,38,27,29,32,25,11,26,39,25,61,35,20,24,18,44,38,29,74,10,21,4,-3,21,0,26,34,39,67,72,66,68,84,-286,98,34,58,69,63,53,48,64,50,69,60,71,43,44,39,41,42,36,55,62,27,56,17,46,15,46,38,45,24,7,-6,31,10,23,13,38,29,-4,23,27,63,-27,10,-8,4,44,66,99,54,26,-2,29,17,54,49,73,81,-10,17,-58,-95,-3,8,-105,-57,16,88,47,34,37,5,-2,9,3,18,31,21,27,3,15,-5,2,21,45,45,33,-17,-7,-33,-23,-15,14,13,-9,-36,-34,-56,-45,-6,5,-1,-21,-107,-52,-109,-88,-9,-11,-9,-35,-74,-105,-98,-81,-22,41,81,-83,-61,-129,-46,-90,-96,-104,-64,15,-50,-383,-41,-36,0,0,0,0,0,0,0,0,47,2,22,24,20,-122,87,-95,16,24,-12,-8,26,-45,33,-49,-1,-9,-15,-13,7,-46,33,-45,-12,-11,-15,-2,-30,3,0,-28,-6,-7,-10,29,-58,73,-40,9,-11,-9,-10,26,-68,40,-36,-2,0,0,0,0,0,0,0,0,10,-13,-20,6,-10,-11,-41,-46,-18,-21,-21,-39,15,-53,-3,-27,0,-11,-60,-17,38,-15,22,-85,-32,-22,-10,-11,1,-31,-3,-37,-27,-22,-26,-5,-48,4,-105,14,-20,-13,-6,-1,-48,-8,-38,9,-14,-22,-35,-13,-18,-17,-3,-27,-26,-10,-16,-18,-11,-28,0,-9,-9,-5,23,2,17,-20,18,8,-5,-27,-42,-10,-23,-7,-6,-28,-38,-9,-43,-5,40,-36,33,6,-7,-25,-29,-10,2,5,23,-10,-23,-26,-30,0,-22,8,-63,52,-26,-6,-15,-22,-57,-27,-62,-21,2,-12,-9,-22,-12,-67,-14,-54,-36,1,-28,-1,-6,-28,-22,-13,-68,-70,-90,-84,-84,-113,-52,-106,-56,-55,-62,-62,-51,-60,-19,-44,-35,-28,-43,-30,-6,-32,19,-55,-20,-3,-4,-7,26,31,50,-4,-36,-19,-21,-3,-15,-21,-22,-7,-44,-56,-40,-62,-72,-89,-45,-20,-55,-42,-50,-43,-42,-92,-23,-58,-41,-35,-29,-25,-25,-20,-28,-40,-21,-104,-29,-96,-74,-233,-83,-126,-69,-62,-104,-60,-42,-102,-18,-68,-55,-34,-62,-21,-21,-43,-8,-22,-30,-44,-11,-24,2,-17,42,-21,-52,-26,-23,-1,-15,-15,7,-3,-32,-41,-35,-50,-65,-80,-33,-27,-52,-32,-54,-48,-42,-90,-25,-69,-43,-26,-24,-38,-22,-3,-35,-46,-37,-26,-37,-37,-181,-92,-65,-64,-40,-4,-92,1,-10,-64,-13,-45,-12,-5,-5,0,18,6,-14,8,-1,8,9,22,71,76,71,70,-81,3,1,28,20,79,41,85,-20,-27,-9,-3,0,0,7,9,-37,-26,-24,-7,-12,-45,-8,-18,-34,-35,-26,15,25,20,4,-6,0,0,0,0,0,0,0,0,5,10,12,6,23,91,-36,-25,7,10,10,10,16,17,-37,2,5,5,6,8,7,6,-10,-2,8,9,6,4,7,4,-3,0,17,19,8,17,16,0,-6,6,11,-13,13,28,8,20,-11,5,0,0,0,0,0,0,0,0,18,12,13,15,33,60,45,23,13,12,17,18,9,50,24,23,13,19,16,17,24,10,12,43,12,7,17,14,25,20,24,31,8,11,12,27,29,14,8,9,0,12,17,16,14,14,11,31,25,26,-6,0,15,4,27,-18,39,16,41,4,6,30,-21,4,12,19,19,12,36,61,123,4,1,16,23,26,15,75,1,18,20,26,23,16,42,16,16,19,17,14,22,29,16,29,20,35,16,23,26,12,17,20,28,21,12,47,13,20,11,6,21,29,25,0,17,25,14,21,52,13,15,14,20,10,17,39,18,36,50,49,47,53,51,125,46,0,35,38,32,36,24,38,25,2,31,34,31,17,17,35,20,3,35,24,27,33,19,34,22,32,28,20,23,30,30,40,29,6,26,31,31,30,25,40,15,15,29,23,22,23,24,35,-1,24,36,18,30,25,30,48,21,15,61,59,62,56,83,127,88,46,53,59,58,63,65,77,63,36,51,56,56,53,59,73,76,58,52,42,55,60,48,72,77,78,41,41,52,47,36,58,74,68,38,61,48,51,54,59,82,89,48,47,50,50,41,73,73,70,51,40,49,56,52,66,54,54,0,-26,-56,-33,-103,68,100,124,-54,-38,-40,-65,-72,22,57,-8,-36,-34,-40,-78,-137,-211,-17,-56,-50,-53,-86,-123,-192,-178,-161,-203,-54,-97,-97,-106,-138,-152,-191,-297,-72,-62,-74,-73,-134,-169,-210,-322,-125,-98,-60,-24,-91,-205,-75,-328,-60,-83,-30,-19,-32,-183,-105,-315,0,0,0,0,0,0,0,0,-59,4,-22,-5,-456,198,81,-108,-25,-13,-23,5,-420,100,14,-93,0,-8,-2,9,2,27,0,-36,0,0,7,6,10,8,-14,-9,1,0,4,4,-2,0,-22,-13,2,0,5,-3,-1,5,-21,-13,0,0,0,0,0,0,0,0,0,-31,17,-65,32,76,48,46,-51,-16,-67,-488,-435,65,12,-469,-20,-43,-26,-40,-1,-479,-388,-16,-12,-3,-20,-2,-40,16,-24,17,-14,-1,-7,-13,-5,-18,9,-4,-12,-16,-11,-17,-9,-19,-3,-6,-18,-20,-9,-17,-14,-3,-10,-14,7,-16,-15,-4,-16,-8,-16,-10,-5,-15,-25,-22,-16,81,80,-146,-8,-44,-10,-59,-484,-1,68,32,-36,-4,-21,-22,-54,61,17,-503,-20,-9,16,-68,-8,0,15,-23,-13,-10,-58,0,-9,-10,-20,-6,-5,-34,-4,-17,-5,-18,-17,-23,-33,-4,-17,-3,-26,-10,-28,-14,0,-4,-3,-27,-12,-32,1,-31,-115,-130,-141,-293,-245,-16,-86,22,-47,-44,-54,-55,-60,17,30,19,-26,-28,-40,-51,-28,-55,24,1,-25,-18,-25,-28,-24,-42,17,0,-30,-31,-26,-31,-24,-40,4,-13,-28,-26,-39,-29,-28,-34,0,-3,-27,-30,-32,-33,-39,-32,-9,-11,-26,-26,-30,-36,-32,-37,-8,-15,-41,-28,-51,-2,-49,-29,30,26,-78,-78,-73,-63,-97,-80,3,32,-85,-85,-89,-79,-40,-9,45,56,-71,-69,-57,-69,-23,-6,18,32,-45,-47,-57,-41,-23,-22,17,4,-60,-63,-44,-40,-32,-34,0,-9,-52,-36,-52,-38,-52,-33,-25,-13,-34,-41,-31,-50,-48,-24,-11,-16,-5,41,32,50,-288,-41,-149,-206,67,-47,7,18,-13,-221,-262,-4,-18,5,-8,-3,-8,-10,-81,9,10,-16,1,9,20,-10,-14,-8,-17,-4,6,6,9,-7,0,-1,-30,-19,-20,-3,3,12,0,9,-15,-14,-11,-8,-6,1,-4,1,-10,-8,0,0,0,0,2,4,0,0,0,0,0,0,0,0,34,35,32,31,17,24,8,17,33,41,30,16,10,18,11,15,38,44,29,12,8,14,16,13,38,34,35,18,16,17,18,19,56,54,42,41,35,40,36,43,57,119,60,63,63,38,17,50,0,0,0,0,0,0,0,0,73,58,52,44,38,35,32,22,56,61,54,45,54,45,47,31,46,59,61,56,49,45,41,36,64,69,67,62,50,50,46,32,41,67,68,62,54,53,33,38,55,66,84,72,65,53,44,61,61,74,66,70,84,56,72,59,59,80,76,91,64,53,69,9,53,52,57,61,53,49,30,27,40,52,61,62,58,49,36,40,50,75,65,57,49,44,34,40,51,87,71,62,48,50,42,32,62,55,74,64,55,39,38,40,53,63,65,62,49,57,24,59,56,51,47,75,86,38,59,49,56,72,91,106,92,147,74,34,94,98,87,77,71,69,54,52,97,106,90,70,69,66,69,47,98,111,93,78,74,70,65,65,89,106,98,96,81,76,66,67,90,98,93,86,76,76,63,63,74,74,81,71,73,72,70,68,62,78,69,72,71,73,69,65,78,78,81,85,79,80,78,77,126,118,128,116,98,87,72,81,121,121,118,107,100,72,53,60,130,132,118,111,108,92,69,74,120,143,124,119,106,105,84,75,124,123,125,123,127,103,87,100,126,110,115,120,105,119,92,92,128,118,100,123,114,104,96,101,124,121,117,119,119,135,105,100,-33,-10,-9,4,-22,-17,-15,-11,-11,-4,-2,8,7,-9,-10,-8,0,3,17,17,9,-3,-3,12,26,23,11,11,7,2,7,23,27,20,9,6,0,2,-2,4,5,-9,0,0,-3,-2,-3,-1,-26,-34,-24,-20,-11,-5,-21,-5,-39,-10,-40,-28,-29,-27,-11,-27,0,0,0,0,0,0,0,0,-77,0,21,-15,35,-65,42,21,-2,6,19,16,8,14,18,5,30,31,38,22,15,17,17,-7,32,48,24,16,15,11,10,-7,32,24,15,4,0,5,7,-6,31,12,11,-17,-9,4,5,-5,0,0,0,0,0,0,0,0,-12,-25,-35,-17,-9,-10,44,5,-17,-42,13,-22,5,-23,23,2,-15,15,-14,-19,-3,-14,-19,21,-8,-18,-24,-20,-28,-16,-15,-3,15,-30,-30,-23,-30,-24,1,-16,-7,-21,-16,-31,-24,-22,-17,-28,-16,-12,-24,-24,-22,-23,-10,-19,-40,-5,-29,-24,-24,-24,-23,-24,-57,-28,-7,-1,-11,23,-16,-5,-36,-32,-10,-15,-2,-10,23,-12,-28,-9,-28,-28,-16,0,-27,-6,-29,-50,-32,-34,-18,-16,-4,-26,-29,-37,-28,-23,-36,-26,-15,-10,-42,-18,-30,-27,-27,-30,-19,-22,-22,-15,-24,-27,-27,-26,-25,-15,-21,-13,-17,-27,-28,-28,-30,-35,-82,-76,-54,-57,-49,-55,-51,-39,-110,-106,-86,-67,-52,-50,-46,-32,-96,-91,-78,-69,-60,-49,-43,-29,-68,-89,-67,-67,-66,-49,-49,-46,-71,-67,-66,-62,-64,-51,-42,-37,-67,-65,-65,-54,-57,-41,-45,-47,-59,-63,-65,-57,-52,-52,-52,-45,-56,-69,-71,-52,-48,-49,-49,-40,-148,-130,-126,-150,-78,-4,-81,-79,-151,-132,-131,-127,-110,-107,-96,-75,-152,-137,-133,-105,-111,-54,-74,-61,-178,-141,-142,-111,-93,-93,-85,-70,-134,-137,-104,-112,-109,-94,-80,-81,-118,-93,-104,-89,-101,-92,-79,-73,-83,-93,-91,-87,-87,-90,-95,-78,-76,-94,-88,-82,-75,-72,-68,-66,-11,-7,-21,0,3,-10,-6,10,-31,-59,-34,-3,0,14,3,30,-27,-43,-41,-19,-2,-4,16,19,-28,-40,-29,-19,-9,-3,1,12,-42,-39,-25,-14,-7,-4,-9,10,-44,-24,-10,-10,-9,-9,-5,-1,-16,-13,1,-7,0,0,2,0,-8,-1,19,2,2,6,5,0,0,0,0,0,0,0,0,0,-4,4,-2,1,21,4,-96,-71,-3,6,0,7,12,-1,-71,-74,-1,2,0,5,1,5,-41,-36,0,-1,6,1,6,11,-2,-18,2,0,0,-6,0,1,-8,-22,-3,0,2,0,-17,7,-4,-4,0,0,0,0,0,0,0,0,-34,-10,-11,-10,8,-11,-5,-22,-7,0,-7,1,9,7,-47,-36,-11,2,0,0,-1,-6,-23,-3,-4,3,13,10,8,4,-9,-1,12,6,1,5,13,3,0,-12,10,10,11,6,0,11,4,1,-7,8,-1,6,3,13,6,2,-43,-7,0,0,2,7,0,0,-5,-5,-4,-10,-13,-18,-14,-35,-7,7,0,-2,-4,2,-51,9,6,-1,4,1,12,0,-22,-4,-7,14,-4,7,12,16,-12,-11,0,-1,14,9,14,3,18,-2,3,11,8,9,0,27,-3,2,7,5,5,-11,1,6,13,14,4,7,-20,0,-11,-12,13,1,-15,-18,-7,-7,-12,-12,7,-20,-8,-19,-6,-3,3,-1,-30,-28,-10,0,3,6,0,-4,-2,6,1,0,3,3,-2,4,-10,1,-2,1,0,2,9,-6,-5,-6,-5,0,-3,-1,-3,-8,-13,-8,-12,-13,-5,-5,-14,-15,-13,-13,-2,1,9,3,-17,-4,-2,12,-7,-10,-18,-25,-21,0,13,3,-4,-8,2,-4,-1,6,-5,37,5,1,12,4,-1,-3,-2,38,-8,-5,9,9,-2,14,-7,6,-22,-12,0,-13,3,3,2,26,-15,-15,-16,-6,14,19,11,37,-34,-20,-23,-17,-5,3,-2,5,-22,12,13,17,7,36,19,20,56,60,62,86,60,89,-128,-71,51,62,77,77,97,71,-115,-75,64,69,79,66,80,81,-227,-77,63,57,62,66,63,70,58,-65,35,34,55,62,61,60,39,-6,17,35,53,47,57,35,37,19,33,32,55,46,63,36,84,20,-30,36,54,41,57,65,72,-244,0,0,0,0,0,0,0,0,19,4,-10,-35,21,-20,-493,-305,-2,-15,-25,-25,-27,24,-454,88,2,0,1,-8,-9,16,-373,58,3,2,-3,-3,9,11,3,33,7,4,3,0,12,7,-14,12,4,2,0,5,5,12,-4,9,0,0,0,0,0,0,0,0,-6,-46,-19,5,28,-36,-9,-80,-1,-24,-20,27,22,-3,-164,-41,-18,-22,7,-34,-4,-8,-30,18,-12,-36,-23,-2,-14,11,-24,-3,-10,-12,-14,-9,-17,0,-6,-8,-15,-3,-8,-8,-7,-4,-9,-4,-9,-6,-9,-14,-12,-10,3,2,0,-8,-5,-6,-12,-8,-20,6,-8,-24,-11,-13,-16,-17,9,10,9,4,-15,-9,4,15,-12,14,6,-14,-19,-35,10,0,7,8,-20,-15,-23,9,4,5,-27,-22,4,-31,12,-5,7,-17,-12,-25,-20,13,5,0,-16,-7,-15,14,15,-6,9,-15,-14,-4,-9,0,8,5,-14,-8,-19,-18,-10,-5,-32,-20,-26,-24,-22,-20,-28,-44,-39,-51,-44,-38,-30,-58,-40,-146,-34,-35,-36,-35,-34,-42,-62,-146,-29,-21,-33,-38,-26,-51,-39,-79,-26,-26,-23,-27,-29,-24,-31,-34,-20,-22,-22,-21,-19,-26,-30,-24,-15,-18,-20,-11,-26,-18,-26,-16,-17,-15,-20,-20,-19,-25,-29,-19,-41,-57,-72,-96,-81,-105,-143,-202,-88,-73,-97,-60,-101,-72,-74,-168,-73,-71,-86,-87,-61,-74,-85,-138,-99,-62,-109,-58,-71,-73,-77,-102,-72,-109,-48,-66,-46,-62,-62,-54,-106,-62,-72,-49,-59,-62,-47,-25,-63,-68,-57,-65,-53,-55,-46,-33,-73,-50,-63,-58,-54,-59,-55,-47,-20,50,12,25,10,49,109,132,45,20,72,21,-4,55,46,70,33,13,35,38,12,36,65,70,17,41,44,31,42,40,41,11,47,41,24,44,46,46,46,51,29,15,21,34,42,51,59,53,18,15,21,33,29,34,43,36,36,20,22,30,26,27,34,31,0,0,0,0,0,0,0,0,5,-26,6,-51,18,-37,8,-26,15,-9,7,-39,17,-28,-3,-15,-18,2,0,-22,8,-31,-8,-20,17,8,-1,-3,-1,-11,-10,-24,35,-28,43,-39,-21,0,-62,23,29,-64,34,-84,-49,11,-151,-20,0,0,0,0,0,0,0,0,-20,-30,-5,-18,18,-1,-18,-41,-52,9,-24,30,-36,-19,-36,3,-25,-5,-60,-1,16,1,2,-28,16,-49,47,-9,-46,-1,15,20,24,-59,-17,-35,42,29,-10,12,-40,-5,35,19,-126,-57,-70,45,19,0,-138,-19,54,15,-93,-37,-75,-49,44,52,-37,-24,-53,-51,-35,-43,-17,-14,-36,-15,-29,-23,-46,-54,-51,-36,-26,-24,-21,-30,-42,-7,-23,-41,-10,-17,0,-15,-3,-65,47,-4,-2,-12,-14,-6,-63,-28,3,65,2,-8,-30,1,23,-36,-45,-3,41,-8,-61,-9,3,-40,1,-35,-16,21,-60,-33,-5,-11,-32,-12,-9,-5,39,-7,-48,-66,-64,-45,-49,-23,-37,-45,-96,-64,-102,-44,-46,-10,-57,-43,-83,-71,-36,-75,-50,-40,-11,-62,-22,-17,-20,-31,-57,-16,-53,-14,-44,18,-23,-6,-22,-5,-14,3,-70,-51,-62,-60,-50,-31,-61,-21,-91,-86,-66,-92,-97,-59,-88,-45,-47,-44,-21,-47,-20,-2,-41,-18,-105,-95,-66,-46,-67,-7,-54,-67,-103,-135,-138,-56,-80,-55,-99,-78,-127,-107,-89,-113,-87,-53,-79,-37,-73,-85,-61,-71,-83,-40,-77,-2,-112,-87,-71,-32,-88,-79,-71,-10,-76,-94,-131,-93,-39,-111,-144,-71,-117,-116,-75,-148,-171,-70,-81,-76,-119,-66,5,-141,-252,60,-19,-31,17,-3,27,7,34,38,14,35,-33,-51,-55,1,5,30,3,17,-15,30,9,-21,10,-9,16,10,-13,6,30,3,4,-8,-16,-25,-46,-35,11,-25,-52,-60,-73,-41,-46,-55,-64,-55,-25,-38,-15,-45,-51,-115,-65,-114,-46,-38,-58,-42,-24,-127,-117,-153,-129,-62,-108,-75,0,0,0,0,0,0,0,0,108,135,49,134,93,-68,22,-48,-53,-156,4,-33,-11,-66,-37,-36,20,-48,-36,-5,-5,18,-10,-3,8,51,8,15,0,3,22,10,12,33,20,26,13,19,32,12,9,35,18,15,-2,9,33,16,0,0,0,0,0,0,0,0,-12,79,-6,-35,-168,-22,-40,-37,-15,46,-15,-22,0,-58,-71,-56,7,18,-7,-26,29,-36,71,-9,31,-25,-56,-29,57,-3,26,-39,-23,45,-10,2,-8,35,3,18,0,25,-13,27,6,28,26,19,39,16,28,31,11,25,20,22,14,14,41,23,28,19,22,37,-5,-31,31,-68,-7,-14,-20,-44,0,47,-36,41,3,33,-94,21,20,-39,54,-20,22,-54,47,-25,-1,57,-29,-4,-37,30,7,9,16,90,1,6,-6,-43,52,12,41,-1,-15,3,20,27,0,3,29,5,64,19,18,2,17,3,15,7,10,21,36,26,-19,3,37,29,77,27,-7,39,-29,-19,-21,-53,-22,-104,-76,-96,-100,-77,-4,-10,25,-4,-23,-19,-73,-22,42,-9,-17,10,17,49,-12,46,-23,-16,51,12,7,50,38,72,28,-23,5,3,-5,11,-14,30,6,-46,57,13,10,-45,-7,51,8,-8,6,13,30,31,-15,16,111,73,45,-5,46,-36,-23,-81,42,36,47,36,2,-45,-84,-53,58,30,96,48,42,-10,23,-27,68,86,37,101,-3,56,-2,51,53,85,73,5,37,-6,61,65,63,32,38,48,34,66,10,50,44,12,96,45,58,27,57,71,52,21,41,57,92,65,27,24,-221,-131,-230,-22,-177,-42,-79,-66,-56,14,-38,22,-3,-5,12,-24,-56,11,5,9,7,-3,-4,4,35,10,28,16,1,0,-24,-18,23,34,34,34,-11,-13,-2,-12,30,49,37,-1,3,-15,-15,-22,21,44,51,13,-10,-25,3,19,4,8,22,8,15,12,4,-23,0,0,0,0,0,0,0,0,-30,-24,-20,3,7,0,9,8,5,-71,-2,-23,1,-10,8,5,1,-63,3,-1,-8,-4,2,0,-30,-14,-16,11,0,-3,13,-6,-121,1,-91,-5,0,-16,-3,-1,-187,71,-126,-43,-29,-77,-115,8,0,0,0,0,0,0,0,0,-11,-10,5,-43,-3,-32,3,9,-7,-17,-3,-15,-6,-20,-16,-20,-13,28,-6,-13,-13,-7,-16,1,-6,12,5,13,-17,-4,-18,1,17,0,-24,10,-24,2,12,-16,-48,-5,-11,-2,14,-32,-14,8,-18,19,-24,-46,17,-17,-9,-26,-22,-6,-24,0,-12,-25,-56,40,-17,-36,-4,-29,-15,-11,11,-2,-41,25,-48,7,-15,1,-13,9,-37,95,-36,11,-8,-12,4,1,14,-41,61,-13,6,-8,10,24,-24,-38,0,25,-16,15,18,-7,11,14,-38,-22,44,-15,1,-5,-54,71,-43,1,-8,17,-38,17,16,36,62,-12,-12,-19,6,-14,-6,-35,-2,-7,-9,-30,-7,-7,9,-7,-1,34,-6,0,5,-5,-14,19,14,11,-1,-14,3,5,20,-58,20,-16,-8,-11,2,-4,-33,-49,-27,-14,-5,-14,9,-11,-48,-20,-19,-25,-12,-13,-3,-12,-43,-15,-20,-6,0,6,14,0,-35,18,-30,-9,2,-3,-19,22,-36,-38,-35,-40,-33,-65,-42,-40,-28,-8,-52,8,-37,-33,-43,-12,-28,36,-15,-15,-31,-51,-37,-17,-27,-48,24,-50,-45,-40,-29,-34,-14,-48,-57,-32,-67,-48,-41,-46,-10,-29,-20,-74,-6,-74,-54,-44,-58,48,-63,-29,-36,-14,-19,-49,-114,-40,-18,-30,-21,-10,6,-37,-112,-35,-21,0,-4,-3,-6,12,-78,-19,-22,21,10,-9,-8,-7,-38,-14,-49,23,9,-2,-2,14,-68,-155,-20,-4,16,0,13,10,-10,-68,-74,-20,-3,12,-2,14,112,46,3,17,32,0,14,6,31,87,65,43,71,35,11,15,34,18,136,65,73,143,4,-36,0,0,0,0,0,0,0,0,28,59,-54,44,-5,52,-21,-17,64,70,16,48,53,38,9,-3,66,26,97,27,6,11,4,4,23,36,25,26,6,2,4,0,0,-5,-2,11,10,5,0,4,-4,-18,-9,14,-2,5,0,4,0,0,0,0,0,0,0,0,92,44,19,60,3,90,-13,3,-37,93,26,29,8,45,20,-26,14,93,13,54,21,78,-7,18,91,-28,83,12,36,0,0,-16,134,-30,88,-1,35,7,4,-5,-1,59,-1,20,-6,-3,3,-5,-28,29,-26,17,2,-7,-5,-6,0,-20,-18,-9,-21,-3,-6,0,-4,7,68,12,21,11,-1,-16,111,45,29,37,4,33,-18,0,2,51,45,22,51,7,31,4,78,31,44,22,20,31,9,-4,61,4,8,48,18,10,26,16,-10,-15,8,-1,27,16,31,23,-9,-10,4,22,8,14,4,3,13,22,2,9,11,6,-32,12,3,26,25,1,-12,-4,2,24,-14,21,17,5,18,15,16,27,-18,27,0,13,12,17,9,20,-20,87,9,27,14,6,13,30,-31,35,-11,-32,-11,-13,2,17,-2,32,-27,-8,-29,-20,-3,3,26,33,-12,-8,-14,-32,-4,2,17,47,-7,-10,-1,0,-3,6,47,67,52,117,92,142,32,114,-46,49,52,36,53,79,95,44,-2,29,36,60,51,97,47,44,-2,81,44,38,49,40,27,26,31,57,17,52,39,42,37,43,16,36,42,32,36,38,38,38,11,40,25,42,25,25,19,18,43,57,22,21,36,27,41,54,-32,-5,-23,-66,-150,-58,-78,-27,-11,18,33,-20,-42,-66,-70,-27,45,66,23,33,-17,-54,-17,-14,35,64,30,45,1,-32,-29,-42,107,58,46,44,-1,-6,-18,0,19,16,29,5,-3,-6,0,-7,3,0,7,1,-3,-9,0,2,-12,-21,-14,-18,-9,-11,-10,0,0,0,0,0,0,0,0,0,6,0,7,-18,31,-16,1,6,4,9,3,-155,33,-176,8,10,9,7,10,3,70,9,13,8,10,10,7,4,-2,7,8,0,1,1,16,0,20,-3,20,-1,10,-14,21,-46,43,-46,0,-7,0,0,0,0,0,0,0,0,23,-6,0,0,-7,-1,8,-10,3,3,13,-42,6,-54,0,-10,17,4,-40,-6,16,4,-50,4,-1,9,17,10,66,3,2,9,18,6,-37,-4,0,-3,-42,0,5,18,5,-54,4,-82,15,5,34,4,8,2,11,0,9,10,24,22,6,-7,13,11,-35,18,3,-47,17,-5,6,-8,27,-67,2,1,-64,27,-8,16,-66,18,12,-1,24,-68,23,-61,17,-1,6,13,-8,6,57,14,-2,9,20,0,18,-90,3,-52,11,-7,-8,23,-53,20,-2,17,-47,24,14,-41,9,-11,28,-12,38,-30,-48,1,5,16,41,29,5,10,9,21,7,-4,-13,-5,7,21,12,12,8,6,-17,0,7,10,-1,-9,6,-3,-35,-4,7,-1,4,-4,0,-17,38,-26,0,-1,15,14,12,-7,-51,-3,3,12,14,10,14,14,-6,5,22,13,10,16,7,3,0,2,14,23,14,6,8,-11,2,-2,11,5,3,-7,-5,-14,-13,-11,8,9,6,-9,-25,1,-23,-3,-21,0,-5,-7,0,-21,-23,-32,2,4,1,5,-10,-31,13,-24,-18,-10,-3,6,-1,-56,-49,-28,0,-1,-9,13,-6,13,-6,7,9,-1,0,0,6,8,0,19,8,15,1,-9,25,-18,50,2,28,-4,-8,20,-5,5,-7,-1,-11,13,-1,-1,16,10,-10,-4,9,-10,-14,5,7,-32,-52,-34,5,7,12,0,2,-39,3,-30,7,4,-4,11,5,-27,-30,-31,3,9,-15,23,-3,0,-11,-3,0,8,-129,33,-9,6,-7,-3,-20,12,-87,-4,8,-46,-43,-21,-21,-146,0,0,0,0,0,0,0,0,-3,10,-4,38,12,39,-22,46,4,13,14,3,11,7,23,7,-1,1,5,5,294,26,32,-3,-5,-6,-8,25,-28,35,-4,-4,-2,-5,-11,-6,-18,0,-3,-6,-7,-4,-9,2,-23,1,-4,-3,0,0,0,0,0,0,0,0,4,-19,-22,16,-30,32,19,10,-7,-14,-28,107,18,103,-14,8,7,-1,83,-15,-4,-6,94,6,-11,-11,6,-3,173,-8,6,-7,-13,1,55,-7,-19,-1,71,3,-16,-13,-20,60,-11,47,-14,-13,-22,-8,-16,-10,-17,-3,-13,-1,-22,-21,-1,-19,6,-12,7,-11,-14,82,-36,2,-5,3,-9,170,-2,-32,72,-6,39,-1,66,-20,-11,8,-1,78,-19,58,-1,17,18,1,14,-15,194,-19,28,-4,-5,23,-10,59,-30,77,-16,33,26,-14,36,-15,2,-20,75,-15,-12,39,-11,7,-17,11,-8,80,42,-20,7,-12,20,-18,13,-4,10,3,13,-10,23,-13,9,-3,6,1,-5,-3,10,4,-3,19,-3,-8,3,-8,35,-7,4,11,5,9,21,35,149,37,20,18,-15,-19,-7,-9,32,-12,-18,-12,-14,-11,-9,-4,28,-4,-11,-3,-12,-8,-10,-9,15,2,-7,0,-11,-9,-7,0,21,-2,-3,-12,78,100,41,20,66,65,80,97,40,47,55,56,46,44,67,48,41,36,43,66,77,82,56,44,41,43,49,76,162,70,42,46,12,23,29,75,68,70,16,39,19,23,26,20,52,23,52,24,20,40,12,14,35,31,16,69,39,11,16,9,37,18,39,29,-21,-102,-87,-41,14,-53,12,-43,-57,-53,-25,-3,3,22,21,-35,-18,-20,-11,6,29,25,32,-15,-14,-2,-12,9,-120,12,-13,7,-13,-11,-1,23,41,22,0,0,-13,-5,-11,-11,-13,-10,-13,-10,-2,-8,-6,-10,-20,-10,-7,-7,-3,-8,-13,-2,-2,-2,0,0,0,0,0,0,0,0,0,0,2,4,7,9,-16,-18,-29,-79,1,1,7,3,13,-15,69,-61,4,0,3,1,6,-15,73,-57,1,-15,4,0,4,-11,50,-34,16,-56,13,-7,-7,-27,56,-34,37,-192,17,-39,0,9,-31,-2,0,0,0,0,0,0,0,0,-18,-16,-33,-42,-30,-35,-36,-45,-18,-13,-22,-23,-47,-27,-10,-4,-25,-30,-21,-31,-27,-25,-45,-34,-20,-25,-33,-27,-36,-55,-3,-44,-25,-45,-43,-29,-28,-20,-36,-66,-49,-40,-11,-59,-77,-72,-36,-12,-26,-50,-20,-39,-55,-54,-73,-103,-19,-33,-22,-24,-37,-66,-72,-80,-3,-40,-4,-31,-2,-64,-57,-30,-45,-7,-38,-11,-34,-22,-50,-3,-22,-31,-11,-41,-33,-18,-30,-7,-29,-25,-27,-42,-41,-16,0,-26,-53,-42,-49,-18,-22,-45,-21,-43,-80,-58,-29,-30,-37,-35,-29,-33,-46,-16,-27,-35,-35,-44,16,-53,-15,-41,-29,-21,-59,-1,-35,-30,-37,-37,-33,-50,-53,-70,-32,-80,-35,-41,-44,-57,-69,-41,-3,-90,-49,-62,-46,-52,-60,-47,-45,-19,-44,-57,-56,-29,-23,-34,2,-22,-54,-70,-45,-49,-52,-43,-47,-31,-56,-61,-44,-54,-40,-56,-67,-56,-48,-61,-40,-48,-55,-57,-58,-62,-41,-79,-36,-56,-48,-55,-61,-45,-25,-28,-23,-33,-36,-59,-49,-86,-18,-32,-32,-47,-65,-42,-18,-92,-41,-49,-34,-47,-69,-52,-45,-38,-47,-61,-54,-42,-28,-55,-25,-57,-69,-85,-67,-42,-53,-78,-57,-59,-79,-71,-60,-61,-52,-87,-57,-78,-77,-76,-41,-58,-59,-65,-55,-80,-42,-76,-6,-54,-29,-70,-95,-79,6,22,20,35,47,-25,-15,47,-2,10,17,20,-9,-19,-27,-44,15,13,22,8,3,-5,-36,-18,12,1,5,4,-3,-15,-14,-45,-6,9,-4,-4,-16,-22,-42,-28,5,4,-2,-16,-15,-30,-61,-23,19,-8,-7,-15,-95,-48,-66,-51,85,-79,-9,0,-4,-38,-86,-71,0,0,0,0,0,0,0,0,23,60,3,27,-25,106,40,-48,19,1,9,-11,-18,14,44,85,8,7,2,4,-4,23,71,38,8,0,0,11,4,16,51,74,1,-2,8,9,-2,22,25,31,5,3,0,3,3,14,21,20,0,0,0,0,0,0,0,0,38,6,20,-24,30,8,9,68,56,14,9,-33,38,43,13,18,6,37,7,89,25,26,18,65,16,31,14,28,12,50,19,19,17,34,16,10,31,-4,57,-42,12,18,9,12,22,10,14,-1,12,7,9,10,15,31,5,6,16,3,15,21,9,19,13,-1,10,20,36,48,21,-61,19,21,5,31,26,22,14,13,26,-113,26,37,33,5,14,67,27,41,20,24,-12,19,58,13,39,-7,28,3,19,41,0,44,14,-9,0,16,28,1,36,17,32,-16,0,32,1,36,9,13,22,4,27,-26,30,18,34,17,12,10,48,39,59,55,48,37,49,75,43,37,44,37,58,53,49,51,46,33,56,46,52,42,102,38,33,22,53,34,36,42,27,10,32,16,50,9,30,19,36,17,38,27,34,25,32,32,37,13,24,28,50,34,39,22,39,43,12,15,37,28,41,35,37,35,59,117,-15,73,15,137,95,165,79,81,77,73,83,107,59,109,57,61,68,85,64,80,93,4,67,51,57,61,96,50,29,48,56,49,76,61,38,47,46,49,61,62,59,52,64,58,55,31,59,55,51,60,51,51,60,65,49,47,59,50,63,59,53,61,-43,-4,-50,-47,-18,0,-24,16,-37,-9,-39,-16,-34,-5,-5,3,-29,-40,-22,-28,-26,-22,37,4,-26,-27,-23,-18,-14,20,11,20,-32,-20,-20,-17,-8,7,12,10,-17,-13,-1,-4,-9,6,3,8,14,7,8,5,-5,3,11,-10,4,15,17,19,6,18,2,-7,0,0,0,0,0,0,0,0,2,-11,-1,-10,-14,-7,0,3,5,-9,-7,-9,-18,-12,-2,-1,-7,-6,-6,-15,-14,-19,-12,0,-4,-13,-11,-7,-30,-19,-29,-13,4,-19,-2,-23,-34,-232,42,-284,20,32,17,0,-105,33,-8,9,0,0,0,0,0,0,0,0,-20,-9,-16,-13,-13,-16,-7,-18,-14,-16,-16,-14,-21,-9,-24,-1,-13,-17,-11,-22,-20,-7,-39,-10,-27,-20,-21,-25,1,-42,56,-37,-10,-19,-31,7,-10,-158,-30,-226,-28,-16,-4,16,-283,88,-2,58,-11,-19,-32,50,-96,4,79,93,13,-1,-11,-36,-336,252,75,70,-20,-27,-6,-24,-8,-22,-16,-27,-26,-10,-29,-7,-29,-15,-22,-16,-29,-25,-17,-29,-11,-29,-13,-20,-11,-22,-22,-33,-29,-8,-24,4,-2,-16,-22,-7,-36,-8,11,-20,-24,-9,-14,-25,-8,83,-28,-24,-12,-14,-6,-1,6,5,44,3,-11,-14,-1,14,-30,-33,-2,-26,-25,-28,-27,-24,-30,-17,-27,-15,-26,-24,-31,-28,-28,-26,-26,-20,-40,-35,-23,-34,-30,-23,-55,-17,-27,-38,-36,-22,-36,-16,-40,-17,-29,-30,-37,-30,-32,6,-55,11,-4,-4,-9,-6,10,24,-12,37,-28,-43,-43,-54,-53,-25,15,54,15,24,21,5,-21,39,-14,29,-28,-36,-27,-30,-32,-31,-34,-25,-38,-16,-34,-25,-29,-34,-35,-35,-61,-34,-2,-30,-16,-27,-34,-33,-38,-49,-32,6,-24,11,-24,-24,-30,-26,-38,-23,33,15,10,-1,-16,0,-2,-15,9,53,29,50,-34,-24,-24,-26,45,104,33,51,-21,-5,-9,-8,2,34,-241,13,-14,-5,-10,-3,-6,-7,-23,-20,-8,-10,-8,-7,-9,-17,-26,-27,-22,-28,-14,-9,-9,-14,-26,-17,-15,-22,-19,-2,-3,-6,-18,7,-28,-20,-22,-21,18,43,81,86,-40,47,-39,-12,47,100,113,92,22,-67,-3,-49,71,4,372,-45,53,-5,-12,-78,49,-11,-114,-63,0,0,0,0,0,0,0,0,15,30,4,-3,38,-15,31,6,8,15,11,0,17,7,4,-4,8,15,4,3,1,2,-7,-9,9,9,6,4,-7,0,-12,-8,4,11,3,5,-3,-10,-22,22,9,0,8,6,16,-9,152,-9,0,0,0,0,0,0,0,0,-9,11,-35,20,-12,-2,12,0,0,17,-8,14,17,14,5,-4,14,0,27,9,9,18,17,17,23,7,9,3,6,6,3,7,9,8,9,9,2,2,17,-3,14,9,9,10,10,6,3,21,16,17,12,7,40,0,114,8,4,9,20,5,-8,7,-16,3,-21,-3,-17,14,13,6,-16,31,3,5,-1,-7,26,0,-8,7,5,9,-2,13,0,11,-10,23,23,0,14,2,1,3,21,5,2,19,10,9,3,10,3,24,19,9,12,2,16,-4,26,-28,12,8,8,19,3,12,213,4,15,3,17,1,18,-134,17,-207,21,16,22,20,34,34,20,23,16,15,24,20,26,24,22,18,23,28,27,26,21,33,25,20,22,31,23,