{"l1_biases":[-10,-155,-233,-63,-32,-31,-104,-157,0,-73,66,-78,-16,-13,-1,-26,0,-101,-51,-114,-174,-86,-76,-78,-33,-12,-11,-24,-7,-8,-14,-142,-10,6,-4,-281,-82,33,6,-237,-63,-10,-61,49,24,-27,-10,-84,-83,-50,41,83,-32,-39,-5,-220,-74,-109,8,-73,-33,-34,-237,-76,55,-186,-17,116,-100,-85,-40,-93,-50,24,-33,12,-45,11,-20,-200,-70,146,-49,-97,-114,-154,-91,-57,-25,-49,-84,-18,-14,-42,-66,-25,31,-26,156,-98,-249,-75,-155,131,-10,-45,-7,-79,-31,-129,-134,154,-28,-323,-19,244,247,13,-85,-73,-7,-20,26,84,-130,-118,-173,-76],"l1_weights":[5,8,8,-8,-6,0,7,5,-65,16,-2,-60,38,-9,24,-10,-44,28,16,-49,40,-56,64,-23,-60,-54,14,-93,24,-64,17,-20,-86,-73,38,-52,35,20,30,12,-111,-70,54,-41,32,71,21,38,-67,-45,90,27,99,153,-174,94,3,5,0,-6,0,-2,1,5,-60,-44,-11,9,-42,34,-38,0,-33,-99,-6,-65,-5,-79,-25,-164,-69,25,-57,-129,-8,-57,-34,-52,-111,-13,-110,17,-94,-39,-65,-107,-67,-62,-135,-35,-155,28,-70,0,-46,-70,33,-117,-38,-115,-34,-24,-56,2,20,-178,-51,-157,-13,36,-8,47,-76,-64,-133,-7,-3,-76,-29,-25,-54,-94,30,-51,-12,-57,-25,-48,-57,-14,-63,14,-68,2,-97,18,-16,-80,-25,-51,-28,-87,-106,-41,-85,-19,-68,-106,-104,-74,-51,-61,-55,-34,-136,-69,-102,-64,-143,-37,-29,-88,-60,-62,-86,-44,-47,-22,-51,-73,-244,-34,-121,-65,-51,-77,-121,-32,-86,-40,-76,-53,-43,-34,-40,-91,-55,-55,-46,-45,-89,-60,-60,-116,-58,-103,-45,-51,-46,-26,-85,-130,-27,-16,-124,0,-97,-135,-150,-83,-63,-144,-122,-134,-67,-58,-23,-161,-54,-90,-30,-35,-51,-44,-18,-94,-60,-95,-144,-32,-18,-51,-77,-127,-138,-106,-161,-89,-112,-201,-135,-437,-140,-125,-504,-188,-116,-84,-103,-118,-186,-168,-174,-94,-96,-124,-170,-107,-161,-129,-171,-126,-169,-35,-180,-150,-45,-73,-273,-121,-109,-154,-253,-20,-165,-199,-290,-160,-64,-157,-168,-111,-187,-91,-203,-17,-62,-34,-15,-132,10,-253,-81,-117,-31,-44,-98,-181,-157,-19,-287,-76,-34,-164,-248,-77,-197,-126,-384,-199,-24,35,12,9,-32,-12,3,28,-7,33,-4,-19,-39,16,12,49,-20,52,18,-8,13,24,39,-9,25,13,7,13,-3,14,21,69,123,38,59,22,31,16,46,36,82,66,69,-2,25,-43,-33,33,69,89,57,-24,-43,-66,-65,12,92,108,25,-218,-30,-218,-354,-10,-4,6,-3,-8,5,3,-8,6,-113,34,49,107,64,124,84,-7,21,-15,-15,2,39,-13,-33,-3,36,-44,-41,30,6,44,0,29,0,-37,37,-18,39,-3,6,-11,-23,13,7,-16,32,-11,40,0,-5,12,15,-16,33,8,32,0,-9,4,-1,8,-8,-1,-8,-8,16,-292,7,60,-52,107,-27,44,-60,-25,73,105,30,82,-82,93,-78,107,-22,-54,-54,15,58,-16,-16,30,42,50,27,-32,60,-26,49,38,102,-14,61,15,112,-45,58,-21,74,32,63,38,-13,29,47,15,46,50,34,32,80,39,-98,56,62,104,20,76,41,22,42,-24,12,-5,-28,-16,27,91,59,65,101,41,9,75,115,-79,37,7,37,-32,45,42,-17,-17,26,53,0,37,90,25,121,-94,32,-45,107,62,32,16,102,85,-23,74,58,10,24,14,62,34,30,56,21,85,19,68,37,-10,39,52,48,46,97,32,52,6,40,-14,5,0,34,56,21,-11,-17,-3,13,-15,47,29,10,-18,-4,35,78,58,51,63,14,-20,6,53,46,-92,49,14,7,20,21,66,69,28,76,66,68,38,104,79,52,129,30,91,27,87,80,83,47,107,49,59,3,66,89,92,55,65,41,64,23,84,-283,-71,-372,-237,-328,-15,61,-259,-53,33,65,49,-3,27,93,12,6,-21,44,142,54,139,14,97,-8,3,75,-60,163,17,196,-286,-54,50,173,67,165,101,137,72,9,138,110,136,28,123,103,54,122,131,111,156,92,118,109,41,141,124,133,128,111,208,122,169,-33,-1,61,-24,73,25,35,-2,-49,-33,18,33,34,38,99,-39,-166,-45,-4,9,31,41,28,-13,-155,-16,-6,8,17,37,39,9,-246,-45,-7,21,33,32,29,38,-66,22,8,37,31,40,56,32,-102,-24,-4,21,13,2,0,7,-76,-18,-11,6,2,2,-10,24,3,-4,0,2,-7,1,4,-7,0,1,5,2,-37,-7,-57,2,6,5,6,-30,-21,-106,-3,2,4,8,-6,-2,-101,-1,7,-3,-4,-6,23,-158,7,2,-3,1,-18,31,-177,22,21,-13,-6,-2,110,94,35,7,4,-46,-43,-16,0,4,0,6,-9,6,-2,0,58,3,21,-8,-7,-16,14,-37,-8,4,14,-19,-4,-8,35,6,-7,-3,-14,-4,-20,7,-5,8,17,-16,-25,-9,32,-7,-18,-10,-102,0,-12,1,-6,-2,-5,0,-37,8,50,-56,-3,-3,-3,27,-26,78,21,-4,15,31,16,24,108,43,5,33,17,27,-5,31,19,-16,12,-38,7,-33,6,-87,-35,7,-16,11,-19,-1,-74,12,13,-6,15,-16,6,-87,6,-16,-21,4,-11,16,-88,15,-16,18,0,-17,29,-285,21,-16,16,-8,-15,19,-193,9,-5,5,-4,21,32,-121,35,33,0,7,32,-13,-289,8,30,20,-3,23,-5,32,19,22,11,6,11,13,9,65,21,6,-2,-9,-3,-13,72,3,10,20,4,-19,-6,75,-2,6,27,10,-13,-10,84,1,-8,12,0,-21,-33,77,-6,0,34,3,-13,-14,64,-41,-32,-27,3,-4,-3,75,-114,-104,-34,-80,-2,-9,99,53,-4,0,37,24,18,24,6,0,1,-38,-15,-10,-6,48,-11,-24,-17,-23,-41,-42,28,-12,-34,-17,-43,-7,-10,38,-41,-62,7,-12,-43,9,48,6,-6,1,-71,-6,-17,19,-12,-12,17,-15,-7,-84,44,-13,-34,0,-6,-19,61,89,9,-38,-7,16,8,-7,149,-39,93,-29,94,34,-26,18,-23,-25,-40,-30,-33,-30,-16,41,-36,-72,-19,-43,-28,-41,41,-3,-86,-36,-66,-40,-41,51,-41,-29,-27,-54,-22,-46,18,-22,-30,-43,-52,-6,-7,-26,-42,-34,-59,-83,-14,6,25,-35,-5,-49,-60,-53,6,79,10,78,-34,-21,-51,-99,81,-453,65,102,40,23,18,-116,-6,-8,-7,0,-4,8,-7,5,-13,4,5,53,10,9,2,31,6,0,0,9,23,-7,11,31,0,0,8,25,-69,23,34,11,6,15,9,-411,2,17,17,4,13,2,-281,-5,21,-6,-2,2,7,-1,7,6,0,-7,-4,-2,4,5,2,-5,-5,-3,2,-3,39,72,14,-8,71,42,60,53,43,3,32,63,34,24,33,45,-12,22,26,1,16,26,11,57,-24,14,0,30,-26,27,12,63,15,-13,15,-56,25,14,63,12,-29,-1,-77,17,12,-5,12,-3,-2,-73,10,-1,-8,-8,-16,-1,-16,-11,25,-5,-15,-15,-9,17,38,13,-38,59,13,53,21,150,-5,5,89,-9,81,20,157,24,11,52,1,57,15,158,3,115,82,7,64,13,148,10,87,3,-12,97,6,154,-11,71,-8,10,69,0,243,-9,74,-13,44,-8,-14,276,-24,100,-8,49,-6,-219,308,-1,58,-14,74,-11,9,21,44,34,29,20,50,5,32,52,32,27,16,23,29,21,11,44,20,18,31,4,33,6,58,37,-8,19,13,0,-12,37,41,23,5,0,0,-55,36,27,26,15,-35,-17,-85,0,35,5,28,9,3,-1,3,8,8,8,13,9,0,3,5,-1,0,14,4,2,38,20,67,58,-435,14,-38,125,37,18,38,38,53,58,37,66,3,24,72,28,88,65,113,83,-3,36,37,40,122,77,75,65,14,8,17,38,56,67,37,51,66,37,177,35,74,50,46,22,36,207,41,42,47,39,8,50,187,25,42,20,30,21,29,-18,19,-363,-68,-37,12,-90,-172,-28,-56,-57,-52,-65,-55,-39,-70,-29,-7,-35,-39,-38,-27,-16,2,-62,-24,-55,-41,-43,-51,-15,-3,8,7,-36,-40,-130,-37,-10,-14,-8,-8,-11,-165,-52,-32,-28,-23,-4,-2,-13,-21,-20,-17,-26,-17,-5,-4,-18,-12,-10,-25,-23,-21,-9,0,-4,-1,8,3,-9,4,7,-6,-4,-3,-9,-11,-5,-13,5,-8,0,-5,-10,-2,-61,-5,5,-7,0,13,-9,-105,-3,-4,2,-15,19,4,-151,5,0,-5,-3,-21,64,-92,9,3,4,8,-10,20,26,37,-48,-48,-16,-13,0,-2,8,-9,-5,6,8,-3,6,8,-8,-6,-4,15,0,-9,-20,-1,-8,-1,-6,-9,-12,-7,13,-6,0,-9,-23,2,-35,0,-7,-24,23,-19,1,-34,-12,-20,7,-13,-5,-6,-54,7,-2,13,-10,4,-16,-35,-14,-5,-47,3,-35,20,-7,-55,-39,-23,-8,-10,-17,-47,-28,0,33,-70,23,38,-3,-30,16,-7,12,-22,18,-2,162,9,0,19,-14,15,-8,144,-2,-5,30,-18,12,-10,159,0,30,-9,-17,40,-2,178,-9,30,-20,-10,13,-20,217,-6,2,-9,25,50,-5,251,2,2,-11,18,-13,-1,167,-17,-103,-28,18,-15,-17,196,14,91,10,-91,10,46,-6,-13,-13,-14,-21,-16,-13,-6,-10,-8,-8,-25,0,-8,-7,-21,-15,-22,-7,-16,-12,6,-15,0,-20,-17,-30,-24,-29,-17,-9,-21,-19,-23,-24,-32,-50,-23,-2,-9,-31,-47,-23,-81,-26,-20,-4,-23,-6,61,-90,-29,-11,-25,-28,-11,7,5,84,66,25,60,62,30,7,-5,12,2,0,-3,1,13,99,-8,20,-2,12,11,14,127,21,9,4,31,21,37,149,30,18,28,16,31,35,187,53,44,15,2,28,18,242,67,47,48,34,15,61,180,40,23,27,30,37,-59,136,48,0,37,40,29,23,504,-53,-2,-10,-13,-22,-36,-23,-34,-33,-46,-33,-32,-45,-36,-39,-32,-42,-40,-39,-46,-38,-45,-37,-65,-41,-41,-56,-52,-83,-34,-57,-28,-36,-23,-68,-95,-62,-49,-40,-3,-29,-25,-72,-17,-34,-27,-34,-30,-4,3,-21,-25,-37,-9,-55,-11,37,-30,-58,-38,-30,-20,-85,-125,15,-1,-42,-26,5,-5,-48,-1,-2,7,3,-2,-6,-9,5,-12,-1,16,12,8,0,62,104,-7,12,1,-1,1,-17,20,-18,1,-9,6,0,-58,-4,0,-4,9,9,1,-122,-14,-14,5,5,13,-1,-248,-16,-22,-1,2,7,32,-432,-11,-44,-4,2,-1,8,2,1,0,-1,9,8,-2,-5,8,8,-6,29,-51,15,24,13,15,19,36,10,-8,23,22,19,14,13,30,11,0,38,29,17,11,4,10,13,17,-8,10,-24,-1,42,-5,-21,0,7,24,14,37,-112,-13,-11,9,-6,10,5,31,-50,-82,-13,-19,16,11,10,287,67,61,1,0,18,13,21,9,25,-10,42,51,25,55,-227,-5,18,17,-1,20,4,-291,16,31,23,7,9,31,-416,9,-3,-2,18,19,12,-448,22,4,20,32,24,18,-452,17,17,15,1,10,20,-504,20,8,7,2,9,47,-504,16,-24,18,18,2,-9,-240,77,35,30,11,16,26,11,-218,18,5,-2,-5,22,32,52,-471,-10,-8,-17,-33,-4,42,3,-391,-10,6,-12,-48,56,3,18,-498,3,30,0,22,-14,-49,-6,-363,-23,-29,21,-42,-45,-2,-3,-374,10,12,-7,-49,-13,-6,-8,-144,52,11,-5,-9,-3,-5,2,302,-374,-373,-78,-77,-28,-9,-6,-3,-41,-49,-3,-65,-50,-64,-28,-21,0,-11,-48,-1,-76,6,-14,-17,6,-4,-19,-22,20,-15,-15,-23,-14,-10,-18,-40,-42,-30,-19,-12,-16,0,-31,-20,-33,-28,4,-58,-38,-55,-18,-36,-30,-24,-8,-47,-32,-39,-25,-23,2,-12,0,256,-41,-71,-36,-93,-22,-43,-38,-80,-47,-72,-30,-10,0,-17,-96,-33,-41,-33,-58,-14,-29,-24,-59,-73,-28,-38,-27,-41,0,-18,-17,-51,-40,-27,-35,-8,-21,-14,-60,-21,-20,-20,-30,-51,-18,-22,-31,-38,-31,-68,-59,-57,-52,-44,-77,-30,-52,-63,-61,-62,-44,-69,-43,197,-4,-27,-29,-48,-47,-66,-71,5,-6,-6,8,7,-1,4,5,-16,-56,1,-74,5,26,20,35,-35,-1,-10,-26,-1,6,42,18,-19,13,8,-31,35,9,-7,15,-3,26,-23,0,-7,31,-19,37,25,-61,-32,19,-216,54,-111,30,72,-490,31,34,-207,52,-190,72,0,-2,-6,-3,-5,2,3,1,-31,-33,0,-20,-25,0,-31,-6,-38,14,-42,-41,-25,-20,25,-23,-7,-87,13,-35,-55,-27,-39,16,-159,24,-50,-83,13,25,-11,39,-33,-28,-50,38,-58,29,2,-46,-1,-90,0,-5,-144,7,23,29,65,-76,41,56,8,-47,-23,-21,-45,-55,68,-45,10,-33,71,23,-24,-14,-24,-3,-35,-6,-2,18,24,-95,18,-33,-23,-30,-14,-8,-15,-72,-51,18,-118,17,12,-25,-41,-90,-73,-213,21,4,-41,18,-87,34,-59,-81,-66,-101,42,-85,8,-161,-46,54,-351,-55,-101,-71,16,-32,39,-9,16,-121,-99,-66,-19,-28,27,70,-45,-3,-76,-52,-96,-96,-116,-133,-72,-60,-41,-43,-96,-51,-104,-94,-68,-78,-25,-1,-20,-72,-74,-82,-40,-15,-95,-16,-86,-53,-143,-77,-31,-1,-7,-64,-54,-71,-111,-90,-32,-50,-27,-40,-65,-24,-151,-94,10,0,-74,-41,-51,-114,-166,-83,-91,-26,-69,-27,-32,-42,-41,-49,-43,-28,-49,4,-127,-77,-121,-84,-122,13,7,38,-132,-103,-65,-89,-68,-103,-35,15,-39,-88,-141,-22,-124,-15,-80,-8,-28,-90,-170,-239,53,18,-32,-95,-52,-88,-121,-133,-36,-30,58,-164,-142,-177,-133,-22,-105,-95,-133,-69,-37,-175,-78,-72,-131,-109,-142,36,0,-14,156,-176,-504,128,-195,26,-63,-85,-65,-31,-8,36,24,47,-44,-93,-87,-58,8,39,11,17,-63,-154,-160,-50,6,29,35,-14,-1,-60,-96,-86,-10,-15,-17,11,36,8,-36,-21,-23,3,-10,0,49,-38,1,29,-16,5,-36,12,118,74,68,72,3,20,18,11,222,91,119,59,-2,32,-5,138,7,-3,-8,5,0,9,8,4,140,128,133,105,23,-368,355,4,94,143,98,80,-18,-30,-46,13,48,113,75,-2,45,-29,12,21,33,32,-51,-1,6,25,37,-13,13,12,15,-50,0,16,-10,11,15,32,-3,-16,15,-8,-11,11,-6,3,1,-5,-7,1,-2,-5,99,159,85,98,102,-51,-62,-34,17,106,27,54,-52,70,-164,127,96,26,141,-32,7,40,61,41,17,56,56,37,68,-48,14,-16,-71,96,47,13,21,-42,61,44,7,15,12,6,27,7,22,42,29,81,20,-9,-24,76,-46,48,-68,2,53,-32,-1,28,27,84,60,60,100,72,27,76,35,28,-37,56,96,85,52,-28,31,-24,76,53,75,0,-52,46,-2,81,0,61,68,-8,41,15,61,-33,27,18,39,-42,41,82,81,52,-2,22,22,60,25,13,-9,91,52,38,40,39,27,42,62,67,-40,4,37,20,-158,58,18,39,110,88,78,36,60,71,-13,94,114,99,72,84,47,80,-39,50,111,76,97,88,62,78,-11,60,61,-15,76,74,-66,24,-93,-15,79,21,36,65,4,54,-48,34,17,22,49,40,62,15,-59,53,68,51,73,102,-2,100,74,48,56,2,67,89,36,52,51,59,111,69,154,74,100,12,250,55,114,148,94,122,60,-40,-47,-123,52,8,141,66,150,97,1,50,48,52,93,165,10,-26,59,-381,80,-9,188,24,143,19,67,60,-3,110,39,59,95,54,-52,89,111,64,107,136,-5,126,106,96,53,-25,77,87,-35,54,-63,43,82,82,24,58,-66,-3,-20,-13,104,70,65,42,-6,-39,3,-89,31,33,15,38,-4,-3,-17,-106,23,44,32,12,14,6,-89,-65,26,24,13,-22,13,-4,-10,-333,-15,40,-26,-50,-33,-5,-2,-10,-8,29,-3,-27,-38,18,0,33,-37,4,15,0,-12,-17,-5,25,9,0,0,-3,-3,2,2,4,-20,-18,-25,-14,-16,-7,-10,-13,-21,-16,-16,-9,-12,-11,-11,-12,-21,-13,-16,-13,-17,-8,-18,-16,-24,-11,-17,-4,-21,-7,-23,-14,-24,-18,-17,-22,-13,-21,-24,-20,-20,-34,-90,-43,-23,-219,-24,-25,5,-1,-3,5,4,-3,1,5,-49,-55,-62,-69,-65,-62,-64,-51,-54,-68,-73,-66,-68,-69,-74,-73,-76,-70,-79,-74,-77,-70,-76,-76,-76,-75,-504,-63,-504,-64,-72,-59,-72,-504,-69,-56,-64,-504,-66,-66,-66,-65,-67,-74,-66,-57,-72,-62,-74,-504,-73,-65,-54,-504,-58,-62,-26,-93,-418,-105,-84,-86,-73,-31,-73,-69,-72,-62,-75,-71,-63,-68,-63,-71,-72,-70,-71,-80,-72,-76,-86,-76,-78,-76,-84,-81,-75,-72,-84,-87,-79,-83,-71,-94,-70,-71,-74,-62,-504,-73,-88,-62,-79,-68,-70,-77,-67,-82,-60,-75,-71,-65,-78,-74,-93,-68,-76,-72,-86,-75,-73,-82,-94,-84,-74,-108,-74,-74,-103,-106,-105,-113,-110,-108,-102,-109,-110,-104,-110,-112,-108,-109,-100,-107,-90,-110,-100,-102,-100,-104,-99,-108,-107,-108,-104,-111,-103,-110,-110,-106,-100,-112,-110,-112,-107,-106,-106,-109,-106,-106,-111,-111,-96,-98,-102,-102,-107,-108,-107,-104,-99,-106,-115,-100,-106,-115,-111,-112,-100,-133,-119,-96,-243,-232,-249,-252,-253,-226,-227,-292,-241,-246,-241,-227,-234,-239,-253,-259,-242,-243,-224,-242,-238,-227,-289,-245,-235,-264,-227,-256,-224,-287,-235,-239,-249,-242,-299,-292,-306,-238,-231,-256,-262,-251,-334,-277,-266,-204,-243,-240,-246,-245,-286,-296,-234,-271,-243,-229,-280,-283,-264,-249,-208,-236,-251,-267,12,15,7,2,1,13,18,29,7,8,-1,0,-2,5,13,19,16,3,-3,-5,-5,0,8,9,9,0,-7,-10,-6,-3,-3,6,0,-13,-13,-5,-8,-3,-5,8,6,-10,-9,-12,-5,0,-3,15,3,-32,-19,4,-4,0,7,19,-43,-19,-22,24,17,1,24,31,0,2,4,7,9,0,0,-6,50,68,58,68,61,106,125,51,53,49,60,43,43,27,53,40,40,44,42,37,26,27,31,30,37,35,35,27,24,24,28,28,35,27,31,35,28,23,22,27,31,27,27,28,28,18,21,27,-5,-4,-3,-5,3,-5,8,0,49,83,73,87,75,96,26,44,67,88,48,60,56,68,52,58,61,62,82,58,70,56,69,68,60,70,62,59,59,68,55,55,52,57,74,61,63,60,53,58,56,61,58,58,58,57,58,51,63,49,59,56,54,50,55,48,50,47,54,52,56,44,48,52,60,80,87,82,70,100,53,67,76,73,83,72,71,75,66,71,69,84,73,77,68,73,75,67,76,71,82,78,79,67,70,75,76,75,74,74,71,76,73,62,66,71,73,75,64,72,76,69,69,61,63,60,67,68,66,69,58,58,56,65,65,56,67,66,129,122,113,124,122,123,129,140,127,123,112,120,115,119,123,125,121,113,110,113,122,113,124,118,115,115,108,121,111,106,108,114,113,109,114,112,104,107,109,107,115,113,107,119,111,108,108,111,111,111,110,113,106,108,109,101,105,106,105,112,112,102,108,105,-318,-18,-39,-193,-275,-188,-36,348,94,268,-77,259,-176,309,-167,-7,-104,-96,-168,-111,-153,-105,-146,-153,-74,-89,-100,-138,-147,-214,-261,-207,-176,-226,-141,206,-157,-214,-164,-109,-200,-173,-181,504,-239,-127,-202,-166,-101,-119,-234,-193,-228,-177,-117,-146,-165,-32,-185,-264,-161,-154,-150,-16,56,51,55,44,5,-14,13,26,49,49,51,42,28,-11,-58,20,22,30,28,16,1,-7,-16,-6,17,23,15,4,0,-6,-4,0,13,22,16,14,11,12,8,9,20,14,20,17,15,9,8,6,11,12,13,12,12,13,8,0,13,0,0,4,1,3,0,0,0,3,-8,8,4,-5,0,-2,1,-11,16,34,5,21,14,-3,0,-23,20,24,15,-29,13,-2,8,-5,-8,18,-22,45,-36,2,12,25,-5,3,48,24,49,29,-51,31,96,74,115,44,75,-15,-92,-127,170,144,133,97,161,-53,-8,-3,6,8,2,0,-2,-2,-26,51,49,61,-32,23,24,92,43,-23,34,57,38,-14,60,1,53,18,41,-31,7,20,39,37,14,1,56,23,-22,2,24,-23,-96,42,-97,79,-53,30,12,59,-61,-47,61,6,50,-40,37,32,18,-169,95,12,41,30,-145,18,24,-61,20,-8,115,-152,-127,42,51,49,43,32,44,47,16,43,69,43,74,45,43,10,62,-7,10,0,84,40,51,-78,82,7,-26,-17,11,59,-62,48,-46,84,52,-27,-3,26,-20,-39,52,107,-91,87,-51,56,9,1,115,-77,-72,-69,99,35,44,71,38,63,14,-198,2,48,121,-65,50,-21,73,101,55,57,94,77,15,71,104,76,92,52,68,3,81,-20,81,61,37,11,113,63,63,86,101,95,35,48,80,88,53,2,63,55,20,53,43,80,-5,52,36,57,55,56,105,73,49,16,98,54,32,67,79,73,39,3,99,92,66,48,114,78,38,76,156,123,134,159,165,121,19,126,181,119,185,101,124,50,146,69,150,82,124,72,147,-72,169,91,189,112,129,113,92,169,116,51,157,47,68,113,-96,137,21,173,100,138,122,133,109,0,116,47,168,27,180,-114,-63,142,-63,83,145,-90,200,-7,112,-21,137,-221,87,6,-5,9,1,1,7,1,57,26,37,0,6,-37,22,-28,-4,-7,15,17,6,-19,-5,-23,-11,-38,-16,-8,-29,-6,-27,-22,-80,-32,-18,-12,13,13,-18,33,-93,-55,-3,26,40,39,23,35,37,-14,43,29,76,39,104,53,73,-8,38,37,93,27,-240,33,4,4,-3,5,1,-4,-5,9,21,60,-59,23,-1,10,-47,38,9,-57,-17,-44,43,-69,45,-66,3,-47,-6,-5,40,-70,32,-22,18,-10,-23,8,-8,-11,1,2,0,5,-4,40,-27,31,-10,5,14,-1,-18,37,-26,0,2,10,-2,1,9,3,1,1,0,-5,78,24,-35,-44,-13,-136,-6,-75,19,-53,-96,-4,-28,-82,-151,-16,-319,-13,-229,-88,-265,-25,-95,-12,-94,-50,-64,3,-85,-144,-60,-18,-4,-23,-77,-135,39,-98,27,-133,-37,-131,-11,-61,-70,-56,-22,-65,-30,-101,-84,-21,-65,-3,-160,-19,-75,-18,-112,-30,-87,-37,-44,-18,8,-128,1,-78,-44,-50,39,-176,-226,0,-184,-77,-58,-13,-203,-2,-31,-245,-73,-132,23,-96,-19,-94,-109,-68,-87,19,-122,-27,-273,-38,-136,-47,-96,-128,-1,-162,-51,-189,-43,-55,-75,-34,-153,19,-91,-42,-27,-88,-46,-99,-30,-94,-7,-35,-3,-15,-57,-82,-113,-31,-57,-39,-75,-9,-121,-70,-69,-64,-120,-43,-36,-29,-53,-57,-35,-71,-84,-55,-47,-19,-22,-21,32,-62,-51,-31,-94,-68,-94,-53,-84,-59,-112,-56,-80,-76,-128,-94,-64,-83,-164,-52,-70,-32,-98,-87,-26,-71,-41,-61,-61,-120,-55,-88,-45,-33,-58,-23,-70,-58,-115,-60,-51,-49,-20,-51,-49,-93,-99,-255,-87,-97,-89,-86,-96,-62,-377,-203,-122,-53,-289,-201,-127,-224,-100,-188,-19,-200,-127,-176,-297,-140,-337,-85,-352,-116,-377,-87,-88,-140,-345,-384,-44,-353,-216,-306,-104,-97,-359,-202,-140,-73,-138,-98,-86,-206,-99,-214,-116,-107,-105,-82,-95,-146,-152,-137,-138,-77,-91,-137,-61,5,-43,-35,-41,-7,-36,-31,38,38,-10,-19,25,-16,72,-17,77,-8,12,-40,28,-10,14,13,61,30,7,16,-11,12,5,47,8,40,-24,4,-8,-52,-2,1,85,25,23,-59,-46,5,16,25,82,56,-11,-69,-37,9,1,45,115,19,-20,-30,16,-26,9,14,0,0,-2,8,-7,-8,6,-5,4,1,8,5,19,-2,-3,0,2,4,3,1,13,-7,4,-3,-1,-1,0,-4,17,-18,15,1,-7,-4,7,3,3,-466,-18,7,-18,-16,30,0,20,-15,28,7,-24,2,18,60,111,37,123,-17,-1,0,-1,-7,-5,-8,-5,4,82,-4,32,22,-5,35,15,31,-12,-26,17,4,26,0,43,12,0,3,4,17,132,8,152,-10,17,21,33,115,14,11,18,170,1,19,24,38,0,235,9,71,-1,24,37,125,13,10,30,178,2,50,-20,26,150,78,203,-7,-26,-6,37,63,42,53,104,-7,0,49,-1,28,22,15,1,-12,17,0,50,2,15,9,19,10,14,32,-5,60,1,11,-4,93,20,16,39,0,60,15,132,18,31,33,10,21,10,291,0,29,46,-12,33,-15,75,-2,82,-5,34,42,5,81,16,22,19,72,-26,-21,104,-13,27,48,-63,-13,10,11,14,11,14,25,16,15,3,4,18,22,23,30,22,16,0,20,27,15,26,81,30,11,13,2,15,15,30,105,47,25,43,45,45,60,108,256,110,83,28,33,43,25,42,106,63,50,28,23,37,34,34,79,23,0,17,24,36,26,24,80,35,24,39,72,48,48,62,102,19,53,82,48,66,48,58,77,69,56,37,50,63,79,47,113,78,135,49,56,63,50,115,171,173,74,90,84,110,141,165,317,169,129,64,60,79,80,149,136,179,93,83,93,120,132,100,105,101,75,34,-219,181,-240,-334,105,124,-326,-37,-24,-13,-10,-16,-5,-15,-10,-15,-25,-19,-2,-7,-13,-15,-10,-35,-3,-19,-17,-14,-12,-13,0,-7,-3,-13,-4,-3,47,16,16,-8,-18,-17,-3,8,-39,2,22,-20,-24,-18,-2,-2,8,0,-1,-8,-13,-10,-9,-6,1,-32,19,-14,6,-2,-54,11,55,-28,33,-7,8,3,-8,3,1,-1,0,-26,-39,26,-121,22,98,-27,-30,-18,-6,13,-2,35,24,27,14,-1,1,6,-5,12,4,7,0,4,5,0,2,6,84,-6,10,7,-2,7,-2,-453,48,-358,10,4,8,0,43,-35,53,-23,9,-2,0,0,3,-2,-4,8,5,-8,-5,23,25,-2,52,-1,-23,-3,-8,18,-9,-35,-11,-45,-37,-10,-31,-6,-17,-257,-28,-65,14,-11,2,-32,-125,-9,-21,0,-277,9,-31,-7,-34,-11,77,-22,-11,-13,-7,-16,-127,-26,5,-37,-140,-17,-5,-18,22,-148,-3,-172,1,-11,6,-19,-19,-37,2,-22,-53,-1,-69,2,8,16,25,-1,12,-53,-18,-54,-16,-31,1,-4,18,6,-55,7,-81,22,-5,24,-132,-12,3,-30,14,-141,-13,-100,0,14,-5,-2,-38,-10,46,-25,-41,-20,1,-13,10,-142,1,-167,11,-12,-15,-14,-110,14,-14,19,-260,1,-8,-90,-2,-17,-21,-17,-6,-26,-7,-18,-26,-36,-7,-49,-24,-9,-14,-3,-24,-26,-53,-34,-24,-16,-3,-21,-27,-16,-69,-21,-11,-28,-18,-20,-22,-40,-101,-45,-2,-28,-29,-56,-61,-85,69,-92,-63,-48,-11,-27,-27,-14,-118,-50,-29,-33,-21,-21,-11,-25,-34,-18,6,-26,-25,-3,-31,-45,-26,-42,-16,-82,-39,-49,-169,-57,-13,-91,-87,-87,-45,-15,-66,-80,-47,-38,-35,-59,-52,-58,-82,-56,-99,3,-101,-47,-61,-39,-20,-93,-104,-106,-29,-37,-31,-43,-72,-83,36,-65,-74,-68,-49,-41,-21,-45,-59,-56,-26,-34,-45,-56,-45,-20,-48,-12,-37,-57,-53,-33,-54,-54,-30,-51,-56,-201,-72,12,17,33,18,1,-15,-34,-83,51,5,15,2,13,0,-8,5,20,20,19,3,7,23,-33,-12,19,4,-16,-29,-23,3,-26,20,8,17,-32,41,-31,12,-20,-36,12,4,-26,-42,-33,13,-66,0,-7,27,3,-11,3,19,-44,-32,14,-30,-10,-20,-21,-34,3,0,8,4,5,-1,6,-5,14,17,35,15,28,41,37,25,-3,24,3,11,16,24,41,15,8,43,23,12,33,30,43,11,7,12,14,4,-1,25,-4,3,33,42,8,5,5,-197,14,18,47,3,-112,-41,-34,38,-344,68,6,2,-5,2,0,-4,3,4,14,76,127,79,64,64,83,71,42,52,69,67,76,54,49,43,67,72,64,47,50,65,54,71,61,93,102,76,71,85,49,72,90,101,65,78,76,73,56,16,38,84,-483,68,-341,-92,58,29,34,-60,70,-298,-62,-404,-213,21,-13,-63,-28,-49,-57,-151,32,50,77,76,71,81,69,65,80,64,74,68,77,64,72,63,64,52,30,62,46,65,78,71,62,42,56,114,95,88,79,97,76,70,67,101,108,71,41,77,66,58,152,56,75,78,95,-442,41,-504,65,81,6,66,-504,-1,-13,-56,82,152,-372,-44,-81,-322,77,53,59,40,68,49,64,55,50,67,42,58,65,49,65,67,46,65,97,29,60,98,58,76,60,89,44,44,65,52,38,66,56,72,84,106,90,64,53,88,36,94,98,73,78,38,47,34,77,76,94,50,19,-29,4,-10,28,19,55,53,-16,-164,8,-342,-68,4,63,71,96,45,74,79,93,92,77,83,85,52,73,89,52,101,84,99,77,84,57,98,99,79,47,230,184,192,177,168,-504,80,116,184,199,95,-357,-457,-337,123,109,96,81,97,3,-314,-15,106,55,73,81,50,12,30,7,15,102,123,-16,-23,76,48,87,58,2,-38,-37,-30,-61,-67,-53,-57,51,-9,-14,-56,-53,-28,-25,-27,44,2,-49,-29,-45,-38,-41,-504,-168,-504,-173,-407,-489,-178,-242,-504,-421,-334,-473,-480,-478,-393,-450,-442,-364,-420,-358,-481,-329,-369,-483,-325,-27,-379,-283,-188,-315,-228,-298,-358,-177,-38,-12,182,-141,-117,-332,-304,-8,0,8,6,-8,0,2,3,119,41,-441,11,69,37,109,42,2,19,-8,-40,-15,-1,26,5,0,-11,5,-31,-12,-8,-3,8,9,7,9,3,-16,6,15,15,12,-2,-2,7,-5,-11,-1,8,4,-9,-1,10,-4,-10,-15,5,-6,-9,-2,-1,3,-8,-6,6,-65,-37,-12,-237,-238,-10,-126,50,2,-194,-504,-345,-463,-504,-25,1,-59,-113,-154,-504,-112,4,-31,-24,-52,-69,-76,-47,-32,-70,-8,-40,-8,-4,-53,-29,-25,-30,-17,-10,-30,-28,-30,-29,-44,-37,-52,-25,-13,-18,-25,-28,-48,-49,-31,-16,0,-28,-19,-31,-62,-20,-27,26,-61,-130,-119,-369,-50,-453,-103,-15,-24,-60,-156,-437,-51,-22,-351,-14,-504,-42,-44,-64,-15,-23,-13,57,-33,-51,-85,-44,-63,-33,9,-32,-28,-57,-10,-19,-16,-46,-16,-26,-18,-7,-31,-39,-26,-38,-29,-19,5,-38,-28,-15,-25,-13,-54,-26,-30,-22,-14,-26,-13,-13,9,-3,-30,-48,-101,-166,-91,-128,-102,-37,-20,-20,-26,-50,-39,-27,9,25,-16,2,2,6,-25,4,0,13,0,4,5,-14,11,21,39,15,-14,-9,-19,0,3,42,45,21,-19,-25,-1,-46,-23,-6,10,1,-21,-15,-31,-5,-33,-10,-54,11,-21,-28,-26,-18,-15,-22,0,-3,94,66,10,-53,-22,12,73,57,37,-11,17,17,63,26,158,90,38,-4,-4,32,11,63,47,111,35,-395,-379,-403,119,88,126,72,-3,-451,-3,-1,31,46,62,54,-3,6,6,13,10,38,19,56,29,9,13,10,3,16,-27,24,35,38,30,17,6,14,-1,25,3,-134,-264,-112,-234,-166,-193,-151,-99,-106,-31,-202,-148,-123,-148,-201,-186,-222,-110,-93,-30,-60,-90,-65,-88,-59,-85,-43,-45,-45,-44,-53,-104,-70,-61,-20,-39,-37,-50,-44,-70,-95,-58,-49,-36,-55,-52,-118,-151,-111,-73,-39,-39,-46,-81,-95,-147,-101,-74,-45,-42,-50,-78,-71,0,-4,7,1,-3,0,-8,6,-5,-4,-2,-16,55,-90,22,-12,-4,-1,-8,-10,-12,-37,5,0,-8,-8,-2,-14,7,-46,-12,-16,-26,-15,-11,3,4,-18,-9,-10,-37,-9,-6,29,40,-10,16,-25,-20,-11,46,43,50,6,56,-21,0,-7,1,1,6,-9,1,4,31,23,22,-31,-12,-13,24,17,28,18,-46,26,-12,-28,-15,53,21,-22,-13,-92,1,-77,37,-231,-16,-19,-26,-7,-24,9,-29,15,17,9,1,-1,10,0,14,13,12,25,21,26,12,20,28,62,12,11,36,42,9,37,28,64,22,-8,53,53,38,28,16,27,16,67,-31,7,-52,74,-28,81,49,-19,18,-19,32,-44,38,-16,-23,29,-44,15,-102,0,-32,6,-49,-25,31,-44,39,-36,16,-83,-39,25,8,34,-42,44,-27,52,13,-4,19,-4,-2,13,55,17,-33,41,-7,21,-16,17,-5,44,23,-18,24,11,20,40,34,-15,-42,-74,-55,-65,-68,-504,-21,-61,-53,-34,-82,-31,-98,-18,-86,0,-54,-59,-91,-86,-42,-131,-29,-63,-33,-74,-68,-25,-57,-37,-58,-52,-50,-50,-32,-31,-19,-47,-11,-64,-4,-12,-18,0,-12,19,-20,-21,10,3,11,27,12,11,11,-34,9,-4,10,16,5,33,14,-37,-21,-7,-11,0,-37,-44,-41,-18,0,-12,-17,-19,-62,28,-5,-29,-47,-30,-108,-59,-94,-66,-28,-9,-24,-67,-55,-65,-5,-20,-10,-38,-85,-35,-66,-1,-22,-29,-31,-20,-51,-60,-37,-49,-61,-26,20,-20,-4,7,5,-33,-18,-33,2,5,45,21,-13,32,36,-1,65,27,17,-4,-4,7,-9,62,48,-6,-4,-7,-3,26,3,13,31,10,-23,-14,-14,-1,-15,-44,-4,1,-21,-1,4,4,-6,-26,-11,-29,3,-14,-6,-11,-13,-28,-28,-16,-7,-4,-14,-6,-7,-16,3,-19,14,-3,15,-17,-12,-15,-1,-29,7,-45,0,-61,-76,55,-36,-4,8,-6,8,9,-2,-5,1,5,77,257,148,165,82,312,44,204,49,82,69,78,115,146,104,55,20,-2,12,-24,39,2,16,24,9,-9,-8,2,-4,-5,-7,11,9,0,-3,0,7,-18,-6,0,10,-2,17,15,12,-12,-7,1,0,7,-6,3,-5,3,3,-8,44,0,74,175,13,190,-8,108,-46,27,0,-63,3,429,-27,-8,-15,-7,71,179,42,-24,37,85,-29,-57,-5,-123,104,-56,86,-83,-11,-15,-27,6,-70,24,-71,22,-21,-26,-19,-22,-5,-4,-25,-5,-33,-34,-16,-6,-9,-23,-5,-18,-46,-15,-10,-34,-27,-50,-12,-27,36,-30,111,39,63,4,169,24,-48,0,-36,21,-58,118,-36,76,61,-14,28,-43,110,-71,99,-29,12,30,-52,33,-23,61,-124,99,13,-25,69,-25,49,-35,53,-25,-25,58,-13,50,-22,28,-33,49,34,-20,50,-34,9,-30,4,-40,-5,23,-25,10,-73,-1,-80,15,68,68,59,62,55,82,71,-28,53,39,51,37,74,59,92,81,5,-1,4,23,-17,41,3,6,16,18,5,7,3,-3,49,0,14,20,16,31,-24,51,43,13,-8,3,1,6,14,8,35,2,-1,5,-2,5,-36,16,11,10,15,8,15,3,-2,10,32,13,122,215,179,263,123,234,203,154,73,149,172,152,85,309,237,80,85,140,110,97,150,162,65,14,92,109,86,150,82,158,70,154,38,96,109,83,73,145,104,82,16,93,6,48,55,141,34,86,70,22,44,7,-28,50,25,14,28,-2,6,-15,-20,52,45,9,143,66,102,33,104,64,84,100,61,82,109,99,94,138,40,126,72,98,55,89,52,41,84,99,36,37,29,28,53,43,66,57,30,-39,-33,-8,-17,-9,-4,-34,-7,-22,-24,-5,1,-13,-22,-25,-16,-6,-13,11,2,-2,-17,-32,-32,-8,-7,-3,-9,-19,-25,-75,3,8,6,-2,6,-5,-6,-8,-13,29,-21,-16,6,6,6,5,-504,34,-478,1,2,1,8,3,16,120,8,5,3,2,4,4,8,2,-5,1,6,8,3,10,16,-1,14,-15,4,-2,2,-7,-41,10,-98,-29,24,24,-16,-12,5,2,1,0,-4,-4,-3,0,18,-10,-15,9,-27,22,11,5,-504,16,-100,3,11,-8,2,2,-8,6,-15,-74,-7,3,10,9,-7,112,2,-4,6,0,3,13,14,-4,-13,-35,0,3,14,11,-215,12,-73,8,7,-11,15,31,-4,2,-9,7,29,32,22,8,-9,-11,21,16,27,-5,43,18,-23,-12,-11,-9,-92,8,-4,5,20,-9,30,-56,-1,-3,3,-9,-34,1,-60,11,-17,-2,-12,2,-12,101,-6,-19,-2,-14,8,-7,-69,-34,-124,6,-8,12,-9,23,22,-20,13,-84,6,-23,0,-13,-26,17,-20,-11,-90,-3,-8,2,0,12,9,-1,-5,-50,-1,-10,-5,-20,-19,-13,14,-8,-10,-9,21,-46,4,-13,-2,-25,-8,-7,5,-41,-13,12,-15,-5,-24,-1,-11,91,-48,-61,-36,-27,-23,-22,5,-79,-31,-10,-9,-13,-17,-7,0,-74,-26,-18,-15,-12,-18,-18,-16,-43,-31,-32,-15,-24,-28,-21,-18,-11,-41,-34,-20,9,-19,-61,-35,-44,-43,-57,-1,-36,-45,-16,0,-71,27,-46,-54,-36,-52,-57,-3,-67,-21,32,-32,-27,-39,-42,-104,67,-59,-60,-28,-38,-61,-64,-50,-50,-62,20,-27,-23,-71,-26,-13,-34,-23,-64,-35,-68,-33,-25,-18,-10,-73,-60,-46,-66,-49,-91,-53,-48,-78,-16,-30,-6,-60,-156,-4,-20,-21,-31,14,-25,-21,-20,5,-16,-7,2,-12,-6,-22,-30,-11,-37,-46,-9,-1,-17,-14,-36,-38,-10,-57,-2,-8,-1,-9,-26,-55,-41,-36,3,15,-4,0,-19,-33,-17,3,20,21,5,1,-5,-37,-115,-3,24,30,6,40,-5,-59,33,0,-17,43,16,16,19,-6,2,7,8,-7,-3,1,8,37,17,70,32,7,-97,-50,1,28,-10,3,19,3,-21,-27,3,6,-458,1,-9,2,-10,-2,-1,40,-25,-19,-5,-4,-8,-6,-6,7,-13,-4,-30,-1,-5,-4,-3,6,-15,0,-8,-18,-5,-4,-3,4,-9,-2,1,-5,5,5,-1,18,-30,73,23,32,-22,-27,-22,237,45,88,-5,-2,-56,-23,-16,-12,18,-38,68,36,-2,1,-14,16,248,-1,28,5,3,-2,-5,-2,1,-3,49,19,-9,-7,6,109,0,82,-8,-3,5,-1,0,27,-14,11,-2,-3,-3,-23,10,-10,28,5,7,5,-6,2,-8,28,-30,25,-1,91,16,4,2,-3,13,-5,63,-12,9,6,-21,71,16,58,16,15,-17,-1,-4,1,243,0,-4,8,21,-5,16,101,-6,53,-6,6,12,37,-11,5,-7,-12,54,-9,16,6,26,-18,-8,11,-3,51,2,19,13,0,12,-5,-5,2,54,-10,10,10,34,6,6,6,-1,0,-1,16,44,25,9,13,8,15,-6,27,57,8,-2,5,8,-11,-9,57,98,69,35,30,3,7,-1,5,52,-9,4,0,-4,-10,-11,0,19,9,-14,-12,-16,-16,-9,-3,14,-1,9,4,-4,-10,-5,0,24,3,5,4,-6,-9,-6,22,30,51,-58,92,33,58,21,26,82,49,48,52,47,75,16,49,90,26,43,39,31,27,37,76,380,87,71,75,40,47,36,81,90,65,15,52,44,25,27,28,58,39,22,27,24,19,23,22,46,20,28,46,21,25,17,19,43,30,26,32,70,35,18,46,71,-12,-27,-52,-42,-36,-10,44,45,54,-56,12,-38,-42,-27,71,62,47,24,-34,-24,-38,-9,51,75,38,13,-8,-29,-46,-11,64,68,23,-7,-17,-32,-23,-10,-24,-13,-25,-36,-18,-23,-22,-18,-10,-20,-24,-13,-23,-15,-24,-16,-26,-12,-17,-18,-10,-9,-13,-29,6,6,-8,6,-8,-2,-3,6,-10,-19,-10,-8,-58,41,-36,9,-6,-4,-13,16,-15,18,0,17,-15,-20,-4,-16,1,-21,-9,-18,-5,12,13,-1,34,-47,-3,-7,8,1,9,-15,21,-13,25,5,14,84,55,-25,-43,-33,-4,2,-5,-5,-1,6,-4,-3,0,7,-67,-43,-46,-16,-17,-11,-37,3,-18,3,-53,-50,-66,-11,3,-39,-23,-33,-32,-37,-82,-57,-28,-13,-1,1,-22,12,-37,-45,-33,-95,2,-40,3,-52,20,-58,0,-38,-30,-76,0,-87,6,-48,-17,-72,-71,-2,-36,-87,-481,-51,-19,-50,-15,-107,-117,-34,-116,7,-56,8,-10,-37,-18,-46,2,-101,-31,-48,-51,-29,-56,-23,-103,0,-69,-18,-20,-13,-3,-47,-110,-87,-2,-105,0,-18,-53,10,-35,44,-120,-56,-13,-20,-2,-19,14,-105,8,-51,-59,-19,-31,-33,-81,-19,-18,-70,-14,-53,-34,-92,-65,-38,-22,-78,-44,-67,-22,-237,-10,8,-17,-2,-62,-83,-66,-70,-38,-92,-90,-73,-68,-84,-105,-76,-147,-89,-55,-129,-57,-76,-65,-155,-86,-155,-96,-9,-42,-79,-107,-7,-15,-94,-124,-122,-60,-134,-82,-65,-32,-87,-57,-141,-78,-95,-111,-71,-65,-104,-71,-81,-123,-118,-161,-151,-148,-165,-98,-89,-138,-149,-174,-236,-157,-185,-142,-124,-155,-168,-136,-218,-148,-207,-145,-187,-179,-185,-175,-165,-333,-205,-160,-178,-160,-156,-99,-281,-275,-398,-99,-262,-132,-171,-222,-74,-113,-74,-226,-190,-142,-291,-155,-125,-121,-204,-78,-291,-215,-262,-155,-175,-255,-194,-134,-240,-265,-292,-204,-279,-254,-395,-146,-180,-199,-219,-261,-264,-227,-315,-208,-204,-12,-26,14,39,46,28,49,8,-3,-7,-3,43,-20,40,0,24,-5,14,11,22,44,40,14,9,-11,-15,13,36,61,61,21,25,-17,-35,-22,-18,38,5,-8,-25,-61,-92,-79,-169,-114,-167,-72,-81,-94,-322,-87,-266,-210,-337,-80,-122,40,-385,-293,-284,-217,-203,-114,40,5,-6,-2,6,0,-5,-5,-3,84,73,-77,-198,-393,115,60,-18,15,10,-45,-205,-224,-135,-42,-6,21,34,5,-40,-56,-96,-45,18,30,54,6,-1,31,-30,-15,-2,23,29,21,39,13,19,-6,9,22,34,14,23,12,10,-5,5,4,-3,-6,-1,2,6,-7,9,-41,-72,-104,-154,-363,-152,-73,-38,-32,28,-23,-32,6,-54,-160,-112,-36,89,-38,53,-351,51,-232,41,52,-6,-44,-47,47,-73,-76,1,37,31,58,-7,-47,-45,-3,26,36,45,39,-32,42,8,43,6,44,84,15,34,35,16,-10,38,22,57,43,27,17,70,30,31,39,-27,-44,-402,-386,-51,-79,12,-33,81,7,-1,-412,-28,57,-45,13,14,63,-142,-193,-26,-33,63,-16,71,-129,23,-50,-36,-144,40,55,-48,26,34,41,-3,-18,-24,-19,50,17,32,25,52,43,44,68,50,56,45,34,11,25,27,19,44,41,38,34,31,3,50,0,29,34,17,-7,-26,2,66,-4,-17,-36,-49,-21,-31,-7,18,16,11,-28,47,1,55,14,15,41,39,62,29,-7,28,68,45,38,57,57,47,-21,49,86,55,48,27,13,17,8,39,96,54,46,29,14,8,-4,-34,65,40,36,23,69,24,-2,52,81,74,-297,26,-342,-388,-258,30,-257,-207,23,59,13,78,-50,156,176,28,141,89,65,102,37,163,16,211,69,124,141,181,35,38,84,53,160,120,121,169,29,141,200,91,172,156,22,113,133,126,168,94,155,184,145,157,156,135,181,125,148,162,188,145,154,181,177,142,-89,21,-110,-106,-92,-107,-34,-62,29,34,-138,-111,-125,-112,-51,-11,44,97,-46,-37,-88,-88,-68,-32,81,77,36,-14,-27,-41,-56,-37,103,61,5,22,3,-27,-93,-60,71,35,26,8,29,-18,-19,-48,56,46,31,17,30,12,-5,-5,71,72,67,25,17,7,31,30,5,-6,0,-1,-3,2,7,6,25,6,8,24,19,-4,6,-14,24,8,13,12,9,16,21,1,24,12,8,16,5,10,5,0,16,8,11,-5,10,24,9,0,5,5,1,8,19,19,-3,6,22,41,-20,-35,41,27,53,61,-8,5,-3,-6,0,1,-9,8,-86,-8,-38,-12,-30,-30,-8,-80,-20,-34,-45,-41,-42,-54,-8,-33,-2,-35,-21,-53,-38,-33,-24,-34,-18,-56,-24,-47,-26,-25,-53,-27,-32,-2,-29,-13,-35,-2,-15,-7,-13,-5,-14,-15,-12,0,0,-6,0,-17,5,-7,-8,0,-4,-1,6,39,0,-4,0,29,-16,34,-19,-58,-10,3,14,-14,-4,-8,-17,-20,-66,-13,-37,-29,-33,-32,-20,-50,-48,-80,-29,-67,-41,-33,217,-30,-57,-48,-87,-55,-46,-47,-7,494,-16,-59,-43,-27,-17,-50,-47,-12,503,-26,-22,-17,-40,-23,-24,-34,-31,-18,-5,-20,-5,-12,-13,-17,-22,-35,-7,-10,-25,-9,-64,-73,-80,-73,-81,-72,-40,-84,-78,-85,-81,-83,-77,-105,-92,-55,-49,-52,-69,-55,-65,-40,-45,-71,-42,-44,-42,-56,-35,-55,-46,-73,-41,-48,-51,-43,-31,-52,-36,-63,-42,-32,-23,-31,-22,-44,-33,-63,-33,-36,-30,-32,-22,-40,-45,-50,-39,-18,-33,-41,-25,-55,-49,-63,-28,-16,-18,-23,-21,-36,-8,-58,-31,-54,-71,-61,-45,-63,-63,-57,-35,-49,-72,-63,-54,-60,-59,-38,-14,-78,-83,-144,-58,-51,-43,-84,-49,-71,-85,-55,-67,-87,-74,-52,-52,-67,-47,-69,-48,-101,-45,-47,-67,-76,-50,-45,-94,-81,-44,-44,-11,-35,-63,-39,-3,-100,-39,-22,-52,32,14,42,18,5,17,-38,14,-11,-12,-12,-27,-18,-16,-8,11,-3,-8,-11,-14,-6,-20,15,17,0,3,7,4,-6,0,8,-2,6,6,12,13,15,8,22,-2,1,8,11,11,-1,-2,9,-22,3,-9,-19,-20,-12,-13,23,-42,-9,-17,-24,-15,-26,-20,-30,6,0,-2,-8,7,0,0,2,132,160,162,127,174,123,84,149,-10,-45,3,16,18,50,49,69,-20,-35,-13,0,-11,-1,-12,7,-14,5,-8,-5,-12,-5,-3,-4,-16,-4,-8,-2,-1,0,-6,0,-11,14,-23,22,10,0,2,-3,-3,-8,-4,-4,-8,5,0,5,-19,101,12,2,19,31,60,5,35,41,-5,17,23,13,30,32,24,1,23,24,3,32,20,37,19,-3,22,15,8,6,4,18,0,-13,10,8,-2,18,18,19,3,5,-216,1,-2,5,11,8,-13,0,2,-3,16,17,-7,7,11,9,10,-7,-4,13,21,3,-38,-37,-23,22,-27,17,58,5,24,31,20,23,-1,14,13,33,30,32,14,24,6,27,9,35,40,3,22,15,18,20,25,1,-21,23,-9,9,11,17,18,21,9,-8,11,15,16,12,10,10,-15,11,-10,37,-1,15,6,-8,17,4,9,-5,14,13,1,1,84,96,84,81,89,85,92,81,47,62,27,34,29,43,70,22,73,78,76,55,75,75,63,57,-303,68,57,55,46,33,64,49,37,41,40,41,50,44,52,30,47,54,-504,52,46,44,54,32,47,37,39,-504,37,39,44,28,49,40,44,27,37,32,38,40,153,134,124,142,87,151,119,110,69,168,97,74,101,146,122,165,86,52,46,68,87,66,59,54,63,82,71,91,71,92,81,92,43,-178,46,46,49,64,79,55,36,24,-504,56,29,26,53,51,51,37,41,-504,7,36,-5,40,45,42,29,-3,35,18,-8,80,-31,-45,-44,-50,-5,25,52,-504,1,-16,-6,2,14,13,28,10,-8,0,-7,8,19,-7,6,8,1,-5,-5,2,15,6,17,13,5,-4,-3,-1,9,9,21,0,1,-1,1,0,7,17,15,16,-5,-8,-7,-2,0,4,11,21,-4,-9,-13,-17,-6,-12,-10,-1,-1,2,-1,4,6,1,2,8,-11,-1,-3,8,27,120,59,16,-5,-12,16,12,19,83,33,16,-17,-7,-10,-7,19,30,34,8,-3,0,24,10,25,27,28,16,-16,14,0,28,50,56,54,51,-9,-504,-504,-504,52,53,28,45,2,4,8,6,4,0,-4,7,101,13,65,77,95,61,52,90,19,44,52,69,65,116,106,97,24,70,38,92,65,84,90,109,81,57,48,65,84,100,91,85,26,37,60,79,82,79,72,78,21,17,39,52,73,69,58,91,51,12,36,61,62,63,39,138,48,39,48,46,49,18,-1,75,35,47,23,97,57,68,144,77,60,55,59,42,92,120,112,101,72,33,60,65,78,84,127,88,78,62,55,103,51,72,75,117,61,57,78,93,38,30,50,79,17,76,53,38,59,45,40,49,63,79,41,15,24,49,34,90,66,33,52,59,41,57,23,59,70,76,60,85,107,226,111,90,77,95,80,73,168,127,203,121,102,98,54,97,109,108,105,98,63,56,71,56,82,138,96,72,57,67,47,82,74,88,74,76,60,46,58,78,69,107,72,48,84,92,82,94,89,123,63,72,91,122,91,108,83,111,109,59,123,136,112,151,172,239,250,182,123,125,137,148,216,195,215,153,129,136,118,139,138,141,207,192,87,38,122,99,138,230,168,145,100,110,115,169,105,124,125,145,96,102,127,114,163,133,130,143,129,119,110,152,186,148,157,173,127,147,117,163,143,158,149,140,-13,-24,-30,26,8,45,-17,-24,-51,-40,-49,2,72,72,10,-26,-48,-55,-44,-6,56,28,31,-11,-36,-56,-53,-20,6,22,-2,-8,-34,-46,-51,-40,-33,-20,-33,-28,-77,-82,-59,-61,-48,-25,-25,-36,-151,-112,-185,-99,-121,-27,-66,-68,-171,-168,-334,-233,-134,-55,-57,-97,1,-1,-8,-4,0,-8,-5,7,-62,-280,-504,-10,76,80,153,-503,26,-6,36,64,198,116,154,-3,4,0,9,20,54,137,73,29,4,-8,0,2,41,37,32,11,-9,2,0,-1,-2,0,-9,0,2,0,1,-27,-17,-4,-11,3,0,-3,-7,7,2,3,-5,7,-6,155,22,-76,-105,-37,46,-504,-51,-504,-60,34,-28,-87,-7,44,-86,-69,-504,-96,-504,-12,227,-90,36,-57,-64,-38,-124,-504,-154,-58,-30,-13,-40,-73,-70,-95,-107,-6,-39,-72,-44,-62,-39,-56,-29,-72,-45,-48,-55,-48,-45,-54,-56,-56,-55,-31,-78,-19,-91,-23,-49,-30,-57,-71,-10,-6,-21,35,-38,-20,-35,-52,-74,-40,27,-43,14,-59,-41,-66,-40,5,-19,15,-50,43,56,-29,70,-85,-51,-54,-45,-110,-55,48,-86,-34,-44,-41,-69,-54,33,-60,-44,-30,-27,-57,-52,-48,-74,-50,-28,-43,-52,-42,-67,-43,-48,-11,-39,-21,-51,-63,-58,-64,-62,-73,-68,-65,-83,-72,-70,-96,-89,-37,-56,-81,-138,-85,-130,-160,-84,-65,-63,-78,-82,-117,-116,-86,-45,-25,-71,-51,-86,-117,-76,-82,-59,-33,-65,-50,-94,-99,-86,-67,-60,-58,-65,-48,-73,-89,-67,-47,-63,-41,-55,-71,-85,-92,-76,-54,-71,-48,-59,-67,-94,-85,-87,-79,-86,-78,-59,-109,-148,-129,-164,-97,-103,-86,-120,-157,-194,-152,-157,-115,-150,-172,-156,-118,-123,-101,-155,-156,-71,-101,-71,-163,-142,-160,-100,-146,-122,-58,-167,-75,-125,-106,-108,-85,-98,-150,-85,-112,-114,-116,-109,-136,-102,-102,-110,-115,-117,-124,-123,-55,-109,-121,-105,-156,-139,-96,-122,-111,-147,-38,-126,-51,-217,-122,-76,-96,0,5,-76,-81,-84,-65,-84,-91,-53,-353,-63,-75,-60,-102,-47,-57,-282,-32,-31,-45,-54,-58,-43,-27,62,16,42,-7,-10,-17,-18,-22,72,53,42,37,16,-1,-12,2,31,12,57,6,10,-7,-15,-2,27,33,43,20,8,-6,-10,-1,1,0,3,8,-5,6,1,8,-2,-33,-9,3,-32,-60,-20,-58,-22,-36,-24,-11,-45,-72,-9,-71,-30,-38,-49,-49,-73,-115,-57,-76,-42,-31,-103,25,-237,-81,-90,-100,-5,-138,-88,58,-176,-45,-3,-172,-48,-75,-117,9,-161,-78,0,-224,2,1,0,-5,-7,-7,-2,8,42,-23,10,-14,-24,31,-17,13,-9,-39,-22,-45,-30,-24,-42,6,-24,-12,-23,-1,12,-41,-1,-51,3,-12,-92,-49,-19,-14,60,-150,-1,-123,0,34,7,-42,-63,49,11,-89,-8,-97,-111,1,-33,-75,60,-146,-118,33,-74,-60,-55,-61,-65,46,-100,8,-161,-31,64,-176,-20,-56,-46,-24,6,-24,-21,-10,-42,-29,-41,-45,-31,-44,-18,-18,-19,-25,-43,-28,-6,4,22,-83,24,-88,-46,3,7,-18,-10,13,-72,-2,-72,41,39,-50,12,-51,0,-121,-6,-4,-52,-2,-68,-27,20,-16,-80,50,-101,-50,54,-43,14,17,-52,-28,0,-45,39,0,-27,-48,-5,4,-44,-35,-14,-23,-18,0,-16,-16,-4,-57,-13,14,35,4,18,28,3,51,28,46,-30,-61,-9,14,-28,19,-50,-47,-41,-52,20,2,8,12,-26,40,-50,-25,0,64,-51,12,42,18,15,-38,53,40,0,28,40,9,30,11,7,52,21,56,46,41,-50,-113,-61,-69,-32,-18,0,-76,-71,-34,-48,-55,-36,-90,-26,-29,-8,-33,-83,7,27,24,31,-56,9,-130,-77,26,-30,65,34,-198,-107,-92,-12,7,-2,-187,-230,47,-103,-192,-49,-211,-176,0,-32,-116,-27,-230,-8,-1,-178,-42,83,13,-32,37,-178,-10,-23,-40,-42,-188,-251,-121,-113,-88,-46,-88,-52,-51,-91,-114,-101,-21,-17,-11,-47,-25,-76,-21,32,52,80,34,63,5,-87,-27,52,90,63,100,88,93,22,99,41,127,105,121,116,94,121,101,145,141,122,141,149,102,97,62,106,205,122,172,152,61,86,163,121,177,157,167,231,113,6,-4,0,4,3,6,-4,-2,-36,26,-59,-68,3,32,12,-328,-10,31,-48,-40,-50,-15,2,35,47,25,24,29,13,67,27,63,24,28,15,22,73,34,22,38,9,6,51,33,18,51,53,-2,10,23,12,41,43,12,56,3,-5,7,6,0,6,-8,-4,2,-38,141,59,-53,97,31,-4,18,-83,98,67,-37,12,-28,1,38,-62,6,-4,5,-3,-9,36,-40,34,29,60,30,-14,26,29,45,-30,50,35,20,87,85,71,112,34,88,35,64,86,121,82,47,12,38,14,77,39,68,44,20,-297,49,1,-16,70,35,52,83,70,-64,98,11,89,-14,60,80,-14,82,-80,-28,38,30,36,49,29,23,70,-143,23,8,29,-87,-6,34,15,93,-18,48,21,27,69,43,73,-3,97,3,62,63,4,87,39,135,27,79,39,65,99,10,58,34,40,58,61,-94,36,74,10,49,77,58,-15,-18,22,-8,-11,47,19,10,24,6,40,-22,13,57,14,12,39,-55,64,51,29,70,31,42,57,20,46,14,33,64,56,40,90,44,66,15,0,76,20,106,107,-11,2,-24,-27,47,85,39,88,1,31,13,7,30,51,83,101,28,32,13,22,34,51,62,70,47,-68,-45,-37,19,-16,-22,26,-345,6,-59,-94,-125,59,-53,25,28,30,11,-39,-72,-20,48,-17,41,79,61,50,73,54,10,97,47,114,130,58,62,153,168,149,95,114,137,31,188,101,26,170,52,136,52,121,52,72,80,109,56,149,125,82,97,108,122,76,15,128,71,43,22,33,4,95,426,68,46,2,-15,-20,3,43,-12,50,8,-1,1,-29,-23,30,-4,12,15,10,-22,-35,-10,-34,-55,29,-31,-19,-41,-10,-23,-43,-77,-28,-7,12,16,11,-14,-2,-19,-10,-1,30,8,18,6,13,-1,-29,-18,35,16,-12,-1,-1,-57,5,0,6,0,1,-5,-4,6,7,25,36,16,17,9,32,14,17,25,30,42,41,27,22,14,0,24,37,45,18,32,39,22,-1,24,18,27,22,13,41,17,31,36,-13,-1,15,73,14,-2,-504,-45,504,-34,-449,-27,-180,-79,-4,-6,-7,-3,0,-2,-2,2,69,66,32,72,54,58,76,63,38,65,35,77,51,82,14,69,33,68,49,97,73,70,75,53,71,83,68,57,63,25,79,65,86,57,70,32,125,35,-16,43,63,-10,148,96,89,72,29,69,0,55,-134,1,127,122,-463,-32,-182,0,-135,-4,61,-156,10,-39,67,84,46,72,34,69,40,90,24,62,89,43,62,45,79,50,-33,49,47,73,38,81,57,21,60,-5,36,23,110,65,40,18,24,34,0,27,73,17,34,55,70,-26,90,-25,32,5,63,-34,4,88,7,26,-46,35,-45,112,-55,-345,-116,-142,62,-191,36,22,77,93,66,77,58,91,92,85,69,85,79,59,0,99,92,101,56,99,41,66,49,22,52,61,3,93,74,60,18,62,68,48,25,87,97,92,7,72,65,56,22,80,56,93,47,64,68,54,2,62,67,50,32,33,59,7,-132,11,-504,0,-83,-108,-92,-165,81,126,139,145,140,190,94,134,96,116,159,94,111,137,169,170,-1,147,59,76,106,52,169,76,51,6,107,21,72,100,88,66,128,113,95,0,90,109,74,75,126,25,60,-42,109,78,73,19,-353,37,-68,-26,-13,-191,-268,18,-504,-202,125,-25,-65,-92,65,-62,14,32,30,-6,-10,8,-6,27,29,11,22,-15,-14,0,16,0,-42,-7,-17,-26,-3,-1,8,15,-37,-15,19,22,36,24,17,22,-45,-29,6,38,24,24,11,19,-72,-61,12,39,34,52,63,53,-110,-49,-7,-7,50,37,80,40,236,-15,-12,-6,41,52,103,-1,2,-8,5,8,-2,-5,0,-1,-377,80,-504,80,-274,12,-8,51,-108,20,-2,23,-81,11,-2,-8,-63,-10,-18,15,-22,16,11,-23,-34,-22,25,10,-2,-7,8,-30,-33,-25,42,-36,-21,-30,-3,-11,-40,-64,28,-55,-5,-26,-1,-21,-7,7,3,-5,1,1,-2,-6,-50,40,-81,-180,-163,-134,-35,-55,-111,-29,-55,-146,-200,-146,-94,-82,-242,-51,-48,-105,-504,-37,-112,-82,-73,-56,-52,-52,-67,-43,-80,-50,-87,-37,-88,-52,-29,-62,-29,-66,-40,-38,-1,-51,-89,-57,-43,-70,-67,-57,-28,-60,-70,-55,-66,-53,-133,-82,-55,-79,-41,-47,-68,-73,-92,-12,-61,-119,-92,-81,-100,-90,-102,13,-171,-61,-143,-94,-63,-95,-92,-103,-71,-95,-111,-74,-71,-140,-88,-49,-68,-55,-116,-83,-40,-147,-9,-50,-18,-80,-31,-84,-51,-64,-103,-35,0,-51,-104,-53,-63,-35,-11,-42,-47,-60,-50,-87,-52,-81,-122,-73,-114,-30,-61,-46,-41,-91,-119,-49,-386,-104,-163,-165,-160,-70,-93,-77,-131,-147,-141,-144,-158,-93,-99,-72,-117,-78,-115,-113,-105,-104,-59,-79,-88,-63,-103,-89,-112,-79,-115,-86,-121,-83,-63,-93,-94,-71,-54,-122,-58,-73,-194,-113,-64,-76,-120,-48,-35,-24,-101,-73,-62,-64,-80,-91,-28,-61,-93,-86,-46,-67,-137,-70,-172,-31,-108,-154,-154,-104,-194,-88,-168,-91,-227,-253,-120,-144,-125,-110,-92,-147,-119,-114,-136,-171,-58,-93,-63,-68,-101,-98,-131,-182,-128,-50,-132,-91,-75,-134,-99,-141,-174,-113,-48,-106,-327,-92,-102,-166,-132,-84,-117,-174,-182,-169,-114,-206,-172,-161,-119,-145,-182,-181,-135,-165,-73,104,-13,-49,10,20,48,150,-84,-107,-14,-27,-37,-67,-3,1,-4,1,-39,-50,-37,-53,-43,-4,20,9,-8,-49,-57,-80,-44,-35,40,17,5,-13,-47,-33,-18,-18,18,-14,17,-15,-37,-15,38,17,60,42,14,13,-3,18,36,42,31,33,-25,-16,22,-23,15,-2,7,6,-5,-8,0,-3,-8,-2,13,-4,-16,0,0,7,18,-122,17,-14,-16,-5,3,-5,105,-111,17,-26,-14,5,-5,-10,9,-106,27,-14,23,-9,1,16,-26,-50,0,23,-3,-21,28,-28,-25,-84,11,16,1,-3,-29,40,23,-305,0,6,7,6,8,5,-7,-9,-26,-51,-56,-78,-65,-23,-49,-56,-63,-60,-78,-54,-47,-37,-61,-57,-53,-51,-63,-53,-92,0,-45,-63,-51,-103,-61,-67,-64,-83,-50,-153,-68,-37,-41,-66,-24,-83,-27,-110,-83,-24,-130,-67,-96,-20,-56,-68,-82,-29,-67,-56,-85,-5,-171,-225,-5,-35,-67,-62,-109,29,-143,14,-48,-50,-67,-48,-34,-37,-23,-105,-95,-68,-90,-57,-58,-15,-67,-138,-76,-124,-70,-73,-59,-42,59,-88,-118,-73,-74,-18,-68,-94,-53,-86,-6,-81,-49,-75,-42,-55,38,-75,-56,-45,-103,-101,-89,-6,-117,-131,-43,-31,-90,-102,-46,-21,-63,-147,-89,-95,-88,7,-10,-77,-103,-61,-84,-75,-92,-64,-85,-50,-63,-24,-66,-85,-98,-39,-61,-55,-7,-102,-104,-107,-95,-72,-98,-58,-61,42,-104,-72,-66,-57,-55,-142,-81,-290,-50,-52,-92,-54,-98,-52,-114,-142,-52,-72,-84,-68,-116,-56,-76,-130,-81,-37,-83,-64,-74,-75,-102,-147,-77,-78,-87,-73,-100,-62,-86,-99,-130,-139,-164,-136,-148,-71,-137,-313,-171,-151,-161,-113,-122,-108,-112,-181,-124,-133,-137,-125,-161,-99,-137,-122,-191,-129,-137,-42,-64,-237,-81,-368,-107,-103,-146,-113,-96,-96,-128,-504,-116,-139,-202,-178,-81,-80,-190,-340,-87,-72,-190,-91,-86,-65,-266,-349,-160,-152,-135,-110,-101,-134,-96,-209,24,42,21,20,9,38,-24,44,35,20,19,23,34,18,-30,-105,40,38,8,23,1,35,-4,-274,78,25,20,22,11,-61,-223,-152,42,20,29,15,0,-24,-74,-89,13,15,15,35,-2,0,5,-21,-53,8,-28,-26,-21,14,-61,-38,-78,7,30,-24,-25,7,-21,-58,-8,-5,7,-2,3,1,4,-6,83,17,128,5,-56,-19,-2,-479,4,10,44,7,4,-36,60,181,3,19,34,43,13,-14,33,181,-5,7,36,27,26,-1,0,74,9,25,30,30,12,41,-12,34,7,11,21,18,33,9,3,40,0,7,-4,1,0,-5,1,3,14,51,52,14,1,0,51,74,-15,69,110,103,-56,116,-104,183,156,103,94,19,34,53,172,-52,71,60,103,73,37,-22,-3,-287,96,94,84,54,76,5,71,-25,67,26,74,98,38,53,-41,69,65,60,71,64,60,54,19,51,33,60,58,106,53,5,60,16,57,53,45,37,29,34,-12,32,86,31,84,2,65,33,71,-339,58,61,105,46,36,72,34,86,69,85,95,43,31,35,61,-192,76,67,58,82,15,57,0,33,79,46,69,28,61,17,11,41,18,52,47,29,27,12,44,32,33,11,74,39,-6,39,79,21,48,62,47,38,40,54,50,64,70,66,56,51,21,58,41,11,89,90,64,53,70,75,15,-61,75,77,57,41,7,26,-43,-48,54,76,60,73,49,65,37,21,58,50,70,65,36,63,3,4,80,79,56,74,94,36,64,21,72,85,54,72,67,72,32,35,139,172,199,195,197,227,107,61,198,91,137,117,108,75,99,-284,161,125,146,61,126,114,-31,6,177,131,97,117,114,-83,69,-384,142,114,90,142,96,157,85,31,62,-3,131,83,97,87,53,42,117,119,64,78,113,88,114,120,98,73,124,103,110,131,79,44,-90,3,-13,-15,116,-6,10,19,30,47,-28,-4,-8,7,22,23,32,-8,-4,5,35,3,-1,33,11,4,-13,39,-2,11,4,-8,4,0,-2,10,-12,-9,-9,-45,-9,4,9,11,-9,-6,-10,-17,21,0,30,10,17,-11,5,-14,-37,25,-16,-1,7,7,7,-35,-6,6,-6,8,7,-1,-5,4,-17,-27,-36,-67,-22,-11,-12,-17,-39,-50,-118,-30,-30,-17,-17,-19,-52,-94,-125,-44,-20,-24,-11,-15,-154,-218,-204,-72,-18,-4,-7,-14,-406,-401,-272,-25,-53,36,56,26,-469,-458,-361,-498,78,69,87,66,-1,4,-3,-1,-5,-3,7,8,125,85,63,22,22,52,46,19,82,35,60,22,25,33,42,73,97,36,64,30,27,34,49,51,85,71,90,37,48,47,36,71,104,87,59,58,36,59,50,-1,77,85,81,56,38,87,55,77,77,73,83,44,25,55,80,35,75,76,133,26,3,5,149,136,22,45,51,15,50,44,78,57,31,49,74,4,23,45,65,70,44,53,19,46,28,49,34,31,27,46,88,34,56,47,18,58,30,35,50,50,25,28,74,0,49,119,66,41,24,32,13,58,43,76,121,51,6,40,68,33,55,100,78,30,24,11,32,68,56,37,34,12,28,18,11,26,59,17,43,-11,-16,-33,4,12,52,48,21,14,4,3,-13,0,44,44,28,32,2,16,1,26,45,53,51,34,38,24,45,55,43,28,61,28,36,25,3,46,33,33,52,44,11,30,18,26,48,45,63,38,42,26,19,35,1,-12,25,-145,-67,-38,-85,-29,-11,-2,65,-115,-78,-198,-81,-75,23,24,62,-51,-77,-64,-129,-149,6,29,70,-80,-22,-31,-62,-74,-81,92,-20,-18,8,-34,-46,-61,-74,45,38,-58,-40,-6,-23,-31,-84,47,13,-35,-52,-24,-24,-57,-183,-282,28,-115,-75,-233,-157,-121,115,32,66,-20,-21,-56,-64,-65,65,51,75,-2,-50,-55,-66,-64,84,87,67,17,-31,-71,-69,-88,116,106,104,51,7,-19,-35,-19,140,115,100,95,24,3,-10,-3,142,140,132,112,65,0,-5,-2,148,154,152,133,36,9,-9,4,177,147,161,139,89,-10,-6,-16,-8,-9,5,0,1,-7,2,3,-30,-58,-59,-1,23,62,29,29,-9,-8,-76,-22,5,4,14,12,13,-16,-44,-35,-12,-25,-1,17,17,2,-104,-11,0,8,10,13,16,-78,-133,-31,24,12,-3,15,2,-70,-106,29,-10,4,12,18,1,-8,-8,-6,-2,-8,-4,-8,-6,-16,11,2,82,55,41,31,-28,-59,-24,8,0,-25,-15,-47,5,-42,-35,-48,22,-6,-1,18,-85,22,-109,-1,-46,-49,-39,-15,-13,-35,-79,-40,-29,-42,-33,-24,-16,-86,-29,-39,-42,-34,-27,-9,-31,-89,-114,-17,-55,-33,-80,-6,-172,-63,-125,-83,-2,-25,-9,-28,14,9,-57,-42,-59,-6,-110,-102,-14,-89,-52,-108,-101,-170,-85,-125,-41,-32,-56,-98,-151,-138,-104,-40,-10,-56,-73,-108,-77,-177,-106,-56,-81,-62,-116,-57,-42,-30,-12,-56,-25,-110,-75,-49,-15,-24,-33,-26,-111,-69,-155,8,-29,-25,-10,-30,-21,-107,-59,-87,-65,14,-56,-21,-19,-45,-36,-33,-29,-17,-18,-27,-20,-42,-31,-39,-24,-16,-6,-32,-12,-51,-9,-40,-15,-25,-35,-25,5,-45,-16,-42,-34,-34,-14,-31,-7,-47,-4,-45,-12,-30,-21,-46,-3,-25,7,-29,-44,-55,-47,-42,10,-12,30,-40,-56,-57,-62,-53,2,35,68,-54,-57,-53,-57,-53,-35,-74,-91,5,14,92,37,-23,66,184,106,91,77,49,49,-2,146,107,164,75,-5,59,91,8,125,79,153,36,1,-3,47,70,66,87,119,13,96,40,99,35,108,87,119,76,71,56,79,36,150,84,92,92,37,64,23,59,86,107,116,97,45,71,57,-34,48,9,33,25,64,64,60,82,58,31,37,12,26,39,56,83,20,12,21,9,23,36,52,61,-34,-24,0,11,40,51,52,57,-25,-66,-45,-14,21,46,52,54,-125,-116,-62,-33,8,27,41,57,-223,-106,-125,-20,-26,19,27,55,-439,-147,-196,-30,5,5,30,47,2,6,7,-2,8,3,-5,1,-3,13,0,50,-22,19,-14,12,-14,34,-67,44,-44,6,-40,-3,-7,18,44,34,1,12,-17,-2,-11,12,30,-27,-1,-4,-26,-19,-39,5,27,6,58,-41,27,-24,94,-117,-1,-119,28,-90,50,-28,3,-2,-3,-8,-3,6,-4,-5,-126,-46,-24,-63,-23,-46,-54,-80,-78,-64,-51,4,-96,-29,-73,-62,-4,-26,-100,-44,-17,-54,-53,-60,-125,-29,0,17,-38,-79,-45,-40,-37,-56,-19,-105,-7,-28,-56,-109,-92,-35,-53,-66,-121,-86,-69,-27,-28,-39,-93,-171,-91,-100,-35,-70,3,-189,-27,-142,-133,-97,-18,-9,-77,-13,-34,-28,-37,-27,-54,-27,45,-87,-20,-74,-66,-39,-22,-31,-31,35,-104,41,-33,-24,-32,-56,-22,-36,25,13,15,-39,-21,-14,-2,14,2,-22,-6,0,-23,-40,-34,31,-69,-17,-42,-29,17,-10,17,-111,19,-102,52,-104,-5,19,-29,26,-184,43,-58,-86,22,-25,-51,-45,-36,-39,-45,-52,-74,-69,-97,-31,-65,-15,-64,-55,-75,-50,-27,-32,11,0,3,14,-80,-59,-89,26,-4,61,25,3,15,-10,-31,-7,22,-6,-4,-15,-43,-21,-52,-33,-19,-31,-42,-35,-20,-23,-35,-56,-70,-61,-53,-66,-42,-76,-4,-90,-64,-89,-46,-80,-60,-65,-136,-132,-137,-169,-133,-182,-153,-139,-131,-148,-138,-141,-172,-143,-119,-132,-131,-107,-117,-66,-59,-95,-88,-129,-124,-76,-67,0,-21,-107,-94,-62,-60,-84,-64,-136,-74,-88,-71,-101,-138,-38,-221,-109,-224,-77,-91,-82,-58,-428,-72,-230,-21,-150,-79,-81,-504,-146,-346,-182,-131,-174,-75,-136,-28,-51,-47,-73,-7,-66,2,-9,-52,-48,-37,-24,-58,10,5,35,-10,30,-56,21,28,21,58,70,14,-27,21,12,40,38,59,80,-59,-1,2,4,2,10,28,63,-7,-4,-39,4,-55,-12,-23,73,-133,-13,-16,-60,-4,-17,-87,64,41,23,-237,-279,-48,-28,-12,-155,4,8,-1,7,-7,-3,-9,-3,59,2,102,141,49,46,91,31,-9,-20,-61,-51,43,-96,-27,-17,3,-17,96,-52,61,55,-4,-36,-32,17,44,78,30,31,5,-4,-5,8,29,35,16,34,22,-14,-7,19,18,44,-4,24,11,-13,-5,-4,-8,-2,7,-4,-5,0,8,-65,69,31,156,0,37,-90,126,-17,75,95,68,60,75,142,74,83,147,70,110,85,53,59,3,33,11,78,51,69,70,93,16,110,39,75,64,81,63,45,44,-63,89,49,76,51,76,73,65,25,45,49,61,49,66,23,87,55,124,16,90,59,63,69,74,106,87,47,80,32,81,66,67,84,41,61,76,96,70,60,54,-84,77,59,68,22,9,56,9,98,-51,93,74,59,62,64,66,-106,107,90,35,29,53,70,-4,74,12,54,37,69,64,56,67,35,64,11,58,20,56,49,56,55,36,75,10,65,59,45,45,44,29,45,100,61,53,61,32,39,25,48,74,52,56,12,64,95,70,90,50,68,85,84,51,59,51,57,75,89,89,31,-2,32,-12,55,40,27,77,76,100,-7,50,23,52,52,87,66,51,89,9,49,67,56,112,76,86,63,64,56,85,74,90,89,87,-190,161,186,177,229,171,196,80,94,-74,106,144,148,174,191,123,-75,123,-59,50,158,154,178,130,69,-218,136,61,179,156,150,97,-32,62,-100,92,-41,112,198,93,62,32,38,88,145,142,132,102,141,52,129,128,81,150,174,163,116,139,125,142,173,66,179,-185,0,24,-54,-25,8,-178,-11,36,48,35,-42,-13,5,-90,-69,-2,10,24,47,-29,5,-5,5,6,12,18,63,53,48,0,-226,-1,-9,52,55,24,27,7,-5,2,1,7,-6,10,29,-2,-33,8,13,2,-1,-48,-11,-1,-2,13,-30,-25,-55,-40,-26,-17,-36,1,-4,-6,-1,5,-3,-6,7,-1,-13,16,-33,13,-29,-50,-8,4,-7,7,-33,26,-6,-38,7,-6,23,8,-13,15,-21,-29,13,2,35,32,-2,26,-79,-2,3,38,28,32,-49,37,-171,-73,75,63,-357,8,-78,44,-431,126,-423,2,4,8,0,-8,2,-1,9,-15,-39,-51,-6,-18,-6,-29,-27,-9,-64,5,4,-17,-25,-64,20,-38,20,-24,-12,5,-49,43,-37,3,0,12,-33,-1,-7,40,-36,-47,-22,23,-11,14,-50,-356,75,29,25,-1,-65,-78,-22,-9,19,-19,-30,-46,0,-64,63,-125,-97,-18,20,20,-18,33,-350,44,-67,12,-55,19,-39,-33,-56,-91,-29,-67,3,-46,11,-33,-75,-48,-8,38,-37,32,-86,-22,-13,38,-35,17,21,-20,3,-34,38,-14,-60,-11,-19,-11,-53,8,-42,-73,2,-30,-27,-31,-11,-68,-10,-453,-8,49,-49,6,-80,-12,-167,78,-355,-91,-53,-98,-25,-155,20,-433,-83,-37,-24,-15,-48,-21,-35,-60,-50,-27,-39,0,-40,-24,-70,-59,-59,-41,-30,-51,-50,-16,-7,-24,-2,-28,-25,-26,-60,-16,-28,-52,9,-33,-19,-16,-57,-38,-71,-73,18,-40,-40,-89,-67,-55,-115,-117,-108,-50,-82,-64,-91,-59,-136,-493,-70,-76,-120,-50,-78,-39,-111,-74,-101,-118,-121,-105,-133,-101,-90,-189,-120,-148,-96,-101,-135,-104,-127,-164,-133,-87,-130,-88,-168,-117,-87,-84,-91,-104,-70,-111,-127,-14,-35,-36,-139,-130,-168,-58,-135,-111,-15,-218,-3,-166,-74,-149,-66,-154,-72,-270,-56,-84,-186,-74,-238,-72,-115,-68,-180,-185,-179,-108,-145,-96,-48,-188,-84,28,21,39,26,-6,-17,-20,-18,18,24,27,34,-8,-12,-34,-17,9,17,48,11,29,10,-11,-47,-23,49,32,36,14,-23,-17,-65,-41,3,-16,-25,-25,-68,-66,-95,-27,-31,-26,-20,36,-5,-62,-44,14,-9,-28,-23,93,-13,-73,44,66,-26,101,123,214,38,1,-48,8,1,2,1,-2,-3,-8,1,8,-52,-52,-26,0,60,64,3,-3,1,-6,-9,22,51,44,17,8,11,-22,-8,-26,17,44,63,11,24,-8,7,22,24,4,77,7,18,17,36,-9,-65,36,44,14,40,0,-24,14,-32,-21,69,9,-7,0,0,-3,-7,-1,8,15,-9,-62,-21,22,106,145,38,54,36,19,127,65,3,65,-6,75,56,141,66,122,30,103,-18,47,32,25,57,34,15,3,2,4,65,26,30,-3,40,28,117,19,25,21,27,21,12,12,-2,26,-15,23,25,13,-8,87,54,44,16,48,-8,4,-39,21,17,11,45,37,84,48,156,64,19,54,-4,54,106,90,59,73,-7,87,58,41,83,51,64,-13,74,77,70,44,0,55,16,63,59,64,56,33,39,-18,83,64,45,20,19,34,48,40,-39,74,35,5,52,24,6,41,48,17,86,18,-31,55,20,35,40,36,47,7,40,10,17,51,41,50,88,43,9,16,3,57,49,46,132,18,30,28,34,73,69,30,120,39,24,60,49,51,0,49,94,-1,16,41,5,54,59,41,35,31,7,22,26,87,48,78,-47,14,14,52,0,55,118,17,194,19,-17,34,20,50,55,39,-32,-224,-133,-321,-66,-406,-139,197,-196,181,76,151,144,-24,100,54,112,133,143,149,143,72,31,8,78,132,108,209,111,72,37,66,267,116,138,170,66,97,134,115,60,108,96,78,121,202,107,213,153,122,99,122,86,148,187,155,292,86,47,138,143,161,185,196,122,-5,19,-13,44,5,-5,113,174,26,-29,-103,8,9,38,44,50,27,23,20,35,38,24,42,51,25,26,31,29,29,26,44,71,34,33,42,41,8,15,40,46,32,25,1,12,7,-93,-5,22,41,33,-1,-4,-23,-49,-64,20,-23,14,-6,14,10,-29,-42,-4,-8,-7,-9,5,1,-8,0,-2,-8,-5,-5,17,-28,5,-3,-3,-5,-5,-5,1,-29,-1,0,-7,-7,-7,2,33,-33,40,-6,-4,0,4,12,-1,497,-13,10,-8,-7,19,15,19,-53,21,13,-19,20,147,50,50,-26,60,-50,22,6,-1,-5,8,4,8,-3,0,-54,-7,-6,14,29,-13,25,-7,-10,27,-8,7,-26,20,-35,11,0,-3,-19,113,-6,94,-20,27,-8,8,100,0,-16,1,165,12,8,3,33,10,229,-2,34,-11,23,44,122,-22,5,-18,103,27,51,-21,5,141,33,164,-23,19,37,-25,91,75,-15,42,23,79,39,-10,10,0,52,0,-14,23,6,52,-2,26,-9,24,3,78,53,-9,54,-9,-4,-12,97,12,1,63,6,109,-8,105,12,99,33,59,46,-8,284,1,58,18,-8,35,32,102,-21,73,9,28,48,-10,110,-11,-9,0,88,14,30,166,77,48,20,24,-1,119,9,9,7,8,81,15,19,11,1,25,13,19,82,40,38,15,8,9,3,27,106,23,28,28,-21,6,-18,22,110,6,-11,-13,54,56,70,126,262,150,89,87,48,41,42,37,122,15,77,37,47,37,41,26,81,21,35,62,73,17,56,49,98,19,50,47,80,41,38,34,96,54,56,51,66,74,39,38,85,56,47,68,46,41,51,33,116,48,96,95,47,65,20,166,124,157,34,60,88,124,127,193,336,181,122,134,60,92,105,197,164,166,103,84,77,85,114,97,141,99,86,100,85,-504,49,-344,-445,-372,41,107,-24,-18,-8,3,-6,0,0,0,-14,-33,-16,-11,-26,-21,-15,-17,-6,-40,-20,-27,-28,-30,-27,-12,-2,-35,-11,0,33,-2,-36,-48,-4,6,20,31,-216,13,-8,-50,35,21,29,10,8,-41,-25,-41,56,43,21,-4,-12,-50,-42,-45,93,-72,48,21,71,-26,-68,-54,3,-8,7,-5,-4,-1,5,5,-24,23,-27,-38,59,-55,-37,45,7,-7,9,16,-1,-6,2,2,4,9,0,7,-17,8,5,7,16,14,16,7,123,5,22,10,4,7,1,-317,5,-269,11,11,17,3,13,-29,15,-22,6,7,3,-1,-8,6,8,-5,-6,2,5,-3,-2,59,16,10,-19,1,21,8,-27,-27,36,-1,1,7,11,12,6,-210,1,-224,15,3,22,-5,-138,-33,-10,-34,-202,-32,-12,20,2,3,107,-5,-18,-9,2,-5,-113,-29,-1,-71,-102,-4,12,-22,10,-118,0,-87,0,-19,30,-22,0,-23,-16,-9,-17,-23,-97,11,5,18,30,81,0,-9,6,-43,-3,0,57,-35,24,6,10,0,-81,24,0,11,-114,2,4,-3,12,-153,-27,-166,-8,-51,0,15,-16,-22,113,-19,-33,5,5,-19,11,-116,-13,-161,14,-12,-42,-2,-141,7,-7,19,-146,0,-5,-177,3,-13,-24,-22,9,-132,-13,-12,-24,-18,-25,-51,-3,5,-12,-9,-18,-9,-31,-23,-9,12,0,-20,-9,12,-65,-13,-4,15,-9,-6,-6,-39,-216,-35,-1,-5,-11,-33,3,-34,100,-36,8,-14,-26,-27,-23,-45,-94,-72,-26,-37,15,-13,-24,-17,-38,-18,-14,-10,-2,12,-12,-26,-30,-30,-2,9,-40,-26,-50,-26,35,-6,-39,-40,-39,-34,-6,-72,-10,-19,-22,-23,-66,-24,-46,-11,-38,-45,-20,-19,-44,-20,2,-147,-196,-85,-21,-35,-20,-9,-20,-37,73,-60,-16,-15,-21,-29,-1,-62,-65,-70,-11,-33,33,-24,-49,15,-52,-6,-56,-28,-32,-29,-39,-43,-42,-24,-29,-41,-123,-73,-98,-23,-25,-124,-37,-91,-59,-4,-62,-15,-105,-48,-60,-13,-9,-10,-21,-15,-60,-54,-48,-58,-73,-30,-23,-207,-149,-203,-41,-13,-12,-5,-7,-84,15,-40,-15,-8,-16,-4,1,-30,-53,-48,3,-22,-37,-9,1,25,27,14,1,-8,-26,1,-13,8,15,6,-14,15,0,-8,0,0,5,2,-3,-3,5,-10,-5,-10,-1,2,-8,-14,5,-4,-19,-12,-2,-1,-10,-13,1,4,-5,-51,-5,3,0,-9,-4,0,3,12,-106,6,25,-5,7,5,23,9,11,-64,331,-18,-61,-47,-50,-96,-116,51,429,504,-6,7,-4,7,-3,3,3,-7,9,-16,-29,-7,-57,-30,-16,-131,-18,-14,-23,-22,-26,-13,-11,-40,-12,-15,-23,-24,-33,-19,-29,-25,-7,-19,-36,-39,10,-46,-1,-52,-33,1,-33,6,-50,-37,-19,-2,-65,-59,-13,-33,-24,-45,-30,33,-43,6,-39,-53,-57,4,-80,-48,-28,-130,-20,-2,-21,23,40,-4,44,-12,-17,-28,-4,-16,-27,-27,6,74,-23,-21,-17,-14,-13,-11,-7,-25,83,-38,-3,-26,-6,-13,-19,-14,-29,127,-31,12,-14,-14,7,-15,-17,-21,167,-20,-10,-42,-13,2,-7,-14,-19,219,-45,38,-38,-71,-22,-22,-48,-12,213,-45,-52,10,-27,-40,-5,70,2,97,-10,-17,-33,-33,-17,-17,0,4,-21,-47,-59,-50,-30,-24,-11,7,-19,-25,-18,-29,-3,-25,-13,-7,-32,-46,-46,-61,-13,-19,1,0,-29,-23,-54,-20,-36,-20,-9,-7,-34,-51,-38,-45,-70,-52,-3,-6,-31,-22,-18,-52,-59,-38,-59,47,4,1,12,4,14,42,9,46,-33,-101,-88,-97,-90,-41,-98,-140,-98,10,-101,-85,-73,-140,-80,-504,-126,-92,37,-79,-36,-76,-39,-62,-70,-66,-55,77,-58,-34,-60,-96,-64,-42,-65,-34,147,-37,-54,-58,-54,-144,-67,-32,-48,194,-56,-153,-83,-39,0,-52,0,-1,201,-49,-97,-105,-52,106,-7,72,103,489,-61,-36,-70,-35,-34,-35,-51,-44,-56,-75,-55,-47,-44,-43,-41,-33,-68,-61,-62,-52,-39,-42,-56,-33,-108,-53,-61,-63,-45,-26,-44,9,-77,-53,-47,-63,-37,22,36,38,-94,-88,-73,-47,13,56,53,113,-138,-49,-80,-86,0,79,1,113,-31,-240,-155,-86,-51,73,103,200,-1,-1,-7,0,-1,2,3,0,40,37,-14,20,-42,3,12,-14,4,20,12,-2,3,0,17,3,9,8,6,-9,11,14,-4,10,9,9,0,0,-48,13,21,15,10,5,7,-15,-7,-102,10,11,9,11,9,8,-26,11,-504,32,3,4,5,0,-7,0,0,1,16,46,32,57,68,49,66,56,0,34,46,33,47,17,22,0,40,46,45,13,41,15,39,6,2,45,23,21,18,26,-10,16,37,14,39,2,-22,6,20,-26,21,19,2,8,-7,-72,-420,19,27,31,6,-23,23,-292,-61,18,8,20,4,18,-86,44,29,-263,-439,29,25,25,60,10,18,47,-4,-504,30,11,29,8,33,2,15,-14,-416,6,30,29,24,59,18,13,2,-504,33,19,35,7,-18,33,21,17,-504,23,6,44,4,16,19,-3,18,-504,-9,-10,3,17,9,30,-15,7,-504,43,21,8,19,-6,28,12,63,-504,28,20,-5,-4,-8,-2,-44,-142,18,43,20,-3,12,9,-75,-276,18,13,47,9,14,3,-72,-216,2,16,1,16,5,22,-62,-150,-20,10,-10,-30,10,2,-34,-113,2,-6,-5,-22,-15,39,-69,41,14,-9,-6,-23,3,-35,31,-247,-11,-18,-48,-65,-119,-134,-145,221,110,54,26,16,46,5,71,65,81,47,43,43,50,57,89,53,48,64,84,64,39,42,75,88,64,54,39,59,78,47,57,55,76,64,72,70,38,38,42,41,88,77,80,52,54,-6,43,28,95,81,77,99,38,55,-33,66,44,56,71,64,36,34,103,221,-11,4,-77,-42,-30,-33,-31,-4,-17,-6,-17,-8,-22,-15,-1,-8,-15,5,16,-26,22,-11,4,37,24,5,-3,18,-9,3,-7,-7,-3,-1,5,-2,-39,-31,0,-39,-34,-13,-7,-15,-37,-136,-35,-59,-16,-17,7,-19,-27,-51,-504,-62,9,-20,-19,9,3,-14,-137,244,-2,8,-6,-3,-2,-6,6,8,-1,0,15,-36,-7,-84,-19,-6,0,7,6,3,-16,-11,-9,0,-2,3,2,-9,0,-17,-9,-7,-9,-2,-11,3,3,-12,-7,-8,6,0,0,-18,9,-110,13,2,-19,-25,-7,-16,-16,-112,-16,-59,7,7,3,-4,8,0,-1,-5,61,-1,3,-89,-5,-109,-16,-29,5,-27,-32,29,-5,9,-33,-36,-2,-6,-1,7,12,-14,0,-6,-43,-12,-49,-7,-504,-14,-504,-7,10,12,-20,-504,-1,-57,-6,-504,-6,14,15,-4,-2,-73,29,-18,40,12,-7,-504,-5,6,-37,-504,-11,-1,12,62,20,50,-16,26,-24,-12,-49,-21,-30,-6,-33,-15,23,8,23,-28,10,-39,3,-25,-9,13,1,-5,-29,-19,-13,-29,16,-19,4,-60,-20,-63,-12,-28,-60,-7,-62,11,-10,5,-504,9,7,-18,1,14,-5,2,19,-27,-35,13,2,9,20,1,22,-17,-2,2,20,16,35,-34,-6,0,22,13,30,22,9,6,30,17,9,24,9,26,-16,22,-2,-19,5,-18,-32,-5,42,-71,7,-6,13,-13,0,18,-62,-34,-43,16,24,8,20,-7,-9,-3,13,-15,18,34,11,22,-10,2,0,25,43,11,24,10,18,9,23,19,28,33,23,13,22,-2,22,12,32,33,20,51,41,61,46,37,25,38,55,36,11,77,60,40,38,22,2,27,52,26,49,0,26,31,36,53,0,32,25,16,23,32,-23,35,42,98,19,25,26,69,44,65,21,93,45,28,7,34,35,0,60,79,112,22,47,58,66,56,-504,40,98,49,-228,-200,-112,-102,-29,-18,-24,-145,-219,-237,-147,-86,-97,-13,-51,-82,-254,-261,-197,-178,-124,-120,-101,-180,181,-264,-262,-259,-207,-136,-140,-3,213,214,202,210,193,188,152,153,216,216,211,183,201,156,202,187,245,239,192,187,211,218,199,177,81,178,182,-23,239,197,258,11,-6,-6,-9,1,-4,6,4,7,-20,54,39,61,17,-29,-5,18,24,24,19,66,109,35,39,16,1,1,10,-1,16,0,-13,11,2,-7,-10,-3,-4,-20,-18,5,5,-12,-5,-4,-6,-33,-2,0,8,-6,-1,3,-10,-19,-2,9,5,0,-5,3,5,-5,0,-8,20,104,85,140,68,48,44,55,0,81,82,92,68,115,85,94,35,26,79,89,137,53,70,97,34,23,91,3,73,78,119,55,-4,-10,-3,66,16,93,35,5,5,-23,2,8,12,-12,7,32,-11,-8,3,-1,14,-5,9,-1,-1,8,9,22,4,8,-2,-17,48,-19,49,34,78,25,72,20,-4,59,13,132,29,86,19,75,47,6,101,71,144,40,113,68,-3,67,51,108,27,79,18,125,82,19,124,-8,45,0,104,28,18,100,0,29,0,32,0,60,65,0,26,2,19,-16,19,1,3,29,9,42,-5,13,-15,6,34,89,114,102,91,133,122,93,77,112,142,135,130,114,150,120,25,71,97,118,101,130,110,92,-39,-16,5,3,76,54,73,7,-16,14,-10,22,30,69,74,8,-11,27,-17,34,54,71,39,15,-11,-17,-4,9,33,23,33,-2,-25,-27,-23,-16,20,22,24,10,-504,-113,85,-424,-178,-453,-202,-504,-2,101,96,156,145,-304,87,122,59,-44,116,127,203,113,139,151,-55,61,59,132,74,148,88,113,34,29,129,50,69,57,131,35,27,133,39,42,49,504,34,96,104,17,29,28,55,6,89,32,22,44,26,44,51,35,54,20,23,-48,-36,-11,15,29,-23,-34,-12,-36,-22,-21,15,7,15,14,-6,-27,-27,0,19,3,10,18,16,-10,-2,7,12,10,29,53,4,-22,-22,-6,-6,-17,-9,7,27,-7,0,6,-1,-10,-7,34,21,-9,-3,5,-8,-27,-3,-3,11,9,9,4,-7,-28,-21,-15,4,-5,7,2,-7,-3,-1,0,6,-29,-14,-2,-9,-7,-12,-18,12,-35,-20,-21,7,-15,-7,-23,4,-32,-60,21,-1,-13,-15,-11,32,25,32,-15,13,2,-4,-18,-29,13,7,-14,26,15,11,-6,40,12,-175,-43,-287,-106,44,80,0,0,-1,-9,-3,4,-2,-5,14,30,45,26,-7,0,-16,11,27,80,3,46,-33,8,-29,-20,84,32,24,28,18,-17,5,6,160,-43,115,-5,63,-14,61,-28,112,-49,87,35,62,-12,33,78,-11,74,-5,51,-17,42,13,34,-4,110,-112,31,-38,3,32,12,6,51,40,-100,-64,13,1,26,46,13,-3,8,40,33,-13,-33,42,5,-6,0,-7,-24,19,-58,52,9,-7,27,-32,3,-31,34,95,0,14,0,4,-61,55,-1,12,59,24,40,-31,9,-64,11,18,-107,40,-9,55,-35,-18,-52,-2,16,-31,18,-57,-17,-31,43,26,-2,44,-342,28,-36,53,-31,31,62,43,0,13,14,0,49,58,41,42,9,-14,-4,18,56,63,99,55,21,6,84,25,45,83,88,73,31,13,37,-6,37,93,48,57,21,22,8,-15,26,104,53,13,-7,-8,32,6,33,117,48,52,-7,6,43,30,4,60,-30,-252,-369,-201,41,-26,-37,73,59,78,85,75,89,51,80,158,51,89,58,55,41,42,86,109,112,92,39,4,202,88,95,194,137,243,40,87,33,226,9,199,176,108,170,22,112,-54,214,132,48,188,25,111,56,165,72,139,182,75,89,11,135,20,104,97,-258,-399,-336,-136,-383,157,-172,51,-9,-15,-44,-5,-21,-7,-13,64,19,-8,10,-32,1,-5,15,83,7,31,-1,-3,9,8,-28,81,39,7,19,0,-18,-14,-19,39,36,12,19,4,-2,-33,-61,18,-15,-20,32,24,-23,-26,43,64,-22,-108,16,-17,-36,24,16,50,-17,44,25,63,21,61,-43,-8,-2,5,4,1,4,-8,1,176,127,33,-43,38,105,-199,146,139,23,42,56,10,75,-28,26,99,-31,69,26,9,39,-29,-6,77,-150,53,-66,35,-6,22,-12,50,-49,20,-16,14,24,-2,5,48,-29,15,-17,19,11,16,9,0,-7,8,3,-6,4,-6,1,79,-12,10,17,-44,12,60,69,47,43,53,-137,19,-18,25,37,-9,0,5,25,-10,16,36,71,68,7,53,24,27,69,27,-6,-15,-3,31,35,-58,45,6,42,36,-57,16,2,42,-13,18,-18,0,3,-15,4,5,26,15,36,-37,-4,-11,-1,10,-5,5,20,26,-15,10,0,-69,60,-183,33,-86,-32,-47,-49,-35,43,2,60,14,-60,1,-14,64,-17,33,85,17,-27,31,10,-39,41,-41,16,12,-41,50,-99,1,28,52,-15,-20,36,-33,22,-56,33,-10,31,-28,6,-35,17,16,-77,8,-9,-10,-1,-7,12,-46,3,-30,-36,-49,-79,-55,-88,-48,-28,-114,-29,-61,-51,-52,-33,-40,-8,-43,-25,-55,-72,-23,-14,-39,3,-50,-31,-33,-93,0,-55,-31,-89,-36,-81,-48,-108,-47,-66,-62,-54,-109,-51,-24,-13,0,9,-10,-9,-48,-70,-56,-40,-51,28,-1,-5,-56,9,-33,-91,-25,-41,-36,-42,-12,-39,-61,-270,-235,-504,-151,-164,-235,-252,-152,-56,-186,-199,-165,-76,-184,-106,5,-246,-46,-114,-63,-205,-150,-51,-270,-39,-110,-167,-137,-167,-258,-176,-133,-92,-62,-270,-109,-118,-145,-148,-113,-46,-45,-77,-136,-30,-181,-231,-123,-113,-163,-41,-112,-92,-149,-156,-158,-119,-126,-163,-151,-136,-192,-103,-183,-131,-199,22,27,47,32,96,14,-138,-43,-49,12,18,9,85,-93,-281,-78,-37,-12,38,3,16,-51,-102,-65,-23,-10,3,7,12,-43,-87,-48,-42,-30,-7,-36,-90,-4,-20,-10,11,0,-4,-29,-48,-8,24,-16,77,-8,38,-19,-11,4,-17,33,-7,16,6,11,-101,1,5,-1,-6,6,1,0,2,9,-9,2,-3,28,10,-30,18,18,-35,8,25,22,17,5,0,4,-4,18,4,53,19,16,-15,-25,1,1,42,52,72,-33,41,-11,16,35,32,76,61,18,-14,-39,-32,-98,43,94,132,55,34,-4,-3,-8,5,-7,0,-2,-3,-72,31,40,51,33,49,47,67,46,20,62,3,121,41,43,58,10,61,44,79,23,79,17,103,0,45,32,64,64,131,10,118,78,65,54,32,38,16,77,54,24,-33,-60,17,94,70,80,72,-24,118,75,-56,-3,59,100,108,-56,-4,-139,-19,53,98,-66,33,61,54,66,29,37,3,9,2,76,53,48,60,51,33,-23,93,25,30,51,36,11,15,51,36,63,7,42,12,46,124,5,173,62,33,-9,9,107,31,85,7,4,84,47,23,39,38,8,23,-26,35,25,27,12,64,-33,34,-33,36,-13,0,45,84,-3,51,28,69,42,68,42,96,130,108,38,37,57,67,111,71,111,138,54,74,14,87,3,83,67,133,65,33,28,55,64,74,75,123,84,37,38,63,81,65,89,137,63,19,-19,61,30,32,20,107,73,32,-9,57,35,44,42,87,7,-20,6,8,-14,-59,-14,34,126,110,105,92,21,92,168,151,131,125,69,130,166,99,52,137,110,95,53,108,49,138,10,164,178,55,104,90,136,205,64,251,189,45,33,25,79,19,206,74,89,152,21,-28,5,109,-122,100,72,123,30,-13,61,54,-102,96,152,-16,-7,294,45,-50,-292,-132,7,29,0,-17,-30,-38,-65,5,19,-3,2,-14,-9,-7,-41,8,23,-22,-3,4,-36,31,4,24,37,-29,-16,-8,10,26,42,41,29,-18,34,34,44,33,72,-5,19,-8,-13,45,68,51,65,6,-20,-60,-191,82,85,71,108,85,71,-22,63,11,66,125,157,81,-2,5,-4,8,6,-8,0,2,4,17,4,20,1,-5,-421,99,10,-43,17,-62,28,19,-31,102,37,-14,-37,16,-10,75,-47,58,24,-14,-15,23,-59,21,-154,44,19,-37,-2,26,-37,-33,-16,0,28,-20,-10,37,-54,-15,-20,16,-1,-5,3,0,5,-3,-9,-6,44,-67,-119,-52,-22,-64,-173,-73,13,-149,29,-212,-66,-82,-19,28,-48,-47,-146,-44,12,-162,-67,-71,-59,28,-72,-93,-46,-19,-44,25,-23,-3,-108,-2,-32,25,-123,-17,-16,-99,-23,-33,-70,-43,-44,-28,-40,-88,-41,-11,-6,-51,-47,-84,-25,-17,-29,-34,-40,-51,-54,-37,-47,-83,-71,-182,-29,-108,-93,6,-84,48,-65,1,-98,-14,-163,35,25,-40,-10,-91,-59,-161,-11,-46,-19,3,-147,28,-29,4,-58,0,-42,-84,-6,12,4,-38,-69,-74,-40,-82,-28,8,-3,-72,-5,-123,-50,-20,-54,-9,-96,-25,-41,13,-37,-34,-48,-131,15,-27,-63,-2,-46,-16,-58,-49,-73,-89,-61,-2,-62,-66,-86,-105,-56,-113,-91,-65,-83,-57,-64,-31,-113,-56,-53,-34,-63,-111,-62,-62,-71,-28,-11,-1,-34,-35,-50,2,7,-43,-3,-52,-63,-91,-52,-6,-7,-7,-46,-24,-64,-105,4,4,-45,-39,-57,-12,-51,-100,-75,7,-54,-49,-30,-50,34,-118,-18,-130,-80,-294,-4,-43,-176,-16,-127,-56,-130,0,-57,22,-100,-53,19,-80,-109,-136,-33,-37,-138,-74,-175,-9,-116,-25,-25,-110,-96,-43,-143,32,11,-20,-97,-79,-122,-221,-71,-53,12,-89,-53,-59,-122,-128,-88,-99,-122,-123,-93,-37,-66,-132,-168,-85,-96,-114,-111,-139,189,106,114,125,79,56,-6,27,-4,96,0,102,28,-24,-74,123,52,-16,41,17,-67,-88,-220,-21,-10,-6,-12,-9,-49,-45,-68,14,-9,-32,6,0,-6,4,-16,53,25,-22,0,21,6,-20,26,11,56,25,9,21,-19,-17,19,27,39,31,-38,-1,-27,-31,-25,15,-2,0,7,0,-4,-8,-8,-8,16,16,27,-14,6,23,31,-15,10,9,7,0,12,30,25,-11,28,46,22,-17,39,43,-26,22,21,30,-10,33,22,0,0,-47,-12,-58,-6,-11,33,33,0,39,-42,-86,63,-8,60,144,-84,104,6,-5,9,8,-4,-4,-7,-8,69,56,83,76,92,106,40,79,64,70,73,52,76,52,10,-15,95,105,92,61,78,49,90,11,86,128,115,96,76,58,-34,-220,53,131,108,10,81,59,121,28,26,72,53,-116,155,128,-173,16,11,121,135,63,3,42,114,40,11,127,-40,147,141,46,-43,45,23,8,60,103,37,48,29,55,100,50,67,48,49,47,74,58,35,74,56,50,84,64,61,37,124,71,104,20,55,92,30,-146,63,118,18,35,79,84,-74,44,-18,74,102,-55,101,-25,123,53,3,-90,100,81,19,101,-20,57,72,27,-43,77,131,96,24,90,67,54,101,121,82,69,82,66,50,67,95,98,79,74,57,28,83,30,96,119,71,49,97,17,45,30,85,69,13,-97,31,-49,88,41,92,111,64,4,70,-86,61,17,79,98,32,8,88,-77,51,-33,57,57,84,16,113,-30,54,-12,42,104,70,-26,60,-43,67,-21,141,130,91,127,178,35,136,98,123,110,115,132,88,85,128,-34,131,77,98,49,188,61,125,83,148,70,-40,57,45,-96,86,17,108,75,56,41,8,30,-59,41,144,102,58,23,184,85,69,-91,119,57,13,203,-30,153,170,173,156,167,165,218,127,160,-100,3,26,18,-16,1,20,2,-27,26,18,-15,-11,4,28,18,-16,-4,-15,-13,9,-7,-7,13,-43,25,-18,-9,5,40,-1,-1,9,8,4,9,12,31,-13,-37,-53,0,-44,27,-6,4,48,-49,-71,-79,-111,44,-82,15,-69,-90,-7,-215,-194,-99,35,-21,35,-74,1,4,2,2,7,-7,8,2,67,-190,100,75,-143,-75,110,-194,8,-133,58,-63,44,-80,104,-184,29,-59,12,-56,26,-63,26,-116,-13,-39,-7,-26,1,-2,90,-28,-24,-33,0,-50,3,-1,9,-38,-12,-41,3,-49,32,-26,43,-27,-4,8,1,-7,5,-5,-1,-6,-54,-137,-36,-248,-142,-88,38,-98,-210,-299,-48,-4,-251,-74,-26,-100,-125,-60,-90,-132,-112,-62,-77,-78,-93,-54,-78,-77,-46,-67,-77,-102,8,-41,-1,-20,-71,-95,3,-96,-28,-88,-47,-41,-30,-33,-75,-94,-91,-74,-33,-31,-33,-59,-33,0,-63,-56,-28,-43,-22,-108,-43,-282,-119,-113,-1,-43,-98,-115,-14,21,-57,-139,20,-80,-95,-151,28,-12,-121,-126,-90,-43,-61,-27,-56,-57,-102,-50,-65,-90,-2,-82,-69,-115,-39,-35,-68,12,-84,-33,62,-99,-25,-97,-19,-56,-1,-53,-81,-43,-149,-48,-57,-34,-37,-59,-25,10,-40,-75,-24,-24,-2,-58,-52,-62,-57,-137,-57,-15,-109,-93,-37,-171,-53,-46,-54,-56,-50,-72,-11,-47,-51,-31,-80,-57,-43,-53,2,-75,-69,-117,-122,-77,-84,-68,-39,-136,-55,17,-55,-28,-17,-70,-28,-54,-64,-17,-64,-47,-30,-107,-111,-181,-55,-62,-37,-47,-94,-39,-63,-58,-84,-48,-115,-94,-70,-105,-70,-120,-13,-56,-11,-67,-153,-64,-48,-163,-57,-69,-2,8,-79,-156,-49,-186,-67,-103,-92,-13,-34,1,32,-202,-125,-185,-214,-84,-5,-2,-179,-161,-78,-24,-96,12,-96,-127,8,-232,-64,-98,-18,-46,5,-141,-212,-160,-113,-123,-85,-67,-179,-104,-104,-161,-85,-124,-130,-83,-76,-143,-216,-155,94,-168,-43,104,-150,-103,-59,-147,193,-47,127,-22,-70,-119,108,-77,86,-18,-25,-35,-86,-87,-63,-42,12,-19,-17,-9,-8,-50,26,-3,7,-7,14,24,21,-5,43,-17,4,10,49,19,9,-2,-50,27,36,45,28,33,-23,-12,8,-38,44,36,3,11,6,-5,3,-46,1,0,0,5,8,2,-8,-7,6,1,4,10,-3,76,58,21,-8,2,2,-8,6,58,62,31,8,-2,-18,13,10,46,53,39,8,19,36,23,0,48,68,65,32,21,70,54,40,54,64,57,11,-5,-339,73,22,57,64,65,-3,-5,-2,7,4,8,3,9,-13,17,38,28,60,46,16,14,15,23,26,33,40,59,69,28,40,51,20,34,44,60,29,4,53,29,71,4,33,33,21,48,52,132,32,64,31,38,39,5,68,73,24,88,53,63,70,68,64,52,-502,23,36,75,-4,54,92,44,73,23,81,48,43,69,21,39,18,40,62,22,27,26,11,23,41,31,30,96,54,40,60,33,34,35,53,46,77,35,30,57,27,40,43,80,51,19,60,55,69,37,64,73,42,75,51,63,68,93,50,66,98,63,51,79,90,59,46,49,44,104,65,89,54,29,60,31,32,13,76,75,82,63,56,11,23,44,69,51,88,49,60,47,39,36,34,72,56,47,44,34,52,74,62,70,94,56,28,45,64,62,59,60,73,60,53,45,73,66,53,74,104,44,82,51,90,73,83,89,95,67,90,88,82,80,62,65,96,75,70,84,81,87,151,107,122,118,177,147,122,93,123,114,98,109,129,123,112,-18,140,145,125,112,108,110,161,132,29,165,175,80,114,129,110,54,161,142,174,146,93,87,69,81,148,139,89,125,159,90,41,50,139,170,180,109,166,108,79,186,167,211,249,217,266,242,188,131,-102,-81,-36,-70,-35,-12,45,18,-16,-29,-25,-17,-14,41,52,69,-16,-11,-7,-11,-4,27,63,68,-17,-20,-19,-12,1,28,46,44,-50,-21,-27,-12,-9,6,24,26,-20,-49,-27,-29,-9,-1,2,7,-93,-45,-36,-27,-23,-7,-2,4,-97,-106,-17,-90,-37,-12,-29,-5,2,8,-4,7,2,-1,-2,-7,-504,-2,37,-504,82,-416,58,100,-4,4,31,41,18,28,45,47,-3,-4,0,36,1,31,64,34,-2,-3,9,20,7,36,51,29,7,-7,0,-18,-15,34,69,35,-10,-6,-27,0,-2,24,70,36,5,-4,-8,0,-9,-1,2,9,-11,13,39,-72,55,-76,-38,20,-41,-58,-43,-64,-75,-8,-58,18,-64,-16,-58,-69,-18,-45,-36,-60,-27,-44,-51,-53,-54,-67,-30,-33,-66,-53,-22,-53,-45,-44,-81,-78,-73,-33,-64,-60,-65,-57,-48,-47,-61,-79,-64,-61,-47,-78,-42,-70,-36,-54,-59,-79,-22,-67,-63,-14,-53,-41,-85,-104,-21,-30,-16,6,-92,-61,-67,-81,-81,-64,-44,-35,-66,-32,-66,-46,-53,-66,-83,-20,-53,-99,-64,-62,-77,-80,-53,-65,-73,-73,-83,-74,-46,-72,-50,-45,-96,-59,-51,-75,-75,-51,-34,-51,-98,-64,-72,-20,-70,-60,-55,-58,-58,-78,-53,-88,-46,-72,-81,-42,-103,-52,-74,-121,-68,-99,-77,-64,-87,-76,-84,-98,-78,-72,-48,-55,-63,-79,-84,-92,-73,-77,-53,-84,-84,-71,-78,-91,-93,-84,-63,-72,-70,-85,-58,-82,-58,-56,-73,-102,-73,-66,-78,-59,-77,-58,-51,-83,-75,-69,-65,-49,-77,-55,-52,-59,-85,-87,-79,-87,-98,-64,-34,-109,-380,-354,-302,-395,-330,-487,-249,-241,-163,-208,-204,-185,-273,-274,-233,-170,-253,-201,-198,-196,-332,-346,-243,-215,-205,-278,-270,-216,-145,-320,-266,-140,-259,-300,-254,-291,-211,-242,-261,-220,-250,-289,-243,-193,-241,-256,-161,-200,-259,-221,-218,-240,-230,-188,-246,-213,-241,-268,-199,-268,-162,-219,-225,-138,-34,-324,16,-160,-2,1,10,-36,28,67,30,3,-17,-14,-10,-17,25,35,26,-1,-13,-29,-17,-22,24,57,24,-3,-25,-34,-30,-19,19,34,26,5,-13,-42,-53,-65,43,31,44,23,-17,-56,-56,-76,29,50,44,72,9,-47,-66,-76,28,57,60,47,14,-7,-44,-39,8,-2,-6,6,-5,0,5,2,14,-16,0,-4,17,-10,0,3,0,-13,-2,13,2,10,-10,4,9,-4,-27,25,-37,-9,-27,4,39,-46,4,14,-33,44,-26,32,41,-105,47,-91,-36,-33,5,45,122,-182,98,-479,210,-504,144,101,2,6,2,6,0,-7,-8,-5,-20,-53,-17,-39,-22,-67,-30,-35,-45,-5,-54,-19,-48,-37,-20,-27,-61,-12,-62,19,-74,-14,-40,-41,59,-74,-37,-57,-32,-39,-62,-50,-64,-93,-12,-104,-29,-80,-2,-54,-14,-147,-90,-384,-81,-418,-41,-363,-154,-56,-455,26,-405,-80,18,-5,29,3,23,-124,-51,-19,-330,-42,-49,-61,-44,-62,-40,-53,-63,-18,-32,-49,-56,-42,-38,-37,-34,-35,7,-70,-24,-61,-26,-33,-52,-37,-190,-8,-211,-36,-88,-85,-27,-56,-46,-344,23,-178,-61,-26,-58,-23,-169,-65,-144,-21,-396,-109,-128,-69,-61,-253,-10,-117,-47,-424,-43,-250,-33,-12,3,9,-35,-2,-64,-18,-62,-56,-50,-44,-57,-46,-49,-69,-71,-76,-96,-54,-69,-91,-79,-49,-80,-81,-68,-32,-65,-67,-57,-60,-119,-188,-102,-148,-106,-107,-126,-87,-141,-93,-112,-75,-89,-91,-52,-99,-66,-120,-77,-43,-76,-62,-96,-46,-103,-99,-72,-112,-96,-86,-75,-100,-109,-400,-117,-394,-117,-504,-214,-161,-186,-146,-134,-134,-143,-174,-152,-101,-175,-148,-170,-119,-165,-169,-110,-172,-168,-186,-110,-123,-178,-158,-117,-166,-317,-293,-322,-307,-278,-284,-157,-157,-224,-176,-107,-356,-188,-233,-125,-139,-253,-203,-311,-131,-233,-175,-168,-138,-234,-233,-105,-218,-150,-255,-95,-142,-144,-140,-156,-162,-126,-217,-299,-135,19,21,34,0,4,5,-4,21,27,-5,5,12,12,-8,35,23,-18,-31,-9,-2,0,28,38,23,-36,-13,-35,2,9,7,31,25,24,-28,8,-1,16,18,11,38,-63,-20,-38,24,16,-5,-23,4,62,-208,63,35,-61,-29,-172,20,174,-160,-141,-119,248,-118,-69,481,-4,0,5,-4,4,-5,7,-7,31,53,-4,-27,34,96,-15,-40,7,35,22,19,13,17,-14,-11,35,23,20,12,29,-3,11,9,3,-39,0,-19,-14,8,-16,3,6,-7,-23,28,-9,18,14,13,11,-7,24,9,-3,21,10,16,-7,3,2,-1,-3,3,5,6,-101,41,33,49,20,4,-152,-40,70,0,37,41,73,35,-39,40,20,56,-32,41,37,48,27,-10,30,-1,23,-59,22,42,-2,35,-16,32,-68,18,2,42,-15,15,57,-51,-26,-2,-2,35,21,50,78,14,34,4,22,51,56,52,54,33,43,-34,42,-19,45,50,19,36,104,66,35,100,-361,48,82,87,87,64,46,44,-19,65,49,32,93,35,36,14,26,10,59,51,59,46,45,65,8,49,39,49,-84,9,24,51,40,8,93,-23,19,60,2,64,23,72,6,61,60,51,50,68,51,89,89,58,63,39,84,56,108,51,85,28,93,86,45,-96,79,148,73,0,80,40,63,65,92,84,63,56,91,57,59,53,107,89,48,-108,55,66,11,17,75,76,55,54,40,60,25,90,112,95,104,21,58,24,17,37,81,90,51,74,73,40,47,115,124,93,64,57,89,62,103,58,145,94,-363,-216,-221,-240,-177,-250,-322,-285,162,-136,130,91,142,54,67,177,131,139,123,111,138,53,128,114,169,16,162,103,56,140,97,112,148,179,2,204,81,153,167,146,207,-9,249,110,76,112,73,166,154,204,183,172,162,217,190,150,188,148,247,199,266,195,265,171,22,4,10,29,-13,-22,-28,-23,43,75,74,66,-12,-5,-32,-43,29,-17,25,22,-10,-16,-43,-39,38,-15,-12,-9,-4,-5,-9,-35,1,5,-3,-8,-9,-3,0,-6,1,-9,-8,-11,-14,2,-2,29,19,14,-9,6,-13,1,10,30,31,39,50,-2,-2,2,27,71,7,8,2,3,4,8,-2,7,-28,13,-4,-1,-16,-21,-20,-23,-25,21,4,-13,-10,-23,-11,-22,-23,15,10,-10,-9,-21,-26,-18,-25,11,23,-22,-17,-43,-46,-13,-44,28,-58,-2,-11,-28,13,-4,150,115,13,96,377,101,52,65,-3,8,-2,8,7,5,-1,-4,-10,-62,7,-23,-44,-72,-26,-53,-36,-40,-34,-19,-11,-42,17,-66,-2,27,-22,-12,8,-6,-64,-52,-54,-44,37,-36,2,-78,-74,-56,-44,26,-37,-63,-74,-25,-37,-78,-42,-402,-243,18,-504,-504,-129,22,-41,164,-504,-82,-74,-216,-75,-76,-52,-298,-43,-74,-37,-46,-23,9,-37,-51,-40,-24,5,-52,-94,-142,-48,-35,-49,0,-40,-45,-64,-49,3,-4,-4,-31,-10,-82,-31,-86,-14,68,-21,-9,-59,10,-46,-52,-6,-52,0,-55,9,-55,-62,-91,-50,-74,-504,-5,-27,-118,-45,-39,-14,-265,-61,-75,-56,-46,-22,-31,-39,-100,-145,-31,-71,31,-19,-12,-54,-47,-58,-64,-84,-76,-106,-79,-68,-48,-2,-32,-56,-107,-81,-123,-40,-13,-64,-37,-60,-68,-109,-72,-31,-22,-36,-36,-48,-85,-68,-73,-46,-2,-26,-42,-57,-91,-68,-97,-75,-59,-74,-72,-77,-88,-100,-92,-98,-67,-210,-150,-143,-148,-81,-86,-99,-396,-473,-503,-177,-504,-276,-125,-110,-124,-116,-111,-127,-188,-178,-142,-109,-95,-102,-146,-112,-271,-170,-215,-52,-102,-478,-136,-142,-175,-490,-197,-138,-126,-173,-165,-196,-204,-189,-187,-145,-108,-138,-176,-136,-199,-158,-189,-155,-133,-322,-106,-153,-175,-226,-174,-47,-379,-389,-127,-119,-154,-141,-138,-195,-103,-215,-504,-228,-109,-217,-124,25,47,23,49,12,-1,5,-34,34,41,56,44,38,-19,-25,-72,18,61,43,43,14,-19,-112,-76,-19,25,29,22,-17,-43,-127,-69,-52,-5,4,-33,-32,-126,-114,-70,-66,-85,-172,-325,-70,-333,-99,-47,-167,-140,-367,-350,-113,-447,-133,55,-19,8,-38,-210,-62,-43,-23,121,-4,-5,4,5,-1,6,4,4,-53,-231,-202,-105,-81,17,-14,123,-37,-55,-158,0,-90,31,36,48,-11,-35,5,-12,0,-4,27,23,-8,32,17,17,10,21,19,30,16,39,71,22,7,24,27,15,1,49,44,-9,5,26,22,16,3,8,5,-8,-6,-5,-4,1,-95,-188,-403,-143,-113,28,44,15,-209,-38,15,-221,-187,29,67,86,-28,-4,8,15,11,-38,38,14,-56,6,25,38,19,63,53,108,35,9,35,19,37,41,47,23,49,49,74,30,47,51,40,78,59,131,70,59,36,64,85,55,-12,60,38,75,50,82,47,44,-371,-447,-325,-146,-16,33,18,44,-114,-101,17,-349,35,43,40,19,-62,65,-117,72,-11,29,22,61,23,-47,74,-51,33,13,66,-36,-215,31,56,59,-25,58,41,66,64,61,84,38,55,55,50,68,49,60,64,51,59,78,53,49,55,71,50,59,73,61,93,7,-14,-401,-452,-244,-37,-88,15,2,-39,-222,-238,-360,-61,-22,-16,54,-37,-181,-324,-46,0,-33,20,30,13,-145,-287,-48,28,60,51,64,124,28,-361,48,39,36,35,91,67,-29,-6,-308,56,34,66,69,22,32,-14,52,57,42,80,82,88,22,-7,55,74,72,85,84,-64,-356,-162,-280,-216,-94,-65,35,-499,-258,-343,-376,-53,20,91,45,-166,-389,-321,27,-43,31,72,16,-151,-209,-263,-254,75,-63,88,-162,-293,-361,-221,275,-206,16,85,63,141,81,84,-322,113,102,116,123,46,121,52,165,140,93,164,134,164,43,96,149,156,197,181,128,-44,-180,-158,-54,54,38,17,13,-206,-74,-35,-124,91,22,52,55,-305,-143,-135,-41,57,8,34,29,-190,3,1,-20,-9,-6,7,12,14,19,17,-2,-18,7,10,0,32,31,54,0,12,21,-14,-15,15,39,25,10,10,16,-6,-22,104,8,2,2,-13,9,-5,-55,0,-8,-6,-3,-3,0,9,-1,6,32,23,4,-1,5,27,-1,-5,26,27,40,31,43,-24,26,15,0,33,3,37,3,77,1,-3,12,-46,-13,11,34,6,34,5,25,-11,50,18,80,29,51,-12,-86,-66,-112,61,-233,28,137,-5,0,0,4,5,-4,2,0,9,18,69,53,41,49,14,30,18,53,13,48,29,35,29,53,24,68,38,15,70,39,40,25,-11,13,-27,17,38,57,48,86,-39,-15,0,85,33,77,31,97,-23,52,76,75,30,136,117,99,-9,27,96,-46,116,-12,35,16,46,-5,65,-27,0,137,113,35,13,32,-2,90,0,30,-3,35,19,38,20,9,54,29,24,77,15,49,29,57,-4,52,-47,16,52,60,80,18,53,-92,62,66,-4,58,50,13,-42,50,41,91,-6,11,50,-8,52,36,41,13,0,-77,-32,-32,34,25,26,13,37,42,3,22,28,42,90,41,61,-15,46,42,61,45,83,46,10,31,-1,34,54,89,80,29,33,-33,11,15,13,62,58,64,56,14,25,52,54,110,76,35,81,13,79,18,115,50,70,-15,22,12,22,35,21,69,38,-31,115,84,75,61,76,112,83,-8,71,37,9,35,17,33,47,-62,105,35,119,132,145,114,122,96,161,151,114,123,132,169,165,173,113,114,73,93,111,94,109,132,179,130,95,84,137,139,156,134,188,47,207,149,186,115,157,69,145,182,230,214,197,148,135,133,194,142,182,188,250,182,92,119,232,169,-116,261,126,143,136,105,-21,-49,4,8,-8,-5,-11,-14,-22,12,-14,30,8,26,-21,-7,13,7,25,42,30,26,26,-28,1,16,53,43,49,25,8,-34,-23,-4,52,52,44,38,53,31,-14,7,27,52,35,48,35,59,1,-135,11,38,25,39,41,-8,-54,-298,-14,42,26,32,21,-90,6,0,7,6,-8,-3,7,4,57,-478,37,32,-35,82,63,-155,-31,4,6,-1,-15,35,-19,-55,-7,13,25,31,29,27,0,18,3,9,17,8,21,13,-10,-32,-1,-18,7,-3,7,22,17,-8,-8,0,8,-17,-21,10,11,-19,-8,-6,-3,0,1,2,0,8,-22,-121,-94,14,-124,-54,-51,-15,-38,-112,-29,-9,-71,-44,-34,-33,84,-45,-30,-109,-32,-42,-51,-135,-27,-54,9,-27,5,-84,-15,-39,-26,32,-60,-18,-47,-3,-99,8,-49,-70,-64,-30,-51,3,-36,-43,15,-74,6,-42,-2,-25,24,-102,-57,-56,-73,-26,-60,-63,-36,-96,-90,-12,-104,-167,-49,-382,-50,59,101,-125,-28,-110,-67,-52,53,-290,-92,-45,-93,-13,-78,-5,-140,4,2,-62,32,-52,50,-54,14,-156,-29,24,-61,22,-53,49,-125,12,26,-25,-45,-82,-22,-37,0,-62,-40,-49,-58,-24,-19,7,-10,-6,-13,-58,-5,-66,0,-50,-21,-52,-80,-208,-78,-98,-135,-78,-81,-183,-129,-131,-113,-178,-136,-135,-130,-153,-125,-75,-101,-93,-115,-123,-148,-136,-89,-58,-58,-99,-97,-100,-128,-94,-57,-65,-87,-70,-118,-73,-139,-102,-141,-98,-135,-125,-155,-72,-72,-129,-67,-117,-100,-81,-40,-59,-67,-67,-91,-113,-94,-103,-81,-81,-57,-101,-155,-192,-290,-150,-183,-141,-134,-263,-124,-328,-163,-311,-148,-282,-96,-277,-249,-162,-254,-130,-209,-169,-251,-207,-190,-288,-37,-136,-7,-316,-83,-243,-165,-51,-218,-38,-241,-38,-245,-105,-177,-290,-214,-280,-149,-137,-99,-258,-198,-214,-221,-182,-124,-144,-151,-134,-172,-264,-164,-210,-179,-180,-119,-163,-42,-233,-27,9,-80,-15,-18,-212,-283,-68,-41,-136,-34,-26,-32,-84,-144,-89,-86,-78,-57,-54,-62,0,-39,-118,-36,-57,-31,-58,-4,4,-45,-16,-17,-7,-35,0,-42,-11,15,12,4,-26,-28,-12,-6,-4,26,32,26,11,30,0,28,-8,-4,6,38,43,32,41,37,-14,0,2,3,-2,4,0,3,6,7,8,8,7,10,4,4,2,5,4,5,6,3,3,2,4,5,4,7,5,3,8,6,6,3,5,7,6,5,6,6,8,-4,1,8,3,5,9,7,7,-8,6,16,19,20,26,43,40,-4,-8,-5,5,0,-3,-8,-4,-33,-9,1,-11,-1,0,-4,-25,-1,-21,-13,5,-1,-3,-4,-3,1,-9,1,-11,-12,-1,-6,-9,-22,-15,-7,-10,-9,-13,-8,-9,-17,-8,-14,-13,-7,-16,-7,-9,-34,-30,-24,-15,-18,-27,-17,1,-36,-19,-12,-13,-16,-12,2,-28,-32,-31,-8,-9,1,4,4,8,-18,-50,-2,-22,-1,0,-28,-15,-62,2,-15,2,-10,-12,-5,-28,-12,-12,-10,-10,-9,-6,-7,-9,-17,-14,-8,-10,-16,-7,-11,-23,-26,-14,-14,-21,-9,-8,-12,-6,-10,-25,-18,-26,-17,-3,-10,-4,-60,-13,-24,-14,-19,-8,0,-18,-19,-16,-6,-24,-3,-1,-1,-12,-1,-130,-26,-258,-6,-19,-23,-8,-74,-12,-21,-8,-18,-2,-8,-13,-21,-20,-16,-8,-7,-9,-18,-24,-124,-23,-24,-14,-38,-4,-20,-12,-28,-91,-23,-102,-11,-15,-14,-14,-24,-26,-16,-23,-22,-10,-19,-13,-27,-23,-18,-23,-16,-21,-20,-25,-9,-16,-12,-16,-7,-8,-10,-20,24,-54,38,-504,63,48,59,32,49,45,42,63,36,69,52,46,43,50,45,37,50,47,49,38,-29,37,39,25,49,49,48,34,33,28,46,41,40,39,38,49,28,22,40,47,50,43,46,34,29,23,36,47,39,46,57,42,83,77,80,66,75,69,78,71,-44,-2,8,9,10,0,0,-17,1,9,10,8,7,4,3,-1,5,10,14,11,14,14,11,7,19,20,18,23,27,26,23,21,18,17,26,27,27,30,30,34,28,29,30,31,29,30,33,31,28,20,26,28,28,30,26,28,0,-1,12,22,17,22,14,7,-3,6,4,-1,2,-1,-2,0,-9,-344,441,-465,-81,-90,-78,-82,-45,-63,-69,-53,-54,-48,-37,-38,-23,-23,-19,-19,-13,-14,-15,-13,-15,-13,-8,-5,-4,-9,-8,-8,-10,-9,-6,-6,-7,-10,-4,-6,-10,-8,-13,-6,-9,-8,-6,-10,5,4,-6,1,-9,6,-1,8,-39,-6,-4,-7,-12,-17,-26,-27,-10,504,-17,-20,-15,504,-17,-25,-20,-22,399,-14,504,-15,-15,-20,-18,-21,-23,-26,-18,-20,-11,-35,-15,-20,-22,-25,-27,-22,-36,-25,-21,-25,-20,-24,-34,-19,-28,-36,-35,-26,-28,-21,-31,-37,-11,-57,5,-16,-15,-20,-32,-32,-26,-8,-34,-29,-23,-27,-29,-24,-24,-30,-27,-28,465,-22,-22,-22,-23,-23,-31,-22,-28,-22,-24,-24,-21,-20,-27,-25,-26,-28,-30,-31,-23,-22,-27,-22,-27,-36,-31,-29,-27,-25,-15,-23,-25,-24,-30,-24,-26,-20,-23,-9,-24,-22,-23,-23,-16,-46,1,-11,-10,-21,-23,-14,-18,-18,-144,-79,-102,-54,-138,-57,-33,-34,-56,-55,-49,-37,-56,-47,-47,-31,-47,-46,-41,-37,-51,-37,-39,-32,-60,-46,-39,-38,-37,-35,-33,-39,-55,-55,-35,-38,-32,-23,-36,-27,-48,-42,-37,-39,-26,-28,-36,-28,-26,-31,-22,-25,-25,-22,-9,-17,-39,-44,-39,-44,-47,-23,-29,-20,-8,0,-15,12,-7,0,-7,-26,-22,-24,-10,0,6,-20,-7,-51,-29,-31,-30,0,4,-8,-42,-42,-43,-34,-23,-20,-8,0,-29,-48,-66,-38,-42,-24,-19,-18,-35,-43,-53,-40,-45,-32,-26,-43,-42,-44,-42,-43,-38,-46,-47,-35,-35,-42,-64,-42,-51,-37,-51,-49,-46,-45,23,21,28,23,24,8,18,16,32,20,24,20,18,7,11,19,17,7,10,11,8,-3,-7,4,11,1,2,0,-8,-12,-7,-5,9,5,2,-5,-9,-10,-8,4,21,12,9,5,2,4,14,17,33,25,21,12,8,12,20,26,36,34,23,18,22,16,25,17,-5,1,-1,-7,9,-2,-1,3,-54,-36,-50,-85,-111,-79,-116,-197,-28,-27,-34,-43,-45,-56,-57,-73,-22,-23,-29,-38,-45,-48,-42,-34,-29,-43,-46,-57,-61,-72,-61,-34,-37,-39,-41,-32,-40,-51,-45,-30,-67,-83,-83,-115,-102,-98,-98,-74,0,2,-2,1,9,-4,8,5,-356,-441,-419,-364,-368,-481,-458,-278,-372,-302,-304,-339,-405,-350,-372,-388,-333,-319,-288,-312,-326,-344,-354,-330,-174,-272,-161,-194,-188,-282,-373,-307,-84,-103,-114,-114,-166,-154,-194,-131,-65,-64,-56,-82,-76,-93,-101,-106,-58,-45,-54,-73,-82,-69,-56,-73,-24,-46,-51,-53,-48,-52,-36,-27,-284,-463,-443,-426,-457,-454,-495,-394,-242,-326,-387,-421,-435,-420,-453,-471,-375,-326,-310,-344,-400,-461,-370,-445,-305,-418,-316,-318,-394,-374,-317,-439,-338,-372,-419,-420,-283,-322,-424,-318,-409,-316,-450,-283,-232,-336,-337,-427,-432,-463,-247,-278,-199,-200,-343,-394,-503,-267,-253,-152,-185,-224,-240,-495,-504,-504,-504,-504,-504,-504,-504,-504,-493,-412,-464,-439,-422,-418,-478,-503,-240,-260,-275,-250,-253,-266,-281,-255,-226,-257,-275,-263,-270,-266,-255,-281,-254,-246,-292,-268,-280,-284,-268,-288,-230,-259,-283,-261,-269,-271,-265,-283,-239,-261,-267,-268,-268,-259,-261,-273,-240,-269,-269,-261,-258,-264,-264,-283,-381,-504,-504,-486,-504,-504,-372,-433,-412,-423,-504,-339,-411,-403,-375,-352,-504,-405,-504,-504,-496,-504,-370,-340,-407,-405,-361,-379,-452,-430,-413,-457,-289,-417,-503,-440,-380,-504,-332,-436,-494,-495,-326,-378,-293,-348,-504,-425,-490,-504,-347,-398,-318,-316,-324,-345,-188,-201,-247,-251,-249,-225,-223,-210,-279,-120,-212,-195,-220,-207,-183,-418,-52,-200,-102,-141,-152,-176,-425,-181,51,22,6,-21,-56,-102,-113,-15,75,65,60,50,41,34,51,59,85,73,70,73,71,71,75,84,78,76,72,72,74,75,76,80,57,67,65,66,74,79,77,68,66,61,76,80,86,88,87,70,-4,-1,-5,1,-2,-8,-3,-1,202,172,273,251,268,258,251,262,53,55,116,142,156,123,139,187,6,16,36,38,46,50,49,67,-3,6,8,13,14,12,13,13,-3,-1,-1,5,7,-1,0,1,0,6,1,6,5,-5,-5,-3,-2,-5,-1,3,4,4,8,6,-44,-61,-38,-36,-47,-52,-64,-36,-34,-48,-50,-31,-40,-44,-46,-43,-24,-66,-33,-35,-25,-32,-28,-26,-39,-69,-33,-31,-31,-30,-30,-37,-63,-41,-35,-34,-29,-33,-34,-50,-47,-38,-41,-36,-33,-34,-36,-44,-41,-42,-37,-35,-42,-38,-30,-83,-12,-33,-37,-39,-38,-55,-62,-12,-37,-43,-39,-42,-39,-41,-44,-46,-37,-41,-38,-35,-37,-43,-41,-38,-36,-41,-36,-37,-29,-22,-28,-16,-33,-37,-36,-35,-31,-18,-5,-34,-52,-45,-36,-31,-30,-35,-13,-35,-49,-40,-37,-38,-29,-34,-42,-51,-43,-44,-39,-43,-40,-42,-52,-46,-20,-33,-35,-34,-38,-37,-43,-45,2,-27,-19,-20,-23,-45,-30,-27,-79,-92,-100,-93,-102,-105,-109,-180,-35,-42,-30,-37,-45,-84,-81,-45,-10,-30,-22,-20,-27,-24,-30,-30,-34,-95,-27,-27,-20,-21,-78,1,-38,-42,-33,-37,-38,-24,-47,-34,-35,-46,-38,-37,-33,-32,-23,-23,-29,-39,-30,-27,-23,-29,-25,-28,117,122,106,99,91,130,136,150,-5,34,28,72,3,58,60,-37,64,0,119,-5,-227,110,37,-76,-6,9,25,4,68,-86,-1,-3,91,-33,57,21,-61,54,-17,-82,-10,34,25,-148,-67,74,-12,80,58,-64,-153,-68,-159,-60,-32,46,32,-3,-88,110,-67,-88,-116,98,-3,3,-3,6,-4,-2,1,-27,12,8,5,1,0,1,-5,-6,14,16,13,16,8,7,9,8,3,18,11,8,10,6,6,-6,3,1,-3,-6,-8,-8,-8,-11,0,-2,-9,-2,-10,-14,-18,-15,15,15,17,12,19,28,21,13,43,48,40,36,41,46,54,51,1,7,8,-4,-4,-5,-8,4,3,-29,-10,-25,-22,3,-13,-11,-8,-35,-17,-27,-6,-17,9,-13,8,-69,-31,-21,-22,-11,-10,-30,2,-23,-15,-33,-12,-5,6,-20,11,-73,-57,-53,-250,12,-195,-48,28,-101,-104,-17,486,-504,478,-504,0,7,-1,8,5,-2,-7,-7,-63,-15,-5,8,-41,-43,-21,2,-28,-50,-16,-29,-19,-40,-11,-57,1,-58,-2,-11,-47,-6,-7,-6,-6,-42,-59,26,-6,-5,-97,-68,17,43,6,-48,-313,-14,80,4,60,-199,-27,71,87,-504,60,-260,39,24,43,-57,-81,158,188,-65,0,-493,-443,-504,88,388,-91,-255,0,-58,-16,-7,-4,-24,41,-50,-34,-25,-36,-44,-42,-20,-32,-22,-33,-40,-43,-26,-24,-34,21,-29,-6,-56,-27,-8,-40,15,-47,40,0,12,-12,-53,43,-11,28,-244,47,-32,-502,7,-501,-16,-413,32,44,-37,-12,44,50,-172,80,-113,-44,51,-319,-11,-504,205,-203,-21,-15,-6,-7,-12,-30,-12,-30,-13,9,-6,26,-13,26,-49,26,-2,-6,49,29,29,-33,33,-29,0,22,4,4,-21,23,13,-51,-21,55,25,34,48,45,35,18,17,30,49,39,57,50,86,74,-26,31,39,47,45,61,68,118,78,3,-2,-418,35,112,-504,26,-51,30,-18,20,37,19,47,62,-63,87,14,62,22,50,-33,88,32,76,92,81,106,-5,108,85,79,103,26,111,-1,8,77,103,102,189,184,150,107,58,106,138,116,195,169,185,144,36,107,171,92,179,216,167,166,157,-9,176,-200,147,118,72,201,173,118,113,-79,-30,-61,-54,-18,-65,-53,-76,-105,-38,-31,-2,-39,-18,-73,-52,-98,-32,-3,-13,16,-17,-23,-51,-39,4,-18,34,46,47,-16,-19,-6,-21,15,52,66,63,-4,11,-49,-52,-28,57,92,69,-108,-19,-189,-26,-85,129,117,141,14,75,-80,79,53,65,95,61,-9,78,-211,-5,2,8,-5,-9,9,-1,5,-7,-31,-73,17,-32,54,70,114,-26,-7,-41,-11,-54,-56,-20,7,11,8,0,-2,21,20,21,25,-26,-2,-3,-9,5,14,37,6,6,-2,-14,2,30,32,28,0,-1,-13,-5,2,42,88,27,-22,-1,0,6,-3,0,6,6,4,30,-37,11,33,45,61,121,31,70,62,-90,47,0,0,30,56,-63,-54,54,-35,70,62,64,52,-10,26,23,33,1,54,-30,43,59,8,65,28,57,26,24,42,30,37,25,0,14,21,50,-6,9,-11,23,34,31,82,26,54,80,26,37,15,43,33,41,21,2,54,62,105,25,141,40,69,94,-82,87,-29,130,39,67,-80,-30,85,25,50,8,80,18,69,93,29,83,-9,46,40,81,26,61,46,-3,43,50,23,13,46,51,37,67,19,4,33,78,45,44,35,31,79,63,145,28,16,66,43,51,40,51,70,61,-1,58,33,18,38,41,-28,52,24,60,27,-7,29,21,28,54,41,76,41,22,62,69,67,79,40,84,60,20,52,7,46,57,28,80,55,69,74,23,89,82,34,48,79,38,25,15,56,133,31,90,25,9,99,51,178,3,29,90,73,66,55,37,15,51,24,-20,-4,80,35,16,37,29,54,20,4,35,20,95,-25,7,21,-2,59,35,52,20,55,29,42,63,66,37,-39,38,69,74,-25,83,-29,83,87,49,45,35,26,30,50,26,-52,-66,-15,151,12,17,16,15,158,34,146,-140,91,84,55,65,44,41,1,-61,114,27,91,145,-108,72,150,145,115,69,-130,9,1,73,103,96,54,-80,-138,-134,-24,45,99,81,112,-174,-135,-258,-215,-81,21,103,106,-152,-190,-329,-276,-272,-77,35,-8,-242,-134,-256,-250,-157,-30,51,19,-260,-326,-364,-68,-23,17,-12,-29,-435,-497,-504,-134,-16,11,15,-129,8,-1,7,1,2,8,-4,0,2,7,-15,-14,22,31,8,13,7,-10,20,-11,-11,28,21,18,0,11,-3,-8,5,11,24,18,-13,-12,40,21,-2,38,14,28,-8,1,27,36,37,37,53,30,-16,-39,-75,43,68,46,54,30,5,7,-3,-4,-1,-9,0,-4,53,11,-1,2,4,-2,6,-27,20,-57,33,-46,28,10,21,30,0,-10,21,-7,39,11,11,5,-7,-7,-15,13,11,37,35,35,-39,-6,-4,10,53,34,-2,40,-14,-14,25,-7,20,59,56,60,-43,-22,17,49,13,40,0,40,-9,-497,46,2,16,42,66,47,41,28,44,-10,2,0,55,6,-15,-33,0,-24,18,24,-8,48,55,-5,-7,-6,66,26,43,0,18,45,-12,64,-7,46,-30,55,-39,28,76,2,59,-12,47,6,-2,-1,9,70,14,26,18,64,82,2,30,2,47,33,54,34,-8,49,-24,8,8,30,24,14,36,37,35,35,33,23,62,50,46,28,32,26,44,21,22,66,37,43,29,31,223,58,76,41,48,28,30,61,50,76,53,58,47,36,43,22,57,54,46,48,48,27,31,12,71,69,76,86,72,50,59,42,71,75,89,72,42,24,44,-4,48,66,73,78,99,103,109,102,76,94,77,68,80,38,52,38,66,86,47,62,103,73,-20,49,504,71,108,-31,111,44,30,330,77,119,20,59,53,46,51,65,235,31,58,51,53,51,45,20,72,99,102,170,121,19,15,-90,-45,61,91,119,-464,-444,-341,-392,-39,-65,-455,-345,-1,-37,-26,-41,-8,14,24,37,-39,-43,-40,-22,3,39,37,44,-36,-18,-25,-26,10,44,50,63,-57,-22,-19,6,6,40,58,52,-47,-28,-16,-5,-2,29,42,46,-63,-40,-27,-9,10,35,44,48,-59,-58,-21,-1,23,44,102,57,-42,-41,-25,-30,75,44,45,55,-4,6,-5,0,-4,-3,3,-2,4,-228,-1,-286,46,22,102,46,-10,-139,80,-169,90,40,44,38,-20,-29,18,-504,26,-28,32,0,-27,-17,-42,5,-31,4,2,14,-19,-13,-31,-34,-14,-24,9,7,-3,-11,-29,-48,-14,-11,-4,4,6,-1,-7,3,0,-6,-5,7,-24,-200,-19,0,-35,-333,-40,58,-4,1,-504,-41,-188,-8,-504,-17,-302,-34,-40,-47,43,-38,-18,-96,33,1,21,-36,2,1,-504,-55,-29,-49,14,-37,-15,-504,-56,-55,-11,-20,-64,-11,-69,-44,-45,-35,-1,12,-57,-31,-30,-23,-28,-26,2,-37,-7,-12,-40,-30,-33,28,-40,-75,-93,-47,-58,-4,-30,21,-36,-92,-41,-92,-25,-72,10,-13,-21,-25,-25,10,-69,-12,-53,20,-46,27,-7,-504,-4,-144,51,-53,29,-14,-504,-18,-75,1,-503,20,18,-114,-30,-68,2,-104,-4,-73,-35,-18,-78,-2,-27,17,-62,11,-36,-75,-15,-62,-31,-44,-5,-85,-49,-75,-64,-90,-81,-40,-56,-50,-25,-41,-19,-55,-26,-17,-13,-22,-36,-37,-35,-57,-18,-34,-30,-37,-34,-32,-30,-57,-60,-39,-38,-58,-84,-31,10,-71,-44,-74,-43,-52,-59,-32,-25,-47,-62,-54,-52,-41,-24,-50,-62,-53,-33,-51,-39,-52,-53,-9,-42,-44,-30,-40,-38,-39,-193,-194,-150,-187,-135,-151,-115,-340,-113,-85,-97,-120,-71,-144,-7,-58,-61,-98,-89,-96,-107,-77,-153,-58,-83,-62,-122,-97,-60,-88,41,-69,-86,-50,-18,-63,-74,-92,-64,-58,-96,-83,-83,-49,-97,-93,-74,-113,-70,-75,-120,-78,-59,-89,-79,-71,-82,-115,-121,-99,-95,-73,-51,-96,135,126,131,-2,-17,-5,-6,-5,18,-3,71,10,-5,-7,-19,-18,72,45,86,31,6,-6,-10,-16,8,43,31,12,4,-5,-1,-15,17,31,32,1,-19,3,-4,10,46,35,6,1,-18,-32,-6,6,47,29,24,2,5,-19,0,11,59,43,4,-8,5,-3,-5,8,-3,4,8,-6,4,-6,5,-3,-33,1,-34,-46,-32,-27,-9,17,-23,-4,-4,-80,-1,-44,-26,7,-14,-40,-2,-28,-54,-8,-73,2,-7,3,-29,-1,-10,-33,-9,-28,32,-3,16,-63,66,-373,42,-98,32,22,70,47,60,-419,130,-315,-3,4,-1,-7,-7,-8,6,6,42,9,18,13,33,42,49,13,0,40,6,9,11,-16,35,11,7,-12,14,8,-1,33,-38,77,-27,-31,53,-42,13,49,11,29,-9,41,-19,-23,54,-54,56,26,8,24,-101,-6,70,46,-2,-16,11,-8,27,32,41,51,19,-11,28,39,15,0,-1,93,44,-35,53,-129,1,-39,-10,-15,146,-20,21,8,-56,-19,-3,-15,-22,46,-164,38,-20,-71,10,-5,30,-78,29,-176,33,-5,-1,10,-112,6,-24,13,-133,-12,49,0,-95,-15,0,-15,-26,-101,-19,-21,-18,-38,23,-18,-2,-18,-103,5,66,-154,-32,38,30,-39,41,-70,10,73,-87,-36,-95,-140,-77,-67,-45,-34,-78,-104,-64,-119,-93,-64,-52,-25,-46,-16,-48,-40,-21,-22,32,56,-95,-47,-53,-98,-32,-106,-92,-19,-67,-33,-49,-64,-94,-89,-95,-156,-39,-26,-66,-48,-70,-75,-63,-109,-55,-28,-31,-98,-20,-101,-33,-80,-102,-72,-63,-48,-41,-99,-50,-152,-59,-58,-50,-108,-54,-26,-31,4,-100,-63,-67,-81,-43,-38,0,-33,-116,-6,-80,-21,-31,1,77,-11,-106,-143,-21,-69,-62,11,21,-2,-61,21,-182,-50,-46,-35,-51,-93,-23,-50,-74,-82,-8,-62,41,-97,-99,-38,-45,-84,-71,49,7,-108,-105,-42,24,-146,49,-107,63,-155,-26,12,-8,-58,17,47,29,7,-33,-7,-1,-15,22,33,42,19,-78,-16,-7,-8,25,16,38,51,41,-15,21,-13,-9,26,-3,35,15,19,-8,-7,-4,-7,-31,-15,-5,-8,-25,-4,3,11,14,9,24,-21,-1,0,-17,2,23,-24,7,-102,-50,27,-38,31,22,27,0,-6,-2,-5,2,-7,-4,0,94,-50,83,111,-81,12,-129,107,68,-11,0,-25,28,-27,-50,-73,43,28,35,50,-24,44,41,30,0,3,0,30,33,-67,24,27,17,-2,16,17,-27,11,2,13,10,5,20,-30,-1,-20,9,20,9,-5,4,0,3,0,-5,4,55,123,96,71,125,82,85,-27,-4,-1,3,110,19,55,-22,-80,-29,32,40,-65,0,-4,89,11,-55,88,-16,46,-10,37,-56,48,70,-18,103,-2,53,89,-40,67,20,-17,7,93,-16,29,16,65,-24,9,34,-12,64,-35,67,-25,15,10,60,10,48,-21,-8,-68,-35,62,-2,29,-45,49,25,11,21,-90,45,-44,-51,-4,1,5,-37,-78,-36,-20,-22,-74,4,40,-24,-20,41,-25,-8,-27,-40,59,15,10,-15,17,-23,99,-54,16,56,-3,-14,-6,35,-13,49,9,-12,25,15,13,10,14,-39,114,7,25,49,-20,33,-39,14,-22,68,123,69,64,111,50,70,-86,77,100,88,37,63,42,41,-14,79,67,84,14,103,21,44,5,33,84,32,11,68,67,48,38,34,40,107,-1,69,37,59,11,48,39,53,45,2,61,18,2,39,32,38,14,107,1,37,-35,29,33,28,26,40,53,41,-1,158,196,82,96,101,182,92,30,134,97,152,111,102,123,117,-6,65,-51,110,87,52,-12,74,48,47,146,98,75,177,91,72,100,78,44,149,-46,97,221,82,-79,64,32,36,99,44,91,88,42,64,62,27,30,170,71,20,133,71,-28,69,72,52,103,95,41,59,37,15,6,28,44,-20,-63,-72,26,-3,14,6,36,83,38,-96,22,28,22,9,18,31,37,-69,34,29,8,-11,-8,36,36,-1,-18,11,11,13,-9,-38,-6,4,43,24,39,3,-4,-46,-33,22,47,33,23,35,-13,-35,-48,62,54,48,41,3,-3,-5,-77,-1,3,2,7,8,8,1,5,-8,-16,-3,1,14,-4,10,-11,0,-25,14,5,32,-6,-2,-37,1,8,-17,6,28,-31,14,-7,-21,-40,-39,-38,-10,-78,0,-34,0,-32,-88,-6,-88,-83,9,27,15,-65,-31,-280,-136,74,-301,83,4,5,-5,4,-8,-5,5,-2,-43,-21,-38,-10,-2,-42,-33,12,-14,-22,-21,-15,-57,-26,20,-15,-27,0,-14,-64,-3,-11,-17,-18,-116,-41,-26,-2,38,-38,7,-21,-44,-16,-145,-57,-35,-16,-41,-46,-103,-178,-56,-3,-51,-99,-52,-64,-21,4,-33,-82,-61,-12,-125,-77,-38,-110,-51,-169,-65,-6,-161,-45,-52,-62,-34,-63,-19,-52,7,-45,-24,-28,-74,-40,-27,-11,-11,-42,-70,-103,-31,-20,-25,37,-88,-75,-92,-10,-12,0,42,-42,-50,-27,-18,-49,-23,-15,-47,-118,-36,19,-106,53,-69,-65,-71,-90,1,-111,1,-72,-32,-112,-57,-50,-105,29,-11,-51,-136,-71,-99,-67,-61,-78,-112,-128,-104,-97,-41,-135,-58,-147,-83,-81,-126,-94,-26,-54,-63,-34,-81,-181,-73,-53,-64,-67,-43,-93,-59,-112,-87,-35,10,-38,-33,-81,-98,-89,-67,-41,13,-50,-76,-71,-116,-113,-102,-108,-83,-103,-89,-124,-97,-148,-135,-96,-106,-119,-118,-118,-70,-137,-125,-130,-107,-44,-141,-76,-217,-148,-149,-169,-135,-175,-141,-165,-201,-127,-224,-218,-120,-151,-125,-140,-240,-306,-112,-94,-197,-59,-184,-139,-199,-131,-131,-79,-65,-113,-80,-183,-178,-85,-90,-80,-52,-129,-135,-67,-127,-99,-102,-157,-200,-150,-102,-266,-137,-201,-112,-212,-157,-106,-260,-205,-64,-153,-259,-242,-110,-130,-268,-171,48,19,6,-4,-3,30,-6,-66,20,-16,-24,-45,28,10,-38,-48,-34,-75,8,27,49,56,-20,-44,48,41,36,31,51,22,-9,-75,54,35,53,57,52,9,1,-37,74,35,57,45,52,4,-2,0,68,61,72,50,77,6,-5,-10,109,119,47,11,13,37,-33,5,-4,-8,-6,8,-8,-4,-1,0,45,146,161,-60,-400,-233,-95,157,37,67,36,-40,-168,-74,73,68,-2,12,-19,-7,7,-38,65,40,13,-24,17,40,15,12,34,43,22,10,24,28,8,34,47,24,19,12,-1,10,33,18,18,23,5,0,-7,-8,4,-2,2,9,42,84,86,54,32,19,78,-3,112,134,2,-161,86,-102,-50,-85,59,-37,137,54,-351,48,-54,74,121,34,2,-11,-24,96,4,38,-35,106,-10,40,58,2,62,12,31,62,66,29,64,44,73,29,59,-7,62,64,42,39,70,60,72,55,98,74,35,85,40,99,66,87,92,72,55,38,80,77,60,51,90,-1,-88,79,-99,107,92,5,30,86,-6,-10,78,-17,33,37,29,52,37,36,67,36,-30,62,23,66,39,58,-10,35,69,45,56,38,65,25,79,0,9,54,35,66,32,66,33,69,70,93,47,14,103,47,55,66,83,32,13,24,16,19,49,-17,81,57,51,32,44,25,58,65,66,44,55,23,66,-25,30,65,104,95,46,24,79,72,76,75,76,46,30,23,27,46,46,56,75,85,58,22,82,79,26,73,65,79,59,88,61,10,54,84,68,74,95,57,57,80,60,77,110,193,170,181,70,62,69,165,124,182,164,46,-191,96,-165,133,179,131,140,56,-44,-34,92,103,190,145,49,39,-54,71,127,44,26,44,-22,-19,99,68,64,48,163,172,99,95,166,88,115,45,170,159,142,200,142,82,144,130,129,182,181,122,116,114,105,170,48,37,-90,-191,-14,-35,-27,-38,126,40,-65,-44,-39,-34,-37,2,74,71,53,-38,-32,-17,-14,-2,70,66,53,-32,-21,-11,35,35,68,20,9,-10,-31,13,22,48,56,24,2,14,-16,-4,13,14,36,4,-13,16,1,-15,5,6,20,11,-12,2,-4,12,3,34,-7,-1,0,0,8,-5,0,8,-9,-1,-5,-4,-3,2,-5,-4,-1,0,-2,2,0,2,7,0,-13,-4,-6,-3,-5,-3,-3,-2,-8,-1,-2,4,-7,-11,1,-9,0,-17,-5,6,10,3,-18,-3,3,504,-68,-54,-88,-80,-10,9,-5,8,-5,-3,5,-3,7,-3,-45,-10,-30,-22,7,0,-10,-41,-20,-5,-10,-18,-13,-13,4,-14,-7,-17,-9,-14,-1,-5,-27,-6,-10,4,-20,-4,-11,8,-11,-3,-39,136,-38,128,-17,-4,-5,-25,96,294,-23,-41,124,-73,-35,-8,-4,-15,319,16,-26,-35,-77,-21,407,-111,45,-27,131,-7,-63,-7,-23,-19,-2,-12,18,-6,9,-33,-13,-7,-25,-7,-13,3,-20,15,0,-15,-13,-20,-13,-17,12,-17,-20,-7,-18,-8,-17,19,-22,-12,-2,-21,-2,-9,19,-36,-6,-34,-62,0,-27,3,-23,-20,-52,-10,-4,222,-74,-6,-36,5,-31,-49,-176,-38,68,-50,25,-38,-81,-13,-14,-14,-20,-16,-20,-21,-14,-13,-17,-10,-16,-16,-13,-19,-24,-7,-14,-12,-6,-27,-45,-6,-14,-20,-8,8,-10,-26,-8,-25,10,-25,-17,-27,17,-34,-47,-31,-11,-35,0,-18,4,-38,-21,-39,-36,-32,11,-7,-2,-25,-16,-22,-38,-17,90,-162,97,66,54,66,-10,7,-42,-20,-20,-29,-16,-18,-81,-58,-83,-27,-34,-37,-46,-41,-53,-9,-41,-45,-33,-40,-56,-46,-37,-48,-42,-38,-49,-51,-53,-27,-57,-63,-65,-42,-24,-48,-31,-70,-28,-36,-68,-48,163,-30,-22,-45,-28,-36,-125,195,-32,-7,-17,-20,-32,-66,-37,-150,44,30,-14,-51,-52,-64,-49,-69,-65,-68,-59,-55,-65,-68,-76,-50,-74,-69,-71,-58,-62,-76,-50,-65,-78,-84,-77,-75,-58,-72,-55,-67,-73,-73,-79,-85,-65,-38,-33,-82,-64,-59,-63,-73,-75,-72,-17,-79,-84,-70,-93,-83,-49,-48,-188,-129,-170,-32,-65,-42,-49,-107,24,-402,-64,-19,-81,-55,-120,-15,-4,3,-7,3,-3,-9,5,1,-41,18,8,33,0,-12,-17,-37,11,13,-3,-1,-4,9,-10,4,8,9,0,8,3,0,5,4,12,16,8,15,6,4,8,3,10,16,14,4,7,4,6,0,7,15,18,2,2,11,2,4,-4,-4,-4,6,1,7,5,0,21,33,37,32,35,37,28,16,19,51,25,31,34,45,25,1,14,24,31,21,24,38,30,22,23,28,30,24,24,26,25,19,12,22,17,-12,23,24,31,10,-124,0,32,-1,-60,26,20,24,15,21,-16,16,23,29,0,21,110,21,56,26,-55,7,24,24,28,34,6,56,40,55,25,34,11,30,36,23,44,19,24,-136,33,24,28,35,22,25,-87,39,38,33,33,31,6,-83,26,14,-101,27,32,22,-74,32,30,25,18,-112,-39,-74,37,22,27,15,-80,16,-144,29,34,21,22,16,144,-159,33,-92,68,27,22,3,36,-102,25,34,41,37,44,18,39,-107,24,7,25,34,45,24,51,-94,49,34,68,38,41,36,40,-99,16,38,36,50,42,26,25,-97,11,46,14,16,31,20,-8,-104,-44,14,22,28,13,21,-206,-138,44,-21,-2,-27,14,14,282,-349,-14,-43,16,3,6,6,12,-20,21,2,23,37,8,-13,-27,12,9,-1,15,30,16,-43,31,5,35,29,48,42,-47,54,50,59,65,54,53,68,57,49,-104,72,-37,57,-37,37,63,5,39,-110,-113,-37,47,21,32,30,-60,-136,21,-73,-41,-27,-7,11,313,-115,-91,-122,47,7,9,3,-148,-72,-125,-202,-123,-106,-207,-56,-9,-62,-53,-95,-81,-108,-127,-77,-50,-12,-78,-92,-88,-97,-70,-83,-47,-22,-51,-74,-84,-69,-102,-87,-69,-11,-66,-62,-69,-86,-97,-100,-3,-156,-142,-119,-55,-74,-89,-109,-140,-191,-178,-151,-101,-92,-90,-95,174,-212,-181,-164,-37,-74,-106,-115,-4,8,-2,6,4,-2,2,0,8,44,22,57,-5,-1,-25,-12,5,27,16,20,-8,-3,-23,-11,17,31,21,29,6,0,-7,-11,27,34,25,38,10,16,33,12,84,75,72,62,72,29,77,75,80,77,107,82,63,63,36,-504,1,-7,5,0,1,6,-5,-3,95,48,74,69,26,32,46,72,79,53,65,56,63,25,46,13,52,55,93,76,59,51,43,32,91,111,78,74,83,45,64,21,67,79,83,95,34,60,81,68,78,83,87,63,65,37,22,66,103,47,68,49,68,5,63,56,71,88,100,73,84,138,10,57,82,58,81,62,98,25,59,63,64,77,65,89,52,59,48,33,71,85,85,67,66,55,38,39,113,108,68,96,56,78,65,46,82,65,72,31,60,34,51,46,53,62,56,51,49,25,33,81,55,34,28,32,25,16,58,45,82,26,50,71,45,89,53,67,102,138,142,98,106,66,59,76,139,114,148,100,84,75,65,41,125,130,136,133,113,95,68,95,132,137,136,126,116,98,100,88,128,111,104,95,88,92,92,89,100,97,100,84,89,74,76,95,94,97,93,87,88,85,80,80,87,82,97,98,85,87,76,107,209,217,241,142,190,182,109,216,202,208,209,193,178,117,142,97,215,188,227,198,174,169,168,142,234,237,233,201,208,192,198,199,228,180,232,201,174,190,190,213,245,175,238,196,181,146,203,190,193,220,161,193,202,171,142,147,314,155,175,214,190,202,174,168,-67,-68,-17,-2,-23,-40,-27,-31,-37,-9,37,24,5,-16,-25,-36,-18,18,47,25,-1,-10,-52,-42,22,26,37,14,-3,-27,-50,-57,-3,27,25,0,-11,-19,-21,-32,-20,1,-2,-25,-22,-14,-18,-46,-26,-31,0,-25,-36,-23,-40,-34,-25,67,4,-51,-21,-20,-35,-22,-3,-8,7,5,-6,2,5,0,-18,-5,95,70,57,-74,3,-47,12,43,113,104,46,35,-32,-19,47,78,86,97,61,18,17,-9,49,63,60,28,38,18,19,2,36,19,0,4,-4,12,10,12,22,14,2,-21,-16,13,11,-5,5,7,0,5,8,6,6,-3,85,45,57,-24,44,37,23,24,76,15,21,26,110,8,89,-13,26,107,25,216,29,45,-7,44,-19,16,-4,25,-61,45,-29,31,-12,-17,-7,-53,-6,-12,0,6,-16,-13,-23,-16,-20,-40,-7,-12,-53,-16,-30,-47,-30,-28,-11,-28,-39,-30,-22,-36,-29,-32,-13,60,-15,-7,-21,48,9,17,-9,9,4,-42,-2,11,28,16,-5,-20,-6,1,11,20,10,11,-14,18,-38,-46,-8,-48,1,0,-15,-6,-11,-13,-24,-17,-48,3,4,15,-27,-44,-31,-23,-33,-49,-18,0,-37,-3,-26,-29,-29,-13,-28,-38,-13,-21,-26,-21,-14,-16,-37,-3,-43,-53,-48,-32,-30,-37,-33,3,-50,-39,-41,-32,-34,-23,-23,-21,-40,-68,-35,-62,-39,-19,-12,-8,-40,-56,-45,-49,-32,-19,8,2,-38,-43,-58,-55,-43,-42,17,-13,-37,-48,-54,-53,-48,-33,-14,-19,-50,-43,-59,-77,-51,-64,-39,-60,-65,-59,-52,-46,-33,-32,-35,-40,-504,-119,-68,-52,-116,230,-19,41,-86,-166,-154,-139,-74,-96,-28,-20,-129,-185,-157,-80,-132,-79,-141,-42,-146,-158,-135,-185,-41,-100,-4,-52,-105,-114,-114,-87,-134,-70,-40,-59,-100,-98,-126,-84,-107,-119,-55,-53,-80,-88,-90,-109,-81,-65,-67,-61,-109,-92,-112,-81,-55,-91,-20,-42,-9,-44,-53,-24,-33,-49,-5,103,-39,-35,-61,-69,-46,-33,-22,89,-29,-47,-30,-39,-33,-23,-22,59,-37,-37,-33,-23,-25,-21,-9,10,-36,-37,-32,-30,-18,-12,0,6,-26,-35,-34,-34,-28,-20,-6,7,-24,-24,-27,-43,-38,-11,-6,22,-20,-7,-13,-14,-28,14,25,53,0,-7,-6,-4,-7,6,0,7,-42,-9,-38,6,-10,5,-19,-8,-44,0,-53,8,-33,3,-28,10,-35,30,-39,11,-35,-2,-58,24,-42,-9,-66,-8,3,-50,46,-27,-21,-13,23,-8,35,-173,58,-58,-14,63,54,36,101,34,58,33,7,0,-3,-8,4,8,8,8,-86,-51,-26,-13,-36,-56,-37,-139,-69,-44,-61,-59,-78,-27,-65,-33,-69,-14,-54,2,-52,-33,-84,-41,-90,-16,-28,-87,-61,-146,-55,-169,-46,-97,-139,-48,-97,-146,-72,-131,-146,-20,-50,-98,-212,-70,-91,-79,-59,-28,-95,-315,-112,-53,-182,-7,65,-86,-104,-72,-119,-24,47,-23,-68,-75,-23,-29,-28,-56,-17,-85,-71,-44,-86,-34,-69,-66,-76,-93,-106,-10,-5,-43,0,-65,-37,-191,-33,-162,-44,-26,-97,-33,-189,-83,-55,-36,-172,-83,-92,-120,30,-209,-92,-38,-83,-96,-137,24,-111,-10,-104,-27,-145,-130,-31,-128,-11,-156,-18,-119,-84,-103,-122,-140,-88,-15,-59,-72,-89,-65,-77,-58,-117,-71,-81,-75,-131,-87,-38,-106,-120,-93,-61,-91,-83,-40,-98,-94,-121,-142,-74,-111,-121,-126,-114,-180,-184,-155,-121,-83,-137,-148,-99,-85,-191,-80,-112,-121,-116,-131,-104,-202,-135,-126,-85,-119,-100,-86,-93,-112,-107,