{"l1_biases":[10,209,-149,-70,-44,151,-71,24,-37,4,-13,83,-6,1,-100,-26,17,20,-95,-51,12,-7,-169,-44,-124,-52,-46,25,3,-187,150,-2,1,11,15,-123,-316,-62,-25,-206,233,-53,-6,43,-65,-207,-54,-1,-45,-94,42,-90,-81,-103,59,-77,-67,-49,-35,-208,-77,-13,28,124],"l1_weights":[-6,5,-1,5,6,-1,-4,-7,-36,1,-44,11,-83,33,-14,17,-16,4,-16,0,-22,3,-8,15,-22,-12,4,-8,19,5,26,22,-21,-23,24,-14,18,-13,11,28,-7,0,43,19,4,20,-8,46,53,-6,50,29,-4,23,52,94,-3,3,-3,-7,0,6,9,-2,-66,-67,-70,-58,-62,-59,-60,-68,-46,-50,-60,-49,-48,-33,-27,-70,-58,-35,-56,-50,-64,-32,-66,-33,-51,-41,-64,-58,-77,-72,-67,-57,-45,-70,-59,-54,-66,-74,-70,-67,-14,-30,-31,-67,-86,-92,-64,-48,15,-24,-73,-86,-66,-72,-96,-65,13,-121,-86,-34,-81,-75,-95,-18,-21,-109,-45,-99,-35,-90,1,-98,-94,-37,-92,-22,-85,-15,-74,-32,-31,-67,-47,-90,-70,-64,-75,-82,-98,-16,-110,-30,-118,-54,-123,-47,-24,-70,-26,-108,-40,-133,-38,-139,-116,-40,-88,-28,-94,-35,-138,-49,-1,-101,-66,-120,-47,-101,-6,-210,-74,-86,-137,-24,-57,-104,-157,5,-86,-87,-83,-80,-88,-53,-62,-49,-120,-94,-99,-76,-77,-79,-71,-65,-136,-135,-139,-131,-158,-109,-196,-129,-126,-105,-96,-119,-130,-138,-143,-128,-88,-71,-58,-91,-113,-115,-136,-100,-74,-77,-64,-112,-93,-127,-150,-139,-78,-92,-114,-121,-156,-112,-176,-164,-134,-176,-142,-172,-200,-173,-211,-186,-169,-186,-151,-174,-133,-136,-104,-133,-202,-154,-222,-131,-144,-122,-156,-127,-203,-235,-220,-250,-241,-63,-235,-176,-206,-172,-251,-185,-255,-193,-225,-158,-173,-189,-158,-215,-155,-187,-150,-192,-186,-183,-219,-114,-106,-116,-198,-177,-135,-231,-208,-252,-152,-97,-164,-216,-340,-258,-291,-168,-244,-147,-251,-205,57,28,40,50,82,73,66,63,1,28,6,12,14,41,15,33,-2,-4,-30,-39,-70,-36,-54,-11,-24,-12,-39,-44,-74,-74,-63,-83,-14,-27,-14,-50,-63,-90,-69,-68,-22,-34,-46,-67,-69,-67,-79,-63,-30,-69,-34,-100,-64,-67,-70,-71,55,-71,-40,-88,-72,-93,-93,-49,8,-8,-8,-5,-4,-5,-4,-6,11,17,-18,83,45,85,90,92,71,20,74,58,84,53,65,27,-3,-9,-14,0,30,-1,27,2,-6,-19,16,8,-8,-28,4,13,-4,14,17,0,-16,-5,-14,17,8,18,22,-6,-1,-30,5,14,6,-6,0,6,-6,-3,5,6,43,-89,66,-97,10,-172,86,11,-17,42,-20,50,-2,91,17,110,1,80,33,54,10,125,131,92,-16,44,12,124,34,91,16,113,8,26,53,8,92,-19,98,-18,27,-18,47,-20,49,-1,37,14,42,22,47,32,5,37,-6,48,66,32,79,56,6,34,17,61,5,27,0,-68,20,-296,50,21,26,27,13,17,60,35,107,15,30,27,76,64,46,107,70,90,25,49,65,36,59,32,129,50,57,64,43,61,-2,-22,23,93,69,37,50,18,25,21,15,26,23,54,33,33,21,19,26,55,60,43,32,41,37,29,17,48,124,99,127,92,120,118,117,64,116,119,101,102,80,141,79,87,50,47,62,59,90,77,88,93,77,59,64,56,88,120,62,69,81,81,69,102,69,107,68,90,117,96,76,102,102,122,90,91,92,89,61,84,79,112,92,95,84,67,57,70,88,100,101,87,-286,159,-199,-73,-333,-155,-157,77,145,124,129,129,140,138,130,141,137,125,162,177,209,199,205,187,109,131,158,87,200,165,206,141,89,134,96,128,101,107,91,130,144,84,69,111,154,148,112,119,108,130,104,119,107,167,133,142,106,83,99,112,143,168,113,120,-30,70,25,77,50,69,41,170,-19,-26,2,39,46,56,64,23,-118,-40,9,33,45,58,54,62,-12,-2,23,40,29,29,23,26,16,28,42,53,29,23,12,23,62,60,36,35,14,-7,-3,-10,40,34,31,27,-6,-13,-27,16,49,13,20,7,5,-26,-4,30,-5,0,-8,5,-4,-3,1,-8,18,18,19,43,17,-4,8,16,15,15,8,17,0,1,-3,6,23,8,3,-6,-10,-4,-6,14,24,6,1,10,-14,-2,0,17,15,17,21,25,29,8,9,6,17,145,152,190,156,156,137,49,-3,8,-8,4,-6,-5,-7,-3,35,18,28,32,24,8,-14,14,14,29,44,37,25,8,18,-16,11,27,32,28,22,12,10,25,12,36,27,22,12,17,-8,20,34,4,18,-38,0,0,4,1,10,2,35,10,30,1,-8,2,36,55,11,17,37,21,20,-19,50,109,56,86,40,74,58,91,47,44,13,34,42,21,28,30,38,39,41,41,35,26,28,36,18,39,56,50,39,44,35,25,33,38,43,45,42,31,24,23,38,41,37,40,40,39,15,42,59,33,36,39,41,40,39,32,42,63,50,45,51,45,58,50,72,56,75,75,70,91,72,60,60,57,63,58,51,49,54,57,83,56,78,75,63,68,79,66,79,70,55,81,69,57,64,65,80,62,67,67,58,69,58,60,63,50,64,62,59,61,48,51,51,44,46,45,58,53,44,35,33,34,44,47,48,34,31,33,29,48,50,28,41,42,37,12,35,29,2,49,67,61,79,69,43,43,55,80,65,95,51,83,32,46,58,106,108,105,79,88,68,44,62,95,91,88,74,69,64,67,41,75,71,76,79,57,15,53,19,35,57,60,16,27,-30,24,52,55,59,72,44,24,-76,-140,33,106,14,-13,-199,-42,28,28,32,32,3,9,-4,-17,9,41,39,39,30,23,16,4,29,38,45,49,48,37,22,1,45,53,60,54,51,50,34,19,53,65,67,62,60,62,56,42,48,62,64,57,59,54,57,57,21,50,59,44,43,58,48,30,39,0,34,16,16,48,26,50,-5,7,-2,-4,-1,6,3,-3,-95,-77,-81,-75,-104,-118,-145,-119,-77,-75,-70,-62,-68,-23,-84,-87,-60,-56,-48,-37,-36,-52,-62,-54,-55,-57,-43,-41,-39,-50,-44,-51,-63,-39,-35,-50,-35,-37,-27,-47,-61,-59,-45,-71,-36,-24,-23,-50,1,-4,3,2,-6,7,-5,6,-44,-74,-48,-59,-26,-88,-78,-89,-65,-44,-26,-19,-30,-56,-50,-52,-53,-40,-16,-37,-16,-17,-34,-29,-56,-25,-33,-3,-37,-28,-23,-6,-53,-49,-47,-39,-34,-29,-29,-41,-47,-61,-44,-43,-41,-51,-40,-55,-112,-59,-76,-47,-43,-52,-53,-62,-89,-133,-106,-35,-42,-38,-78,-69,-51,-19,-34,-46,-50,-61,-47,-69,-30,-39,-34,-34,-26,-51,-54,-42,-43,-44,-34,-24,-30,-12,-41,-26,-72,-46,-35,-31,-26,-34,-34,-38,-63,-46,-41,-39,-48,-47,-45,-51,-62,-52,-50,-41,-55,-61,-46,-62,-45,-60,-47,-66,-53,-42,-49,-41,-43,-54,-62,-29,-59,-43,-30,-52,-105,-91,-99,-97,-102,-102,-94,-102,-106,-98,-102,-107,-109,-96,-106,-116,-123,-110,-108,-121,-116,-119,-110,-126,-138,-128,-130,-130,-114,-121,-123,-145,-143,-136,-130,-140,-120,-122,-141,-153,-146,-138,-126,-137,-118,-133,-128,-177,-156,-143,-130,-140,-115,-129,-147,-125,-192,-166,-153,-163,-155,-168,-156,-200,-163,-170,-153,-128,-135,-133,-147,-191,-209,-212,-185,-167,-152,-155,-205,-205,-240,-221,-207,-167,-150,-159,-173,-229,-255,-217,-223,-178,-163,-174,-171,-244,-252,-246,-228,-233,-179,-193,-178,-216,-440,-321,-243,-242,-202,-213,-224,-238,-274,-255,-266,-278,-248,-256,-267,-267,-219,-237,-211,-209,-213,-258,-251,-270,5,6,6,5,25,26,68,61,27,24,11,6,28,47,33,50,37,27,21,24,32,51,54,46,21,25,29,27,43,45,46,47,31,27,25,30,36,39,44,41,55,34,31,30,33,42,54,59,60,43,32,22,31,41,53,73,42,61,34,-4,-1,18,65,59,3,7,2,6,6,-6,-7,0,14,23,-8,57,0,-12,-6,2,12,15,-24,-19,24,-7,6,-1,11,-6,0,-23,-14,-11,-8,-2,-1,-18,-12,-25,-30,-21,-18,-5,19,-47,28,-43,-16,7,3,-9,209,-196,156,-12,47,216,-456,206,-8,-1,-8,6,-2,-9,4,6,9,-16,15,1,-42,-20,-31,-19,-33,-15,-21,5,-28,-26,-44,-14,-35,-50,-41,-36,-9,-26,-40,-29,-37,-15,-30,-51,-32,-55,-13,-54,-60,-47,-29,-35,-50,-50,-47,-59,-23,-38,-43,-87,-79,-78,-93,-49,7,-41,-94,-25,-27,-471,-34,-58,26,-82,1,-22,-75,6,17,28,2,-67,147,-28,11,-44,3,-26,-77,-56,-35,91,-46,15,-59,37,-13,-31,-38,-55,48,-61,6,-50,-41,9,-41,-25,-53,-17,-50,49,14,-37,9,-49,-59,-67,85,-75,-19,20,-64,20,-57,-4,-80,91,67,-85,23,-122,-7,-63,-258,-48,-20,-322,19,-91,-24,-39,-57,-78,-4,-10,-60,-39,-62,-61,-53,-46,-7,-33,-21,-43,-36,-40,-57,-41,-53,-15,-40,-72,-36,-43,-61,-68,-32,-4,-54,-49,-58,-57,-44,-35,-26,-31,-17,-50,-48,-38,-57,-41,-30,-29,-16,-43,-47,-27,-49,-44,-8,-41,-23,-60,-58,-44,-55,-36,-8,-300,-64,-191,-139,25,-112,-14,-81,-98,-91,-98,-106,-120,-118,-141,-88,-99,-104,-89,-117,-100,-143,-120,-94,-90,-59,-99,-61,-108,-135,-130,-80,-30,-81,-76,-83,-63,-90,-95,-81,-49,-40,-43,-50,-71,-46,-132,-31,-33,-55,-50,-60,-57,-101,-59,-21,-52,21,-1,41,-68,-76,-110,-47,-84,-63,-145,-92,54,-59,-77,-72,-18,-20,-42,-37,-33,-23,-16,-52,-9,-45,31,-27,-35,-34,-13,16,-3,-17,-19,23,-24,-34,-12,18,37,20,25,-17,46,8,20,73,26,44,22,25,45,71,26,-132,7,-10,23,-31,72,-126,-26,19,-175,35,-71,39,-8,-341,114,-34,9,8,28,97,50,-92,103,3,0,-1,-5,7,0,-1,-5,-226,-326,-75,32,36,53,18,33,-40,-61,-14,-32,74,17,9,11,2,15,-4,-22,-9,57,8,-13,4,0,3,4,-4,13,22,3,4,9,10,-6,3,11,21,28,5,5,15,-3,11,11,31,12,-7,7,4,2,-5,-9,0,-8,43,-261,-127,-69,32,21,111,0,15,-148,23,-148,-4,41,-93,-1,-25,77,53,-73,-15,23,20,-20,-156,50,-244,33,36,-75,34,39,47,8,42,-23,38,41,15,-21,55,16,32,41,26,40,27,32,38,49,54,39,41,43,45,54,85,47,79,38,62,56,50,63,67,68,-109,13,-71,16,44,47,11,-465,76,-86,56,17,26,34,-437,51,-370,39,52,47,6,68,28,-20,-14,7,39,-17,40,25,-9,12,49,24,20,49,-1,37,40,44,45,30,47,34,56,9,47,49,17,49,42,52,49,52,52,19,52,17,57,53,60,59,21,-254,-44,55,27,-32,50,87,36,-318,-16,-114,4,19,21,69,-38,-238,-98,3,-57,10,16,39,-58,-46,-15,-4,-1,-37,35,31,37,-88,51,48,47,44,-3,62,80,36,72,90,63,65,51,16,63,58,66,86,73,82,60,46,66,52,70,67,83,73,60,73,107,-11,-264,52,23,28,70,60,101,-139,112,21,89,59,78,110,-323,52,40,91,-209,98,78,120,-423,-163,-138,95,54,-395,59,98,36,-80,87,33,101,93,-52,100,114,105,114,123,105,68,124,-42,111,120,121,135,113,134,137,122,121,121,139,126,142,120,149,133,26,-44,-44,-5,35,-81,-56,-58,5,-156,-40,-66,-26,-51,-4,-58,-161,-87,-111,-150,-89,-48,-75,-37,-357,-205,-210,-289,-131,-177,-73,-78,-238,-385,-156,-107,-88,-42,-213,-112,-100,-57,-8,-63,-13,-51,23,-344,-57,47,-24,-24,-35,9,36,24,17,-25,-7,-25,-9,-13,0,28,-3,4,6,3,2,-5,-8,8,23,-198,-9,-23,-2,0,4,5,3,-9,-102,4,-31,-1,7,4,6,17,7,-66,-2,-8,10,2,6,-8,11,9,-28,4,0,-6,-43,-22,-21,11,-24,-20,-4,-31,-47,-188,-16,2,-60,2,-12,9,-3,4,1,-4,2,-1,6,2,31,36,1,-45,-4,22,13,27,6,4,-28,5,-22,8,2,2,21,-24,5,-15,-1,-11,5,6,-1,19,22,-10,-1,2,22,6,0,0,-10,-2,11,6,14,-25,50,28,7,7,-10,28,23,11,12,19,36,14,10,19,15,30,30,33,31,42,0,7,-19,27,-159,61,10,-45,-19,28,-17,7,21,-401,12,-19,18,-14,6,8,-10,-19,-504,17,-19,14,5,10,12,5,19,-100,20,-10,14,2,-25,26,8,6,-98,27,1,-2,34,-11,-1,11,12,-32,15,-20,-3,13,19,15,12,12,-72,21,15,24,15,44,10,-18,30,-100,101,-374,-13,-15,0,1,12,14,-398,-16,-14,41,-5,25,7,23,-17,-446,-6,-56,-1,-10,1,0,-12,-400,-44,8,-10,10,6,6,2,5,13,0,31,33,17,21,15,-388,-16,-14,6,41,7,29,30,-30,-7,2,20,17,45,25,43,20,23,24,20,44,32,61,29,-45,-70,-44,-51,-14,-6,-51,-68,-55,-50,-27,-33,-10,-22,-12,-42,-483,-371,-61,-43,-44,-41,-12,-36,-74,-64,-60,-37,-65,-58,-8,-67,-24,-57,-56,-66,-40,-36,-28,-34,-44,-50,-26,-46,-15,-45,-18,-57,-49,-44,-45,-47,-42,-45,15,-24,-421,-67,19,-44,78,-26,27,156,112,-8,-12,-3,0,7,9,122,-247,-374,-32,-12,11,0,28,0,-51,-342,-43,-11,1,16,-3,18,-17,-30,-33,4,20,22,18,28,-18,16,19,33,43,43,9,33,43,30,48,63,71,62,48,83,71,65,71,77,73,82,57,78,120,74,77,108,71,60,15,0,1,4,3,-6,-9,-5,0,24,504,87,131,15,-171,-13,-65,-26,274,72,66,23,22,0,-11,0,29,43,-92,16,3,-2,-11,-4,7,10,3,-62,2,-3,-1,-5,0,-3,-7,0,-47,-6,1,-8,-2,4,0,0,-10,-11,2,0,1,8,-2,5,3,6,-5,49,301,3,32,4,20,5,6,23,504,398,-4,-5,-32,-39,-1,48,73,-7,-17,6,-26,13,2,11,-14,-4,-31,31,-33,0,-13,-56,25,-45,4,-53,-8,-9,6,-18,-7,-15,-26,-1,-36,-19,-4,1,-11,-8,-20,-20,-11,-28,7,-51,-14,-37,-30,-7,-3,-11,-57,153,-8,82,-41,55,19,41,24,-36,133,-17,49,-27,10,20,45,86,11,135,12,48,-11,36,-31,-9,20,-38,103,-4,28,0,41,5,-19,55,-13,93,-16,39,-5,-27,18,-11,18,-15,89,2,21,20,-3,7,-13,12,-9,99,3,-1,19,-16,10,-14,7,-3,106,-15,-8,-22,-14,-20,-8,-38,6,15,-85,-14,-23,-13,-17,-20,-1,-46,-14,-36,-16,-35,-20,-35,-19,10,-32,5,-33,-24,-21,-21,-32,-22,-12,-35,-9,-54,-26,-40,-28,-16,-16,-23,-27,-14,-40,-17,-21,5,-6,-7,-10,-28,-7,-42,-6,-4,-6,-11,-17,-19,-14,-14,-7,-239,-62,42,-54,0,-139,-7,70,12,503,14,45,8,24,38,5,20,81,118,31,16,25,42,44,28,29,45,195,64,36,49,55,29,22,41,26,146,9,19,14,-5,37,42,30,45,121,14,-1,49,32,35,42,26,13,120,29,23,36,23,16,6,28,-1,108,58,88,92,68,76,34,-354,-50,88,206,55,13,45,9,-274,-24,95,57,57,35,34,17,16,18,52,44,20,36,13,6,21,-35,39,19,18,8,7,-15,-21,-13,8,-23,-8,-8,-15,-33,-3,-21,-25,-9,-18,-7,-17,-12,-13,-17,-14,-25,-19,-2,0,-12,-8,-1,1,-6,-1,3,1,-5,7,-6,14,-7,-1,-5,-22,-21,-39,0,0,25,-31,-8,-40,6,-54,12,1,10,-12,-6,-21,49,-60,76,5,9,18,-16,-21,21,-68,18,-4,-38,12,-69,44,34,-63,27,-42,-73,108,-105,76,31,-7,62,-1,6,-4,4,-5,3,6,-2,-70,-40,-44,-51,-39,-75,-45,-71,-63,-32,-53,-33,-77,-47,-53,-29,-25,-62,-41,-32,-53,-38,-61,-64,-20,-1,-28,-44,0,-114,-30,-112,-25,-59,18,-120,-19,-59,-41,8,20,-61,-5,-158,25,-132,-49,-74,-133,48,-25,-2,-382,-35,-35,4,-34,-88,-64,-71,-30,-33,-199,-9,-73,5,-40,-15,-60,-48,-60,-55,-14,-69,-12,-73,-29,-67,-55,-46,-28,-16,-12,-4,-79,-57,-27,-81,25,-2,-43,-44,-17,-61,-28,-112,-29,26,2,-30,-37,-46,-13,-72,-79,-20,18,-68,-55,-45,-54,-90,-63,-98,-13,-75,71,-59,-18,-17,-97,-82,-124,-38,-84,55,-36,-66,-18,-39,-41,-72,-81,-80,-73,-58,-35,-14,-50,-33,-75,-59,-103,-53,-12,-45,-8,-46,-70,-61,-57,-65,-44,-4,-47,-61,-61,-88,-36,-60,-5,-41,-40,-73,-102,-56,-86,-47,-46,-72,-84,-80,-98,-86,-70,-64,-83,-87,-103,-132,-106,-86,-71,-59,-77,-175,-62,-173,-97,-78,-120,-62,-96,-79,-69,-110,-135,-134,-134,-119,-78,-87,-58,-90,-89,-122,-118,-105,-58,-101,2,-69,-130,-138,-75,-111,-72,-57,-81,-205,-22,-174,-58,-156,-108,-49,-11,-125,-183,-88,-29,-41,-189,-108,-39,-103,-169,-95,-83,-63,-163,-190,-62,-213,-65,-131,-39,-25,-69,-135,-129,-211,-68,-16,-60,-93,93,42,62,6,32,-24,41,13,64,63,68,19,6,-20,11,3,56,101,60,15,-49,-59,-41,-8,1,50,17,-39,-81,-94,-75,4,-117,-35,-60,-85,-133,-126,-196,40,-76,-118,-59,-109,-153,-140,-278,-123,-4,-339,-106,-114,-192,-154,-182,39,-173,-260,-18,-313,-179,-183,-79,-239,8,-2,-7,1,-4,-8,-6,-1,-104,-166,-100,16,74,84,102,17,-49,-46,-49,46,13,58,20,-13,-5,18,32,1,42,27,35,-15,26,41,-2,21,11,41,-100,-1,41,28,5,21,0,5,-1,4,28,40,-12,24,11,29,-35,16,8,6,-1,-8,1,4,-4,3,-56,-95,-13,-61,67,-1,-30,34,46,-96,-15,-13,92,66,61,28,-24,39,36,32,78,34,66,21,9,57,-37,46,77,99,67,27,-6,43,41,79,2,79,-67,112,40,9,39,17,41,52,18,47,60,32,37,38,41,33,39,39,84,48,-6,24,18,28,47,38,41,-56,-13,-9,95,-20,16,-22,-109,10,-28,36,14,55,17,41,8,-14,55,27,29,6,32,2,-58,94,-24,34,47,44,37,70,56,5,2,32,10,78,-281,57,37,45,26,36,21,44,48,37,56,50,41,32,75,27,15,46,37,34,43,35,30,61,8,63,-72,-45,1,-16,15,-4,-12,66,-30,-48,8,-2,35,23,46,80,-32,-21,34,5,80,72,53,102,-33,-44,65,14,59,81,89,60,0,-35,33,43,66,66,11,88,-2,-17,36,4,76,9,133,67,18,24,50,5,60,51,83,80,-3,8,71,10,47,38,115,75,109,108,198,197,117,111,109,84,-64,50,-42,108,130,151,95,121,17,-33,71,70,121,54,74,125,-133,30,27,133,98,126,135,113,63,3,31,120,91,150,-172,120,38,39,-2,48,117,51,155,84,82,68,119,35,129,64,113,87,23,77,117,68,92,81,137,98,28,-104,-69,-166,78,49,55,42,-75,-79,42,35,85,72,63,89,-4,-3,28,23,58,52,70,10,-34,26,26,-10,11,11,44,10,21,24,-18,-2,-6,16,29,22,10,10,-14,-30,-20,-24,-12,-29,21,8,-15,-16,14,6,-15,4,20,41,29,-6,10,2,-1,29,-6,-4,-4,0,-3,-6,8,-6,-3,-3,5,17,31,6,-4,1,-12,-14,-7,23,23,17,-3,4,-5,-10,-4,1,17,10,0,2,0,6,-2,0,9,6,4,7,22,22,29,7,11,-9,2,18,50,38,92,52,9,7,19,24,0,-1,0,1,-7,1,-3,8,-6,21,26,22,16,29,17,36,0,20,0,26,18,21,26,11,20,11,22,28,32,19,20,18,28,34,12,17,19,22,3,18,22,10,10,2,30,5,12,4,23,36,-12,5,4,-17,12,-6,29,19,-11,3,-18,7,-14,9,17,33,47,-16,-3,18,-13,9,16,13,22,24,27,22,18,16,16,16,19,18,25,32,29,16,29,9,29,33,49,27,32,16,35,31,19,39,26,29,17,16,22,24,24,32,22,24,18,21,31,19,21,19,21,17,17,3,53,56,7,9,10,19,1,12,26,53,54,-5,19,20,38,8,39,47,43,23,20,29,37,37,46,53,46,31,24,30,30,38,47,50,43,38,38,29,25,35,60,56,52,36,16,25,23,27,72,64,47,29,22,24,22,26,87,71,57,32,26,10,23,25,85,80,66,50,42,41,34,43,88,89,102,41,49,30,33,26,118,93,87,74,47,79,87,62,107,112,119,57,32,41,82,49,126,94,105,66,70,45,97,61,237,198,114,228,60,100,61,81,191,185,175,172,91,75,86,79,177,185,205,150,106,98,94,63,208,183,183,142,126,133,157,74,206,163,147,124,118,52,-9,11,-25,14,23,25,35,24,13,-10,8,37,37,51,50,38,30,0,41,42,53,55,56,51,38,6,41,49,39,41,45,47,32,15,56,29,18,13,13,16,22,0,9,27,-10,-13,-6,8,6,6,-182,-182,-142,-113,-50,-1,0,-18,122,50,-156,-185,-42,-6,-37,-44,8,2,2,7,3,-6,1,-7,-73,-72,-42,-21,-29,-16,-93,-30,-37,-34,-40,-7,-5,0,-20,-30,-11,-20,-6,2,10,0,-7,-7,-11,-28,-20,4,5,8,6,1,-12,-37,-17,-3,7,4,9,0,-9,-25,-21,-7,13,12,14,1,-6,3,-1,-2,-6,2,8,-2,-56,-32,-59,-20,-63,-50,-9,-29,-29,-15,-62,-17,-36,-4,-33,-37,-60,-43,-36,-43,-34,-18,-30,-36,-41,-61,-31,-41,-32,-31,-32,-23,-27,-59,-79,-41,-26,-48,-24,-41,-54,-95,-69,-45,-83,-31,-33,-25,-48,-56,-63,-56,-42,-18,-31,-27,-72,-42,-44,-56,-33,-37,-21,-27,-65,-41,-75,-59,-64,-81,-42,-47,-34,-48,-42,-38,-19,-43,-53,-40,-38,-63,-56,-40,-61,-48,-38,-39,-54,-48,-45,-58,-44,-46,-14,-59,-50,-70,-96,-45,-65,-38,-37,-32,-27,-102,-75,-60,-44,-59,-40,-43,-64,-61,-73,-59,-56,-25,-43,-32,-37,-61,-31,-67,-55,-46,-39,-41,-92,-89,-81,-94,-90,-84,-100,-76,-107,-96,-74,-67,-66,-74,-83,-67,-84,-92,-76,-61,-54,-59,-59,-70,-97,-110,-93,-73,-60,-58,-70,-60,-103,-98,-84,-87,-50,-70,-66,-74,-114,-103,-89,-92,-62,-68,-71,-74,-91,-111,-116,-91,-75,-68,-64,-66,-98,-99,-109,-100,-87,-77,-73,-74,-282,-262,-289,-249,-269,-275,-267,-235,-263,-278,-269,-256,-307,-240,-240,-223,-275,-263,-266,-297,-280,-279,-260,-234,-266,-284,-296,-288,-269,-274,-258,-244,-277,-285,-271,-243,-240,-235,-238,-260,-295,-280,-274,-234,-248,-219,-210,-205,-256,-270,-266,-244,-244,-213,-209,-193,-226,-231,-254,-233,-235,-208,-198,-230,35,-79,-31,-102,-121,-86,-85,-12,-45,-42,-46,-48,-71,-147,-124,-64,-26,-30,-39,-55,-116,-150,-141,-78,1,-10,-35,-68,-61,-84,-50,-41,49,5,-22,-35,-34,-28,-15,-32,93,92,30,13,0,10,9,-3,126,126,85,50,30,37,38,38,108,140,118,72,60,65,46,65,-7,-7,-1,-7,4,1,5,-8,0,-20,-9,-4,-23,17,-35,21,-12,-13,-14,-5,-5,-26,-12,-1,9,-41,8,-59,6,-67,1,5,13,-21,37,-16,42,-53,2,7,-7,-23,-26,-44,-17,-12,-24,43,-117,-55,-22,-66,-94,125,-463,128,0,-3,8,4,-2,5,5,-8,7,-43,-27,-18,-70,-8,-19,-13,-36,-45,-25,-73,-20,-76,-45,-64,-36,-51,-19,-9,-77,-13,-104,-12,-20,-7,-75,-15,-99,-31,-62,-81,-59,-40,-25,-46,-22,-76,-23,-115,0,-85,-40,-136,-90,-106,-111,-41,-109,-22,-24,-198,-355,-94,-55,-47,-2,-62,-44,-53,-272,35,-147,5,-48,-15,-52,-27,-27,-56,-65,-47,-27,-50,-32,-70,-65,-40,-73,-16,-61,-17,-28,-19,-39,-38,-77,-75,-46,-20,-67,-15,-77,12,-73,-54,-17,-47,-34,-40,17,-76,-21,-48,-73,-53,-59,-124,-64,-25,-51,-79,-42,-76,-35,-68,-73,-24,-163,8,-62,-4,-47,-34,-109,-45,-11,-14,-24,-47,-41,-43,-42,-44,-114,-47,-30,-29,-10,-46,-18,-96,-27,-100,-25,-16,-10,-7,-36,-29,-151,17,-34,-25,-57,-26,1,-66,-62,-72,-20,-67,-59,-28,-5,-37,-45,-23,-61,-67,-69,-65,-70,-55,-49,-11,-85,-52,-65,-73,-60,-68,-97,-26,-72,-60,-46,-95,-76,-13,-254,-9,-64,-84,-58,-88,-88,-104,-156,-106,-68,-65,-59,-89,-91,-110,-140,-130,-78,-47,3,-24,-39,-30,-245,-63,-71,-55,-104,-27,-89,-26,-181,-91,-78,-64,-93,-56,-22,-48,-44,-97,-54,-76,-86,-145,-104,-78,-87,-106,-135,-103,-65,-96,-107,-62,-145,-15,-53,-58,-67,-19,-8,-24,-21,30,-21,-8,-14,-10,-32,-47,-63,-22,10,1,14,-6,-8,-10,-47,-24,12,41,20,54,42,98,8,57,29,12,11,64,72,139,144,131,11,-27,15,1,137,129,118,87,0,-77,-2,25,117,93,52,111,-63,-25,1,-4,89,125,-53,126,37,-72,27,16,92,115,7,102,3,0,0,8,-1,2,0,0,-62,-58,31,-34,-22,46,150,-66,3,18,-12,13,-46,-91,-65,-61,24,38,36,31,16,-35,6,-29,24,8,32,8,65,-27,4,-9,18,0,16,42,27,24,12,21,11,0,7,22,39,-4,27,13,-3,6,-2,6,-4,0,3,1,-68,-66,-32,28,53,0,60,-5,74,53,80,39,16,117,47,76,-26,66,22,93,20,28,2,69,72,83,56,50,-13,44,17,79,61,25,103,49,98,-11,93,-19,83,32,78,-1,90,15,84,29,44,83,39,94,39,71,31,68,6,66,-51,72,-13,91,35,79,37,-9,-20,80,1,54,-60,39,-31,27,98,10,90,-8,114,-87,13,75,52,56,-2,56,-31,66,50,40,57,21,51,-12,81,-42,51,12,48,37,17,60,63,81,39,37,53,38,35,51,87,72,19,57,5,62,42,47,71,68,39,3,57,43,44,34,50,20,16,17,22,6,62,13,-33,39,-6,-17,10,31,23,49,-6,32,38,39,70,56,101,53,60,92,27,56,86,37,69,85,16,95,44,36,61,45,36,94,17,98,27,15,18,34,-7,62,34,56,32,57,21,50,35,77,78,21,23,60,67,34,46,106,37,82,-21,11,-11,8,67,124,134,161,-53,-20,35,54,73,65,176,36,87,58,16,107,90,136,112,131,77,74,95,60,146,85,139,56,152,59,122,107,82,144,115,148,81,86,97,130,67,141,116,141,102,151,108,139,136,146,163,143,101,133,156,115,79,146,151,124,121,27,14,0,-13,-80,-84,-203,20,66,71,-58,-75,-140,-175,-246,74,82,60,-7,-122,-251,-438,-132,52,47,25,21,-90,-100,-324,-130,26,12,4,0,-16,-52,-84,-13,-9,-17,-32,-1,-18,-18,-17,11,-33,-28,-13,-8,-1,-16,38,37,-44,3,13,6,2,-15,34,34,-1,1,0,0,-2,0,-1,4,7,0,9,9,25,23,29,24,9,20,3,21,17,54,44,29,21,11,18,16,10,15,18,15,25,23,41,12,1,-38,-38,-26,37,37,50,3,-89,-111,-160,-78,65,57,77,3,-120,-383,-308,-305,-6,3,2,4,8,7,8,8,90,58,67,63,49,50,67,65,78,57,70,65,64,50,46,45,56,64,61,37,36,60,9,46,44,30,78,73,33,-19,-64,-50,65,80,44,-35,-53,25,31,-273,-3,-21,125,23,-3,-66,-47,-240,53,133,26,-52,-45,-58,-257,-177,24,-23,5,-37,8,-413,-340,-118,53,27,59,35,73,42,58,69,56,38,45,63,52,69,37,39,62,28,50,43,55,41,42,24,0,43,10,17,21,16,5,-57,50,-6,24,35,-21,1,3,-61,36,-28,-14,-6,-39,-94,-37,-418,58,64,49,-21,-114,-15,-101,-93,36,-6,59,-34,-248,-229,-71,-49,103,114,87,78,81,65,58,83,132,96,98,88,72,30,32,37,112,116,108,103,101,31,10,34,113,115,84,99,73,5,-11,-28,85,110,79,80,40,-39,-20,-32,99,95,83,54,36,-29,-129,-92,54,37,33,12,-13,-91,-205,-190,45,51,9,-13,-10,-385,-268,-199,125,136,136,86,131,68,56,43,158,125,148,146,110,85,59,-7,167,114,111,133,131,-330,-178,6,46,151,75,131,104,-182,-271,-173,93,103,119,161,-74,-176,25,-245,93,94,53,46,24,-144,-299,-299,97,72,44,-12,54,-245,-121,-221,41,-243,-242,25,-333,235,-292,-137,0,-26,-7,3,7,8,13,-1,-3,-15,-6,5,22,11,22,12,-14,-7,11,5,12,17,25,-8,17,31,10,27,2,31,42,24,37,29,15,28,24,25,26,-1,39,46,30,60,53,17,6,-85,68,94,70,82,-82,-26,-91,-183,1,53,4,-6,-93,-30,-119,-66,1,0,-3,2,0,4,-5,6,53,60,64,38,53,8,-280,51,23,3,13,-1,-14,-10,-31,-2,-17,-35,-6,-28,-13,-11,-14,-15,-10,-5,-17,-13,-11,0,35,0,-13,-30,-12,-7,-17,-15,36,-11,-11,-9,-22,-3,-23,0,36,0,-7,-8,-8,-2,-3,3,8,3,-30,-12,-241,-110,-123,-109,-135,-90,-36,-30,-504,-101,-102,-136,-74,-22,-73,-121,-79,-73,-42,-57,-103,-18,-65,-147,-71,-68,-53,-47,-35,22,-67,-59,-71,-73,5,-41,22,-11,-79,-37,-47,-24,-68,-42,-27,-43,-38,-47,-70,-28,-49,-38,-61,-41,-61,-36,-67,-57,-40,-12,-34,-44,-64,-76,-139,-101,-127,-109,-126,-76,-46,-75,-49,-123,-35,-134,-171,-43,-117,-47,-114,-67,-116,-77,-67,-83,-35,-114,-84,-82,-34,-61,33,-3,-119,-65,-115,-83,-33,-40,-6,-37,-80,-94,-64,-34,-55,-39,-80,-72,-75,-46,-76,-73,-71,-43,-65,-61,-62,-64,-58,-74,-10,-64,-61,-45,-151,-144,-178,-191,-178,-158,-420,-94,-144,-138,-159,-153,-141,-129,-138,-114,-129,-127,-135,-149,-139,-112,-101,-78,-159,-126,-141,-106,-96,-74,-68,-51,-112,-138,-110,-113,-94,-65,-18,-75,-112,-136,-141,-88,-98,-93,-99,-44,-107,-113,-138,-163,-129,-100,-65,-56,-116,-119,-123,-109,-124,-91,-51,-83,-111,-205,-187,-220,-159,-204,-381,-219,-123,-118,-163,-192,-239,-365,-346,-223,-128,-127,-133,-211,-177,-198,-122,-214,-165,-118,-193,-122,-136,-114,-124,-72,-169,-168,-164,-243,-148,-204,-91,-176,-196,-166,-176,-112,-141,-310,-294,-155,-198,-180,-199,-259,-188,-195,-157,-153,-193,-182,-185,-156,-183,-208,-131,-143,319,-207,-174,-134,-305,-361,-177,-14,-73,-336,-253,-121,-405,-142,-139,-67,-134,-134,-290,-142,-127,-105,-84,-113,-129,-223,-163,-135,-99,-82,-74,-81,-134,-135,-121,-94,-43,-6,17,-53,-54,-62,-50,-42,-2,35,69,32,-7,9,-15,-32,37,57,65,41,-109,14,-2,-9,32,47,35,50,6,8,-3,-6,0,5,7,3,15,41,10,-14,-3,62,56,23,19,24,35,3,28,41,67,27,1,41,2,1,18,33,30,23,15,16,11,4,9,20,27,28,16,20,0,31,62,71,86,60,73,-15,3,80,60,97,71,29,0,-7,3,8,0,-7,-4,8,13,46,56,38,49,90,66,53,54,80,59,47,58,87,84,57,61,64,49,47,54,57,76,53,47,54,55,47,0,46,-3,61,45,82,49,1,61,97,82,-5,67,81,68,77,113,138,61,81,29,83,0,3,55,52,95,-46,-8,11,13,22,53,70,0,55,23,58,67,101,71,83,65,33,69,56,82,52,50,110,98,59,71,72,35,74,88,92,69,81,91,82,61,7,58,78,108,-15,72,73,60,77,44,106,-97,109,76,87,104,48,111,50,121,52,40,80,45,91,29,103,62,67,75,60,33,-18,81,87,74,23,88,61,102,134,96,59,37,84,73,90,90,116,75,102,66,65,108,2,81,119,56,76,51,87,122,86,126,111,79,96,99,102,114,31,84,88,69,69,67,98,78,58,76,79,54,112,69,89,101,67,88,104,102,117,109,97,82,116,91,119,97,114,99,139,115,102,160,211,126,118,22,108,165,128,170,142,79,157,122,99,156,-14,70,153,94,163,-37,84,179,121,137,-161,41,-12,182,-80,122,59,97,134,-110,97,27,161,143,65,127,93,105,109,96,95,86,77,-7,129,142,172,110,126,111,172,83,344,188,255,164,141,-32,-28,-19,-21,-6,23,33,18,0,-17,-36,-43,-54,34,40,41,-49,-31,-25,-37,-4,12,23,23,-51,-21,-5,-20,12,41,44,14,-30,-1,-1,0,17,21,18,63,-43,0,3,7,9,33,37,82,-45,7,-26,4,1,32,36,59,-98,-3,-234,-19,28,36,27,45,-5,0,-7,-5,6,0,-8,-2,16,-333,-262,-102,-340,74,-20,58,-10,-75,-62,-81,-88,68,4,41,-8,-32,-29,-6,-29,30,0,19,-27,-45,-12,-28,-19,-2,8,-1,-25,-27,-8,-15,-9,33,-22,-8,-12,-36,-7,-25,-1,-2,-9,-3,0,7,5,4,4,3,6,3,-87,-60,-64,-158,-148,-42,-2,-84,-60,-302,-28,0,-40,-350,-28,-83,-21,-81,-86,-108,-144,-28,-53,-52,-72,-81,-75,-14,-41,-43,-100,-102,0,-50,-29,-60,-147,-41,-66,2,-54,-80,-23,-49,-24,-58,-52,-75,-61,-80,-59,-41,-54,-58,-77,-26,-70,-59,-66,-55,-39,-42,-51,-24,-29,-73,-63,-60,-72,-68,-38,-56,-29,-128,-101,-61,-168,-63,-144,4,-70,-150,-73,-70,-56,-95,-88,-69,-62,-46,-58,-27,-51,-52,-99,-15,-41,-101,-33,-67,-40,-65,-43,-62,-70,-65,-77,-41,-64,-44,-70,-45,-67,-86,-57,-75,-43,-64,-49,-54,-70,-73,-67,-34,-76,-68,-22,-39,-85,-140,-97,-85,-98,-96,-112,-83,-114,-121,-104,-137,-131,-124,-103,-85,-92,-94,-109,-112,-83,-84,-74,-58,-84,-59,-59,-91,-63,-96,-47,-89,-110,-76,-87,-107,-94,-98,-112,-72,-107,-82,-71,-75,-77,-123,-76,-87,-106,-77,-79,-77,-81,-62,-85,-76,-86,-99,-76,-109,-89,-90,-93,-90,-236,-151,-223,-196,-278,-298,-206,-172,-120,-292,-147,-139,-281,-240,-234,-113,-195,-192,-189,-125,-128,-203,-161,-183,-145,-129,-119,-112,-116,-154,-163,-161,-183,-213,-164,-218,-147,-172,-212,-197,-225,-201,-151,-140,-161,-410,-194,-188,-187,-209,-156,-167,-195,-158,-245,-204,-169,-210,-153,-173,-175,-186,-184,-165,225,4,234,258,19,28,-15,32,184,-38,162,45,-29,11,-29,21,65,45,68,44,9,-22,-17,22,82,42,49,44,8,7,-11,17,66,26,42,32,0,-19,-22,-10,10,9,42,8,-17,-78,-46,-17,12,9,23,27,-42,-18,-49,-12,15,20,39,28,16,-13,3,11,0,2,8,-8,0,-4,1,3,-45,-19,-1,-36,-27,1,-17,-25,-35,-9,-3,-35,-22,-15,-5,-38,-66,-16,-9,-39,-15,-8,26,-55,-76,20,-26,0,-43,0,-18,-52,-97,28,-35,2,-4,14,-19,-60,-208,69,-214,61,-502,62,-142,-65,4,-4,0,5,-8,0,7,7,-50,-20,22,-28,16,-31,-20,-44,-41,-7,-40,-23,-26,-51,-14,-32,-1,-45,-18,-26,-25,-8,-46,-11,-9,-16,22,-25,-31,-14,-31,32,-20,21,-25,-31,-18,9,-11,-46,-75,26,-101,16,-25,-18,-36,6,50,-25,-101,-36,76,-410,-15,-30,-121,0,-60,68,-27,33,-102,6,-58,30,-38,24,-50,1,-46,-54,-36,-63,1,-31,19,-38,-14,-29,-37,43,-55,21,-89,23,-48,44,58,-53,48,-123,43,-41,74,-30,-100,29,-60,27,-102,76,-36,497,84,-82,15,-52,126,-124,201,-43,-90,64,-141,87,-77,46,-112,83,-25,-25,7,-36,67,-10,63,-79,-22,-44,-23,-52,-56,-43,-22,-20,-54,-6,-41,0,-39,-41,-10,-46,-7,-13,28,-44,-67,12,-29,-6,-23,1,20,-29,-39,-12,32,-3,-22,5,6,-37,-45,-36,38,-24,-59,-25,-35,-41,-61,-27,-10,-28,-37,2,-34,-37,-35,-20,-15,-42,-50,27,-54,-52,-61,-47,-40,-9,-85,-51,-81,-81,-61,-94,-137,-110,-94,-55,-119,-24,-33,-116,-114,-122,-57,1,-32,-68,-197,7,-118,-33,-11,-17,-9,-311,-49,-84,8,-11,-92,-22,-62,-34,-270,-27,-8,-19,-43,-76,-59,-106,-26,-118,-39,-69,-222,-4,-178,-66,-88,-60,-119,-51,-171,-163,-2,-108,-109,-28,-110,-150,-57,-11,-14,-26,-14,-27,-14,-12,-38,20,-18,18,-5,-15,-17,-4,51,51,37,29,0,30,21,43,67,54,59,19,47,43,65,37,21,76,38,48,18,45,49,71,-2,47,22,33,26,20,41,0,-54,92,-43,18,-16,35,8,4,-151,83,16,51,-14,41,42,113,0,-8,0,-6,-6,4,6,1,-9,-103,-90,33,50,-95,27,-36,26,-48,-38,4,21,-13,-5,-14,4,9,23,-5,30,-11,23,-9,3,55,3,27,-1,28,50,14,4,15,38,-2,6,22,47,4,-16,27,21,12,19,44,4,-1,-8,-2,-3,1,7,-2,3,-7,-5,75,48,44,4,25,85,14,-106,28,-47,79,49,81,6,34,-37,54,89,26,28,67,70,39,40,-73,45,53,86,69,-22,52,59,31,87,19,76,-20,95,-51,14,73,-5,60,36,21,52,20,18,51,39,26,28,60,28,40,50,21,36,29,20,51,28,46,49,-3,45,0,69,49,28,43,-21,18,-39,68,46,-12,42,21,3,-21,61,16,6,26,35,11,-29,96,47,-23,3,43,102,-11,73,55,5,45,-12,-6,39,0,25,27,45,12,38,26,22,26,39,30,31,29,47,54,22,-10,31,43,33,38,10,38,41,-4,6,28,19,23,2,46,7,33,-24,20,13,10,14,22,-20,-13,-13,22,-7,23,49,19,16,-18,-6,20,-10,19,23,64,-43,9,-14,4,7,0,14,1,-21,5,9,24,-9,14,12,22,-16,5,26,-1,-10,-7,28,-504,-9,34,11,33,-32,23,24,5,9,45,116,-223,111,102,42,71,30,66,0,58,-4,91,56,99,53,54,16,-18,77,70,96,94,103,33,-32,94,5,58,69,88,21,7,71,38,68,29,75,-45,76,16,66,94,32,50,73,117,-504,57,52,53,61,4,97,-504,58,9,63,67,34,84,44,50,-6,111,-43,-48,-1,-58,-23,-9,-66,-71,-52,-67,0,-38,-25,17,-65,-9,-24,-19,6,2,19,14,23,-2,-43,-10,21,12,17,25,19,-28,-46,-34,22,16,19,21,7,-51,-59,5,21,6,3,25,6,-29,-30,-16,29,2,16,25,23,-49,-52,6,6,15,14,34,8,-29,-1,8,3,0,7,-3,5,-3,7,-7,-4,-32,-23,0,1,37,-5,-28,2,-64,-17,-41,1,18,-5,-31,-6,-51,0,2,15,42,-26,-13,-17,-35,-14,-3,15,41,-22,-17,-66,-84,-55,59,17,49,-42,-31,-194,-437,80,47,174,-409,6,-5,0,1,8,-4,8,6,36,-5,-12,-16,1,-10,0,10,30,-20,-16,-31,-1,-30,-26,-15,1,12,-50,0,-47,-15,-34,2,-2,-3,-4,-3,0,-37,-17,-7,31,1,30,-60,18,-29,-42,22,18,11,53,-16,69,-343,121,-17,81,108,-85,31,58,136,16,12,-23,37,-7,-13,21,75,131,16,-21,-33,-18,-51,-27,-28,-24,-25,-46,11,-61,-9,-54,-17,-37,47,-1,-67,-17,-36,-29,-68,-21,-24,-1,6,-105,-22,0,-8,-35,1,11,-32,9,-93,22,-34,-9,-35,11,-8,-66,6,-47,44,-101,102,6,1,0,-15,24,-60,96,-30,-60,12,-10,-19,-13,70,-98,-21,-26,-32,-31,-41,-58,-23,-56,2,-15,-56,-50,-99,-54,-49,-37,-27,-45,-37,-79,-51,-85,-41,-104,0,-24,-60,-35,-89,-50,-69,-52,-39,-43,-26,-30,-39,-81,-45,-70,-17,-16,-20,-22,-39,-15,-32,-11,-15,-13,-10,-29,-28,-38,-15,-27,-14,-4,24,-4,-11,15,-1,27,-49,-77,-62,-87,-47,-101,-108,-81,-65,-34,-62,-90,-105,-72,-76,-92,-43,-61,-39,-105,-38,-84,-70,-94,-86,-48,-81,-88,-61,-57,-96,-80,-86,-68,-70,-66,-76,-44,-73,-98,42,-49,-44,-81,-43,-51,-77,-86,-42,-46,-73,-88,-54,-56,-140,-91,-135,-212,-35,-176,-77,-170,-115,-93,-128,-2,19,4,30,-9,-7,-20,-22,37,24,20,14,20,-2,-32,-24,28,25,27,40,5,-3,-7,-2,30,22,39,25,23,22,7,32,7,25,42,47,40,10,11,16,13,38,56,55,23,-3,-30,7,21,70,82,51,31,8,-58,-41,-78,71,64,30,18,-17,-175,-25,6,1,-7,0,1,-7,0,2,8,-52,-57,-49,61,56,70,54,-11,-24,-54,-24,-33,3,32,3,-4,-23,-16,-45,-10,9,-12,12,-7,-9,-16,-42,-19,-9,-3,10,-6,-2,-6,-28,-48,0,20,11,-4,0,-6,-32,-14,41,26,14,-5,4,6,6,6,1,7,-9,-47,-34,-4,28,2,26,74,43,-48,10,-29,11,-27,165,6,61,1,-28,-2,-2,-10,-41,68,-3,16,-21,-12,-41,-5,16,28,0,0,-43,45,-38,-6,-4,18,14,9,1,-7,-9,9,17,-10,9,-4,-13,-18,11,-31,13,42,3,-49,3,-60,0,22,16,19,-2,-3,31,15,27,-2,72,45,39,16,-13,31,-62,48,0,99,-8,-20,13,-41,8,-20,36,-11,29,17,-51,41,-25,22,-25,65,-20,-36,23,36,15,-38,13,-10,61,36,29,4,-10,4,-2,27,14,37,3,-3,3,-7,64,19,50,-12,-10,9,-48,75,34,66,-19,20,46,33,21,8,30,39,54,27,31,24,39,51,56,36,37,33,46,32,28,44,49,62,43,38,64,35,43,56,59,56,22,27,46,3,56,31,37,48,18,19,54,-8,29,58,45,29,-4,17,30,5,28,37,25,-95,-28,27,25,-5,27,45,-80,-87,-79,-331,-235,-333,138,-218,89,-50,-22,187,142,147,121,164,132,229,121,157,206,123,175,157,211,173,174,170,148,193,190,241,170,235,169,121,181,138,233,140,201,149,205,140,195,116,140,176,154,164,122,154,153,155,120,156,149,102,140,133,142,139,111,191,85,98,-192,-171,84,-21,-11,-17,-2,19,-5,-26,13,-41,-31,-42,-16,17,11,-48,-56,-73,-53,-34,-26,0,14,-79,-65,-73,-69,-62,-21,12,14,-68,-74,-73,-45,-33,-6,13,31,-68,-56,-48,-52,-19,-11,18,28,-34,-48,-36,-43,-2,31,25,44,-64,-84,-46,-20,37,71,69,1,-6,-5,6,0,5,-5,4,0,-20,-19,-15,2,-27,-2,-37,-82,-15,-20,-10,-14,-4,-2,-20,-74,-22,-11,-11,-5,-9,-5,-20,-63,-26,-18,-18,-8,-11,-32,-8,-59,-31,-25,-27,-31,-26,-38,-30,-50,-30,-35,-57,-29,-32,-36,-9,17,5,8,-6,-2,-1,-6,-1,4,-69,-52,-54,-46,-56,-87,-84,-54,-53,-63,-46,-55,-57,-48,-47,-72,-56,-46,-59,-47,-64,-47,-41,-51,-63,-64,-56,-59,-51,-67,-49,-45,-54,-63,-67,-58,-57,-66,-63,-46,-68,-68,-79,-67,-65,-78,-58,-94,-67,-63,-76,-60,-63,-61,-89,-56,-31,-50,-82,-86,-82,-88,-79,-44,-54,-44,-49,-58,-31,-96,-87,-81,-54,-51,-61,-41,-74,-49,-54,-19,-55,-63,-49,-67,-61,-36,-46,-68,-62,-60,-76,-56,-49,-62,-57,-49,-60,-76,-67,-62,-60,-66,-54,-48,-88,-67,-66,-69,-76,-67,-62,-62,-69,-59,-77,-61,-75,-81,-39,-44,-47,-70,-67,-75,-81,-72,-114,-45,-61,-67,-71,-69,-57,-26,-105,-401,-75,-80,-81,-72,-81,-77,-66,-165,-95,-86,-92,-96,-96,-73,-87,-119,-96,-112,-88,-104,-88,-114,-101,-152,-103,-95,-100,-78,-99,-91,-105,-139,-103,-100,-102,-98,-98,-102,-106,-150,-112,-107,-108,-102,-116,-112,-123,-131,-113,-124,-108,-110,-119,-125,-135,-142,-129,-138,-140,-135,-145,-170,-192,-284,-146,-145,-138,-144,-152,-172,-147,-200,-158,-148,-136,-152,-172,-153,-145,-176,-155,-174,-172,-156,-150,-183,-167,-158,-180,-189,-177,-163,-171,-178,-168,-166,-173,-173,-181,-187,-181,-189,-186,-174,-192,-174,-193,-183,-189,-194,-171,-199,-177,-199,-203,-212,-220,-222,-199,-183,27,59,47,47,52,10,-34,3,24,20,35,30,26,34,27,20,14,20,15,23,26,33,3,-4,14,1,18,16,33,19,18,2,14,12,12,23,6,7,9,23,57,18,25,6,3,-2,12,30,43,62,43,6,-21,13,36,21,42,120,-13,7,0,62,-1,91,0,7,2,8,-4,-8,3,-3,27,-16,-8,-3,64,105,-24,145,22,15,16,11,29,53,18,44,27,17,6,7,22,29,17,20,20,12,12,18,14,20,18,11,14,17,15,25,13,26,19,6,19,17,23,9,20,28,16,7,8,1,2,-4,3,7,5,7,47,27,26,4,22,36,92,54,39,85,68,93,57,-491,48,119,77,64,107,38,126,132,-26,37,56,52,62,60,51,76,42,29,51,41,56,49,50,41,55,37,48,46,44,46,40,42,36,39,42,50,44,46,43,49,42,45,31,40,40,40,43,44,34,36,39,53,23,42,32,49,63,19,71,38,90,45,103,34,6,75,48,94,58,85,33,42,19,123,54,48,88,34,48,41,88,60,51,73,32,62,31,67,33,77,62,22,46,41,59,32,51,29,38,48,37,50,43,54,34,40,46,35,53,36,48,38,46,44,49,58,44,42,48,70,79,139,69,66,66,72,70,102,127,84,65,72,75,82,92,108,115,114,73,72,71,76,74,89,100,95,68,81,69,87,70,78,106,90,68,69,70,73,75,73,90,77,68,76,75,77,78,75,67,82,60,71,71,78,77,68,79,73,100,-143,-143,-164,109,133,227,248,122,98,116,110,102,-305,69,252,117,132,125,148,119,89,189,210,122,107,147,126,117,128,214,207,110,148,112,170,109,129,164,197,125,106,104,118,146,112,141,144,102,117,122,127,133,112,135,163,104,105,124,126,126,120,153,148,37,47,75,98,50,-28,-92,16,44,23,96,91,39,-98,-118,15,2,12,20,35,35,27,-101,-101,6,9,3,19,21,31,10,-24,-3,6,16,19,16,25,18,1,7,15,22,22,25,30,29,14,31,23,24,22,30,28,25,21,5,23,19,19,22,25,22,18,2,0,4,8,-6,-6,-6,-3,21,8,13,-7,31,1,12,33,23,6,3,26,-11,44,17,30,30,0,15,20,23,23,30,30,44,42,38,10,43,42,26,30,36,19,26,18,13,34,8,12,11,24,-5,-15,39,1,6,-42,8,8,-5,4,-5,7,-6,9,-2,29,34,4,73,4,32,8,-2,85,-6,40,0,69,14,81,39,0,27,81,14,47,46,44,48,62,36,25,41,53,49,116,35,-18,74,8,74,25,43,44,-6,47,68,53,69,84,76,47,-15,70,33,76,44,135,33,84,37,-14,24,29,61,25,42,9,55,84,53,64,7,49,30,63,73,49,49,26,59,24,50,27,43,86,-18,101,-5,72,12,59,105,3,92,27,82,17,76,58,37,70,30,73,9,101,20,113,63,45,105,-2,82,62,87,51,51,46,89,64,47,83,22,47,40,47,53,71,79,14,84,13,24,36,47,50,83,54,78,48,9,75,23,77,59,93,55,81,63,58,53,45,55,35,60,13,41,78,16,92,29,69,51,76,65,66,22,53,43,43,51,39,59,73,26,86,46,69,44,71,53,56,35,74,31,35,34,63,64,50,48,76,47,74,48,102,62,66,76,78,90,44,73,41,44,88,11,92,68,84,48,29,82,80,490,57,62,9,27,52,49,86,29,104,2,61,46,71,39,-2,-5,27,-15,-15,29,26,-29,15,-47,-39,10,23,-69,27,31,-44,-28,3,58,-55,-38,-64,55,4,2,101,-1,62,3,42,19,9,7,-23,12,-16,-5,-18,-11,-2,-28,-8,-29,0,-24,-2,23,0,-20,-28,-9,15,25,-15,5,3,2,2,8,14,28,24,44,48,32,13,51,47,52,24,55,59,53,71,65,74,73,50,63,33,51,49,71,56,54,26,35,38,60,15,-23,64,20,41,-6,7,-2,2,3,7,2,6,-24,0,-119,-65,-146,-69,-113,-55,-49,53,-202,69,-202,25,-138,9,-29,31,-108,78,-93,26,-36,1,-18,-8,-36,3,-39,-27,-45,-14,-19,-6,-31,4,-21,-28,-17,-17,-31,-7,-32,5,-10,-28,-30,-17,3,-1,4,5,-6,4,-5,5,-28,-90,22,41,-77,-124,-89,11,-28,-93,-104,11,-18,-51,-103,-13,-28,-104,-102,-77,-94,-108,-28,-67,-56,-36,-48,-60,32,-59,15,14,-91,6,-67,9,-24,-2,4,-23,-43,-27,-51,-3,-42,-5,-22,-31,-45,-37,-38,-36,-17,-23,-67,-31,-21,-43,-20,-28,-15,-23,-33,3,-74,31,-92,26,-102,-20,-165,-34,-14,-79,-87,-93,-13,-154,-29,-149,-93,-61,-151,35,-133,-22,-139,-44,-3,-504,-14,-85,23,-85,35,-116,-208,-25,-114,-14,-25,-8,-60,4,-23,-55,-41,-26,-27,-36,-4,-53,-71,-36,-58,-12,-55,-24,-40,-52,-63,-47,-34,-60,-13,-41,-40,-38,-39,-67,-49,-37,-46,-60,-52,-74,-56,-35,-78,-37,-74,-32,-74,-56,-61,-65,-92,-38,-102,-60,-67,-52,-59,-75,-82,-46,-78,-40,-48,-30,-59,-81,-64,-17,-49,-4,-31,-44,-46,-29,-24,-15,-38,1,-2,6,-59,-41,-48,-1,-46,-10,-34,-38,-33,-49,-50,-21,-43,-46,-46,-26,-135,31,-107,55,-87,3,-103,-34,-128,-97,-82,-108,-37,-124,-14,-103,-99,-71,-179,0,-116,-8,-140,-59,-76,-154,-25,-165,-29,-124,14,-164,-180,-59,-144,-29,-48,-19,-65,-43,-57,-80,-1,-70,-83,-53,-13,-61,-115,-52,-111,-12,-92,-42,-66,-70,-47,-73,-71,-62,-59,-44,-42,-55,-128,148,65,199,136,180,141,147,19,123,51,175,89,140,65,151,23,100,15,148,33,162,46,122,6,28,10,32,34,34,-6,-21,-35,-2,-15,23,6,6,-19,-7,-6,-14,3,13,17,3,3,-1,-28,-9,-25,11,5,-3,-14,-5,-67,-53,-22,-21,-20,-31,-12,-11,5,7,1,3,7,-2,-8,-7,2,-12,-10,-5,50,-11,33,4,-3,-18,-15,-2,22,-63,10,-9,-13,0,-30,5,-19,-9,19,-5,25,24,21,-16,35,-45,4,-51,51,8,4,-17,55,-132,-33,-33,89,-225,81,-434,82,-499,7,-32,1,-3,-7,-5,7,-5,5,3,11,-58,-34,-18,-1,-26,-42,-18,-44,-35,-12,-42,-21,-56,-44,-21,-19,-16,-59,-37,14,-84,-11,-56,24,-71,43,11,-51,-24,-15,28,-38,83,-17,-68,-3,49,-44,0,-76,-59,-18,-1,13,-55,18,21,2,27,-13,-35,12,-31,41,-27,14,-98,-39,38,41,-118,-88,46,-37,-62,-5,-72,-12,-61,-50,-231,-118,-10,-100,0,-94,8,-441,11,17,-90,12,-89,23,-325,11,-36,-59,10,-79,-15,-151,-7,-52,-22,-17,-326,-6,-167,-24,-5,-20,29,-90,-15,-437,-4,-34,-24,23,-17,-12,-414,18,-113,16,-98,-12,42,-154,-19,-202,65,-192,-23,-106,-1,-74,-55,-69,-66,-68,-76,-44,-44,-65,-65,-63,-67,-59,-70,-72,-77,-104,-63,-56,-62,-53,-88,-64,-94,-65,-105,-55,-112,-66,-101,-78,-108,-78,-62,-76,-76,-74,-81,-70,-95,-70,-113,-57,-115,-51,-69,-65,-106,-88,-99,-85,-63,-43,-98,-97,-88,-121,-136,-68,-141,-47,-120,-95,-97,-121,-132,-144,-126,-109,-157,-111,-118,-161,-125,-165,-95,-115,-85,-249,-121,-150,-135,-103,-139,-81,-231,-112,-129,-117,-170,-153,-129,-191,-139,-171,-114,-236,-181,-246,-305,-150,-92,-118,-97,-178,-182,-425,-504,-205,-161,-149,-79,-161,-233,-303,-320,-206,-108,-158,-132,-250,-190,-268,-357,-374,-165,-182,-75,-20,19,7,25,25,61,28,55,12,-5,-12,9,16,39,18,30,-13,-31,-23,-27,5,-13,32,40,-12,-48,-34,-26,-5,9,24,21,-56,-39,-27,-43,-6,7,3,27,-57,-27,-47,3,6,0,28,4,12,-140,-4,-52,-11,-18,76,38,-17,-130,-39,-101,45,-44,51,4,8,0,-3,0,8,8,-3,0,81,84,16,77,-38,151,50,132,31,45,39,45,33,-29,12,-16,45,29,40,31,-29,31,-13,-5,25,66,16,-29,6,-5,-19,0,47,21,3,25,-8,-13,16,-13,29,6,7,-13,9,-11,-8,7,2,-6,-1,-1,-6,1,1,0,48,31,31,57,-14,58,-36,123,31,90,4,72,4,106,-22,69,73,24,89,29,5,6,71,-8,92,13,43,-36,71,-51,55,-73,37,28,11,57,-24,-6,14,0,28,33,18,21,-3,23,-2,17,23,32,35,-27,0,-20,43,16,80,16,11,-27,11,-12,4,3,-4,59,22,49,46,85,51,44,67,-5,32,48,35,59,-10,69,14,44,33,75,19,-17,62,-18,43,39,46,18,56,-5,29,31,21,49,15,13,6,6,23,20,32,32,12,11,24,23,63,17,32,8,17,20,36,-3,16,77,37,34,34,31,24,27,39,55,95,80,86,68,85,70,58,81,63,52,60,22,62,29,85,70,58,70,36,44,26,41,47,85,109,60,69,48,114,42,59,77,76,92,92,69,73,27,37,104,85,60,107,54,42,53,20,56,50,100,31,67,39,0,40,85,67,73,67,39,58,58,52,69,108,111,-228,173,-385,112,88,243,112,-78,67,37,62,50,126,144,34,65,33,115,-156,160,69,115,95,21,120,-325,174,-75,134,89,52,103,41,154,38,50,65,134,59,12,217,-323,51,101,-1,73,-123,109,3,99,60,23,21,119,30,30,52,48,42,34,82,118,14,57,26,116,-14,-33,-43,-215,50,44,33,58,-8,9,-62,-14,17,43,39,61,4,-17,-13,-32,71,65,72,32,15,-31,-31,-40,58,86,47,60,3,8,-30,-12,91,61,59,28,28,-7,-5,-47,64,64,-1,42,-18,-4,-43,-42,105,-7,1,-14,21,-26,-16,-40,8,-1,-3,-1,6,6,-6,-3,1,15,-5,-21,-37,8,-44,7,5,12,-4,-60,-27,-66,0,13,5,13,-27,-40,-55,8,7,-2,8,14,-5,-116,-1,21,0,2,0,32,-16,-26,11,0,-1,1,70,-334,-89,22,-107,-35,-41,-10,3,4,-5,0,5,0,-6,5,-13,1,-2,0,-14,-13,13,6,4,-21,17,-36,0,-35,-4,8,-18,-5,-46,6,-48,-8,-18,7,20,-27,-35,-1,0,-21,-11,-11,-66,-12,-16,-16,-44,1,0,5,27,3,28,-41,-34,-10,-13,19,3,-7,-6,-2,-1,-41,19,18,86,6,-26,60,10,22,0,9,4,-17,-4,-15,7,-32,10,-96,-57,-15,-33,-5,-28,-1,-102,23,-10,-52,-9,-33,-18,-100,-3,3,-27,-18,-76,3,-101,-10,7,8,-16,-19,-5,-111,-11,-5,-2,-8,-40,-42,-53,20,4,-16,-13,-13,21,-34,-29,51,-9,2,3,-13,-34,-13,36,52,42,36,-12,-3,4,19,-11,-40,-19,6,-14,42,31,0,2,-31,-16,-8,19,-25,-1,13,-32,-52,-39,24,10,1,7,-10,-12,-90,21,-3,7,5,-4,-8,-58,-12,-42,7,16,6,13,-5,15,-40,-24,2,14,4,5,38,-10,-58,-8,0,-4,2,79,2,17,74,26,18,20,20,31,20,15,16,5,28,36,24,13,-1,13,31,-16,-6,3,6,18,-13,-16,18,-4,8,20,35,40,-2,-6,14,11,35,34,39,-5,22,12,3,6,37,31,10,-4,-9,24,54,25,18,17,24,86,48,27,60,-9,39,57,17,151,0,137,104,68,32,42,46,-66,-28,-28,26,-18,-15,-28,22,-34,-36,-4,12,-8,-24,4,-17,-61,5,-5,20,-14,21,-13,-15,-27,-4,9,19,20,-7,10,-54,-16,-2,10,8,-15,-14,-46,-73,-11,-2,-5,-9,-5,-63,-48,-60,-86,37,-48,49,-51,-35,-36,-112,234,16,-20,58,21,-6,-16,41,4,5,-2,2,5,0,-6,-2,13,29,55,79,7,79,10,41,-8,3,11,16,16,-18,21,-4,-4,3,-6,-27,-37,18,35,-2,7,13,-2,-242,-8,24,16,3,18,15,-92,-56,10,0,5,2,8,10,-2,-30,0,3,1,-2,4,-3,-8,-3,2,-5,0,6,38,29,42,44,42,31,76,49,42,14,31,82,35,39,15,20,21,37,42,-8,7,33,40,28,-9,48,12,16,13,36,15,29,19,9,29,-42,35,30,45,6,-14,27,-17,14,28,12,19,7,8,11,22,-14,13,16,0,-13,-30,-5,16,16,-16,-9,5,0,28,33,5,84,28,59,25,65,57,-11,51,20,46,24,86,1,9,60,29,49,14,103,3,68,60,14,74,-45,95,11,71,32,-6,80,3,49,-12,65,7,30,51,17,128,-24,40,5,43,9,10,143,-2,30,10,17,0,10,173,-8,5,6,23,1,-6,4,57,38,45,68,70,-19,53,43,36,28,12,38,25,0,7,25,48,11,33,36,32,22,29,9,24,27,27,52,34,51,32,23,52,33,46,51,74,45,15,16,16,16,14,109,45,9,28,11,13,20,53,81,45,29,8,7,24,13,31,99,31,23,9,9,85,96,70,68,46,504,65,164,77,26,68,60,67,70,123,42,38,63,92,95,101,121,101,59,55,43,110,32,173,89,77,59,55,78,57,177,95,106,35,70,82,73,131,80,99,55,60,49,48,158,68,66,71,58,18,16,162,34,56,58,46,22,15,35,39,-66,-10,-3,40,-37,10,-24,-36,-91,-31,-10,4,19,13,-4,-46,-30,-23,-95,2,21,31,7,-52,-12,-44,-102,-55,8,30,39,-9,-21,-65,-132,-41,0,2,12,29,3,-45,-75,-32,-3,-10,9,4,13,-13,-46,-6,-5,0,-1,36,22,7,-3,-12,-2,-2,12,-5,7,0,-4,-9,3,-4,-7,-13,30,-23,-3,8,-13,-5,-4,0,35,-9,6,9,-12,-31,-15,-28,45,-32,-23,0,-31,-6,-8,-56,8,-71,-35,1,-7,9,12,-45,37,-349,20,-44,67,9,36,-181,92,-396,20,-125,22,86,28,-8,0,0,4,5,1,0,-2,-52,-31,-29,-32,-57,-50,-56,-34,-44,-17,-18,-29,-43,-51,-37,-71,-70,16,-57,-52,-30,-58,-41,-59,-32,-52,-32,-56,-83,-40,-76,-43,-80,-55,-78,-30,-122,-24,-89,-60,-70,-58,-214,-62,-134,-153,-76,-58,-193,-80,-36,-135,-200,-221,-23,-40,-9,2,-168,-82,-112,-46,-73,-42,-59,-13,-55,-62,-51,-45,-60,-59,-71,-44,-56,-23,-57,-57,-49,-81,-59,-70,-23,-67,-40,-42,-70,-82,-104,4,-69,-46,-88,-47,-93,-101,-90,-76,-16,-62,-108,-100,-206,-58,-175,-83,-72,-19,-124,-133,-43,-52,-142,-93,-138,-87,-144,-89,-86,-44,-84,-100,-122,-141,-119,-27,-71,-29,-50,-63,-91,-94,-67,-103,-77,-107,-81,-63,-84,-95,-44,-78,-103,-45,-28,-60,-96,-116,-25,-76,-79,-97,-35,-72,-98,-100,-59,-63,-84,-75,-77,-61,-108,-91,-62,-114,-74,-74,-96,-84,-120,-118,-96,-115,-106,-97,-69,-66,-113,-70,-105,-90,-100,-103,-137,-52,-218,-93,-143,-135,-129,-121,-122,-95,-103,-109,-144,-157,-139,-138,-180,-105,-133,-106,-132,-147,-141,-135,-161,-155,-86,-184,-81,-80,-129,-137,-122,-52,-110,-95,-175,-84,-131,-137,-125,-98,-79,-166,-118,-157,-168,-97,-164,-127,-88,-82,-176,-186,-96,-137,-191,-72,-137,-95,-216,-74,-121,-116,-119,-47,-151,-226,-170,-94,-157,-151,44,0,-7,10,-29,-3,-21,-14,22,18,-4,8,8,-1,4,13,75,60,24,0,17,21,16,34,58,81,41,26,-7,8,20,30,36,61,40,16,-2,-32,7,18,3,162,-20,96,14,-21,-19,20,-3,243,-11,64,16,-11,-30,-1,70,196,74,11,-151,-19,-84,-117,0,3,0,8,8,-7,5,0,-83,-96,76,32,38,24,-95,35,-43,-53,38,11,60,30,14,17,-22,-48,-25,10,40,49,36,26,30,8,-3,9,51,38,45,27,48,38,-17,-5,43,25,34,19,50,18,-11,-12,7,30,19,4,0,5,5,8,-7,-1,-8,4,-5,-13,-47,86,49,38,128,36,-39,-39,82,50,43,3,57,56,-24,30,42,48,46,60,1,69,34,-35,37,23,61,39,69,99,-14,25,-27,51,53,85,88,72,7,48,56,40,82,53,75,60,62,62,28,67,47,84,87,65,-40,64,50,82,57,79,49,102,18,-18,19,75,22,60,74,68,39,22,27,78,53,68,-56,85,7,46,-11,21,81,38,48,-7,34,16,-2,18,24,85,95,63,-11,34,35,35,62,16,85,72,25,73,45,53,72,37,46,71,83,57,67,66,45,86,43,64,75,90,56,62,79,62,53,27,-107,44,-42,94,62,88,98,51,5,75,40,76,70,83,81,75,-67,66,29,106,51,87,79,100,-21,77,46,77,82,87,124,132,-16,85,37,98,51,112,129,103,0,91,107,86,78,118,95,103,37,87,95,122,50,104,98,108,16,81,102,121,52,74,92,94,-105,79,69,82,-11,-15,66,36,-57,-28,122,77,2,115,11,131,22,65,37,78,-15,75,105,115,8,-19,14,-30,-18,124,146,179,-184,46,-40,91,87,142,179,129,72,135,94,126,130,181,111,142,100,117,139,149,75,151,86,118,68,194,150,165,79,108,112,148,-27,-35,-4,27,22,27,39,38,-18,-28,-52,28,40,29,49,-10,-20,-12,-13,12,30,33,30,30,-80,-38,-26,-4,17,22,31,43,-54,-24,-43,-24,19,26,42,72,-19,-12,-21,-23,14,21,49,39,17,-2,-30,-20,-6,12,15,39,1,42,15,0,-3,0,15,38,-4,0,-7,-2,-2,-1,0,6,9,12,10,12,0,1,8,7,11,11,17,13,0,-348,1,19,12,15,14,14,-15,15,0,11,12,16,14,10,13,1,5,9,12,18,18,7,-4,4,-9,12,39,40,24,3,-70,-28,-93,-36,-2,4,0,2,5,8,3,-5,9,23,-2,16,71,29,60,30,15,27,17,42,19,16,15,76,16,25,15,26,14,193,19,26,19,29,30,33,7,14,18,102,38,24,33,17,17,4,51,27,25,31,59,27,42,-3,24,-23,39,56,30,63,6,18,5,49,26,-4,-1,-64,-21,-54,-32,-3,24,42,16,70,10,48,23,149,31,20,45,18,69,13,93,22,16,45,19,50,-2,211,8,69,39,21,44,11,13,1,85,16,14,41,29,33,21,44,19,101,35,27,40,18,42,12,51,9,37,34,29,57,-8,31,30,2,33,13,32,-69,39,-48,13,25,30,40,39,42,47,63,53,33,27,39,33,47,46,63,49,39,44,47,47,69,68,208,97,94,38,51,38,35,23,54,42,61,37,39,45,25,31,41,36,26,35,55,41,44,28,53,30,31,47,50,47,53,44,47,35,38,43,54,38,48,48,36,46,32,84,115,106,120,112,107,85,109,73,90,100,92,127,103,115,74,90,96,83,125,74,302,99,145,96,79,82,20,94,98,85,87,71,83,89,0,25,57,66,60,75,86,95,80,82,69,77,75,95,103,87,77,72,86,91,93,91,-41,-46,-294,-37,-332,67,16,-24,18,15,24,13,24,26,25,21,14,11,15,10,9,16,26,20,18,9,0,-15,-259,1,7,25,16,13,-5,-11,-25,-17,-33,26,26,24,-3,-19,-36,-25,-21,22,40,32,29,-6,-36,-27,-5,39,31,58,42,35,-46,14,-5,73,64,30,52,9,-34,-90,-36,-8,8,-6,7,7,0,8,-1,-31,22,-155,9,-112,15,-19,9,5,15,-21,22,-40,39,-21,6,1,0,-6,12,-438,-19,-490,0,-1,-8,-6,-18,-13,-6,-22,-6,-3,-7,-3,-12,-9,-16,-8,-11,0,-7,-3,-10,-11,-13,-4,-7,3,2,0,-2,4,0,8,-2,-23,47,-12,27,81,36,64,25,-38,-23,-21,-428,-30,-43,-16,-451,1,-29,-99,-38,-53,2,-20,8,-28,-18,-18,-40,-68,-36,-51,-155,-26,-38,-47,-17,-53,-14,-224,-6,-21,-24,-18,-44,-21,-39,-32,-35,-27,-5,-17,-30,-18,-37,-4,-26,-20,-22,-24,-26,-15,-18,-20,-15,-29,-57,-40,-201,-35,-8,-24,-127,-44,-24,-71,-6,-231,-11,-171,-27,-21,-49,-30,-66,-13,-54,-31,-100,-36,-27,-28,-16,-318,-9,-178,-29,-37,-36,-13,-132,-15,-61,-6,-155,-36,-17,-58,-14,-39,-16,-58,-32,-10,-45,-17,-49,-22,-38,-24,-43,-42,-15,-45,-26,-30,-20,-61,-32,-37,-25,-48,-30,-30,-33,-41,-46,-52,-43,-37,-37,-43,-34,-29,-36,-38,-38,-49,-39,-62,2,-88,-55,-42,-52,-49,-65,-68,-112,-72,-69,-42,-42,-46,-37,-56,-61,-52,-36,-39,-35,-35,-29,-42,-56,-55,-48,-52,-37,-44,-48,-55,-58,-59,-45,-35,-44,-38,-44,-47,-54,-59,-50,-124,-117,-96,-18,-80,-71,-64,-81,-108,-101,-91,-65,-112,-64,-101,-79,-112,-100,-105,-132,-118,-112,-126,-107,-102,-113,-87,-101,-173,-125,-183,-92,-124,-101,-97,-103,-92,-106,-100,-130,-118,-111,-94,-102,-100,-102,-103,-119,-118,-115,-112,-119,-118,-100,-117,-104,-117,-116,-114,-113,-102,-106,-109,-108,7,2,-18,32,60,6,57,33,-49,-32,-31,32,40,82,73,59,-32,-14,-13,25,35,66,27,40,-14,-16,-6,2,24,58,8,36,-13,-9,-10,-2,7,1,8,8,-20,-24,6,-7,17,23,22,-4,-31,-3,-18,9,6,35,10,7,-13,-32,-3,-4,16,11,6,-2,-5,8,2,3,-5,-6,6,-7,-11,-20,37,-35,57,-15,-2,0,-10,-10,-13,4,-13,-6,-25,-7,-7,-13,-11,17,-25,-2,-16,-4,-7,-16,-8,25,-1,0,-17,6,7,-9,26,5,0,40,-1,30,27,30,26,6,86,26,78,45,2,-8,0,5,3,-4,5,-2,-86,-59,-54,-47,1,-44,-38,-59,-51,-26,-53,-57,-56,-14,-75,-26,-42,-35,-48,-99,-22,-54,-38,-53,-58,-47,-53,-42,-48,-44,-40,-49,-60,-86,-53,-41,-21,-58,-55,-59,-88,-64,-56,-100,-62,-76,-95,-49,-53,-62,-125,-120,-118,-100,-67,-43,0,-58,-91,-121,-113,-81,-18,4,-61,-32,-85,-56,-72,-3,-78,-45,-83,-83,-27,-92,-20,-86,-46,-65,-53,-60,-54,-132,-43,-47,-54,-54,-48,-41,-19,-45,0,-60,-23,-53,-71,10,-66,-37,-48,-21,-60,-52,-49,-77,-25,-71,-68,-61,-57,-36,-64,-40,-82,-100,-63,-68,-95,-70,-18,-47,-50,-93,-68,-119,-91,-26,-74,-84,-77,-71,-69,-72,-93,-80,-90,-94,-73,-50,-90,-74,-101,-78,-85,-97,-64,-152,-54,-82,-53,-80,-100,-95,-73,-46,-57,-76,-84,-67,-73,-69,-70,-15,-73,-58,-73,-72,-107,-93,-78,-65,-92,-86,-99,-73,-103,-92,-90,-129,-123,-123,-105,-91,-170,-175,-198,-225,-161,-242,-178,-149,-148,-145,-189,-167,-152,-140,-179,-158,-170,-185,-144,-152,-152,-166,-184,-165,-154,-151,-130,-504,-110,-140,-135,-167,-164,-172,-136,-126,-93,-166,-132,-154,-174,-112,-139,-100,-132,-112,-117,-140,-188,-166,-104,-149,-143,-136,-180,-156,-192,-161,-158,-195,-167,-142,-133,-128,-194,-214,-200,-234,-170,-214,-220,-172,-5,8,10,0,15,-9,14,-6,-15,-2,26,35,27,21,18,10,-1,5,52,39,68,38,40,4,-10,21,23,94,87,49,40,55,-1,-11,-11,9,27,31,16,9,-36,-57,-48,-64,-52,-30,-49,-14,-45,-77,-86,-134,-106,-176,-81,-32,-148,-51,-211,-178,-128,-133,-289,-5,-8,-5,-2,-5,6,2,-8,7,24,-57,-87,-82,-154,-21,-73,-39,22,-18,-94,-269,-65,-124,-9,-1,12,-13,-69,-13,-52,-5,11,-6,1,4,0,16,2,6,12,9,6,7,13,47,22,16,19,14,9,10,20,43,13,12,18,6,1,-4,5,6,-4,0,4,2,-64,-44,-227,-82,-250,-91,-128,-31,-24,-150,10,26,-325,-30,-1,2,35,-2,57,-322,76,-9,53,-18,-23,-62,33,71,42,-95,32,35,62,55,-66,59,-33,81,19,30,24,42,24,59,33,49,44,64,64,39,45,29,53,56,59,65,119,45,76,63,91,51,55,66,55,-29,-61,-255,35,-137,56,15,29,34,-52,38,-95,41,46,61,63,37,54,-414,35,-343,47,-37,14,60,-49,63,-21,38,-12,55,57,-36,52,51,59,-18,43,-19,-17,52,36,69,40,56,7,61,61,35,62,48,59,29,58,4,42,70,38,65,89,53,36,59,31,53,16,-3,4,11,-1,9,37,15,23,5,23,1,7,18,45,33,29,45,6,22,6,38,78,78,83,20,99,62,63,84,67,80,82,55,92,92,64,87,78,75,60,42,79,50,76,65,73,70,71,28,71,76,71,91,68,83,73,44,76,84,94,92,-62,-252,-179,-131,-48,-94,-55,-136,91,68,48,40,-75,-29,102,33,98,111,99,-327,60,59,71,85,119,136,68,106,125,110,52,133,120,86,113,129,130,136,125,94,84,132,72,117,144,117,124,145,145,155,154,111,146,144,165,131,162,158,147,152,178,183,154,166,-52,-33,-101,-113,-304,-67,-42,-62,-194,-103,-158,-210,-286,-97,-84,-48,-349,-117,-129,-172,-122,-276,-90,-25,-74,-121,-69,-113,-42,-30,-33,-37,-28,-27,-26,2,-11,-8,-10,-1,44,3,13,9,22,13,42,23,46,23,26,34,17,31,27,43,55,42,34,30,23,29,29,41,6,5,2,-3,5,-9,4,0,13,6,2,-224,-2,-144,-6,-7,12,5,-6,12,7,-2,7,-3,9,5,-6,-8,-19,2,-8,-4,13,18,4,8,-7,5,5,-9,14,22,0,3,2,7,4,9,26,-14,3,20,27,-82,15,0,2,0,8,-3,-4,5,6,6,8,8,4,-148,-27,-112,9,10,8,14,-115,15,-2,11,-199,-19,-9,-17,0,-10,49,10,-3,1,4,-10,-79,-19,-7,-4,-44,-2,-5,11,5,-62,-8,-56,23,0,14,31,-9,3,3,-1,14,25,67,24,8,20,4,-3,4,13,24,11,15,31,30,44,42,28,28,19,-127,18,-58,17,-116,42,13,12,30,-129,19,-104,30,16,15,-6,-18,-14,42,-2,-19,-10,22,-17,-4,-111,-26,-113,-11,-11,-28,7,-51,18,-4,14,-40,6,-9,-44,0,11,15,14,28,-16,-26,20,0,29,30,24,-6,-3,2,0,31,23,35,-1,19,-2,-1,-14,-20,-21,-69,-31,2,7,-28,-23,-24,-36,-68,-31,-21,-19,-16,-42,-69,-83,47,-88,-51,-25,-12,-2,-15,-12,-89,-23,-15,6,13,5,3,2,-34,-7,-16,-2,15,28,14,18,-7,2,-4,28,15,5,12,-7,3,-18,0,8,18,11,14,7,6,-15,3,-1,53,43,-37,48,-10,39,-18,49,36,31,36,-32,-13,-18,45,28,50,25,-26,-69,91,-11,-48,6,38,27,34,-9,-23,-70,14,22,24,43,-12,33,1,49,2,50,43,37,17,27,23,48,27,56,-1,49,45,35,49,40,34,39,85,48,46,89,48,-5,71,59,27,-12,-2,-5,-15,11,19,-10,-8,4,0,-77,-80,-46,11,-6,21,-7,-1,-67,-101,-90,-22,-12,34,26,10,-32,-53,-61,-6,8,25,36,25,23,26,15,40,46,27,37,29,41,33,10,10,80,21,43,34,29,30,18,65,91,-13,1,5,11,20,8,23,35,-5,0,-4,-7,6,-7,8,4,-6,28,156,117,176,142,17,-4,2,0,44,118,220,161,31,3,0,-16,8,16,36,56,8,-1,-2,-1,-6,-2,-1,-2,-3,-1,1,-1,-3,-3,0,0,-2,3,2,-1,0,2,-2,0,0,4,8,-1,0,0,0,-4,8,3,-5,12,27,241,44,172,-33,-24,-23,30,146,43,24,17,131,11,-21,-9,80,2,210,-4,58,-19,7,1,142,0,16,15,163,13,15,4,-29,143,-4,147,-35,-18,-8,-5,-12,0,-5,-1,-21,24,-9,7,3,-6,11,-15,-3,-26,7,-11,-12,-16,-17,-28,-12,-31,-51,-35,-23,40,2,13,41,-48,-29,0,-22,87,8,98,-13,-24,8,-38,7,2,187,0,0,6,15,15,-4,62,-11,47,-17,2,31,3,74,-12,-3,-21,72,-7,-13,45,-6,0,-15,4,-9,54,60,-11,-1,-11,1,-16,9,-12,-9,-5,-6,11,-36,6,-28,0,87,89,89,82,94,63,71,45,73,75,83,74,105,64,91,79,69,74,70,107,90,84,46,38,22,22,27,1,73,5,14,-12,16,22,4,36,32,10,16,0,30,27,24,19,37,10,6,5,0,16,14,20,23,11,3,-4,7,17,11,10,37,10,13,11,86,102,110,111,125,58,152,38,70,109,92,130,152,141,118,81,123,111,101,133,160,128,101,92,29,93,31,95,101,118,49,36,66,41,92,44,85,34,62,3,24,84,2,37,41,31,3,62,81,15,32,15,43,-4,26,16,21,34,-1,19,32,28,15,49,42,85,62,82,72,53,48,71,-78,-35,-48,40,48,15,43,-69,-56,-35,-20,33,37,15,-17,-14,-33,-32,-5,13,22,12,18,19,-2,-8,-4,-5,-3,-13,-1,3,-25,-7,-6,-8,-16,-14,-4,-18,-36,-20,0,0,-13,-13,-8,-6,-7,-1,0,-3,-8,-17,-9,-15,0,1,-5,0,2,-2,-4,-5,13,-20,7,17,7,28,27,-19,15,-2,17,0,39,26,14,-13,24,19,25,32,28,45,20,2,28,31,62,47,58,70,42,26,11,35,38,39,56,20,19,-2,0,54,8,17,-10,-55,-101,-23,-6,0,-1,6,-5,-5,8,6,48,22,13,21,7,53,49,88,42,27,54,31,35,38,31,34,38,46,17,54,55,33,65,43,91,54,80,54,87,75,89,58,66,48,98,66,59,78,64,103,79,80,52,67,94,94,54,72,49,101,85,80,41,64,77,102,-14,97,54,30,117,-4,18,33,43,51,49,63,17,71,25,51,84,20,46,54,65,47,43,0,36,40,62,68,23,33,42,84,98,45,77,38,82,52,96,54,70,82,95,90,69,91,88,108,56,75,78,61,121,71,65,21,60,72,66,77,67,73,5,70,19,16,86,22,51,16,59,30,59,117,66,86,63,60,52,77,111,94,73,81,61,86,65,66,64,77,49,64,23,17,87,103,126,77,41,36,70,55,54,25,109,93,101,91,96,89,91,80,140,121,118,105,86,88,109,111,145,108,122,105,78,92,91,107,93,27,51,-1,-27,-76,13,65,130,176,155,145,138,112,44,121,175,153,177,144,119,151,74,117,123,115,140,181,70,37,211,137,229,165,107,55,193,138,164,153,167,150,176,100,109,176,173,206,178,171,135,86,182,119,168,135,108,105,112,82,107,87,86,203,-252,-426,-170,-118,2,-135,95,-333,37,-1,-18,-17,-14,8,-1,-4,6,-12,-21,-33,-30,20,15,0,21,10,6,-16,-31,7,9,0,25,23,5,-4,13,5,13,9,33,29,22,28,15,20,14,2,40,43,45,52,52,47,25,-4,170,202,181,134,112,65,37,-18,142,211,215,176,58,-17,181,-36,4,-3,3,-3,-4,0,-7,-2,7,25,-165,-32,-104,-17,-106,38,30,-66,-25,-45,-38,19,-29,-17,37,0,17,38,3,4,11,-10,18,-30,21,0,18,9,6,-9,11,-28,14,4,-3,-4,-17,-13,10,-22,-2,11,1,-7,-7,-5,3,2,-3,5,0,2,-5,-6,20,-206,-175,-125,-55,-17,-88,-107,-43,-134,-11,-79,-136,-220,-23,1,-81,-55,-500,-98,-72,-48,-134,-47,-86,-100,-55,18,-160,-67,-35,27,-17,-75,-143,-92,-24,-26,-41,-103,-66,-88,-35,-62,-33,-82,-24,-67,-51,-85,-69,-81,-46,-53,-68,-69,-23,-72,-84,-71,-81,-67,-75,-44,-31,-226,-25,-170,-70,-18,-26,-63,-103,-19,-173,-48,-121,-45,-63,-25,-15,-139,-78,-104,-50,-96,-59,-13,-75,-35,-103,-20,-121,-44,-40,-88,-13,-82,-18,-64,-30,-102,-24,-14,-29,-14,-62,-37,-54,-32,-32,-33,-38,-33,-51,-65,-54,-48,-39,-40,-24,-71,-73,-58,-79,-39,-70,-47,-109,-113,-148,-127,-133,-123,-136,-96,-85,-135,-115,-125,-110,-97,-118,-87,-106,-119,-132,-110,-127,-115,-74,-87,-80,-111,-111,-134,-98,-94,-108,-82,-85,-116,-90,-89,-77,-29,-99,-62,-60,-75,-70,-46,-38,-39,-51,-99,-95,-78,-56,-42,-41,-46,-78,-17,-77,-99,-74,-55,-42,-72,-63,-78,-144,-234,-148,-148,-165,-129,-175,-188,-144,-115,-387,-177,-255,-223,-277,-162,-163,-186,-181,-243,-178,-286,-142,-158,-182,-110,-226,-130,-267,-178,-235,-194,-176,-168,-209,-195,-192,-163,-199,-116,-115,-148,-163,-132,-138,-133,-134,-162,-153,-157,-184,-145,-152,-173,-187,-154,-156,-178,-190,-173,-172,-205,-213,-216,-232,0,-49,251,-120,-93,-129,147,13,-123,-110,-60,-32,-120,-120,-90,0,-179,-118,-139,-117,-132,-135,-103,-177,-149,-138,-120,-99,-109,-52,-40,-80,-118,-58,-44,-41,-30,-30,-5,-27,-29,-33,-4,14,4,9,-15,18,13,-7,33,34,36,29,40,24,-6,-3,7,31,15,29,17,6,0,0,-1,5,-7,5,0,-15,-15,-17,-11,-11,-13,-12,-11,-16,-18,-14,-15,-15,-9,-12,-12,-20,-16,-16,-13,-12,-9,-15,-11,-24,-17,-14,-8,-13,-11,-13,-14,-23,-19,-16,-1,-15,-8,-7,-13,-33,-24,152,-11,-7,-13,-12,-28,7,-6,1,8,-7,-5,-7,9,-52,-49,-56,-60,-52,-53,-46,-47,-48,-65,-61,-58,-58,-55,-52,-44,-51,-59,-62,-70,-64,-58,-61,-59,-84,-64,-72,-57,-64,-74,-70,-69,-51,-42,-75,-75,-89,-69,-54,-66,-51,-73,504,-49,257,-79,-78,-56,-26,504,-59,-71,-73,91,-47,-38,-38,-45,-66,-49,-53,-68,-42,-17,-48,-65,-57,-61,-54,-55,-57,-40,-60,-56,-65,-53,-59,-58,-57,-60,-59,-66,-63,-66,-65,-60,-56,-66,-66,-63,-72,-67,-61,-57,-65,-45,-42,-73,-66,-63,-64,-81,-49,-67,-56,101,-74,-54,-74,-49,-64,-53,-61,-67,126,-67,-43,-60,-60,-50,-65,-66,-63,-43,-68,-61,-44,-54,-82,-84,-84,-84,-85,-85,-77,-77,-80,-86,-85,-83,-88,-80,-84,-71,-86,-84,-87,-84,-91,-86,-86,-81,-82,-86,-86,-83,-89,-87,-80,-79,-86,-87,-92,-79,-95,-87,-88,-73,-87,-88,-88,-86,-97,-87,-83,-73,-82,-85,-80,-76,-81,-81,-75,-68,-75,-78,-74,-85,-77,-76,-53,-45,-171,-181,-184,-183,-176,-177,-172,-174,-193,-183,-178,-183,-178,-175,-181,-177,-183,-180,-170,-171,-184,-184,-174,-175,-182,-182,-169,-170,-158,-178,-168,-171,-178,-177,-183,-167,-169,-170,-158,-166,-194,-191,-218,-178,-199,-179,-167,-170,-198,-204,-167,-171,-173,-184,-174,-153,-190,-171,-169,-156,-166,-164,-167,-163,31,15,15,21,22,17,17,17,22,15,15,11,15,5,9,4,18,13,13,15,10,10,6,16,12,10,7,6,4,6,7,18,8,2,-4,-7,-9,-7,0,1,-1,1,-13,-23,-17,-13,-9,-7,6,1,-3,-12,-18,-11,-14,-12,69,19,6,7,-12,-3,0,46,-4,7,-2,-7,-3,-9,0,-7,25,53,44,30,54,57,54,42,17,20,24,27,21,33,17,23,18,24,21,15,18,16,18,14,17,19,21,20,18,19,13,15,16,20,22,17,13,19,13,16,15,16,22,22,20,13,14,11,0,0,-8,-6,-5,-3,1,8,37,44,55,56,54,32,39,33,47,64,46,46,42,65,44,49,45,47,77,55,70,51,58,55,40,50,54,46,54,58,51,46,46,49,46,52,46,49,45,44,42,43,49,47,49,42,45,42,42,39,43,50,50,47,42,39,39,39,42,44,52,51,42,40,44,39,51,52,60,64,51,48,50,53,59,53,52,57,53,46,49,63,55,56,59,55,64,58,54,51,59,51,52,54,43,51,55,52,59,54,50,54,48,46,52,53,57,48,51,49,54,49,47,43,47,55,50,51,47,45,37,46,44,54,40,44,44,40,93,95,94,104,100,97,92,87,89,91,87,92,95,94,92,84,84,86,80,91,94,93,84,81,82,88,83,85,85,88,85,76,74,80,79,83,76,75,80,77,69,72,81,76,80,73,78,65,71,77,74,87,81,80,78,73,71,78,76,84,79,81,78,76,195,205,192,6,215,0,196,195,216,201,199,189,192,212,192,183,178,202,184,207,197,191,190,166,200,179,194,175,192,190,169,159,151,191,204,188,181,192,163,162,181,204,186,151,187,186,205,161,161,153,-116,204,169,180,174,158,128,148,126,-504,154,161,163,166,3,-127,9,8,15,-3,0,-6,3,0,16,1,10,-8,-5,-2,-7,-5,-6,1,0,-10,-7,4,1,-9,-4,-7,-5,-1,-1,-3,1,-2,-2,0,-2,1,2,9,7,8,12,8,6,11,11,12,11,10,18,19,16,14,11,14,27,5,13,17,7,10,12,8,1,7,5,-3,-1,3,6,6,14,10,-6,12,-101,0,24,6,13,11,-4,-79,3,12,-3,3,55,38,-27,3,8,-11,-9,-2,94,92,57,4,-4,-5,0,-8,133,120,84,13,-39,-40,-18,-1,183,105,116,51,-146,-89,-33,43,-1,8,-1,2,-4,0,-2,0,-40,-3,-10,6,-32,14,-4,20,-1,11,0,11,-73,7,-10,5,-3,-10,-3,-15,13,19,-5,6,-4,58,-13,43,21,11,41,-12,21,-4,43,29,80,-61,-6,27,80,28,44,-17,-28,-56,-20,-63,80,41,32,16,-71,-86,-137,-7,92,83,68,31,-43,-27,-73,-26,-8,-21,3,16,-5,142,44,-25,-4,4,1,15,66,14,-20,30,3,-22,-4,23,39,0,6,-15,46,6,3,42,-14,9,-20,33,-2,159,20,4,19,-32,25,-2,67,36,85,-1,-27,-37,-51,-4,32,63,49,46,-20,-22,-20,-44,-1,62,20,60,42,-66,-26,2,38,29,52,30,10,16,-6,14,49,49,58,37,-13,44,21,-8,52,48,46,11,28,34,1,28,55,59,34,50,8,38,6,16,43,39,51,37,2,34,9,-3,65,79,39,60,45,46,51,40,48,68,37,24,21,35,34,37,69,93,28,39,29,58,44,-7,44,64,70,71,74,69,-5,22,43,37,70,70,-1,81,64,52,52,87,77,14,72,68,32,43,100,53,52,103,28,50,35,45,63,82,39,128,45,50,-2,83,49,64,90,70,66,44,84,49,90,76,104,57,52,62,-10,23,122,65,30,61,84,97,93,40,2,9,-1,18,8,2,13,21,-2,9,9,5,-34,12,18,26,22,20,1,-22,16,13,2,3,48,44,16,3,-1,-3,5,12,56,59,21,9,-10,-12,-3,11,82,30,23,5,-10,-13,-24,48,75,92,35,15,-13,-23,11,-4,60,75,0,12,-2,-85,5,2,6,-5,-1,1,7,8,-6,2,33,15,-86,27,-105,38,-25,24,-36,33,-58,2,-68,15,-48,17,-20,12,-66,-18,4,-16,-10,-8,-33,11,-24,1,15,-9,5,-3,-100,-15,-58,-13,14,-17,8,4,-46,-69,-19,-71,31,-10,10,1,1,0,-7,8,1,3,-8,0,-25,-37,40,5,0,0,55,-44,-7,-14,-30,18,-3,-9,-6,-75,-24,-5,-30,-2,-13,-7,-52,23,15,-29,8,-34,-25,41,-24,-17,-39,17,1,-34,6,-39,-23,-18,36,-18,-17,-39,-19,-17,-29,-12,-6,-16,-42,-42,-36,-24,-7,-16,-42,-35,1,-25,-15,-28,-4,2,-32,-13,-11,0,-57,-52,-39,-51,-16,-16,-31,-54,-26,-21,-22,-25,-25,-31,-46,-9,-49,-8,-59,17,-17,-10,-21,-50,-25,-53,-32,-8,-48,-24,-66,-40,-23,-22,-21,-18,21,-94,-14,-47,-25,0,-14,-24,-20,-49,-48,-38,-15,-26,-17,-7,-63,-50,-30,-29,-27,-8,-7,-1,-88,-70,-89,-50,-59,-46,-25,-54,-114,-81,-68,-33,-49,-25,-48,-39,-123,-55,-73,-33,1,-27,-28,-44,-82,-95,-102,-65,-70,-51,-59,-52,-88,-26,-98,-96,-40,-69,-46,-51,-20,-59,-40,-87,-50,-35,-44,-40,-106,-73,-94,-47,-58,-71,-52,-35,-95,-69,-99,-93,-37,-60,-42,-47,-169,-114,-94,-147,-283,63,-21,-100,-168,-139,-138,-75,-94,-59,-75,-76,-178,-119,-114,-32,-73,-46,-51,-51,-118,-124,-34,-157,-88,-102,-105,-43,-105,-23,-82,-112,-112,-96,-84,-95,9,-74,7,-101,-122,-17,-114,-94,-106,-108,-96,-44,-78,-97,-57,-73,-108,-85,-100,-81,-66,-66,-27,-45,-78,4,-48,-21,41,-12,20,-1,-34,30,-400,57,1,27,3,19,-15,-1,-15,9,0,19,2,-6,-12,-48,-44,-6,-4,-4,11,16,-78,-118,-85,-37,1,-2,1,-5,-235,-205,-64,-51,6,24,10,4,-149,-121,-72,-6,21,30,21,-1,104,-81,-3,11,66,50,37,13,2,0,0,9,-3,-9,-2,4,0,-8,0,-2,-6,-23,-11,-12,-4,-5,-3,0,-8,-32,-14,-11,-2,-10,-8,-1,-6,-28,-28,-12,-6,2,-2,-13,-2,-14,-29,-8,0,-2,0,5,26,18,24,12,51,-7,8,17,39,-10,-45,84,-4,-5,8,-4,8,7,3,-3,-38,-16,-26,-53,-40,-35,-15,-21,-33,-52,-26,-30,-28,-29,-38,-18,-22,-24,-27,-11,-24,-13,-10,-2,-29,-35,-29,-9,-11,-14,16,1,-46,-35,-13,-13,51,14,35,26,-10,-13,24,33,27,2,1,54,-16,8,-38,35,36,46,-12,52,0,-29,-10,48,44,73,46,41,-31,-21,-12,-34,-40,-28,-37,-21,1,-18,-11,-22,-27,-34,-24,-20,9,0,-11,-7,-15,-36,-21,6,-26,11,8,1,-9,-11,9,10,-15,-15,12,21,12,4,13,42,-14,-6,-13,17,38,38,1,32,-48,-19,-14,4,11,-7,2,14,-23,-22,14,42,46,40,27,-6,-45,-53,-47,-47,-25,7,6,-7,-47,-62,-58,-48,-44,-5,5,-21,-69,-67,-48,-32,-31,1,19,-8,-71,-74,-48,-44,-21,21,37,-4,-43,-47,-25,-7,13,30,50,33,-16,-15,7,16,29,61,57,53,16,24,55,57,55,49,80,100,34,27,57,62,59,63,100,101,-15,-14,-46,-8,-113,34,21,49,-3,-27,7,-6,0,41,51,46,3,-2,-3,24,15,63,55,81,-26,12,34,69,75,69,133,123,-6,2,50,156,136,134,151,198,-41,38,68,105,152,198,167,163,-21,26,93,147,189,226,227,210,66,58,149,207,189,169,229,190,-36,-19,-22,-15,-18,-27,-17,-8,-32,-35,-31,-12,-18,-25,-15,-3,-28,-30,-31,-21,-20,-30,-21,1,-30,-33,-36,-20,-18,-16,-14,15,-31,-51,-50,-15,-1,-3,-6,-10,-31,-42,-44,-26,-23,0,-22,-40,-21,-42,-68,-110,-100,-320,-74,-86,-58,-11,-57,-201,-69,-199,-43,-144,0,-1,2,-6,0,-1,-5,6,2,20,6,3,-4,-5,14,32,12,15,20,24,11,17,18,13,13,12,22,24,14,-8,6,15,15,18,12,18,9,-21,7,-2,12,15,5,-6,-10,-54,-41,-5,12,9,19,28,5,-48,-29,11,8,-7,-8,3,7,-7,1,-9,0,30,34,93,41,57,64,27,35,38,51,43,40,53,61,50,51,33,57,30,-2,22,16,47,51,22,35,35,11,-27,-8,23,40,33,36,20,-7,-4,-8,26,36,33,14,-2,-24,-120,-10,-26,32,23,16,7,-16,-45,-66,-6,3,42,17,-4,-25,-35,4,-7,-33,10,4,71,43,72,45,34,6,-13,20,48,31,23,44,40,20,14,23,12,18,33,36,54,49,33,36,7,2,20,16,6,34,49,28,16,5,6,7,16,41,29,30,9,-22,-55,-51,12,30,29,26,37,-15,-43,-25,35,56,27,35,14,-26,13,-6,9,83,75,78,79,52,68,61,41,65,63,60,61,43,26,33,29,71,66,64,61,55,28,34,49,52,64,60,66,37,4,37,14,44,45,50,43,29,-7,-12,26,18,37,31,28,9,-28,-21,-26,40,43,43,44,10,-30,-51,29,57,49,49,48,13,-40,-5,9,125,105,121,122,110,87,116,142,121,103,118,108,84,92,95,96,117,110,117,116,95,92,96,84,125,113,100,101,76,81,69,99,123,112,96,79,80,56,67,74,115,112,121,90,48,60,46,66,131,114,106,122,83,63,69,103,140,118,114,122,83,79,66,92,-190,-391,-364,-196,-163,-169,-134,-85,-431,-297,-333,-285,-360,-304,-281,-162,-324,-355,-258,-416,-220,-57,-82,-118,-359,-300,-184,-87,-41,-31,-18,-22,-295,-287,-143,-29,17,32,19,30,-372,-235,-105,-16,26,28,34,17,-316,-176,-99,6,34,47,21,30,-271,-185,-95,8,15,43,24,-8,4,5,4,2,4,7,-2,9,8,20,19,-20,30,-20,21,7,6,9,30,-50,5,-36,-12,-4,29,-12,41,-37,-2,2,-11,21,-45,-11,19,22,-29,55,-39,-3,-89,65,52,-16,27,51,-50,-5,-232,99,94,-163,85,-178,-195,14,0,-3,6,3,8,2,1,-1,5,-34,-27,-60,-39,-79,-25,-68,-66,-64,-31,-74,-33,-80,-4,-18,-55,-40,-81,-47,-30,-25,-92,-34,-469,6,-388,0,-151,8,-102,-23,-16,-84,-29,-68,-26,-46,-18,-91,-16,-40,19,-140,18,-42,-28,-64,-51,36,136,-114,37,-58,-4,10,-24,73,2,-15,-81,65,-111,-16,-49,-29,-46,-22,-19,-6,-78,4,-4,-42,-82,-35,-32,-41,-43,-70,-78,-17,-73,-34,-53,-34,-67,-19,-37,-58,-8,-80,6,-82,10,-54,-24,-13,-52,16,-68,-11,-36,-32,-33,-30,21,-63,16,-24,-46,-45,-38,39,-43,22,-16,3,-88,4,-23,22,-24,-21,-3,-43,2,-24,-37,-63,-56,-92,-68,-72,-26,-104,-67,-70,-81,-68,-98,-26,-87,-13,-62,-91,-81,-64,-50,-73,-28,-113,-74,-101,-101,-59,-36,-77,-35,-97,-55,-84,-24,-49,0,-38,-35,-72,-73,6,-44,-22,-35,1,-9,-51,-62,-24,-47,-74,-11,-27,-44,-54,-111,-5,-37,-221,-17,-70,-50,-52,-71,-99,-115,-109,-84,-115,-166,-109,-102,-134,-139,-64,-128,-56,-124,-98,-114,-117,-90,-72,-100,-116,-107,-120,-157,-157,-201,-110,-132,-168,-153,-132,-70,-158,-139,-86,-118,-179,-111,-166,-156,-91,-157,-174,-112,-126,-149,-121,-127,-141,-162,-222,-249,-182,-166,-58,-133,-132,-213,-417,-157,-170,-126,-115,-96,16,3,10,24,42,-10,-15,-34,-55,-35,-2,12,40,0,10,-34,-52,-10,-11,25,4,17,8,25,-3,1,1,27,24,32,27,4,-14,-2,17,12,9,6,11,-42,-14,-20,-39,18,-29,-80,-48,-84,-10,-25,-39,-22,-44,-196,-14,-69,-35,-35,-41,-28,-84,-393,34,3,2,0,-4,5,-3,-4,8,118,123,81,123,0,-50,-113,68,34,27,7,42,0,3,9,-5,5,-4,-1,-8,10,-1,28,-13,-16,-66,8,4,14,4,-10,-13,-24,5,21,-14,9,28,3,-5,-20,9,20,-10,2,16,1,-3,6,-2,5,0,3,3,-7,-8,70,105,60,49,-21,50,-8,79,11,41,125,52,32,-146,-44,110,13,121,4,77,-1,69,-15,47,65,74,55,-10,104,-25,98,-24,32,-46,84,13,27,47,11,42,44,14,25,69,0,72,22,46,3,59,12,28,41,29,31,50,14,39,49,45,44,22,40,4,59,66,100,39,24,-26,74,79,61,91,74,44,-64,67,-66,126,62,56,61,39,72,-4,110,5,28,61,26,51,79,60,22,101,37,-44,92,22,61,66,32,42,47,78,26,69,13,76,39,57,33,58,59,34,33,27,40,59,17,66,47,24,12,31,-9,38,77,121,72,106,92,107,89,73,51,106,110,68,108,53,86,91,43,75,84,54,66,61,52,72,8,88,70,20,71,63,56,38,19,51,23,31,13,52,-8,83,18,54,5,83,1,52,7,43,29,66,40,53,53,47,51,60,30,28,39,39,67,45,48,60,98,201,201,238,188,203,143,214,177,263,195,203,100,190,-24,197,133,126,168,139,174,9,134,127,89,150,120,141,147,143,118,77,72,-150,164,-329,148,155,19,127,-253,223,20,174,-295,191,39,104,114,121,113,67,96,92,53,138,35,118,115,80,64,23,87,146,-66,46,-24,-69,-199,-259,-345,-213,4,56,67,-117,-113,-56,-132,-45,19,-7,6,-82,-40,-43,-67,-72,-67,-30,-23,-10,-15,-39,-24,-61,0,-50,2,-6,-8,-14,-12,-50,-33,-14,6,26,0,28,-5,-39,26,19,28,31,3,27,-1,-22,-3,43,48,7,19,0,4,-15,4,1,3,2,-8,8,-2,7,-25,-20,-36,-17,21,11,7,2,-26,-21,-48,19,-12,-1,39,8,-27,-16,-37,7,17,5,15,4,-25,23,-4,30,33,14,3,-8,50,75,70,101,73,19,-19,-43,121,113,87,-28,76,38,33,37,8,0,-3,-3,-1,-6,4,-7,16,23,33,-10,24,13,13,28,0,1,-1,15,14,31,55,43,21,36,-15,47,46,37,36,32,-38,38,31,71,62,36,66,67,50,108,31,100,65,102,40,37,105,61,92,127,81,63,80,88,115,27,12,57,113,-57,58,61,109,96,110,103,106,72,99,49,19,10,32,19,50,8,2,-11,7,34,-11,46,23,34,13,46,54,26,20,34,22,9,76,45,0,75,0,32,11,83,52,50,45,-27,42,42,69,35,77,82,55,45,18,106,59,0,34,-1,22,38,43,71,37,11,-4,28,2,116,111,69,71,53,36,36,63,40,98,1,35,39,29,26,92,64,79,-24,59,48,32,38,85,53,80,-12,71,65,43,-3,78,2,77,1,32,68,26,21,65,16,72,23,50,61,11,12,93,58,121,53,96,59,53,32,143,137,135,130,93,116,97,37,153,140,125,131,75,86,85,57,193,123,178,150,141,120,127,35,167,152,142,102,151,129,93,114,173,155,125,123,154,143,151,121,152,144,151,154,109,205,133,127,169,147,210,146,193,168,111,136,185,187,205,222,195,132,101,171,232,256,206,224,184,203,164,139,286,288,360,310,504,475,185,119,18,-34,-45,-3,-28,7,11,24,-9,1,-43,-14,2,1,22,18,-23,-23,-35,-2,-16,-14,9,14,-58,-79,-60,-39,-30,-52,-36,-64,-55,-81,-54,-39,-51,-38,-85,-72,-64,-61,-42,-27,-39,-35,-41,-48,-180,-98,-73,7,-20,-30,-42,-76,-102,-66,-53,24,8,-37,12,-37,-6,4,0,-4,0,0,-7,0,138,-340,53,-3,-136,43,3,90,11,-10,-60,48,-11,35,31,68,-8,-11,-25,48,-12,20,26,29,2,-1,-25,16,-17,3,15,26,1,-5,0,-8,-7,0,14,34,0,-9,-3,10,-18,19,24,47,-3,7,5,5,-4,7,-4,5,52,7,42,4,27,36,-6,10,25,28,3,-2,-113,64,34,30,38,-62,7,-66,2,-18,-3,-25,-18,-30,-22,-37,-20,-23,-1,37,-11,-66,-19,-60,5,-5,0,-15,-29,-45,-11,-24,-29,-2,-15,-5,9,-30,4,-7,-15,-17,-7,-7,-24,-6,-54,-4,-39,12,-7,5,53,49,36,15,30,76,-2,-10,9,-40,40,15,-4,8,-3,33,1,9,48,-1,-6,-23,-9,-23,-24,24,1,-37,-18,-40,2,38,35,-47,-36,-60,-25,35,14,21,-18,-61,-2,-37,-16,14,10,-1,-6,-22,2,-14,15,13,6,7,15,-46,-9,7,1,-5,19,44,-5,-168,-15,-9,-39,19,-18,15,-34,-30,-44,-34,-26,1,0,14,-26,-31,-37,-28,-39,-10,9,17,-65,-19,-42,0,-20,7,23,23,-29,-33,-49,-28,12,19,14,4,-47,-47,-49,2,-6,13,25,18,-18,-33,-16,-40,1,-3,5,9,-37,-38,-41,-22,-16,-9,12,-19,-53,-273,-147,-96,-251,-165,-218,-203,-44,-172,-35,-111,-43,-4,-50,-46,-65,-68,-41,-86,-109,-105,-89,-61,-155,-68,-80,-172,-58,-44,-13,6,-70,-189,-100,-202,-47,-16,-5,-49,-110,-206,-73,-60,-34,-24,-8,-38,-108,-116,-40,-148,-28,-43,-55,-38,-98,-123,-75,-140,-84,-33,-13,-34,-210,-220,24,-479,-25,64,-428,-423,6,-86,24,35,60,63,67,77,-9,7,11,66,70,74,96,108,31,26,9,46,54,72,99,139,0,-7,-3,9,33,65,80,103,-16,-77,-44,-14,8,36,30,57,-50,-70,-11,-63,-5,-7,-32,-98,-29,-50,-30,-44,-52,-24,-96,-82,-7,8,8,4,6,-1,-5,-2,20,6,13,4,-5,16,-1,-31,15,19,-13,16,-12,7,-32,-19,0,-10,26,4,7,24,18,-12,6,20,31,34,44,15,0,-40,-5,47,44,47,32,-44,-101,-5,36,27,69,58,-32,-253,-162,-147,-4,-2,6,5,-6,5,2,-8,42,27,79,28,57,51,30,48,13,22,17,15,42,56,-4,10,38,5,35,38,74,7,106,12,73,57,74,97,20,20,30,13,96,91,39,-29,32,119,30,102,83,27,115,78,86,25,-73,69,100,112,25,33,74,124,97,-5,10,82,68,95,8,-249,-32,-33,28,24,50,21,23,36,10,53,-28,35,47,26,26,27,58,48,62,36,8,32,44,59,31,50,59,44,40,57,19,62,86,0,53,64,33,35,16,104,-42,84,73,-1,70,42,66,-50,86,13,70,51,57,70,5,17,-14,113,40,-5,11,18,11,-55,-13,27,33,27,67,33,85,44,99,58,35,18,64,34,43,73,78,75,37,61,60,40,110,58,100,103,-8,1,72,44,-18,21,73,75,38,22,61,28,59,58,58,53,85,44,87,46,34,4,92,63,44,11,64,50,82,26,49,-13,12,16,25,-8,54,15,53,-10,89,53,121,102,154,96,146,131,48,74,111,81,114,136,155,168,90,59,74,71,181,140,168,182,35,-16,87,277,22,115,190,172,96,86,57,35,68,182,72,190,45,18,39,85,62,49,240,132,26,-48,40,-12,-154,-123,53,116,-106,-315,-218,-254,-98,-242,-86,-440,-11,-3,12,-25,4,27,-2,-38,29,9,3,0,-17,18,2,-35,20,-5,-27,-17,-7,6,-36,-63,29,6,8,16,5,-12,-68,-67,34,69,39,33,1,-90,-128,-74,63,56,88,56,0,-162,-373,-108,30,121,101,89,6,-167,-76,-167,107,179,80,59,1,-83,-82,-82,3,-3,9,5,4,0,-6,-1,0,-504,159,-389,142,-12,83,-71,42,-11,63,-14,6,-43,31,-108,44,-11,17,-35,-12,-40,-29,-51,44,-25,-21,-7,-25,-8,0,-59,29,0,0,-24,-30,2,-93,-33,26,-25,0,-26,-3,2,-22,-11,2,-4,3,3,-7,1,3,5,-8,-67,49,14,-97,50,34,36,-340,-18,-504,16,-445,-38,-93,15,-87,-104,19,-87,-59,-448,-3,-18,-14,-59,-34,-110,9,-82,-9,-133,-39,-58,7,-27,-30,-83,1,-15,-24,0,-21,-19,-45,-16,-54,-27,-37,-30,-10,-14,-52,-22,-53,-15,11,-29,-21,-25,-31,-62,-39,-76,-31,-51,18,-20,-7,9,5,-17,1,-72,-12,-181,-22,-166,35,-69,-51,-19,-33,-32,-144,-48,-44,22,-32,-14,-19,-120,-36,-121,-63,-128,-33,-47,-501,-29,-49,4,-13,-31,-69,-108,11,0,-16,-56,-77,34,-34,-33,-27,-56,-22,-49,-3,-61,-50,-71,-50,-28,-73,-27,-49,-22,-49,-78,-22,-395,-46,-89,-4,-59,-34,-17,-30,-65,-34,-50,6,-20,7,-35,-46,-62,-13,-40,-49,-16,-37,-15,-61,-39,-123,-96,-83,-98,-13,-16,-35,-75,-29,-35,-86,-6,-14,-5,-13,-8,-35,-92,-84,-102,2,-18,-28,-20,-48,-42,-72,-13,-9,-8,-19,-34,-26,-24,-65,-39,-123,-139,-62,-289,-21,-3,-7,-9,-32,0,8,-167,-24,-294,6,-70,-35,-59,-42,-40,-60,-21,-65,-101,-36,-78,-45,-106,5,-106,-91,-177,-114,-82,-54,-43,-61,-54,-69,-63,-108,-83,-2,-7,-64,-104,-116,-83,-79,-100,-99,-105,-111,-80,-41,-111,-77,-90,-84,-96,-77,-102,-133,-67,297,-173,115,-139,-13,94,99,-4,24,-96,32,20,57,59,112,-4,18,27,-1,12,46,43,90,14,43,9,26,16,18,21,80,70,57,21,-54,2,5,23,42,49,-18,-97,-13,-12,15,22,29,71,-22,-62,-34,-13,18,8,44,-7,-44,-45,-22,-48,0,-35,-15,-52,-5,9,-2,7,3,-3,-5,0,52,5,0,21,-38,0,-31,-26,43,4,-10,3,-19,-9,32,-28,49,5,2,3,-19,3,-2,-55,48,-15,-3,11,-12,12,-24,-17,55,11,-12,56,-8,3,9,-70,56,47,-8,36,35,39,1,-52,2,-5,5,-6,-5,6,8,1,-3,2,-34,-34,-45,-3,-9,20,2,-43,-49,-36,-31,-41,1,-20,-3,-40,-27,-39,-47,-32,-10,-10,-36,-21,-20,-26,-27,-28,-64,-23,-11,504,-19,-39,-30,-15,-35,-13,5,-24,-31,-36,-18,-20,-64,-7,-22,-12,-41,-57,-37,-86,15,-49,26,28,-3,17,-41,28,5,27,-7,-4,-11,-45,2,-64,0,-75,-5,-18,-47,-11,-70,-11,-82,29,-18,-39,-19,-58,-26,-73,28,-50,-34,-7,-70,-45,-72,11,-88,15,6,-44,-20,-80,-13,-60,-37,-41,-54,-41,-43,-15,-50,-27,-33,34,-27,-52,-29,-53,-19,-27,-1,-34,-40,-14,-60,-55,-8,-5,33,40,-5,-46,-40,-63,-81,-66,-52,-23,-18,-51,-74,-80,-79,-74,-35,-92,-10,-69,-46,-71,-67,-42,-55,0,-35,-56,-50,-44,-46,-69,-59,-74,-61,-68,-57,-47,-62,-81,-52,-90,-38,-48,-25,-33,-38,-33,-40,-57,-42,-21,-34,-22,-25,-31,-13,-36,-73,-55,-91,-60,-58,-62,-55,-45,-65,-114,-92,-128,-122,-138,-113,-71,-64,-88,-109,-132,-152,-111,-151,-97,-69,-120,-42,-165,-113,-169,-96,-118,-127,-152,-153,-143,-157,-102,-184,-63,-122,-158,-142,-174,-123,-194,-193,-164,-117,-150,-109,-115,-132,-166,-82,-99,-146,-126,-112,-150,-151,-115,-86,-41,-128,-160,-161,-239,-144,-115,-132,-114,20,44,52,33,9,-2,11,29,33,22,44,18,-6,-23,-42,-20,5,40,37,20,-6,-31,-71,-52,1,2,8,11,-12,-14,-51,-13,11,-20,-7,6,2,-16,-14,22,-22,-44,-26,13,0,-6,1,1,-10,-17,-46,12,-12,-8,29,-10,-50,-81,-204,-23,-20,-18,31,96,0,2,-4,-4,-6,-4,6,-6,4,-59,-103,-53,14,89,133,107,-28,3,-39,-5,5,41,94,77,3,6,-2,-4,-5,44,27,63,8,-16,-15,-1,-2,7,49,2,6,-8,-23,-3,-13,11,-6,-29,11,-17,-8,-1,-11,7,5,-47,-1,4,-7,5,7,3,2,0,-44,-66,-19,3,20,63,96,98,26,3,28,-9,31,80,25,34,8,12,-6,46,-12,13,43,71,30,27,26,19,12,19,15,7,17,20,29,25,19,8,57,-2,31,12,21,11,13,8,7,17,27,13,-4,19,8,21,2,-28,2,20,0,19,2,17,5,-44,32,8,-25,-39,-10,69,25,39,-13,31,-6,-34,-10,24,110,5,6,15,7,21,0,59,27,54,11,21,5,52,49,10,24,-28,5,13,20,42,32,30,31,24,52,21,23,19,18,35,17,2,39,35,6,21,13,10,17,-21,47,16,26,14,13,29,35,-11,66,71,41,64,54,59,84,93,92,60,59,71,72,89,95,75,102,67,57,61,92,106,90,61,53,41,46,26,51,50,32,66,56,29,34,24,39,45,48,34,55,58,44,26,68,66,26,102,44,23,42,21,54,51,65,103,23,32,43,19,46,58,77,106,56,1,-90,-69,-118,71,-140,-267,127,217,158,153,210,184,211,78,-504,169,125,167,143,192,56,110,84,56,133,190,181,84,99,30,97,119,114,137,120,121,144,83,155,104,96,-504,134,165,116,133,93,108,-504,95,106,105,94,134,127,80,103,96,101,108,113,222,1,-17,24,26,57,55,69,92,16,11,-12,-7,8,46,77,76,30,14,-1,7,6,1,20,44,31,22,-2,-6,-7,-7,16,29,45,28,1,6,-18,-5,-9,-11,55,11,21,9,10,1,4,-3,42,21,15,16,-4,9,8,-23,86,12,15,7,-8,4,-14,-53,-6,-8,-2,5,1,-1,-8,0,-34,-303,-39,41,27,8,3,6,-41,-148,-42,17,16,5,2,9,-9,-99,-26,1,5,7,10,7,-4,-32,-8,2,4,18,18,16,2,-25,3,3,-4,8,11,22,3,11,44,37,17,45,33,16,-3,0,-5,8,2,-2,5,5,-104,-319,-72,-29,-14,13,4,10,-106,-257,-38,-7,8,16,2,23,-47,-121,-32,-12,1,11,24,8,-38,-69,-7,-4,-10,9,9,34,-56,-24,-27,-18,9,17,9,15,-53,-35,13,4,2,10,24,43,6,1,-2,30,49,43,11,26,43,-25,20,8,38,18,5,3,19,-58,-27,-10,-31,-1,-19,14,-84,-78,-26,-10,15,-10,6,-5,-20,-71,-37,10,-1,13,-2,8,-27,-103,-38,-9,20,5,11,9,-56,-14,-58,0,3,8,-5,34,16,-31,-2,-20,-32,-42,24,13,19,12,4,23,-56,-12,-7,24,8,1,20,-13,0,-55,-55,-30,47,111,31,6,9,21,24,6,63,42,5,-10,-6,3,8,13,12,26,-18,-1,2,0,26,2,0,-2,-4,0,8,13,16,15,-19,-6,-14,6,11,17,37,16,-14,-4,-17,2,-3,17,20,17,-23,-25,-18,-5,0,7,12,17,-2,-8,-8,6,14,18,15,6,-1,22,-49,-36,-57,-69,-84,-64,1,-18,-49,-65,-73,-64,-79,-61,-43,-48,-74,-32,-53,-35,-34,-63,-21,-82,-39,-48,-22,-38,-37,-19,-58,-60,-61,-21,-7,-34,-13,-46,-45,-79,-38,-48,-30,-29,-16,-23,-27,-60,-42,-46,-45,-27,-32,-22,-16,-52,-53,-38,-40,-72,-56,-8,-269,-221,-306,-19,18,37,53,63,-289,-218,-70,14,28,45,44,53,-135,-149,-24,11,42,44,49,48,-81,-57,-20,20,47,57,56,69,-53,-50,-4,17,44,46,54,68,-31,-19,-1,17,35,39,48,41,37,12,19,47,51,37,46,57,-2,-28,-10,12,32,16,21,38,-2,0,0,0,0,-8,7,-2,-266,-450,-228,-7,0,67,52,63,-253,-280,-224,5,6,10,27,15,-112,-132,-96,5,-7,4,11,-3,-42,-82,-38,1,-7,-5,3,-1,-24,-33,-26,-12,-15,-21,-13,-5,-25,-18,-31,-24,-12,-17,-8,-7,2,3,-2,-6,3,8,-2,1,-43,-7,43,-11,-9,-37,-21,42,5,-34,37,-29,0,0,8,-20,-31,56,-48,40,-20,4,-7,-24,0,16,0,26,-26,-9,-18,-26,9,-5,-5,-13,-13,-15,-12,-24,1,-21,-2,-23,-10,-16,-5,-13,-33,-2,-21,-30,-26,-30,-12,-5,-41,1,-9,-29,-19,-15,-5,-9,-29,6,-24,3,-22,-37,-15,18,-17,55,-14,0,-32,-33,-7,-16,10,19,7,-16,-19,-43,-19,-48,-11,5,-5,0,-20,-36,-12,-32,-31,-25,-18,-8,-6,-7,-22,-6,-34,-22,-39,-13,-8,-11,2,11,-26,1,-52,-41,-15,5,9,-10,-21,-41,-36,-26,-14,5,20,7,-5,14,-1,9,-9,-22,-17,3,-9,10,23,28,21,12,-1,0,-6,9,17,14,-1,10,1,-11,-14,-6,-4,3,-13,-14,-14,-6,-25,-2,-21,-25,-9,-18,-23,-12,-36,-12,-18,-19,-33,-34,-19,-25,-17,-7,-23,-28,-39,-37,-31,-25,8,20,2,-16,-14,-19,-3,-5,81,66,89,93,80,116,91,111,27,250,80,84,71,82,95,26,71,105,106,28,37,54,10,22,54,111,49,88,55,15,18,17,28,94,33,17,59,52,37,60,36,105,52,21,5,20,58,33,51,91,10,12,11,19,56,31,61,84,31,0,31,17,76,61,135,163,147,112,43,-106,-22,-37,109,111,126,90,2,-15,-32,-26,100,128,95,66,-4,-38,-44,-44,85,74,64,33,-17,-36,-40,-33,42,45,30,17,-12,-25,-34,-33,29,38,21,-2,-11,-15,-9,-13,40,54,20,7,7,11,5,0,32,49,35,3,35,26,13,2,-5,-6,2,-3,3,5,2,-2,-2,-4,0,-4,25,-50,32,-37,-23,0,-40,-14,1,-77,31,-50,-30,-13,-36,-20,-12,-68,13,-46,-9,-13,-37,-12,-23,-23,3,-17,23,-37,7,1,-14,-2,17,-23,15,-327,34,-53,-63,-121,90,-250,0,0,4,-4,-8,-7,-1,0,-52,-22,21,-25,-9,-27,-20,-26,-25,26,-25,-32,-36,-44,21,-39,-12,-51,-28,-8,7,-21,-29,-37,36,12,9,-28,-4,-17,-5,-36,7,-13,-2,-11,-7,-54,-7,-43,33,-24,56,-30,-71,-2,-9,-46,73,-23,-1,0,-67,17,-85,-38,-57,-65,-22,-60,-51,-59,1,-27,-2,-75,-27,-26,-20,-17,-26,-76,-37,-39,-20,-59,-53,-18,-37,-70,-16,-42,-27,-5,15,-47,-10,-64,42,-15,14,13,-22,-25,-63,31,-3,48,-7,-21,38,-110,53,-104,0,-21,-3,-6,-81,47,-88,0,74,-75,-18,-66,2,-50,41,-139,-62,-47,-127,-25,-11,-44,3,-29,-36,-39,-47,-51,-61,-85,-28,-93,-30,-37,-53,-47,-63,-56,-51,-21,-12,-34,-30,17,-2,-4,-22,-61,-11,46,8,3,-17,-30,-20,-72,-10,10,-2,-29,-39,-57,-63,-51,-12,-39,-44,-60,-84,-66,-89,-68,-26,-85,-46,-66,-77,-49,-100,-92,32,-72,29,-33,-43,-38,-23,-91,-99,-133,-123,-123,-120,-129,-124,-159,-76,-125,-85,-137,-120,-124,-93,-105,-92,-158,-99,-15,-40,0,-88,-136,-5,-94,-35,-4,-81,-26,-141,-69,-55,17,-35,-112,-23,-144,-88,-192,-78,-100,-126,-97,-175,-57,-205,-136,-15,-201,-101,-149,-128,-152,-153,-203,-113,-149,-158,-31,-144,-111,-176,-164,-13,-20,-6,-35,-11,-3,-46,-91,24,6,30,15,29,27,-13,-43,34,65,62,74,74,59,28,-9,47,80,85,57,45,38,17,-15,20,57,30,43,43,26,38,-24,34,-3,29,28,30,38,41,-26,29,-22,33,19,17,24,21,-26,74,79,71,30,46,3,12,4,-8,5,4,-7,-5,-7,-3,2,-58,-102,-114,-68,-104,-165,-73,99,-67,-102,-95,-61,-111,-34,-57,52,-33,-42,6,0,53,19,61,47,-7,47,15,32,21,6,62,26,25,25,23,3,11,29,6,22,17,38,-6,20,15,-12,34,14,1,6,7,1,9,8,7,6,-10,-18,-20,-31,51,54,41,27,8,38,56,5,-11,-102,-29,96,-22,3,30,-11,37,9,7,44,-40,82,19,3,51,-14,106,58,-9,56,24,47,79,54,103,55,32,55,52,52,59,59,45,57,52,52,54,48,26,59,3,78,45,33,72,32,52,16,49,-19,27,18,7,29,24,55,84,104,-19,20,12,21,46,49,22,58,-21,-13,-31,-7,32,-41,64,0,-56,-24,-9,36,53,8,70,49,8,72,54,15,23,18,84,54,18,53,38,45,20,32,8,53,53,26,56,34,35,10,42,59,31,25,15,57,-14,34,37,10,-42,-66,-27,-28,-11,-7,10,-48,-6,-49,-18,-21,-4,-29,32,-42,43,10,40,14,23,26,54,25,49,-35,30,11,41,26,73,-21,49,0,34,40,37,65,48,29,23,-12,14,16,39,33,62,23,25,13,26,13,35,55,36,20,25,2,35,5,39,47,30,10,91,178,137,124,58,-70,93,95,75,83,40,80,68,104,76,131,115,91,129,91,80,32,132,81,40,88,66,132,133,111,176,42,143,94,118,95,140,154,172,146,94,60,52,131,137,115,161,127,101,97,116,102,90,107,136,99,64,93,82,82,96,96,79,19,-135,-270,-193,-66,-36,-46,-67,-168,-231,-239,-195,-75,-23,-11,52,-75,-56,-86,-56,-74,-37,-12,34,88,-40,-23,5,8,-13,2,10,-13,3,36,31,30,30,0,17,-16,23,23,20,31,27,13,12,3,24,35,17,30,2,11,5,8,21,7,14,13,24,9,21,-10,7,-4,0,4,0,7,2,7,7,-3,-11,29,-17,0,3,4,3,4,-96,36,-91,4,6,0,10,0,5,272,4,-9,6,1,9,-6,0,-28,4,0,6,1,-1,7,-3,-24,0,0,-13,-16,4,-13,-45,-32,-39,-54,-18,-39,0,-6,-5,0,0,4,-9,5,-12,12,-16,18,-2,19,-8,26,-12,4,-66,2,-65,4,-6,3,-20,-75,7,4,5,-52,-8,2,5,-21,-4,329,10,-12,2,-1,-19,-66,0,-7,1,-59,-4,-18,-1,1,-75,-35,-80,-15,-6,5,-12,9,-8,11,-26,-6,3,-12,-27,-26,0,28,2,-10,-32,4,-74,13,-20,10,-3,6,-61,0,-3,-79,9,-9,14,-76,-6,-22,-43,0,-61,6,-55,9,-22,7,-14,-24,-4,336,9,-26,8,-26,-21,-14,-62,-1,-93,16,-19,2,19,-66,5,-39,20,-79,0,-29,-7,12,-4,23,-5,3,-68,-3,-13,-8,18,38,7,34,7,-63,11,3,-11,-38,-23,-2,12,9,7,0,-4,-44,-10,-1,6,10,-1,0,-5,-61,-2,-4,-6,3,-24,-24,-48,292,-60,-29,-12,-11,0,2,-11,-100,-8,-1,-3,-4,3,10,9,-54,12,19,-3,10,5,3,-4,-36,-4,-3,21,3,-7,1,-8,-44,-10,-3,-1,-2,-27,-29,-43,-51,-34,-20,-40,-15,-32,-60,-30,-53,-38,-52,-34,-47,-35,-29,-45,-61,-50,-12,-50,-12,-59,-44,-75,399,-91,-80,-23,-58,-26,-16,-106,-64,-138,-22,-24,-41,-27,-40,-30,-113,-22,-89,-35,-40,-45,-23,-38,-50,-32,-69,-48,-34,-39,-77,-36,-80,-40,-80,-46,-40,-26,-41,-41,-38,-37,-48,-37,-53,-41,-38,-33,-25,-34,-30,-42,-34,-22,-32,-57,-95,-55,-28,-28,-40,-11,-17,-71,136,-86,-33,-14,-16,-2,-28,-50,-57,-66,-17,-3,-12,-35,-26,-42,-27,-19,-35,-31,-5,-4,-3,-26,-21,-8,-33,24,-25,-5,-5,-11,-43,-39,-7,-14,-4,6,-5,-3,6,0,9,-8,1,17,9,25,21,41,-3,-35,14,-16,4,9,-14,7,3,12,4,-7,-7,5,504,7,-9,4,-2,-11,-4,119,-37,83,-4,-5,-2,0,-4,5,-27,14,-6,-6,-1,-9,0,3,-24,12,-3,-5,-5,6,-4,8,6,6,5,6,-5,35,-2,3,-26,-4,-19,-19,-4,4,-24,118,22,123,-23,-8,2,3,81,-7,3,6,93,10,6,-6,19,-14,448,-5,-5,-5,16,8,79,2,-21,15,66,15,-14,7,-13,62,-15,74,-16,0,-9,1,-8,-5,-3,3,-5,-10,-14,-35,6,-30,1,-18,-1,-12,-4,76,11,4,-12,6,-25,38,4,-2,81,-17,16,5,64,-17,12,7,8,88,-16,86,-3,19,-14,-5,31,-5,461,8,7,4,16,49,-10,106,-14,85,-4,27,-4,6,91,-17,0,-12,74,3,17,80,1,17,-19,16,-2,61,0,0,19,-9,2,-7,17,8,76,-5,13,3,39,-8,9,-3,7,0,-1,8,37,3,-1,-7,-3,1,13,6,64,10,2,2,-4,26,44,56,504,54,33,19,22,0,0,6,44,11,8,-5,-7,-8,-5,0,41,12,-3,-3,-19,-28,-13,7,33,16,-3,-8,-7,-9,-6,6,30,13,-5,-7,-14,10,33,62,45,56,44,18,51,23,57,27,109,60,68,37,35,41,40,96,57,104,46,48,26,44,84,58,405,90,75,44,64,52,9,80,60,82,19,18,14,26,68,22,38,25,56,32,12,59,31,33,39,55,27,47,24,25,39,26,47,41,23,29,28,-227,-72,-35,-62,-45,-52,-92,-64,-61,-49,-17,-42,-35,-23,-32,-69,-45,-30,34,-15,0,-50,-57,-57,-71,-41,2,-70,13,-52,-53,-66,-52,-48,-21,3,-23,-44,-53,-37,-61,-59,-64,-51,-53,-49,-38,-47,-59,-40,-49,-70,-46,-31,-39,-35,-50,-40,-32,-53,-34,-28,-22,-28,-2,-7,-5,8,1,-2,-1,0,9,11,10,9,26,18,5,0,7,9,15,15,7,16,8,0,2,3,9,9,14,5,4,8,0,0,7,11,7,10,30,2,3,3,13,-5,8,4,90,50,29,6,27,7,53,27,156,68,5,1,-7,-5,-8,-5,-8,-4,26,22,7,32,34,17,30,8,18,17,22,18,26,41,24,48,13,17,20,30,19,26,46,16,-7,10,-6,29,39,16,71,36,10,18,21,25,19,42,3,69,0,8,46,9,-3,14,-33,46,29,21,3,19,-12,71,132,26,13,23,7,-22,8,-11,75,-124,30,31,36,19,33,19,39,18,34,30,24,32,24,30,11,31,3,21,31,27,34,22,28,15,11,-1,19,38,24,28,42,55,-8,22,2,19,49,32,68,48,8,25,15,11,19,80,29,94,12,17,35,12,43,19,158,0,-11,44,12,23,5,-32,-7,69,29,33,29,30,29,43,58,46,39,30,41,17,42,38,52,71,41,36,39,26,43,44,52,56,31,26,28,41,34,58,54,69,24,18,33,36,35,72,65,99,29,34,32,53,41,61,77,84,11,24,30,26,29,38,72,106,36,43,23,61,52,57,113,108,83,108,107,106,72,81,127,114,66,100,118,96,113,108,117,109,73,82,88,117,116,110,131,145,111,76,95,142,120,143,150,180,76,127,105,60,152,172,170,187,133,105,129,95,101,208,175,191,91,95,117,91,110,93,264,183,-91,127,102,152,116,183,264,304,17,16,22,21,19,25,18,5,10,34,28,23,29,23,14,14,15,27,33,33,34,33,33,31,33,30,33,29,37,38,44,57,22,24,32,33,30,14,21,29,31,33,27,22,0,-11,45,-21,-36,63,8,-9,-26,22,75,-116,-12,55,-13,61,48,112,77,88,2,-8,-5,6,7,-6,-5,5,-47,-25,-41,-39,-56,-40,-7,-61,-22,-32,-23,-13,-18,-16,-49,-41,-17,-14,-13,4,-13,-19,-27,-23,-7,-1,-1,0,-6,-15,-32,-27,-6,-2,4,7,7,-7,-82,-25,-6,0,-2,10,-27,-18,-116,-16,0,1,-6,6,8,7,6,2,-35,-10,-59,-65,-36,-57,-28,-58,-26,-13,-6,-53,-44,-26,-40,-16,-43,-30,-32,-32,-33,-46,-34,-71,-32,-34,-38,-24,-51,-52,-50,-27,-39,-47,-35,-43,-42,-38,-36,-39,-37,-37,-42,-47,-31,-41,-72,-19,-35,-33,-26,-42,-47,-59,-70,-49,-43,-30,-38,-19,-47,-58,-63,-72,-63,-34,-74,-60,-49,-56,-45,-63,-31,-43,-34,-57,-59,-49,-26,-73,-44,-40,-27,-39,-43,-47,-48,-47,-38,-25,-39,-34,-36,-61,-34,-46,-39,-56,-55,-32,-52,-51,-52,-43,-50,-56,-36,-53,-40,-40,-102,-47,-27,-32,-45,-40,-63,-51,-109,-56,-37,-44,-39,-54,-45,-95,-61,-57,-80,-85,-77,-67,-79,-89,-82,-96,-85,-96,-87,-73,-80,-96,-101,-101,-79,-77,-78,-71,-85,-102,-81,-100,-76,-88,-74,-59,-77,-92,-83,-110,-85,-73,-83,-71,-65,-83,-84,-88,-79,-85,-71,-68,-75,-64,-99,-93,-60,-79,-65,-65,-66,-107,-141,-246,-72,-71,-68,-64,-78,-111,-210,-57,-234,-253,-263,-224,-234,-268,-279,-226,-207,-254,-241,-229,-244,-256,-229,-240,-217,-218,-228,-234,-245,-230,-216,-222,-210,-215,-216,-210,-213,-240,-214,-219,-183,-230,-219,-192,-225,-231,-230,-221,-193,-199,-174,-204,-205,-216,-229,-227,-175,-197,-173,-190,-200,-211,-239,-253,-182,-178,-177,-191,-197,-234,-220,-225,-34,-43,-32,-47,-7,-52,-28,-106,-57,-60,-65,-40,-47,-26,-11,-28,-38,-34,-29,-42,-44,-16,-9,-19,-54,-26,-44,-35,-46,-35,-26,-21,-39,-33,-26,-32,-42,-32,-32,17,-28,-28,-27,-20,-3,7,71,103,-2,-24,-10,-11,1,37,92,154,8,3,-10,10,48,41,154,152,-1,1,0,7,-5,-6,0,2,15,-35,-9,-5,16,33,11,14,1,-17,-34,-27,22,22,15,23,4,-26,27,8,11,23,17,22,18,28,10,0,7,8,46,15,6,24,11,26,33,18,21,14,-28,10,14,-8,0,-25,-65,20,1,-8,5,-3,6,-6,-3,5,17,59,31,60,33,-16,32,-36,85,6,28,37,32,13,28,16,81,-20,129,-9,55,29,6,23,137,51,32,18,8,37,31,25,29,13,21,57,68,7,22,18,-39,108,-13,47,52,64,49,-9,91,-13,64,75,31,-81,13,51,83,25,80,45,8,63,95,20,83,36,34,30,31,41,62,19,38,24,47,32,43,44,30,-4,38,27,64,23,49,37,-3,28,109,-1,59,52,20,17,13,49,61,57,-1,1,-7,42,71,46,35,43,61,26,59,46,39,20,31,-2,16,36,44,35,-12,2,17,7,-30,82,67,0,1,60,40,76,70,48,52,3,18,0,84,47,64,70,45,15,1,15,85,65,151,42,63,31,14,2,97,57,76,54,41,39,8,23,97,10,59,-5,51,35,37,11,79,17,68,44,54,46,26,22,89,12,86,39,53,47,49,55,84,1,59,53,44,62,58,40,93,85,88,69,69,41,94,48,105,59,111,106,60,44,29,0,154,32,216,60,88,70,-20,46,159,52,136,83,48,21,11,42,85,9,31,2,-3,43,3,42,59,52,59,7,49,26,42,2,99,38,47,64,-327,99,26,87,91,49,103,112,109,73,90,83,-40,-37,-4,-32,14,9,12,-24,-17,-40,-1,-6,-5,17,-6,-8,-17,-28,0,-11,-12,1,10,-14,-25,-28,-21,-17,-12,-5,16,0,-7,22,-19,-2,9,18,28,17,26,29,13,21,16,21,27,23,56,-87,25,-30,6,20,20,24,97,41,126,22,33,9,22,25,-8,2,0,-4,5,-4,-3,6,19,-180,50,-167,50,-104,70,-338,43,-296,101,-92,15,-16,-39,-11,52,-317,62,-177,-12,3,-20,14,26,-141,7,-63,-10,-9,0,5,9,-35,-14,-19,-9,5,0,-8,6,-37,-2,-25,-3,-11,-8,-7,4,6,-1,8,7,2,0,0,38,77,11,82,10,-6,-75,-8,-54,-42,-58,-49,-49,39,-31,-45,-26,-55,-31,-15,41,-56,6,-31,43,-86,7,-44,-31,-7,6,-37,-25,-75,-11,-52,-33,-20,-29,10,-16,-67,-16,-54,-21,-10,-25,-7,-8,-23,-30,-27,-24,-27,-6,-23,0,-19,-4,-11,-19,-38,-16,-14,-109,-52,-11,-43,-135,-40,-80,-67,1,-97,12,-100,18,-71,-12,-38,-83,-51,-57,-21,-35,-15,-28,-31,-32,-226,19,-78,-27,-19,-14,-7,-206,-3,-67,-10,-63,-45,-8,-40,-31,-45,-30,-61,-33,-30,-28,-15,-53,-39,-30,-25,-21,-35,-46,-56,-21,-29,-20,-40,-50,-24,-36,-44,-12,-39,-20,-33,-1,-27,8,-103,-22,-44,-24,-30,-24,-29,-17,-57,-23,-68,-14,-57,-26,-44,-56,-68,-38,-86,-57,-46,-40,-49,-36,-41,-36,-41,-38,-18,-13,-15,-2,-31,-20,-9,-1,-56,-17,8,0,-26,-27,-54,-19,-21,-14,-23,-48,-36,-36,-52,-37,-50,-30,-48,-29,-43,-17,-99,-23,-99,-67,-47,-94,-149,4,-28,-10,-143,-45,-109,-108,-191,-27,-77,-75,-44,-49,-54,-112,-119,-70,-109,-94,-110,-65,-94,-81,-62,-121,-47,-81,29,-73,-134,-44,-89,-41,-5,25,-80,-74,-17,-72,-38,-64,-64,-28,-29,-31,-74,-78,-74,-65,-57,-54,-70,-42,-53,-103,-95,221,218,202,95,77,101,45,67,227,133,192,117,154,46,165,17,170,67,160,81,95,19,31,32,125,43,123,39,46,37,-17,-14,47,48,33,41,31,-2,3,-34,25,43,24,24,16,19,-13,-30,1,-12,1,-4,-7,-29,-29,-28,-14,-34,-32,-22,-26,-34,-29,-31,-1,-1,-8,9,-2,-2,8,-8,0,15,7,11,7,18,13,28,5,6,16,25,19,27,23,31,-9,13,8,10,33,43,56,35,-11,-14,0,24,13,100,63,33,-41,-28,-44,-36,17,72,24,-2,-504,-58,-182,-78,-43,84,5,-12,6,-3,2,4,-7,2,-6,8,-14,-11,7,-26,-9,-5,-16,-14,-19,-19,-23,-8,-17,-7,-19,-23,-14,-13,-18,-29,-21,-17,-35,-34,-6,-22,-10,-27,-28,-51,-53,-33,-7,-37,-40,-23,-83,-103,-99,-36,-8,-34,-67,-102,-130,-74,-61,-79,-47,-73,-14,-93,-107,-445,-42,-44,7,28,-37,-90,-43,-71,-58,-73,-13,-30,-24,-29,0,-20,12,13,-32,-16,-31,-12,-31,-11,-23,3,-53,-44,-17,-28,-14,-30,-31,-38,-14,-43,-51,-21,-28,-41,-48,-39,-42,-16,-47,-49,-50,-59,-46,-53,-14,-38,-16,-64,-41,-68,-58,-48,-24,-26,-44,-35,-48,-35,5,-58,4,-6,-9,-54,-16,-48,-42,-47,-16,-35,-27,-44,-46,-65,-63,-62,-31,-13,-29,-32,-49,-47,-70,-43,-20,-25,-43,-41,-53,-70,-77,-66,-24,-20,-28,-45,-46,-80,-77,-53,-35,-37,-34,-56,-75,-85,-111,-85,-49,-67,-76,-88,-98,-114,-112,-84,-87,-90,-103,-104,-111,-87,-99,-90,-109,-71,-96,-85,-81,-65,-83,-53,-145,-156,-145,-159,-161,-154,-166,-166,-183,-132,-172,-165,-151,-142,-180,-167,-183,-157,-137,-166,-158,-213,-193,-191,-112,-154,-175,-173,-195,-235,-185,-215,-165,-117,-213,-244,-294,-268,-275,-217,-149,-188,-186,-259,-263,-273,-247,-257,-152,-178,-249,-329,-315,-213,-346,-190,-228,-249,-336,-348,-310,-255,-234,-237,0,9,7,13,17,15,-2,-6,38,20,20,22,19,4,-11,-7,44,23,17,27,8,-9,-7,-19,50,34,35,14,-9,-17,-29,-26,49,59,29,12,-27,-39,-64,-62,73,54,55,-34,-53,-88,-71,-59,44,85,50,11,-156,-71,-87,-74,2,192,-82,-95,-48,-109,-49,-84,0,-5,-4,-1,8,8,1,-5,49,22,96,73,104,57,97,74,4,19,15,11,24,11,21,46,-10,-1,-2,-4,15,13,42,20,-6,-13,-5,8,11,36,44,18,0,5,0,19,36,52,65,34,-2,-4,-4,-26,17,63,48,35,5,7,8,2,0,-6,9,-5,43,8,38,13,37,6,47,9,27,29,33,41,47,66,29,37,11,13,48,37,71,63,73,46,-3,53,42,49,69,62,64,47,4,27,16,57,69,69,84,45,16,21,33,37,60,68,61,79,-1,18,35,7,50,68,67,35,-15,12,-3,57,59,75,45,115,47,51,44,-8,15,2,8,24,45,44,52,54,30,33,8,53,45,35,64,28,38,42,42,79,-4,67,32,59,48,65,47,63,45,6,54,46,75,67,77,68,10,42,15,74,71,77,105,70,30,12,50,17,57,63,55,65,-25,55,32,65,63,58,52,36,36,38,45,40,47,70,63,57,37,56,50,56,57,66,53,52,31,51,55,61,60,64,68,57,52,46,60,58,76,79,103,82,42,46,58,64,81,93,106,68,58,57,75,77,83,129,106,117,34,38,52,53,67,62,96,39,18,30,35,37,54,68,45,48,68,80,62,-392,44,35,53,11,112,126,105,130,155,66,73,83,94,76,114,98,99,104,90,101,73,105,115,123,109,121,141,116,93,87,104,109,136,143,164,126,82,92,87,109,110,183,159,121,81,80,91,80,85,92,132,125,74,92,77,77,88,79,68,87,-115,-127,-57,-61,-49,-41,-37,-70,-75,-87,-74,-49,-47,-17,-16,-45,-69,-77,-61,-44,-27,2,8,-15,-73,-82,-63,-46,-18,-1,-11,-11,-144,-96,-69,-42,-11,13,0,-9,-118,-82,-50,-39,9,34,50,29,-183,-66,-38,-39,-2,35,51,57,-210,8,-2,-8,49,33,43,44,6,2,9,-7,-5,3,-2,7,-64,37,16,15,17,33,17,1,-55,41,0,33,31,27,-7,13,-18,72,35,11,33,23,12,14,13,17,21,-5,8,21,42,29,62,33,0,1,5,32,61,41,44,4,-7,-8,14,32,68,11,1,0,2,3,-3,6,0,4,65,39,85,61,34,31,30,-40,17,22,50,51,44,27,21,-3,32,102,51,45,64,18,43,8,29,90,47,93,18,55,9,34,58,61,41,37,37,58,69,20,58,44,117,70,110,56,72,55,8,56,101,42,84,109,49,5,49,-94,-10,45,43,67,10,85,36,64,38,39,33,56,51,57,21,48,56,60,59,31,68,2,7,95,63,76,41,68,7,54,4,70,109,91,93,34,55,-12,63,35,51,103,42,92,-18,52,23,75,50,40,84,70,95,16,14,98,33,-35,23,88,89,87,74,30,14,8,22,77,86,35,105,78,102,42,48,38,54,35,116,87,63,52,38,35,53,37,105,76,73,30,27,14,41,61,41,55,44,32,-1,19,14,30,44,70,71,-12,67,22,56,30,15,88,59,34,53,48,55,36,19,93,65,43,59,46,68,61,27,73,64,29,59,31,56,68,131,106,107,95,120,48,100,23,133,124,122,89,87,53,62,68,112,178,93,110,65,40,107,82,-30,122,64,98,11,45,46,23,80,35,81,68,81,68,71,68,30,108,42,80,77,99,46,47,61,57,55,71,112,108,65,14,-383,-68,-50,14,-62,25,-47,-161,-33,-3,-7,-27,3,0,15,0,-88,16,7,0,5,8,9,-5,-58,8,4,12,-3,-11,-10,7,-49,-16,11,5,2,0,-2,23,-30,-15,14,20,34,20,51,60,4,13,38,19,63,55,55,50,36,65,40,27,43,57,100,54,90,62,80,60,29,42,94,45,0,2,-5,1,8,7,1,-1,-107,-19,10,-504,26,-69,26,-80,-223,16,-32,-79,-1,-79,-20,-107,-201,-18,-61,-22,17,-31,-13,-17,-127,16,-32,-9,-1,-7,12,-8,-98,-4,-31,10,-13,11,-9,-17,-98,-9,-22,-2,-1,-10,-18,-20,-3,-3,0,0,0,-4,8,8,-124,-49,-45,-80,-73,-10,-105,-37,-116,22,-111,-114,-142,-43,-53,-91,-80,-114,31,-123,-20,-95,-45,-99,-68,-107,-36,-71,-30,-113,-11,-80,-61,-49,-41,-43,-26,-50,-55,-77,-70,33,-87,-53,-64,-32,-36,-42,-47,-57,-49,-37,-50,-39,-57,-27,6,-59,-62,-67,-60,-65,-40,-89,-55,25,8,-32,-135,-26,-17,-54,-7,-26,-10,-126,-22,-77,55,-92,-70,17,-101,-51,-83,-28,-38,-23,-53,-100,-27,-53,-25,-79,-13,-85,-11,-6,-17,-12,-62,-5,-65,-62,-22,-8,5,-50,-24,-62,-35,-37,-48,-44,-35,-35,-47,-45,-35,-23,-59,-47,-35,-50,-24,-55,-50,-36,58,-29,-34,-70,-38,-54,-52,-65,-35,-16,-38,-49,-22,-63,-36,-59,-59,-22,-42,-61,-42,-79,-85,-76,-103,-23,-60,-46,-25,-70,-89,-76,-31,-33,-32,-14,-5,-28,-80,-41,-72,-41,-64,-59,-16,-63,-66,-43,-65,-54,-51,-70,-38,-33,-66,-41,-50,-48,-49,-42,-37,-61,-62,-25,32,-64,-78,-44,-68,-90,-125,-90,-2,-13,-44,-142,-52,-181,-112,-212,-71,-22,-87,-76,-121,-96,-186,-177,-70,-150,-56,-90,-9,-184,-165,-206,-7,-60,-34,-11,-134,-116,-168,-154,-48,-61,-20,-132,-70,-176,-139,-133,-96,-113,-82,-156,-133,-115,-129,-117,-73,-138,-113,-108,-118,-119,-206,-90,59,112,109,29,50,51,91,58,65,140,117,21,42,19,93,2,52,137,49,-2,19,-14,12,12,104,97,50,6,22,-26,-34,-19,46,36,41,34,2,-14,-49,-46,0,26,31,27,14,-19,-45,-49,10,14,27,17,7,-14,-6,-9,-69,-24,17,21,1,-2,16,23,-6,-8,-2,-8,2,-3,-6,-4,-44,-6,-1,-35,-19,-46,-31,-17,-51,-3,-11,-43,-10,-39,-17,-25,-33,0,2,-49,4,-38,-21,-39,-74,-60,32,-86,46,-115,11,-33,-97,-85,7,-234,77,-174,58,2,-88,-178,-13,-279,37,-195,32,0,7,4,-6,3,-9,-9,-5,6,-24,-18,-66,-7,-15,-4,-41,-25,0,-28,-23,-15,-19,-44,-54,-72,-35,-47,18,-47,19,-48,12,-39,-111,25,-80,-8,-6,-15,-34,-22,-63,9,-18,-16,2,13,-58,-28,26,-6,19,-82,-61,9,-60,-8,-33,-124,8,-26,-17,-181,-28,-59,-49,-63,20,-75,-32,-145,-91,-61,-66,-37,-40,-43,-20,-34,-51,-29,-6,-28,-19,-34,-36,-45,-12,-5,-9,-60,-20,-20,-15,-5,-7,-32,-67,35,-57,-48,-2,-1,-30,-24,-29,-20,-33,4,-92,0,-147,-73,-54,-52,22,-18,-37,-135,-57,-61,-38,-48,-74,-99,-61,-135,-65,-27,-3,-47,-79,-66,-71,-39,-105,-86,-46,-64,-31,-61,-62,-90,-69,-45,-48,-52,-57,-114,-72,-100,-51,-106,-64,-108,-40,-45,-22,-40,-43,-30,-115,-67,-64,-37,-51,-49,-33,-15,-73,-112,-32,-69,-73,-79,-42,-34,-100,-78,-39,-106,-72,-102,-66,-65,-74,-61,-47,-96,-62,-110,-82,-91,-61,-85,-22,-89,-28,-154,-96,-41,-101,-120,-98,-78,-104,-99,-111,-128,-107,-115,-89,-138,-100,-152,-98,-130,-101,-209,-107,-61,-30,-38,-82,-45,-227,-99,-190,-44,-54,-35,-72,-33,-159,-244,-99,-7,-203,-10,-114,-151,-191,-155,-133,-108,-146,-244,-109,-92,-193,-241,-132,-120,-149,-204,-141,-98,-127,-100,-51,-128,-185,-128,-155,-266,-50,-16,2,23,-2,11,25,1,-109,-11,7,32,32,12,2,-16,-28,-59,18,30,24,10,-3,-6,-129,16,-1,29,4,-9,-31,-16,1,0,28,7,0,-40,-37,-17,62,21,109,-20,116,-21,32,3,92,95,156,-25,165,-46,22,-11,75,111,161,158,150,-2,-44,-62,7,8,7,2,1,-6,5,6,65,13,-156,-8,-53,11,5,-12,83,15,-34,-53,-21,23,4,17,10,46,4,22,51,60,27,54,21,-29,32,11,45,38,58,41,-3,3,44,-1,25,-2,43,25,10,32,35,-6,20,-8,10,30,7,7,2,3,9,-9,4,-5,-16,-53,13,72,74,79,14,2,96,109,77,24,114,122,118,-2,-5,19,112,25,106,-2,94,58,35,71,31,14,18,92,39,99,-21,17,-18,49,43,82,93,73,43,-43,53,-25,69,13,82,58,19,-20,27,-24,59,18,82,20,-68,19,-28,13,-7,28,32,9,53,100,37,59,20,75,45,4,25,48,75,39,39,52,88,3,71,56,0,0,50,71,-7,41,-24,-7,30,28,105,56,99,42,14,-18,72,17,40,81,80,78,36,46,30,1,59,16,85,56,37,61,8,-6,41,36,32,65,20,35,58,3,25,36,69,68,76,92,121,42,82,62,76,75,57,56,83,65,99,70,74,96,75,80,82,66,90,78,96,84,0,31,100,30,101,64,74,95,31,11,21,25,71,34,88,25,30,13,20,55,64,56,81,47,-2,30,20,53,45,64,50,80,20,0,28,75,61,63,64,66,101,-200,-11,-71,-43,57,1,-280,70,112,11,75,126,81,24,-37,52,118,96,71,106,67,12,67,-8,90,103,58,110,56,25,74,74,9,99,-36,95,32,111,-11,26,121,15,3,113,90,91,121,77,90,49,52,91,109,74,49,0,63,100,98,87,92,43,44,18,24,178,-128,-4,38,44,14,22,9,72,22,24,55,74,41,45,10,50,10,34,42,69,64,13,11,17,17,35,49,62,67,-7,-23,9,4,25,40,56,56,-64,-32,2,0,10,9,40,40,6,12,10,-1,-33,0,0,13,-97,24,35,2,0,-26,-12,1,1,-4,-2,4,-6,-5,2,3,-1,14,22,5,0,15,37,-4,2,11,15,4,15,8,26,-8,0,10,15,23,9,14,-30,-4,3,27,11,14,4,-27,14,-21,-1,11,-42,33,-29,-25,-10,-21,-61,18,-21,-11,11,-29,-3,-22,-5,8,-5,-8,7,-6,1,-4,29,43,82,54,46,38,39,42,12,88,31,76,26,37,47,2,51,70,65,61,42,41,39,26,74,41,70,43,52,45,21,7,74,53,62,31,12,44,66,32,53,56,-91,77,46,8,42,26,15,64,64,5,-94,35,47,20,8,-81,-60,-96,25,-31,22,26,51,61,27,81,60,37,54,73,39,54,21,56,33,55,65,7,32,57,62,29,46,20,47,11,47,6,50,23,42,46,-4,20,16,-36,33,41,29,0,57,20,-20,46,-452,52,-12,20,21,-78,15,26,23,-88,-39,18,37,4,72,-60,-20,-53,-33,-31,43,51,48,55,58,69,70,63,39,68,38,69,36,104,44,56,44,49,69,68,81,70,86,41,34,71,76,50,56,64,54,39,9,16,43,57,47,56,21,69,17,46,19,36,-78,45,-1,29,16,29,6,13,-9,59,36,24,0,45,6,-21,-24,27,-40,-42,-13,8,89,107,105,165,124,134,72,180,66,140,-155,155,81,124,118,109,52,139,112,-328,94,-65,123,112,162,45,138,0,68,53,-7,58,15,92,32,33,66,38,97,147,77,104,-77,88,46,50,73,79,-1,86,17,27,95,124,72,91,-208,-232,-258,-65,62,82,32,-36,22,28,6,43,-7,1,-3,0,-17,27,29,40,-14,-6,-11,-44,-54,-15,-1,-15,-33,-72,-80,-84,-71,-138,-42,-162,-117,-115,-149,-226,-106,-165,-155,-168,-208,-232,-240,-192,-89,-118,-149,-147,-235,-201,-223,-293,-78,-42,-79,-70,-104,-131,-68,-72,-20,-98,-56,7,-272,-108,-148,-45,-4,2,-2,-2,-1,3,-5,-1,-14,150,-269,333,-504,504,-9,-18,-36,140,-150,141,-93,12,-6,-55,-18,-22,-35,-18,-36,-32,-7,-28,-3,-38,-12,-21,-23,0,8,11,-3,-16,-12,-18,-26,-11,-33,-13,2,-6,-6,-9,-20,-14,-14,-1,7,-1,-3,1,0,0,-8,-9,47,-190,100,-169,122,-58,38,-33,4,-255,21,33,-58,-439,-34,-6,-9,-17,-319,-87,-368,10,-45,-20,-108,118,-119,110,-67,0,-44,38,-57,4,-47,-20,75,-36,55,-50,5,-84,29,-45,-8,-39,-4,-32,-11,-38,-14,-30,-6,-10,-59,-21,-22,-12,-31,-6,-24,-28,-23,-55,19,75,9,64,-217,-18,-21,2,-32,-6,-330,-6,-336,-24,-53,7,-27,-334,-57,-1,-48,-61,-6,-9,-27,-44,-27,-14,51,-26,-31,13,-35,-49,0,-27,0,-55,-22,-96,-32,-6,-47,-7,-45,-12,-83,-45,-55,-12,-11,-56,-17,-66,-27,-36,-36,-5,-41,-13,-98,-20,-85,-27,-115,-504,-420,5,-504,-76,-451,-123,-15,-3,-84,-68,-95,-83,-43,-63,-2,3,39,-35,34,-14,2,-32,0,-24,16,-12,10,6,-34,-33,-13,0,-25,-2,-10,-33,-16,-13,-21,-23,-32,-15,-21,-32,-43,-60,-24,-40,-12,-71,-63,-26,-56,-50,-13,-45,-17,-53,-40,-39,-37,-38,-76,21,-368,-66,-504,-504,-366,-34,-34,18,-72,-12,-302,-15,-257,-90,-21,-14,-29,-10,-39,-57,-35,-116,-50,-76,-31,-65,0,-32,-177,-21,-63,-63,-34,-38,-47,-288,-97,-174,-67,-64,-60,-39,-77,-50,-168,-129,-93,-73,-55,-118,-79,-95,-107,-63,-48,-82,-69,-88,-83,-98,-133,-87,-65,-16,-176,-110,-381,-46,-389,-287,-56,4,-285,-84,-401,-1,-367,-126,-19,28,-97,7,0,32,13,-88,32,28,35,43,53,40,0,0,46,46,26,21,18,-13,-10,-61,6,4,10,11,-16,-27,-93,-55,-11,-11,2,-1,-17,-17,-32,-36,-59,-18,-12,-3,-14,-27,-27,-20,-9,7,-1,7,-8,0,-8,-4,18,29,54,18,32,80,51,3,15,36,37,38,42,66,59,7,6,9,28,19,30,33,40,9,-15,-2,-5,-6,14,-1,28,8,2,-6,9,-50,-9,-1,51,1,68,91,94,-7,-29,48,148,504,-1,-1,-3,0,-1,0,7,3,35,65,21,74,73,85,71,64,54,31,79,60,67,68,75,70,57,48,63,58,60,71,72,56,36,61,51,70,121,83,86,70,60,102,86,73,79,108,90,92,79,71,154,96,153,135,108,79,63,145,108,-6,-17,193,102,105,68,39,30,13,45,90,166,45,73,63,78,72,114,65,58,44,40,79,83,58,80,92,64,73,87,49,68,71,57,52,78,57,-3,85,68,77,68,90,34,66,70,36,93,42,102,83,103,45,105,69,51,65,36,121,50,106,79,56,121,22,68,58,152,76,49,40,58,48,2,106,78,85,54,68,46,91,77,85,80,109,67,34,48,29,88,44,105,57,41,34,-4,1,-3,2,62,114,83,-11,3,37,-9,21,69,105,56,3,31,7,-69,102,77,110,31,-6,-11,52,-22,20,101,106,110,36,42,71,52,34,94,117,142,104,157,93,113,106,202,-53,157,138,128,143,120,136,123,186,127,134,155,87,157,95,145,183,63,-296,43,-109,-58,-270,105,77,-233,-132,-311,-462,-286,-340,-88,81,190,-118,-65,-370,-95,-113,-55,-250,157,97,39,38,59,138,-57,153,217,-53,184,93,-8,-17,162,105,196,228,276,426,181,179,140,179,-64,-39,-34,-30,-40,-16,-20,-137,-52,-47,-55,-64,-50,-23,-34,-82,-114,-160,-210,-196,-199,-208,-191,-168,-159,-198,-181,-189,-163,-190,-83,-156,-154,-116,-119,-152,-148,-117,-96,-100,-134,-93,-130,-139,-55,2,-95,-25,-75,-108,-95,-92,-105,6,35,-109,-55,-53,-139,-311,-130,-4,55,-333,-6,-1,-1,-8,0,-7,6,-6,62,15,-70,64,-37,52,-126,1,-11,-69,-3,-98,-89,-26,-89,-61,3,-22,0,-21,-32,-32,-35,-33,0,3,-3,-16,-10,-9,-11,-19,-2,-8,0,-18,-3,-10,0,-16,-6,-13,-6,-29,-24,-8,-20,-18,8,3,-5,0,9,0,2,-4,36,-3,-160,17,42,129,-179,-81,-68,-67,42,64,70,-139,57,18,-36,9,-182,44,-81,27,-129,-23,-38,26,20,20,16,-12,43,6,34,-40,64,4,76,11,18,-21,-19,47,-17,16,-12,2,-20,-3,-28,19,-6,2,-10,-16,12,-7,-22,-24,13,0,-33,-19,-13,-49,-21,-220,116,72,84,164,139,4,-64,-21,-211,37,-24,-29,-175,51,-29,-146,-40,-93,8,-88,-28,-86,-11,1,29,18,37,5,27,1,-52,31,8,32,-9,-4,27,-21,-19,-64,-6,-12,-6,-23,-25,0,-16,-26,-49,-15,-18,-14,-28,-42,0,-83,-21,-47,46,-21,-5,-66,-73,-105,-170,-136,-45,0,-25,-47,-49,-43,-59,-189,-72,-26,47,-64,16,13,15,36,30,59,46,-31,1,78,23,84,60,51,34,-8,-7,14,3,30,57,26,35,-14,-45,-49,-48,-22,-32,-25,-46,-32,-56,-68,-53,-94,-38,-69,-48,-58,-52,-46,-73,-55,-54,-52,-61,-30,-134,-294,-372,-260,-38,-218,9,-112,-237,-88,-155,-100,-34,-88,-277,-73,-89,-197,-147,-150,-52,-275,-41,-176,-68,-35,-23,7,-14,-10,-21,-85,-168,-20,-85,-25,-45,-38,-34,-83,-168,-336,-219,-85,-102,-99,-98,-119,-172,-152,-163,-153,-134,-153,-124,-126,-139,-178,-140,-122,-142,-113,-104,-53,57,0,-24,28,-48,20,-219,-80,-108,-27,-126,-118,-60,-52,-125,-87,-133,-184,-76,-55,-79,28,-106,-37,-86,-162,-92,-23,0,19,24,30,-183,-83,-116,-45,-21,-67,-41,-23,-89,-132,-116,-92,-75,-87,-118,-34,-53,-79,-61,-72,-49,-61,-87,-120,10,-33,-45,-7,-35,-14,-48,-410,1,0,3,-8,8,-5,-6,1,12,8,11,13,2,-33,-171,-220,10,5,11,4,3,-11,-62,-109,4,4,2,5,3,-1,-9,-37,0,-1,-2,0,1,-3,-2,-10,-7,-5,-14,-11,-11,-20,-19,-16,-28,-12,-24,-24,-40,-51,-51,-44,-8,1,-2,6,5,-3,-1,-1,-14,-8,-34,-60,-151,-275,-359,-241,-9,-22,-26,-85,-174,-408,-163,-259,-12,-13,-18,-59,-114,-262,-301,-307,-14,-7,-18,-18,-49,-119,-283,-170,-7,-1,-7,-8,-26,-44,-77,-59,4,0,-5,-7,-7,-15,-30,-45,-6,-2,0,-5,-9,-5,-3,-1,9,-1,-4,0,0,-3,-4,6,-1,-16,0,-23,-59,-232,-378,-400,-28,-6,-17,-14,-78,-187,-421,-396,-8,-22,-15,-60,-185,-487,-254,-275,-28,-14,-55,-159,-409,-269,-96,-80,-24,-66,-152,-481,-226,-101,-18,-35,-86,-150,-443,-214,-101,-20,-29,-12,-186,-417,-205,-102,-29,-31,-15,-38,-417,-191,-105,-37,-42,-18,-29,-14,-195,-205,-203,-197,-195,-199,-180,-265,-159,-149,-150,-145,-150,-156,-159,-213,-86,-95,-87,-94,-89,-91,-198,-251,-55,-63,-63,-67,-51,-89,-151,-232,-53,-62,-54,-60,-56,-85,-154,-224,-49,-50,-53,-59,-66,-93,-151,-219,-52,-58,-55,-66,-67,-103,-152,-209,-75,-71,-74,-79,-79,-103,-133,-205,-158,-123,-149,-173,-171,-175,-166,-259,-152,-146,-141,-148,-141,-192,-278,-194,-115,-101,-114,-133,-170,-220,-226,-213,-133,-135,-154,-141,-162,-159,-186,-225,-126,-122,-136,-177,-152,-138,-160,-189,-116,-105,-150,-147,-128,-155,-171,-180,-142,-158,-147,-147,-122,-134,-168,-184,-77,-78,-96,-108,-94,-98,-100,-176,69,71,64,60,25,-78,-191,-482,56,51,51,47,5,-149,-386,-176,49,49,45,41,12,-142,-317,-160,46,42,41,41,30,-11,-55,-4,41,38,38,40,36,34,35,39,39,37,37,39,42,41,44,48,38,36,30,40,43,41,51,54,20,20,38,40,52,