{"l1_biases":[50,48,-58,30,116,38,-83,110,28,3,83,54,-10,61,111,61,6,-48,1,-2,66,-100,35,-38,33,-23,52,77,36,15,-8,43,90,49,-43,48,47,-44,70,104,158,8,-37,30,47,43,1,-77,3,2,11,194,0,-49,-6,58,-37,5,11,55,10,72,-55,36,7,92,-18,52,71,33,74,30,74,7,-10,-6,11,9,-34,-11,-57,95,-131,62,-33,-35,-29,45,-7,15,10,26,-30,91,49,-3,-38,121,35,37,3,-46,54,-69,41,108,-20,-50,-50,101,-29,22,-48,-59,19,-23,-7,-165,113,-74,-1,3,-69,-36,-30,-1,2,84],"l1_weights":[0,0,0,0,1,0,0,0,-7,-12,3,3,1,0,10,-2,-16,-7,22,6,4,19,-11,13,2,-11,-3,16,22,10,26,3,7,-7,-20,10,0,1,40,21,-4,-13,-3,-38,-18,17,-14,-8,-24,14,22,-59,-22,-13,4,-19,0,0,0,0,0,0,0,1,10,12,20,24,13,45,12,37,16,-14,32,27,11,19,20,7,28,5,31,11,37,30,51,20,-21,53,24,33,22,13,29,24,1,18,-15,25,8,17,13,14,16,2,28,-33,-34,-56,36,-7,16,-46,25,8,-15,5,-14,13,22,16,32,2,-25,-4,32,23,-8,19,24,36,4,22,9,20,55,-18,25,14,23,15,32,37,50,29,37,24,30,7,53,35,0,65,27,6,16,45,16,13,-24,-2,45,36,-28,5,44,37,27,-27,-7,0,13,-4,24,-28,8,18,8,18,-1,9,17,10,38,21,32,31,12,34,41,-14,30,33,33,36,42,59,6,42,44,42,17,46,60,31,44,9,18,26,55,42,47,33,59,73,31,23,22,19,42,55,11,17,25,4,26,47,32,9,6,47,39,23,52,49,63,45,25,38,45,34,42,46,23,38,37,42,24,13,27,52,42,23,18,10,27,47,54,51,41,53,28,65,51,21,32,48,50,51,65,52,57,38,86,50,56,56,111,86,21,60,43,21,52,111,46,50,39,33,49,69,42,46,55,49,37,39,72,70,71,52,34,13,41,58,78,67,77,76,81,9,64,93,83,93,49,109,94,32,-5,3,20,30,11,23,16,20,32,26,31,27,21,13,16,0,17,25,25,23,5,-5,21,22,-24,-3,-25,-17,-3,13,-11,5,-42,-26,-25,-18,-21,0,-1,0,-35,-42,-95,-73,-56,-13,-11,-23,4,-27,-67,-15,-94,-65,-3,-17,24,9,-12,-14,-25,-25,-19,-29,0,0,0,1,0,0,0,0,22,-123,54,46,4,39,-121,52,65,-88,21,-8,17,0,5,-18,21,-42,16,-21,-1,-85,-3,-15,4,5,-19,-22,-2,-10,-10,-17,10,15,-1,-7,-10,-3,-10,-11,14,-1,-3,-13,-8,-15,-12,-3,1,0,0,0,0,0,0,0,-15,-17,-9,-29,18,-6,-13,-32,-59,-37,9,12,-153,-42,-63,-11,24,-11,-103,-29,-9,37,-75,-58,-40,-44,20,31,-67,-92,8,4,-7,-28,-28,-60,21,14,-23,-59,-21,-15,0,-18,-18,-21,-19,14,0,-12,-29,11,-5,-9,-28,-24,-18,5,1,-7,-11,0,-4,-8,13,-48,-51,-9,-21,-44,-6,-25,-11,-44,-7,-49,-53,7,-75,-46,-54,-19,-36,-42,-3,-37,-59,-45,-42,-55,-48,31,-24,-86,-15,-58,-56,-18,-20,-35,0,14,-39,-13,-25,-24,-17,-64,-30,4,-14,-24,0,-40,-36,-19,-19,-24,-14,-22,-13,-22,-23,-9,-32,-11,-27,10,-8,-30,-4,1,-14,-10,-44,-6,-2,-27,-5,8,-4,-9,-26,-10,-17,-31,-33,-29,-24,-58,-53,-35,-40,-9,-23,-5,-28,-58,-74,-26,-22,-31,-14,-5,4,-35,-15,-8,-14,-27,-25,-24,-17,-33,-28,-2,-39,-30,-38,-53,-11,-35,-62,-35,-24,-16,-45,-48,-46,-50,-52,-28,-30,-38,-39,-28,-37,-42,-12,-12,-28,-59,-27,-47,-44,-22,-95,-35,-54,-57,-63,-48,-40,-90,-85,-71,-85,-55,-75,-27,-54,-84,-86,-67,-71,-65,-38,-61,-24,-48,-63,-56,-45,-55,-64,-66,-46,-28,-52,-51,-57,-69,-72,-69,-38,-47,-71,-59,-62,-69,-66,-60,-70,-49,-96,-53,91,0,3,-76,-50,14,24,119,41,-34,-13,-24,-25,10,23,22,38,-1,-16,-15,-17,-12,-10,9,6,6,13,12,12,0,-5,4,0,31,20,28,22,22,-4,13,10,13,24,13,31,47,14,21,21,0,-2,3,33,25,4,15,6,7,-4,-14,-10,19,11,0,1,0,0,0,0,1,0,0,3,-14,-2,2,-3,4,-1,-11,10,-2,-10,-6,3,-1,-15,-12,-10,-2,-8,1,2,5,-2,-22,-15,16,-29,19,0,-31,0,-43,-23,28,-53,16,-30,-56,28,-59,-50,-66,-132,56,-32,-54,41,-97,0,0,0,0,0,0,0,0,-23,-37,-21,-18,-24,-17,-25,-25,-47,-4,-29,0,-48,-23,-34,-19,-38,-15,-58,20,-28,8,-45,-9,15,-48,7,-55,-13,-31,-4,-28,-36,-65,4,-59,37,-71,3,-57,-7,20,-16,-62,-73,-99,32,-63,-68,-35,-123,58,-68,19,-76,-27,-41,0,-15,-18,-70,40,-22,12,-42,1,-28,-15,-26,-21,-12,-16,-13,-48,-7,-32,-26,-30,-15,-15,-39,-8,-46,-5,8,-12,-11,3,6,-71,-23,-12,-17,3,-21,-12,-43,-39,-2,-54,14,-20,-15,-46,-14,-20,-46,4,-25,-28,-30,-37,24,-37,-17,-13,-29,-45,12,-38,-73,-12,-9,-20,-8,8,-15,-45,-15,-8,-36,-8,-34,-8,-30,-42,-9,-3,-18,5,0,-27,-16,-39,-26,-16,-47,17,-16,3,-22,-46,-14,-20,-33,-13,-23,-20,-24,-31,-19,9,-43,-6,-29,-12,-21,-33,-8,-7,-29,2,-35,-19,-9,-33,-22,-13,-47,6,-40,-18,-13,-25,1,-8,-27,37,-3,-2,12,-16,-66,-62,-60,-66,-51,-50,-37,-85,-75,-73,-62,-54,-46,-67,-52,-60,-66,-84,-72,-37,-41,-51,-27,-82,-68,-73,-80,-41,-52,-40,-43,-68,-86,-74,-73,-85,-37,-56,-32,-82,-57,-78,-90,-37,-63,-31,-51,-41,-56,-70,-69,-42,-57,-90,-12,-76,-71,-31,-63,-28,-42,-36,-32,-35,34,16,3,-7,11,-1,-11,-16,16,-15,1,-1,9,-5,8,-17,15,4,-24,18,22,23,15,21,24,-4,7,4,15,21,26,11,31,28,22,21,25,27,28,41,25,38,17,30,15,30,55,17,60,70,25,42,11,21,91,17,98,53,82,30,92,35,66,7,0,0,0,0,0,0,-1,0,19,17,69,-35,83,-30,13,22,6,44,23,13,34,-28,-12,8,9,-20,26,29,35,26,17,-1,0,31,-6,20,11,19,15,10,5,20,-18,41,0,10,-2,5,3,8,11,0,3,16,0,10,0,0,0,0,0,0,0,0,34,41,48,7,64,27,37,13,26,12,42,26,34,-22,42,38,48,15,51,5,41,42,28,-6,27,37,21,42,8,42,17,26,19,30,35,33,15,28,15,21,5,32,23,31,21,12,47,7,0,23,12,47,12,30,8,22,6,25,13,17,17,44,10,43,30,29,46,10,-16,11,10,44,5,33,30,0,35,2,-1,38,39,10,33,38,16,-7,28,3,15,18,32,41,27,40,24,24,22,64,9,27,-20,55,10,39,22,16,25,31,13,16,37,20,17,22,32,12,17,10,33,42,22,0,19,16,39,26,24,23,32,11,1,46,3,28,26,30,28,0,9,27,25,36,29,3,20,31,28,15,33,11,45,19,23,11,3,38,16,24,32,12,12,17,4,36,-28,19,23,40,28,0,11,20,30,2,35,30,6,1,39,-12,37,21,46,27,19,-5,7,18,43,12,47,6,94,41,51,56,30,56,31,81,50,49,68,36,67,0,51,73,67,41,73,61,44,24,54,40,62,53,69,54,67,49,65,52,49,65,40,73,10,66,55,99,58,16,69,53,62,36,84,77,29,43,62,27,65,40,82,95,61,6,42,42,77,36,68,54,-21,-17,-8,34,-17,-47,-80,-106,-39,18,9,67,0,49,-87,-93,4,25,22,19,43,10,-21,-54,18,31,16,31,17,10,-34,-56,15,14,22,20,-2,15,-24,-37,10,11,16,5,11,-11,-11,-21,7,2,27,-18,16,2,13,-5,-24,-8,4,8,22,19,22,-1,1,0,0,0,0,0,0,0,2,-1,0,-5,0,-206,3,-2,2,-3,-2,-4,0,-219,5,-1,0,0,1,-3,0,-159,7,5,-1,0,1,0,8,-116,14,9,1,4,8,12,20,-107,26,17,-3,-8,-6,14,39,-35,35,17,0,0,0,0,0,0,0,0,-30,-19,-15,-19,-20,-15,-27,-17,-25,-7,-14,-16,-10,-67,-3,-18,-16,-10,-10,-9,-3,-48,1,-13,-9,-5,-1,4,12,-26,21,6,-15,3,6,17,25,-14,30,24,10,7,15,26,31,-17,27,33,1,13,15,30,32,19,25,40,5,38,17,35,33,52,13,37,-2,0,-17,-8,-11,-33,-2,-10,7,-1,1,-9,-5,-51,-10,0,0,13,-1,5,-3,-49,-3,4,-1,2,21,8,8,-35,12,24,-3,2,5,25,25,-25,19,25,-8,-11,4,13,31,-10,31,25,-8,-3,13,26,10,17,16,19,2,4,9,25,28,47,1,11,3,5,3,9,13,120,11,16,-3,3,8,13,18,86,4,20,1,0,0,9,12,60,9,6,-3,-5,1,11,20,49,20,13,1,5,6,14,27,43,28,8,11,11,19,23,23,44,20,0,19,18,30,28,38,44,17,26,3,6,15,12,15,69,-1,10,14,21,2,-3,3,82,34,11,17,9,5,2,4,37,9,15,21,17,15,15,11,25,13,21,10,16,30,26,28,16,30,33,17,18,29,45,44,26,43,52,14,24,30,49,61,37,68,51,27,34,43,47,60,38,61,64,35,38,37,41,59,83,59,48,-1,0,-10,-9,4,-26,-8,-13,-14,-11,-13,-9,-3,-59,-3,-15,-4,-12,-14,-8,-15,-65,-11,-2,-3,-17,-9,-11,-13,-128,-23,-9,0,-9,0,-1,-23,-108,-12,9,9,-1,10,15,-19,-117,6,33,5,-9,6,18,10,-44,43,7,-15,4,10,13,8,-5,39,-11,0,-1,-1,0,0,-1,0,0,9,0,5,8,-27,-55,-2,2,1,2,3,6,-7,-63,7,-1,4,6,6,5,-7,-90,7,-1,3,5,3,1,-7,-117,-2,-1,3,3,2,-3,-4,-86,-12,-3,3,3,4,6,-20,-30,-20,1,0,0,0,0,0,0,0,0,13,20,5,-10,10,-59,-10,-7,28,20,14,-38,18,8,8,-92,22,26,21,1,-25,3,-44,-1,19,17,10,7,-3,-2,-7,13,15,20,8,-1,-19,-12,-13,0,14,8,5,-11,-6,-11,-13,-19,14,13,9,-7,0,5,-4,-12,17,12,15,-14,3,13,2,-16,4,12,21,1,16,29,16,14,7,-3,20,13,-15,-11,-7,0,5,3,13,-13,0,20,-2,-14,18,12,-17,0,-4,5,7,0,12,7,6,-3,-11,9,-7,-3,15,12,16,-1,-19,-5,-21,-3,24,18,9,14,-10,17,-13,-4,18,5,14,5,-9,12,-18,-16,-7,-32,6,0,2,-36,-3,14,4,6,1,1,-2,-20,11,4,12,6,11,7,-1,-34,9,9,13,10,12,5,0,-23,7,9,14,14,11,6,-6,-41,3,6,12,14,5,7,-4,-23,-3,6,0,2,3,-4,-15,-2,-12,-3,12,10,9,10,1,-21,4,14,43,36,45,32,24,6,22,39,53,41,49,38,29,65,32,37,51,41,43,35,28,80,49,32,52,46,35,35,23,82,38,36,53,47,38,26,21,84,27,38,44,40,36,33,21,77,25,47,40,36,36,33,22,85,37,33,52,47,41,35,24,77,36,42,-162,-14,-11,0,-38,-8,-68,-6,-39,-37,-23,-43,-104,-54,-45,12,-138,-67,-38,-61,-24,-32,-38,-11,-187,-120,-137,-62,-33,12,-22,-17,-141,-118,-132,-37,-10,31,-1,-23,-143,-268,-70,-32,0,58,3,-19,-119,-87,-54,-24,0,62,-4,-8,-103,-95,-61,-30,-13,40,-17,-15,1,1,0,0,0,0,0,1,0,-5,-17,-2,17,-9,9,10,-3,-28,-13,2,5,-16,13,7,11,-16,-16,-9,1,-7,-5,21,-18,-10,-11,-10,0,-1,-8,47,-31,35,-60,35,-32,27,-27,38,-34,53,-30,-50,72,-55,-63,21,0,0,0,0,0,0,0,-1,-14,-18,11,-51,14,-24,1,-27,3,-12,-12,-22,5,-7,-14,-1,-37,5,-27,36,-30,-1,-24,-2,-39,7,-39,-3,-25,1,-38,-10,-16,-37,-6,-7,0,-3,24,-19,-58,-14,6,-70,7,-105,31,-9,-20,34,-88,-18,-6,11,-78,-33,-11,14,1,-25,-37,-48,-72,6,-36,-1,-17,-19,-28,2,-2,1,25,-12,-19,-13,0,-6,-12,-9,-20,3,-26,52,-34,-19,-36,-7,-73,5,-29,-17,13,-10,-17,-17,14,-72,11,-15,-8,-6,8,-26,-34,30,-114,-1,-17,11,-40,14,-9,26,-10,-63,14,-61,-67,9,-26,13,-11,13,-52,-23,-32,-43,-29,-35,-33,-20,-15,-31,11,-1,-6,-26,-35,4,-28,-6,-31,10,-40,-12,-10,41,-6,-45,-8,4,-33,-37,-44,-19,-14,-26,-22,-17,-45,-19,-39,-8,3,-20,-12,12,-34,-16,-42,-32,-16,-50,-48,-18,-23,14,-36,0,-21,-27,-48,-33,-42,4,-63,-28,2,-54,-51,-36,-51,-51,-60,-66,-51,-45,-61,-32,-30,-41,-63,-33,-48,-29,-64,-31,-75,-30,-49,11,-50,-74,-61,-30,-95,-50,-53,-61,-39,-62,-60,-45,-51,-33,-68,-31,-31,-46,-49,-21,-42,-37,-98,-48,-27,-81,-84,-83,-59,-13,-81,-67,-29,-78,-112,-63,-57,-13,-35,-30,-35,-88,-54,-58,-16,7,-5,0,-6,-4,-10,4,4,0,0,12,10,3,-12,5,-17,-15,-27,48,-2,-8,-13,5,1,-5,2,7,23,3,11,13,39,-4,18,21,35,22,28,-11,12,33,32,43,37,55,23,38,31,69,49,70,54,55,17,45,60,-2,60,84,68,44,46,17,0,0,1,0,0,0,0,0,36,-27,-16,-9,-48,38,-37,24,10,33,12,38,7,33,5,8,2,13,76,8,20,-9,15,11,0,-29,17,11,13,4,8,0,-7,0,-6,21,5,4,0,20,-3,-12,7,-3,-1,6,5,1,0,0,0,0,-1,0,0,0,13,-12,31,18,4,13,0,57,15,44,-8,-31,6,83,-8,12,-5,6,-7,28,0,46,45,35,47,28,28,-18,35,22,40,-12,23,-22,50,12,7,5,-6,32,10,17,22,16,12,20,-8,16,-1,16,-1,33,-9,18,10,11,-4,6,11,7,7,5,16,5,32,18,29,-18,32,14,26,4,31,18,5,19,-25,44,-12,38,8,-19,37,1,47,-13,43,-18,37,13,44,35,18,26,-1,21,25,-2,27,12,6,34,23,11,21,30,20,29,20,14,6,31,21,14,24,13,-1,19,15,8,16,3,10,15,35,18,25,19,31,44,22,36,36,18,19,29,42,56,36,56,43,29,34,47,45,40,0,7,40,29,-2,13,25,50,15,36,24,8,13,29,28,49,-3,35,9,26,17,37,10,40,9,21,21,16,-8,19,26,45,1,43,2,13,1,-6,20,46,4,12,62,20,4,11,41,-176,50,8,40,41,70,11,71,54,45,33,22,82,17,35,52,48,33,4,68,52,48,30,63,39,50,41,26,53,33,47,35,57,43,62,26,66,34,35,50,60,72,46,58,49,37,35,61,55,47,68,19,60,27,17,54,64,46,38,90,47,56,22,-3,6,-26,-44,-15,-7,-7,-13,0,20,41,-2,15,-45,-29,-5,43,25,22,22,6,2,8,-2,3,20,16,22,4,-6,20,25,-8,6,13,8,-2,-5,11,30,-9,2,11,16,-3,-3,0,18,20,-2,16,14,-8,0,10,-2,26,4,9,-7,21,3,3,4,0,-1,0,0,-1,0,0,0,11,7,1,-4,-13,5,-7,11,13,16,4,13,19,42,42,35,22,21,12,32,26,42,35,28,27,15,18,17,20,26,18,17,15,17,10,12,-4,-2,-23,14,36,7,-5,32,52,29,30,88,0,-1,0,0,0,0,0,0,-24,10,3,15,13,36,18,0,-16,32,7,14,26,11,23,15,18,32,19,34,34,24,6,17,39,36,35,39,20,34,13,26,31,16,14,28,25,23,15,4,30,34,33,28,3,13,51,36,25,34,22,-1,15,27,40,-26,11,23,45,13,-28,0,29,10,2,-17,26,21,1,13,0,5,41,28,2,31,13,20,-111,14,48,33,44,31,42,44,29,29,25,46,23,52,32,42,17,20,40,5,41,29,46,36,39,32,10,44,12,55,29,47,26,27,34,16,51,22,37,22,29,19,-34,60,7,46,-4,44,24,9,33,39,27,39,27,54,25,27,30,31,34,25,28,-16,0,25,40,42,44,46,36,52,44,78,59,46,48,55,62,45,33,58,47,46,48,58,55,60,49,47,47,47,56,60,63,60,55,53,52,52,54,51,48,67,61,44,71,60,46,65,68,69,65,68,72,78,86,80,87,70,49,55,88,97,73,84,74,70,-32,87,110,90,107,94,97,94,97,101,83,112,98,115,119,119,81,110,113,99,117,113,134,123,118,63,93,116,112,129,127,135,111,111,101,122,128,130,151,131,139,105,140,140,142,140,152,125,125,129,50,27,3,6,-26,40,13,38,33,11,0,0,0,15,17,30,11,0,5,6,11,29,4,22,0,-1,11,19,6,-1,-20,-6,-13,-2,14,21,21,-7,-1,-30,-42,18,10,45,38,20,-13,-56,-32,6,64,59,66,21,0,-61,-65,-48,22,51,58,22,-80,148,0,0,0,0,0,0,0,1,-29,55,48,14,-275,11,41,43,3,1,-11,-2,-9,39,35,52,0,-10,-5,5,-10,11,0,5,-6,-7,-8,6,-1,12,2,-4,-4,-6,-1,-2,-7,3,0,2,-7,-5,-10,0,-13,0,0,-3,0,0,0,0,0,0,0,0,-3,-126,-53,-72,-40,174,-139,-62,-2,-41,-72,-398,-20,-46,-34,-293,-30,-54,-47,-19,14,-3,-161,-58,-39,-47,-37,-38,-33,5,-9,28,-13,-39,-33,-39,-38,-57,-87,-41,-44,-29,-46,-45,-40,-35,-44,-52,-30,-37,-37,-40,-53,-48,-42,-70,-37,-37,-48,-45,-49,-45,-36,-37,-15,-42,-34,-55,-44,-57,-25,20,-21,-38,-13,-55,-61,-29,-59,-16,-64,-21,-43,-9,-34,-12,-3,-25,-28,-47,-29,-28,-8,-18,-34,-14,-15,-20,-30,-6,-28,-9,-50,-28,-33,-25,-15,-46,-29,-38,-21,-51,-24,-29,-40,-33,-41,-24,-41,-41,-49,-47,-35,-43,-28,-56,-30,-16,0,-36,-25,-21,-33,-8,-19,-18,-39,-31,-36,-33,-37,-19,-36,-14,-40,-39,-42,-52,-42,-103,-15,-93,-43,-44,-39,-55,-58,-83,-47,-84,-46,-49,-38,-49,-44,-81,-55,-81,-62,-38,-52,-58,-44,-80,-40,-70,-58,-49,-49,-59,-51,-71,-52,-84,-52,-38,-42,-52,-45,-64,-45,-56,-36,-78,-95,-89,-66,-90,-88,-85,-61,-74,-57,-68,-61,-48,-79,59,-63,-45,-86,-74,-69,-59,-34,-30,-48,-84,-68,-93,-78,-110,-46,-143,-100,-84,-91,-91,-106,-103,-109,-111,-85,-102,-98,-116,-107,-131,-91,-115,-98,-101,-120,-122,-117,-114,-106,-116,-96,-103,-105,-113,-118,-145,-95,-87,-47,-11,10,29,153,71,18,-175,52,21,26,26,34,9,-61,33,33,30,3,-8,27,26,27,20,23,4,-1,-10,0,7,7,-24,11,4,-1,-1,5,-2,-3,2,12,9,1,1,-5,0,1,0,16,13,7,1,2,0,15,7,13,12,20,22,28,16,19,32,0,0,0,0,-1,0,0,0,0,-5,-13,-15,10,-2,7,-6,-3,-15,-9,2,-14,11,-8,-10,-3,-14,-19,-3,-22,12,-3,-5,-13,-16,-23,-16,-8,26,-13,-7,10,-25,-28,-79,-52,-34,-52,-72,120,-90,-138,-26,135,145,-227,41,0,0,0,1,0,0,0,-1,-4,-24,-17,-5,2,-8,-11,0,0,-27,-19,-29,-17,-2,-18,-14,-25,-8,-10,-20,-21,-11,0,-17,-8,8,-30,-26,-11,-15,-15,-8,-37,-28,-3,-20,-11,-39,-4,-44,-19,-37,-53,-42,-230,-13,-96,-79,36,-17,-311,-58,47,-100,-65,-59,-10,-31,-21,-5,-51,-18,-21,-6,-8,-29,-31,-14,-25,-12,-40,-5,-26,-18,-22,-43,-28,-26,-13,-34,-29,-45,-21,-28,-25,-16,-26,10,-43,-32,-57,-28,-15,-24,-13,-11,-52,-38,-53,-35,-31,14,-17,-15,-23,-45,-90,-87,-34,-110,-17,-308,17,-16,-102,-29,-46,-11,-273,-40,-24,-18,-9,-18,10,46,25,-28,-29,-30,-40,-21,-29,-20,8,-10,-26,-43,-19,-72,-73,-12,-32,-7,-31,-6,-17,-60,-20,-13,11,-45,-7,-8,-10,-19,-40,0,0,-24,-4,3,27,-2,0,9,4,-37,7,14,8,-20,-3,9,-28,-36,26,2,18,-3,8,24,0,-10,7,-74,-339,-174,-28,-3,-59,-18,-81,-88,-136,-78,-102,-104,-61,-48,-101,-79,-97,-139,-151,-87,-89,-59,-69,-81,-128,-135,-103,-99,-56,-81,-74,-70,-125,-74,-98,-91,-64,-56,-85,-96,-61,-109,-88,-59,-67,-76,-79,-54,-89,-73,-72,-50,-70,-94,-32,-44,-74,-60,-14,-49,-77,-39,-68,-107,-56,-80,-71,-64,-51,-16,27,16,0,23,2,12,-12,-5,16,14,7,-4,-9,10,0,-25,25,2,12,-23,17,7,3,5,31,44,11,44,24,21,10,21,41,42,57,54,47,24,6,28,63,3,57,56,-38,-76,-59,-42,19,91,59,52,-26,-43,-255,-66,130,92,109,111,53,-75,-277,-136,0,-1,1,0,0,0,-1,0,-15,-30,-59,16,-24,-6,-14,60,12,8,-33,-43,-14,-29,-8,11,4,-2,-7,1,-13,13,9,-3,4,-9,5,2,11,12,9,-6,0,8,13,24,15,25,1,1,2,7,19,21,16,23,6,2,-1,0,0,0,-1,0,0,0,-15,-117,-104,30,0,-29,-39,10,-43,-15,25,-128,-31,12,-33,-4,7,-43,-11,31,12,-33,2,35,34,-16,-8,-21,-1,-27,20,15,8,23,0,24,2,12,10,3,26,24,12,19,13,14,-14,24,22,4,29,26,32,25,18,26,22,23,28,12,23,26,28,32,27,-7,-21,47,-13,-2,79,29,32,4,71,-20,6,46,29,42,-201,78,-27,-25,12,23,32,-227,58,-29,-27,62,3,0,-22,53,5,-22,45,32,39,-6,-22,1,-24,53,29,43,33,39,-35,7,35,27,36,47,56,38,52,32,57,41,40,33,69,54,62,64,23,-7,11,-27,10,32,8,-43,17,-25,-4,9,20,6,-3,0,30,7,-20,-11,-1,10,-6,11,28,13,-4,-9,-4,55,0,11,41,18,-25,-20,-14,8,9,-11,37,16,-22,-6,-4,-11,-30,53,23,26,39,25,40,47,82,19,34,33,-7,31,38,56,22,53,-3,-41,42,121,98,-44,0,-6,86,61,106,88,100,81,10,63,67,117,50,62,72,70,44,-18,94,70,54,106,51,100,-7,57,87,77,66,62,64,10,46,23,57,85,63,80,55,34,-7,94,92,89,83,78,86,91,116,71,112,83,69,94,107,133,102,122,14,17,-14,-39,-16,42,17,50,18,-20,-29,-64,-23,3,15,-4,-21,-7,-38,-25,-17,23,7,3,-19,-25,-17,-17,-16,9,2,-20,-59,-20,-11,-27,-24,-15,-22,-58,7,14,0,5,-15,-20,-28,-54,30,36,10,2,4,-7,0,-28,82,2,5,16,22,35,17,35,0,0,-1,0,0,0,0,-1,-4,-8,-8,-7,-2,-9,-11,-3,-4,-9,-7,-4,-7,0,-9,-3,-7,-9,-5,-4,-2,0,-3,-2,-14,-11,-11,-9,-3,2,5,1,-18,-16,-25,-29,-14,-6,-16,0,-17,-38,-34,-57,-88,-71,-119,-37,0,0,0,-1,0,0,0,0,-28,-24,-32,-32,-27,-33,-31,-43,-51,-33,-38,-35,-33,-39,-40,-34,-31,-36,-32,-26,-30,-26,-29,-30,-23,-38,-31,-26,-20,-22,-13,-29,-29,-29,-21,-11,-15,-11,-16,-13,-28,-26,-29,-24,-32,-39,-29,-14,-28,-35,-40,-34,-50,-19,-50,-1,-3,-38,-39,-27,-20,-10,-30,-6,-34,-27,-30,-29,-28,-35,-22,-28,-31,-29,-34,-35,-34,-41,-38,-32,-18,-31,-31,-26,-24,-24,-32,-26,-18,-26,-11,-15,-19,-17,-20,-14,-24,-24,-16,-10,-21,-18,-16,-11,-23,-26,-33,-23,-17,-44,-36,-15,-21,-24,-38,-32,-30,-33,-47,-30,-24,-41,-32,-44,-26,5,-21,-24,-51,-47,-46,-47,-52,-55,-43,-41,-52,-46,-44,-53,-53,-57,-42,-39,-58,-49,-44,-54,-57,-53,-43,-50,-42,-38,-31,-39,-41,-38,-20,-32,-16,-6,-14,-9,-19,-7,-5,-6,7,16,14,6,0,3,20,17,26,27,24,23,12,14,31,38,17,19,21,18,18,14,28,26,-56,-75,-92,-87,-79,-85,-94,-19,-73,-38,-58,-69,-79,-101,-80,-35,-10,-31,-9,-41,-42,-45,-18,4,5,17,24,29,31,30,26,28,28,31,46,54,59,60,51,39,46,52,55,74,75,70,77,61,58,69,74,74,77,77,87,78,57,57,72,65,82,77,76,77,-16,-22,-26,-21,-21,-13,-17,-14,-21,-20,-24,-24,-17,-20,-20,-15,-8,-17,-22,-17,-14,-9,-13,-14,-15,-13,-18,-17,-12,-7,-1,0,-26,-22,-20,-4,3,13,19,12,-23,-22,-25,-3,17,39,26,22,-12,-9,-14,-24,8,11,-23,5,12,-1,-22,-14,5,8,-35,7,0,1,0,0,0,-1,-1,0,52,62,54,44,38,45,41,24,30,35,39,38,36,36,31,25,19,19,22,21,22,22,20,14,11,13,8,10,8,10,10,10,8,6,2,-3,-9,-10,0,10,10,0,-8,-39,-82,-80,-50,0,0,0,0,0,0,1,0,0,37,58,52,45,58,53,49,50,49,51,39,50,49,56,43,60,51,50,52,48,39,48,52,58,44,52,47,44,37,41,42,52,30,37,29,17,14,11,25,21,28,27,9,1,-12,-13,-3,24,29,15,0,-39,-72,-110,-72,-15,16,3,0,-27,-29,-75,-33,-12,25,45,41,32,37,34,60,48,32,35,49,41,41,52,43,38,18,35,33,43,44,45,44,31,26,34,35,30,41,33,38,25,41,28,26,25,21,27,17,17,42,34,25,7,11,0,17,31,53,36,24,-12,-42,-43,-24,28,42,29,8,-19,-23,-39,0,24,72,78,75,73,69,74,80,78,78,82,75,75,72,72,80,82,81,83,77,79,75,70,78,86,82,84,80,74,71,65,76,85,75,73,68,62,63,53,63,75,61,57,49,49,41,37,46,65,17,23,23,15,4,7,20,37,50,53,49,33,21,12,39,63,108,119,122,127,130,126,136,135,137,141,145,138,135,143,148,161,133,135,137,131,129,125,144,144,137,124,118,104,111,112,122,133,131,116,101,87,87,92,104,124,120,112,85,70,71,72,94,122,89,88,72,67,59,68,88,120,128,114,89,59,62,73,92,132,-247,-259,-228,-208,-244,-242,-249,-241,-255,-306,-251,-250,-179,-313,-233,-267,-265,-316,-235,-271,-128,-119,-200,-165,-209,-136,-114,-197,-91,-78,-88,-103,-145,-94,-75,-71,-48,-35,-50,-56,-90,-74,-42,-46,-33,-15,-8,-29,-101,-52,-32,-23,-14,2,12,-1,-63,-45,-22,-17,4,4,10,-10,-1,0,0,0,0,0,0,0,9,12,11,37,10,-25,-9,6,6,5,-3,-2,-23,-4,-3,4,4,-1,-9,-19,-22,-9,-6,1,1,-1,3,-21,-15,-2,-13,-1,-6,-9,5,-11,-9,-13,-10,-8,-1,-12,-1,6,13,-14,34,2,0,0,0,1,0,0,-1,0,19,17,21,21,11,-8,-7,-22,17,31,17,31,18,-19,-14,-18,18,7,10,5,-5,-4,-16,-8,1,0,1,0,-8,-5,-11,-18,-7,1,-5,-18,-14,-23,-17,-17,-1,-10,-22,-33,-19,-34,-21,-23,5,-17,-11,-12,-16,-40,0,-17,-14,-4,-9,-23,-4,3,-13,-2,-1,14,-4,12,3,-8,-4,-20,23,9,18,20,10,-19,-36,-24,3,8,15,19,-2,-7,-10,-10,-2,8,7,2,1,-5,9,-12,20,-3,-1,-3,5,13,-16,8,17,0,0,-2,7,2,17,3,3,-2,0,9,6,7,9,21,12,12,13,18,20,36,-3,17,-7,0,0,3,5,0,21,3,0,6,4,18,10,-5,4,16,15,22,24,22,8,19,17,8,26,24,17,24,16,6,34,31,25,13,13,11,-6,-2,18,22,18,15,10,13,7,9,18,16,10,11,-1,13,8,11,7,4,18,19,8,24,14,17,15,11,5,6,-36,-37,0,-7,16,26,19,4,13,34,29,1,26,28,25,35,43,46,37,43,31,30,47,45,51,49,44,37,44,35,48,49,59,61,53,48,41,36,51,43,53,50,47,39,23,22,29,43,39,44,47,44,34,10,58,48,46,56,34,33,38,32,13,29,44,68,47,2,-2,-15,26,29,42,59,45,-1,-21,-5,31,28,31,32,19,8,-5,-5,28,32,14,4,-3,-2,0,9,23,-1,-9,-24,-27,-16,-4,14,-1,-14,-44,-40,-49,-26,-10,1,3,5,-32,-27,-35,-18,8,14,10,7,-24,0,-15,6,-5,39,-1,0,0,0,0,-1,0,1,-6,12,22,51,44,-80,-32,-36,15,-4,16,24,2,-41,-15,10,4,-12,-13,-10,-33,-20,-14,0,-4,-18,-25,-37,-41,-30,-25,-9,-6,-23,-28,-28,-25,-27,-20,-13,-4,-27,-26,-23,-24,-16,-11,-17,0,0,-1,0,0,0,0,0,6,33,36,59,54,11,22,18,37,35,47,54,57,52,24,45,12,18,42,38,60,27,35,34,12,2,5,4,1,15,40,26,9,8,9,0,0,16,8,24,-4,-6,-12,0,1,-2,6,5,-10,-5,-10,-7,-17,0,-6,-6,-12,-5,-10,-7,-13,1,-15,-6,7,9,3,29,17,0,2,2,-2,9,35,34,38,10,3,-1,-7,6,3,8,11,19,18,31,-14,-11,-3,15,10,-4,-20,3,-9,-8,7,1,3,-13,-18,-15,-2,-5,-1,-3,-19,-12,-13,-18,13,-2,-6,-18,-21,-16,-3,-22,4,12,-11,-16,-28,-11,-10,-2,-2,19,4,16,7,-1,6,-2,-4,-5,-1,3,-7,-18,-28,-14,-10,-7,-7,-3,-12,1,-13,-14,-26,-24,-20,-18,-21,-8,-7,-21,-37,-44,-46,-48,-48,-27,-42,-31,-51,-43,-46,-51,-40,-31,-30,-43,-49,-52,-38,-42,-47,-25,-30,-36,-45,-49,-55,-63,-50,-42,-40,-41,9,16,1,16,-4,5,20,-2,-2,0,13,-4,10,11,22,12,-1,2,4,4,6,18,39,42,-13,-2,5,-2,3,17,31,18,-4,-16,-8,-13,-1,-4,-5,7,-17,-14,-23,-16,-8,-4,0,-1,-24,-40,-9,-19,-21,-9,9,-19,-35,-18,-14,-31,-23,-1,22,-27,-8,9,-15,-16,8,10,13,-98,9,0,14,5,7,3,7,8,0,11,11,7,5,21,22,5,11,15,12,12,13,16,10,3,14,5,7,5,12,16,11,4,19,16,10,10,17,12,12,7,21,19,20,17,13,23,20,18,18,39,33,12,19,23,21,25,0,0,0,0,0,0,1,0,2,-5,-11,-13,-13,-3,0,4,2,-7,-6,-4,-10,-9,-8,4,1,1,-4,0,1,0,2,2,-1,0,4,-3,2,-1,-1,-2,0,0,2,-2,10,-13,-21,-10,4,-15,-14,0,-6,-10,-21,-11,0,0,0,0,0,1,1,0,-12,-44,-36,-43,-42,-34,-39,-14,-25,-42,-46,-45,-41,-34,-40,-39,-39,-47,-43,-45,-47,-52,-41,-34,-58,-49,-49,-45,-36,-45,-40,-42,-63,-37,-50,-39,-58,-42,-46,-36,-58,-53,-47,-34,-34,-12,-45,-44,-52,-55,-33,-33,-34,-25,-33,-15,-46,-78,-60,-41,-26,-71,-31,-22,-38,-38,-47,-57,-44,-43,-43,-46,-41,-42,-43,-41,-54,-47,-53,-40,-32,-53,-46,-46,-53,-56,-56,-40,-51,-46,-55,-52,-57,-45,-56,-53,-56,-49,-57,-61,-50,-52,-55,-62,-72,-57,-49,-45,-61,-43,-51,-53,-63,-71,-53,-60,-58,-55,-54,-53,-58,-69,-89,-74,-64,-94,-65,-56,-83,-77,-75,-84,-82,-72,-70,-75,-92,-88,-81,-86,-87,-76,-81,-83,-91,-91,-83,-86,-80,-85,-91,-92,-105,-96,-86,-91,-90,-81,-98,-92,-103,-93,-83,-79,-78,-72,-81,-88,-105,-95,-85,-79,-75,-72,-94,-92,-113,-109,-99,-96,-95,-91,-100,-98,-130,-124,-111,-110,-108,-105,-111,-116,-200,-199,-202,-213,-180,-169,-146,-179,-224,-240,-230,-226,-217,-189,-164,-201,-212,-235,-236,-218,-232,-206,-210,-179,-231,-235,-231,-267,-273,-211,-194,-185,-238,-234,-229,-247,-248,-195,-168,-176,-209,-225,-203,-222,-206,-175,-157,-152,-207,-204,-204,-201,-181,-172,-150,-147,-353,-299,-277,-259,-240,-224,-237,-236,62,33,16,-2,0,5,19,34,36,11,-1,-22,-32,-10,3,23,24,-2,-15,-29,-37,-34,-11,11,9,-8,-10,-14,-20,-23,-11,9,4,-2,-6,1,-4,-7,-5,3,18,-5,9,13,16,25,13,21,8,26,18,38,36,42,33,34,32,35,50,47,43,38,51,29,0,0,1,0,-1,0,0,0,63,64,48,65,73,45,61,42,42,43,42,56,63,53,36,25,32,37,32,41,32,33,17,21,23,21,21,24,21,16,8,11,21,22,22,13,18,12,13,11,24,21,15,17,11,6,12,17,0,0,0,1,0,0,0,0,49,72,62,32,28,61,33,72,47,52,44,59,45,33,57,63,57,39,39,46,48,47,58,52,53,51,55,50,63,52,58,44,51,52,49,53,52,51,48,41,36,39,43,44,47,40,38,30,46,47,40,35,32,26,36,33,44,33,34,35,32,34,20,33,36,70,58,33,34,49,51,40,62,59,51,51,44,55,54,66,55,48,48,60,62,47,53,52,56,42,67,67,71,54,51,63,52,59,60,62,61,61,49,46,52,59,56,46,57,52,58,46,55,47,42,46,51,46,46,49,48,50,45,43,46,40,53,44,108,103,104,90,88,101,98,101,100,103,98,93,82,88,100,100,96,92,94,88,82,87,86,87,87,81,84,84,85,88,89,88,88,78,76,78,80,77,83,83,80,81,82,78,78,77,82,79,82,80,77,87,81,80,84,81,80,82,82,87,81,81,86,78,46,23,-55,-229,-139,-46,-4,22,48,41,44,-168,-184,24,85,60,26,-189,-165,-181,-158,-161,37,58,-72,-182,-162,-163,-180,-162,-194,44,13,-201,-176,-200,-158,-183,6,-204,-86,-133,-151,-161,-189,-154,37,54,-123,-177,-181,-213,-99,-39,41,-44,-51,28,-125,-34,-162,38,52,92,-21,34,20,27,17,37,9,-44,13,41,43,69,56,54,18,-1,0,17,33,50,53,37,28,-7,-7,11,27,46,44,28,6,-14,-9,4,18,31,40,26,6,-17,-12,-14,8,24,33,26,-1,-9,-45,-41,-19,9,17,0,-19,-37,-46,-52,-32,-6,-17,-14,-28,-36,0,0,0,0,0,0,0,0,3,8,0,1,-28,1,-18,0,2,10,0,0,-26,12,-10,8,1,3,7,6,-204,30,-342,14,0,4,11,9,8,107,6,5,-8,-9,15,-4,17,26,22,3,-41,-20,9,-13,-13,7,27,-34,0,0,0,-1,0,0,0,1,4,0,-3,-14,-2,-24,-2,-6,3,1,-2,-3,-6,-12,-14,-12,-3,-6,-5,14,-77,-2,-85,13,4,-1,-8,-57,-34,5,-14,-125,7,-6,0,-20,1,20,1,-6,-3,6,-13,-201,-17,-15,-2,-328,-17,4,8,-7,-333,0,-314,2,8,15,1,-2,-10,14,27,0,3,-61,-1,-18,4,-15,-4,-24,-17,2,-46,5,-8,-4,-17,6,-4,-8,6,-67,12,-12,21,-128,-8,0,-6,19,-94,6,-115,27,8,-9,-1,-15,3,7,5,-23,-13,-5,-17,10,-133,8,-63,2,-11,-13,10,-94,4,-1,18,-40,-8,0,-38,0,-23,21,-13,8,4,20,6,-3,-6,-3,-4,-2,0,1,26,0,-10,-4,3,-4,2,5,7,15,1,-12,18,15,-4,-5,-6,3,-5,-29,0,2,-4,-5,-1,-21,-24,29,-5,11,1,8,19,9,8,-3,24,23,2,9,9,7,7,-7,14,17,-4,6,14,1,0,-15,4,7,-9,-6,-13,-22,-20,-6,-25,-28,-13,-19,6,-15,-24,-7,-19,-7,-17,-12,-8,-7,-10,-18,5,-11,-19,-14,-12,-6,-15,-12,-22,-4,-15,-24,-12,-25,-34,-17,-17,-16,-19,-8,-16,-10,-48,-9,-4,-9,-29,-14,-4,-15,-11,-14,-1,7,-23,-22,-10,0,-24,-7,0,-10,-8,8,-7,1,-2,11,-3,3,-16,-15,33,5,10,3,5,-3,-30,0,2,18,13,0,8,16,-22,-11,10,9,-10,-17,-11,19,-11,5,1,11,0,-146,7,25,-12,0,7,12,-19,10,0,35,-4,23,8,28,-3,-12,7,58,24,38,21,-1,0,-24,-5,-30,-1,0,0,0,0,0,0,0,2,-3,10,14,-3,21,-5,9,-7,-8,11,8,23,22,27,9,-4,-3,1,7,-5,8,9,7,-1,3,-2,-1,-5,-273,0,8,-1,-2,5,-8,-15,-24,21,-3,0,5,0,-19,-8,-9,6,1,0,0,0,0,0,0,0,0,35,5,3,6,25,24,10,22,-2,-4,24,-5,7,2,0,13,13,18,0,-3,40,20,38,-7,-6,16,5,36,0,-2,7,63,0,2,0,9,18,112,-2,33,-2,-4,7,33,-2,-2,10,49,2,0,1,-4,43,-1,50,-8,5,-9,5,-1,8,-2,10,-18,4,44,-23,16,5,31,-8,27,26,-4,55,-5,-5,10,-8,4,-7,22,-1,32,-4,-6,4,63,22,-9,26,-2,56,-7,26,3,0,25,3,22,6,149,-7,48,22,1,24,-2,29,7,55,-5,1,18,-1,30,-7,22,-4,42,11,-4,35,-6,20,-8,42,-9,9,9,26,12,20,23,19,12,4,9,16,12,11,20,-1,10,0,3,15,-1,7,11,-3,3,-7,0,5,-5,-5,22,12,22,3,8,15,8,26,226,33,24,-4,-5,2,6,-5,22,6,-12,-4,0,2,-1,5,19,2,5,0,3,3,2,8,15,3,-1,37,63,37,28,44,45,41,9,46,32,54,30,32,60,38,31,20,37,37,27,30,37,26,57,30,19,30,28,52,41,53,32,23,28,36,31,41,167,41,54,21,22,27,26,38,48,57,22,30,27,19,36,19,46,23,51,22,21,44,19,25,36,22,21,-54,-58,-47,-35,-12,5,0,-18,-25,-59,-42,-38,-10,-8,-26,3,-23,-41,-21,-20,0,-8,16,0,-24,-18,-15,-7,9,-2,25,2,-33,-21,-17,0,17,13,17,1,-19,-9,-2,5,13,40,23,3,-2,-2,6,4,0,11,5,0,-15,-3,6,7,1,9,1,3,0,0,0,0,0,0,0,0,-19,-33,-31,-11,9,19,21,2,-25,-32,-27,-16,4,15,18,3,-19,-16,-19,-9,0,8,6,0,-19,-11,-12,-8,-6,-3,0,-4,-15,-12,-13,-15,-17,-27,-15,-11,-22,-18,-12,-22,3,-45,-30,-16,1,0,0,0,0,0,0,0,-42,-25,-36,-26,-29,-19,-22,-22,-44,-35,-34,-27,-27,-19,-17,-28,-36,-37,-39,-35,-27,-21,-17,-22,-37,-44,-39,-30,-28,-20,-15,-18,-38,-37,-41,-36,-32,-24,-20,-22,-40,-44,-40,-35,-30,-28,-20,-26,-35,-38,-41,-27,-33,-30,-36,-21,-42,-42,-42,-34,-31,-43,-33,-31,-44,-29,-28,-28,-31,-31,-50,-30,-36,-31,-41,-28,-28,-27,-27,-49,-44,-52,-42,-34,-33,-27,-13,-36,-54,-49,-44,-40,-37,-31,-18,-28,-46,-45,-55,-48,-40,-32,-33,-38,-36,-43,-52,-50,-49,-42,-46,-40,-41,-35,-41,-54,-48,-63,-53,-51,-49,-44,-40,-48,-68,-66,-55,-66,-51,-50,-56,-58,-57,-62,-61,-62,-51,-56,-59,-59,-59,-58,-49,-43,-66,-68,-65,-64,-51,-51,-48,-43,-64,-63,-70,-64,-54,-47,-50,-51,-66,-67,-69,-68,-58,-58,-66,-58,-71,-66,-70,-67,-65,-64,-68,-67,-66,-68,-72,-70,-58,-66,-73,-70,-69,-68,-74,-72,-62,-70,-72,-68,-126,-111,-121,-112,-134,-139,-165,-155,-114,-121,-124,-124,-126,-116,-127,-153,-120,-124,-119,-118,-118,-118,-114,-128,-126,-128,-125,-121,-118,-118,-117,-119,-123,-133,-129,-120,-124,-122,-127,-114,-127,-130,-129,-124,-121,-117,-117,-114,-125,-127,-120,-133,-123,-126,-127,-127,-161,-167,-161,-142,-124,-142,-148,-158,-139,-176,-137,-54,22,42,53,59,-156,-181,-128,-45,19,51,65,69,-152,-158,-121,-43,5,49,69,60,-143,-200,-111,-60,-15,18,36,29,-128,-115,-106,-67,-31,-8,-1,8,-113,-86,-78,-53,-57,-40,-25,-42,-72,-63,-63,-57,-78,-84,-72,-82,-172,-54,-43,-92,-92,-94,-117,2,-1,0,0,-1,1,0,-1,0,60,40,63,17,-33,-50,-57,-166,51,56,68,29,-16,-29,-37,-36,37,40,35,15,-1,-13,-5,-14,26,28,18,9,0,-1,2,-2,14,14,4,6,3,3,11,5,12,9,3,5,3,4,8,4,1,0,0,0,0,1,0,0,63,52,30,17,-11,-23,-106,-104,45,27,9,14,-7,-33,-73,-67,36,36,29,18,-7,-22,-43,-66,34,24,28,8,8,-14,-6,-31,23,19,22,15,3,0,-18,-2,22,21,20,14,7,5,0,-3,15,21,19,14,12,7,8,0,14,15,21,18,17,8,7,-9,17,21,19,23,11,-1,-15,-18,35,22,27,10,12,-6,-9,-112,21,29,21,23,1,10,-8,-2,22,18,20,9,14,6,11,0,12,17,8,19,7,16,2,20,7,12,15,10,20,16,22,10,7,9,12,21,18,25,21,14,7,4,14,17,25,20,24,21,-2,7,-4,-7,-6,-22,-33,-23,8,11,1,2,0,-22,-25,-31,4,6,5,11,-12,-29,-29,-34,10,18,20,16,4,-16,-25,-26,18,19,20,20,7,-2,-13,-12,30,28,25,18,10,-3,-11,-12,36,29,34,27,16,13,-3,0,32,28,30,25,15,9,-3,0,83,76,66,38,13,4,-18,-180,68,69,62,40,27,-24,-10,-36,58,70,56,64,20,7,-132,-25,52,64,64,52,38,28,14,15,43,56,54,42,40,41,28,30,46,47,52,51,43,38,28,34,41,44,57,51,51,49,47,39,36,45,52,49,45,42,31,36,36,51,40,40,2,-50,-65,-37,39,59,45,28,21,-7,-117,-75,59,67,53,35,27,9,-17,-28,55,53,43,29,14,-2,-18,-23,48,38,38,23,12,-3,-17,-24,37,37,29,23,13,1,-9,-15,28,27,30,24,10,2,-5,-5,13,19,20,18,14,12,4,9,0,0,0,0,0,0,-1,0,7,7,-9,3,6,14,8,6,11,3,9,8,25,4,-11,4,13,28,8,10,19,0,23,1,9,-6,-5,10,44,18,2,2,-34,-15,7,26,34,53,45,32,-79,-32,30,38,13,-3,31,-25,0,0,0,0,0,0,0,0,21,16,24,7,15,4,16,8,27,2,24,26,19,30,0,32,27,14,17,8,16,22,-4,-1,-3,38,-23,22,14,19,24,0,-37,20,22,9,52,10,55,18,31,22,39,17,33,34,13,49,-1,-7,38,52,19,47,11,-8,-14,3,-43,-5,2,12,-19,37,17,26,3,24,18,18,-11,21,30,26,19,9,27,26,17,36,17,20,10,19,6,25,-12,14,-3,40,14,11,0,13,48,1,22,-1,0,26,61,31,-19,-2,-23,19,8,19,56,33,33,23,-25,-10,35,39,32,37,25,-1,-12,-20,-2,12,-6,9,20,18,28,6,59,21,37,-9,23,5,22,49,43,55,10,31,1,43,31,10,23,24,10,12,-17,21,21,31,16,27,-6,16,6,16,23,-8,35,25,27,-12,-23,-2,20,12,41,22,0,-6,8,-3,11,-6,-3,-1,6,-24,-35,-8,28,14,20,18,10,12,-10,0,70,77,93,81,91,70,63,58,92,92,86,95,69,89,84,92,89,79,71,79,62,85,44,73,69,79,66,58,49,92,90,60,66,36,58,91,73,82,53,79,70,60,76,80,95,95,120,118,59,46,66,71,42,69,43,40,33,40,31,-30,60,2,82,14,6,3,-1,-13,16,-15,12,1,0,11,-16,-11,-3,16,8,24,0,12,-24,7,5,10,10,20,-3,3,16,16,13,27,23,16,-9,-9,16,20,43,37,31,47,-63,1,22,45,41,49,44,39,-78,-85,9,49,55,34,30,43,-17,-58,0,37,24,46,26,-5,0,0,0,0,0,0,0,0,56,-103,46,-110,31,-321,8,-44,24,-39,10,-50,-33,-13,-41,6,9,1,8,-12,0,-5,-9,5,-12,20,-2,-15,12,-18,1,-8,-6,11,-6,-38,16,-35,3,-3,-4,-1,0,-36,28,-27,2,-7,0,0,0,1,0,0,0,0,-4,-29,-28,-45,-98,-35,-65,-23,-15,-54,-45,-22,-55,-60,-79,-32,-11,-58,-8,-126,-44,-149,33,-48,-48,-45,-49,-26,-2,-60,-47,-60,-39,-18,-24,-30,-72,1,-53,14,-35,-29,-56,-4,-13,-1,-37,-37,-31,-42,-18,-28,-15,-30,-3,-16,-50,-40,-17,-26,-24,-27,-17,-38,-15,-5,-51,-15,-38,-3,-42,-17,-31,-92,-3,-93,5,-35,0,-82,-56,-50,-83,2,-75,-16,-62,32,-57,-40,-9,-6,-2,-70,-25,-31,-25,5,-6,-21,-37,-10,-54,-12,8,-15,-37,-30,-20,-8,-20,-13,-3,-53,-10,-21,-18,-24,-19,-21,-31,-20,-26,-6,-41,-14,-50,-27,-2,-43,-28,-25,-27,-37,-37,-38,-29,-58,-36,-52,-51,-48,-70,-25,-34,-51,-53,-50,-50,-28,-55,-19,-21,-23,-35,-21,-22,-36,-23,-10,-13,-25,-20,-18,-18,-16,-36,0,-34,-31,-57,-31,-21,-31,-44,-26,-38,-18,-23,-16,-25,2,-15,12,-21,-6,-19,-20,-7,-13,-7,6,-44,-81,-114,-116,-143,-103,-114,-100,-39,-97,-36,-141,-76,-131,-70,-120,-77,-81,-93,-61,-114,-81,-111,-42,-66,-76,-54,-76,-63,-115,-74,-81,-61,-75,-63,-68,-85,-81,-113,-59,-63,-75,-95,-84,-86,-85,-95,-80,-70,-102,-74,-80,-108,-90,-93,-79,-93,-73,-80,-75,-102,-87,-77,-57,-183,-226,-38,15,57,96,141,45,-131,-284,-23,-1,19,69,63,41,-16,-8,-18,2,7,31,37,70,-5,4,-10,-16,-1,7,28,34,31,9,13,-11,-14,-20,-13,10,52,46,19,-2,-1,-2,-2,19,30,34,27,6,-4,3,-4,9,18,16,20,20,-5,17,12,16,0,0,0,0,1,0,0,0,289,29,0,-12,-6,-3,-8,-1,329,51,0,-2,0,-4,-5,-1,218,40,9,3,-5,-3,-2,0,232,31,21,8,-3,3,1,8,214,45,30,16,17,39,20,14,204,78,20,20,79,24,13,20,0,1,-1,0,0,0,0,0,-5,7,7,0,-10,-11,0,-10,5,33,1,-1,-2,-2,-4,-5,27,13,19,2,2,-9,-4,-8,52,28,15,7,1,-2,-4,-1,13,21,33,13,10,0,-7,5,27,18,15,14,15,-4,-11,-3,6,14,32,16,13,-2,6,6,11,7,10,6,10,4,0,-15,-2,20,14,28,11,9,-12,5,14,14,36,18,15,0,3,-6,24,46,12,14,6,10,-14,0,50,39,34,14,11,-1,10,12,4,67,26,31,6,10,2,0,63,27,53,17,22,8,-3,5,4,29,26,38,5,-1,-6,16,20,0,20,24,38,-4,-14,-16,114,31,30,31,28,26,32,14,128,44,30,28,29,21,19,21,127,26,31,27,27,22,25,17,113,48,47,40,34,29,33,27,87,27,27,18,17,17,21,24,67,27,28,32,22,20,25,26,60,36,34,24,25,25,33,25,31,37,30,8,14,19,17,22,131,77,53,64,50,59,67,75,100,71,67,57,56,49,41,53,88,83,63,63,61,56,53,59,102,98,97,84,79,69,59,79,133,110,103,103,75,58,74,63,122,104,100,78,61,75,88,82,130,117,94,99,87,68,87,77,161,121,127,93,124,83,61,88,71,7,-7,-3,-6,-6,-3,-10,116,26,1,-9,-7,-8,-9,1,29,30,1,-10,-7,-9,-4,9,-13,14,-1,-13,-20,-7,-3,11,-9,10,-4,-15,-14,-6,6,15,-40,9,0,-10,-13,0,3,6,-37,29,11,-37,-11,-2,-1,10,-31,12,-1,-9,6,4,20,31,0,0,0,0,1,0,0,0,87,22,3,-6,41,42,3,-1,80,-1,17,12,1,1,6,1,92,6,13,6,5,0,4,2,69,-24,6,0,3,0,3,0,61,-28,8,-4,-3,0,0,2,67,-23,0,-4,-4,-8,-4,3,0,0,0,0,0,1,0,0,184,34,3,20,32,49,37,26,68,-58,19,20,10,23,35,24,64,-27,-28,10,17,15,14,28,86,-4,0,2,5,11,15,24,55,0,-37,1,8,3,13,18,47,-58,2,-3,-2,1,14,9,22,-15,-12,-8,-3,6,3,11,25,-2,-7,4,0,1,7,-4,96,8,31,-39,16,9,-18,-17,58,-10,-41,17,2,-8,-2,20,90,-82,-12,4,-3,-2,-2,13,77,-16,-10,-14,-7,1,3,11,57,-45,-4,-12,-8,-1,2,4,45,-33,-42,-6,-11,-2,0,12,72,-23,-16,-41,-8,-15,-5,12,-1,-5,-12,-15,-31,-1,-5,1,-75,-62,-39,-22,-31,-21,-5,-13,-135,-44,-37,-31,-34,-28,-13,-26,-68,-37,-33,-30,-26,-13,-7,-12,-83,-63,-47,-40,-31,-24,-11,-8,-61,-31,-29,-18,-23,-11,-7,0,-49,-25,-19,-22,-17,-14,-4,-1,-49,-34,-28,-25,-20,-21,-18,-2,-43,-34,-24,-17,-18,-17,-4,-9,223,19,45,-10,1,8,-12,3,29,-54,-33,-32,-49,-35,-9,-6,-13,-31,-32,-38,-25,0,-22,-4,-8,-54,-26,-35,-28,-29,-22,-15,-28,-70,-37,-36,-31,-41,-22,-9,-42,-51,-67,-35,-37,-35,-14,-28,-24,-52,-45,-58,-34,-30,-21,-31,-34,-38,-52,-55,-60,-21,-23,-41,83,-4,23,41,48,53,24,45,-105,-21,10,23,14,44,19,59,-351,-62,-3,11,19,33,20,37,15,-91,-15,7,13,17,11,21,-123,-100,-19,1,5,6,3,6,0,-48,-8,4,4,2,0,-1,79,-36,-7,3,6,0,-3,-7,108,-11,4,3,4,4,-6,-11,0,0,0,0,0,0,0,0,-43,-39,-38,-39,-39,-49,-44,-46,-38,-38,-43,-40,-41,-45,-41,-39,-40,-38,-43,-38,-38,-39,-38,-39,-54,-48,-43,-41,-41,-36,-37,-45,-73,-88,-90,-70,-82,-60,-60,-66,-138,-167,-255,-157,-172,-336,-128,-314,0,0,0,0,0,0,0,0,-102,-129,-137,-132,-134,-131,-132,-92,-127,-139,-132,-135,-142,-137,-144,-124,-140,-146,-143,-146,-147,-142,-139,-139,-152,-154,-153,-149,-146,-149,-150,-144,-157,-153,-156,-156,-158,-148,-150,-144,-154,-158,-154,-154,-153,-147,-140,-136,-139,-149,-145,-148,-146,-144,-133,-133,-113,-141,-140,-139,-135,-135,-123,-133,-154,-148,-145,-151,-154,-139,-146,-145,-132,-150,-154,-161,-160,-157,-145,-136,-151,-157,-162,-162,-163,-162,-152,-145,-162,-172,-166,-161,-158,-176,-167,-156,-166,-181,-169,-169,-171,-173,-187,-166,-167,-165,-171,-178,-177,-173,-166,-171,-171,-160,-168,-179,-177,-168,-169,-174,-159,-168,-169,-175,-172,-170,-170,-168,-219,-228,-228,-222,-222,-224,-229,-214,-234,-236,-228,-227,-226,-226,-234,-221,-242,-247,-239,-236,-233,-238,-243,-233,-236,-234,-239,-234,-234,-235,-234,-228,-233,-233,-235,-235,-233,-232,-231,-228,-233,-235,-238,-240,-236,-233,-229,-231,-237,-236,-243,-242,-239,-233,-234,-237,-236,-236,-243,-244,-241,-239,-236,-240,-437,-430,-384,-411,-363,-387,-353,-405,-412,-398,-391,-373,-358,-345,-355,-365,-419,-426,-403,-389,-361,-383,-363,-376,-406,-392,-399,-402,-378,-438,-357,-377,-403,-411,-391,-401,-393,-449,-389,-415,-423,-396,-415,-410,-413,-426,-395,-381,-407,-405,-398,-410,-469,-422,-374,-405,-406,-389,-380,-389,-437,-441,-395,-391,-31,-7,18,22,17,14,5,-12,-5,-9,11,16,16,4,-3,-5,-3,6,14,20,19,10,6,0,4,8,15,21,20,13,8,5,10,5,12,23,20,13,7,11,25,16,18,23,23,15,15,24,40,22,17,33,30,30,24,38,38,30,22,45,34,29,38,42,0,-1,0,0,0,0,0,-1,64,83,81,52,48,66,72,65,39,46,32,26,34,43,49,38,41,51,42,34,43,49,54,40,41,47,43,40,44,46,53,45,35,41,37,36,40,39,45,41,36,42,36,35,36,41,42,37,-1,-1,0,0,-1,0,0,0,31,24,22,10,17,37,28,40,27,33,33,44,35,36,45,41,32,26,38,46,45,41,39,40,18,39,51,45,53,52,42,30,30,48,53,48,49,53,55,41,31,44,42,41,42,50,45,41,35,52,35,34,37,31,45,47,50,26,28,10,12,30,19,43,28,20,34,26,28,31,19,23,17,37,30,30,26,29,34,19,30,18,29,28,30,25,12,32,23,41,16,32,31,17,45,28,26,34,41,24,13,42,35,29,39,45,36,25,31,33,38,32,45,46,27,38,32,22,36,41,49,22,48,30,23,44,20,29,131,133,130,136,133,135,136,128,133,134,131,134,133,132,136,125,133,132,130,132,131,132,127,125,130,129,127,128,128,130,128,122,131,130,127,126,124,130,130,125,127,122,121,120,122,127,130,128,128,123,120,120,121,128,128,129,124,120,121,110,119,118,119,115,145,151,171,159,147,162,155,152,94,186,203,261,253,229,189,131,96,156,246,257,258,259,226,187,140,175,239,251,249,255,243,186,153,210,244,240,250,232,239,184,116,245,220,226,235,217,224,163,237,212,233,124,155,160,122,152,245,242,165,171,126,85,143,89,-11,28,32,23,23,33,36,-11,30,52,44,36,39,48,49,39,37,42,40,31,35,44,42,35,16,28,28,25,25,31,33,23,6,11,12,12,12,13,16,8,-4,-5,-2,0,-1,-2,-4,-8,-9,-19,-5,-10,-12,-11,-17,-12,-4,-7,-24,-12,-15,-17,-23,-22,0,0,1,0,0,0,0,0,-14,-7,-14,-13,-18,-12,-6,-9,-17,-7,-4,-9,-12,-22,-16,-15,-35,-9,-1,-9,-18,-19,-7,-14,-104,-75,-6,-13,-11,-1,-11,-7,-171,-150,-146,0,-7,7,8,-15,-305,-181,-292,-27,27,15,53,20,0,0,0,0,1,0,0,0,-37,-9,-23,-28,-30,-25,-18,-32,-2,-18,-25,-32,-31,-21,-33,-21,-2,-17,-14,-30,-26,-36,-32,-34,14,9,-4,-17,-26,-34,-35,-34,8,27,16,5,-30,-22,-28,-36,-17,10,11,13,14,-35,-18,-47,-25,-14,-1,-7,4,15,4,-8,0,-33,-2,-13,16,0,-2,40,-29,-8,-23,-11,-28,0,4,-3,-23,-12,-23,-22,-6,-4,-2,-3,3,-14,-21,-6,-11,-12,-11,-2,-1,6,4,-10,1,-7,-3,-32,7,14,7,23,-3,0,-14,0,16,23,11,-14,10,-2,7,-34,-63,6,15,0,-2,-2,-13,3,3,0,19,7,-11,-25,-2,14,-22,-10,-24,-35,-34,-40,-39,-37,-17,-17,-18,-26,-38,-30,-41,-34,-24,-15,-15,-33,-42,-46,-42,-52,-17,-6,-18,-30,-41,-44,-42,-41,-27,-12,-12,-12,-27,-24,-15,-20,-34,-3,12,-4,-4,2,0,7,-30,-14,0,24,13,11,14,20,-26,-12,-30,0,-11,-26,-9,7,-37,-36,-56,-60,-58,-47,-40,-50,-27,-31,-51,-52,-62,-51,-48,-58,-23,-11,-33,-45,-53,-48,-41,-45,2,-6,-25,-34,-27,-49,-45,-46,-9,9,-26,-6,-22,-31,-35,-45,-19,11,18,-22,-25,-11,-27,-34,-51,14,5,10,-2,6,-3,0,-11,-83,-54,-21,-7,-61,-21,-8,24,31,20,9,12,6,12,17,11,22,19,-3,-7,7,4,10,16,26,13,4,-14,-8,-13,1,18,11,23,2,-8,-15,-2,0,51,42,40,25,2,-13,-9,15,102,93,86,51,31,11,11,4,121,122,97,53,47,35,13,26,80,108,73,51,48,25,24,32,0,0,0,0,0,0,0,0,12,-12,14,-7,57,29,46,13,-1,-6,7,14,13,29,21,21,-7,2,0,4,1,16,8,11,1,13,9,11,3,5,-2,6,-25,-32,11,17,7,12,4,3,-26,-55,-19,48,21,5,4,5,0,0,-1,1,0,0,0,-1,17,54,33,27,37,10,10,17,19,13,38,17,13,5,8,33,-13,-8,10,18,22,18,21,43,-2,7,5,9,12,24,26,16,-26,-12,8,15,27,21,31,23,-27,-20,20,-8,14,27,18,21,-78,-115,-24,15,15,15,13,25,-44,-10,-36,-14,-2,11,20,20,22,14,23,2,19,14,6,15,14,27,0,5,2,-1,-5,3,-5,18,26,3,-1,-3,11,6,-12,6,12,9,3,10,-17,21,-31,-9,11,19,12,2,11,7,-45,-65,7,5,12,21,13,8,-46,-73,-18,0,3,14,10,15,-45,-42,-50,-5,3,3,36,2,-7,2,-9,14,12,10,18,19,-5,7,-1,18,13,17,20,16,-12,2,2,13,16,13,21,19,-17,0,2,11,11,9,13,15,-15,-4,-7,4,8,6,16,26,3,-5,-17,-1,7,-1,0,8,37,24,-13,1,1,-11,13,11,26,46,19,15,8,9,20,21,53,58,62,72,68,64,73,70,45,66,64,72,74,80,90,77,40,38,56,73,71,82,84,86,32,40,50,60,67,61,70,74,34,28,45,54,49,57,62,77,40,8,23,25,44,42,47,72,72,39,12,22,27,16,35,26,54,76,26,33,26,36,60,58,-23,29,50,71,65,48,48,34,2,35,27,52,48,42,47,57,62,43,36,33,26,29,34,42,1,8,25,28,20,25,20,29,-65,-31,0,7,18,25,24,19,-203,-84,-13,9,24,26,30,24,-173,-184,-41,9,26,23,30,26,-261,-265,-160,-24,5,10,25,39,0,0,-1,-1,0,0,-1,0,1,-4,0,0,-2,-10,0,-8,0,1,-5,-4,-8,-15,0,-13,-2,12,-10,-10,-23,-14,-22,-6,-2,-9,-9,-11,-38,-13,-32,21,2,29,0,-4,4,7,19,28,7,-9,7,11,4,0,-37,77,0,0,0,0,0,0,0,0,15,2,-8,2,-9,8,0,30,1,-1,-3,0,0,13,-13,6,-2,4,-9,8,0,7,-3,-1,-9,-11,-9,-15,-4,-17,8,-3,-6,10,10,-4,6,-31,15,-28,16,25,5,10,8,47,13,32,-1,-23,-1,11,28,1,-50,-25,-2,-13,-32,-51,-23,12,-41,10,13,12,7,23,-3,17,-24,20,22,9,23,12,20,1,5,15,-5,-7,24,33,13,-3,25,31,0,2,1,6,28,27,39,-24,2,-2,-1,31,26,31,-12,11,34,12,9,19,34,-1,35,37,0,12,5,28,-8,31,0,41,-4,4,9,-44,10,-23,30,17,11,32,31,15,-2,28,14,39,23,18,33,11,18,22,29,31,14,16,36,29,26,31,56,43,18,32,21,23,33,35,55,32,23,21,33,38,2,10,38,26,10,25,22,15,-5,31,34,9,39,34,42,42,37,32,66,45,45,55,40,55,31,56,65,45,69,57,60,54,43,59,33,73,72,52,69,57,65,58,44,87,57,44,77,76,77,58,80,94,54,64,54,63,90,87,75,84,73,44,77,91,81,81,56,78,70,65,76,86,86,96,58,83,83,67,83,87,82,70,6,94,90,77,94,96,97,88,105,101,26,29,22,22,11,23,19,32,16,16,20,17,14,14,19,24,10,5,31,9,12,0,26,23,-1,19,0,-10,-15,-2,-17,0,6,0,5,-14,-29,-32,-16,-17,7,19,-14,-2,-34,-5,-81,-30,-5,-15,-30,-48,-78,-78,24,-65,-20,23,-6,-20,-39,-91,12,-133,0,0,1,0,0,0,0,0,-71,14,-27,50,-109,48,-111,47,-8,8,-9,19,-33,2,17,16,2,18,-8,21,-7,-21,36,-10,2,20,19,4,2,-30,22,-13,13,6,11,13,2,-25,53,4,14,0,14,10,6,-5,53,8,0,0,0,0,0,0,0,1,18,6,-32,-33,0,-1,0,-6,-62,-22,27,-6,-74,-121,-16,0,-22,0,-60,-17,-67,17,-71,-1,-27,-31,-17,0,-44,-44,-51,1,14,-27,-24,-54,-24,-23,-13,-50,-21,-25,-24,-25,-33,-79,0,-39,0,0,-15,-19,-24,-25,10,-3,13,-14,-12,-28,-16,-15,-41,4,-26,-29,-37,-27,-21,-16,-22,-14,-35,-23,-30,-38,-58,-10,-57,0,-33,-25,-16,-49,-38,-68,-23,-29,-8,-18,-28,-28,-54,-52,-33,-33,-9,-35,-14,-43,-45,-54,-48,-18,-6,-24,-29,-37,-49,-64,-9,-22,-1,-17,-13,-15,-34,-12,-17,5,4,-14,-17,-32,-8,-20,17,-24,-64,-30,-54,-40,-75,-41,-66,-57,-44,-26,-27,-31,-53,-29,-35,-55,-44,-34,-32,-25,-55,-38,-12,-49,-35,-21,-37,-29,-49,-44,-35,-65,-28,-33,-47,-43,-53,-39,-46,-72,-30,-36,-60,-47,-53,-82,-42,-43,-22,-27,-36,-32,-59,-50,2,-3,-14,-5,-14,-30,-38,-30,33,-35,-47,-60,-71,-62,-75,-45,-62,-50,-62,-37,-54,-61,-93,-59,-93,-42,-52,-53,-45,-68,-75,-117,-40,-41,-52,-44,-55,-71,-105,-70,-61,-71,-49,-56,-65,-89,-74,-71,-81,-74,-52,-59,-96,-81,-76,-112,-62,-59,-43,-64,-50,-60,-82,-57,-33,-31,-46,-34,-41,-73,-44,-56,-9,-32,-60,-4,-221,-20,-57,7,-191,-8,-38,-39,-48,-31,-40,-7,-41,-12,-29,-23,-35,-25,-16,-1,1,-49,-22,-6,-2,-17,-2,0,0,1,-18,-1,7,-4,0,5,8,4,1,-1,3,4,-5,-9,38,10,9,8,17,15,1,24,41,28,1,24,44,17,17,40,19,8,0,0,0,0,0,0,-1,0,0,17,24,7,34,24,0,-9,-2,15,26,29,43,27,0,-9,2,15,18,25,24,14,-1,-10,6,16,24,24,14,20,2,0,19,36,51,34,37,33,33,26,45,25,48,64,41,29,6,-13,0,0,0,0,-1,0,0,-1,15,12,33,23,27,20,25,30,48,29,24,23,32,29,18,13,31,34,29,38,43,34,37,17,22,39,40,46,43,42,47,19,24,42,64,59,49,51,41,46,15,46,78,67,47,72,25,38,29,34,48,62,64,38,24,31,5,-18,34,39,28,39,-7,20,40,48,26,42,19,28,27,22,29,41,34,27,35,37,34,-16,40,36,39,55,54,39,29,22,29,47,53,59,47,43,33,19,23,47,55,63,41,30,37,16,48,37,58,31,27,46,9,29,26,27,8,28,27,-5,9,15,10,44,34,10,0,28,26,6,35,48,44,51,50,37,24,28,28,41,30,43,36,19,22,25,42,51,57,53,49,35,30,31,44,67,64,68,44,26,35,45,57,59,58,50,35,17,35,38,38,68,55,55,35,33,45,39,41,52,49,60,31,42,27,35,50,77,64,73,71,63,50,68,105,139,114,123,115,122,123,95,102,130,102,129,110,107,125,98,124,122,135,112,125,127,111,88,124,120,112,132,105,113,111,101,122,97,111,91,124,102,110,114,128,130,103,139,98,122,115,123,123,88,82,103,118,119,126,138,54,115,115,129,80,84,135,100,29,2,-24,-14,-17,-19,7,-5,0,-5,-31,-63,-42,-12,7,26,1,-40,-65,-74,-53,-20,28,63,-10,-4,-59,-36,-3,62,58,87,0,-32,29,27,65,64,91,80,-42,-6,26,31,54,70,68,28,-33,17,37,27,76,98,75,91,-45,13,-43,21,38,68,63,104,-1,0,0,0,0,0,1,0,-52,-25,-16,-79,-278,-5,-476,-35,-1,-23,-12,-53,-7,18,10,7,13,-5,3,10,5,16,-1,7,16,16,18,26,16,6,1,2,20,7,12,18,4,-2,-6,3,16,7,6,9,-1,-9,-7,2,0,0,0,0,1,0,0,0,-37,-58,-68,-29,-30,12,26,24,-25,-25,-63,-141,-67,-25,-6,0,-17,-28,-45,-72,-39,-20,-31,6,-24,-75,-34,-78,-26,-39,-27,-6,-12,-23,-45,-17,-29,-25,-21,-9,-9,-10,-20,-19,-24,-14,-22,-9,-14,5,-2,-10,-12,-19,-21,8,-14,-10,-2,-2,-12,-18,-8,-9,-59,-31,-44,-5,7,11,-3,-10,-8,-22,-58,-34,-30,16,-1,26,-13,-39,-34,-79,1,-12,-5,-2,-38,-12,-60,-23,-40,1,-29,-3,-21,-42,-16,-30,-9,-48,-15,-26,-34,-22,-27,0,-23,-22,-28,-9,-7,-14,-9,-15,-7,-27,-15,-39,-11,-1,-9,4,-8,-10,-15,-12,-54,-26,-13,-62,-18,26,35,30,-60,-66,-72,-83,-33,-12,20,6,-44,-57,-75,-70,-50,7,19,27,-41,-46,-56,-47,-31,-11,13,9,-10,-29,-50,-32,-15,-8,15,6,-3,-20,-33,-29,-13,-3,9,10,-7,-11,-36,-18,-8,-7,8,17,-6,-17,-35,-13,-6,1,0,8,-92,-69,-69,-51,-42,-42,-50,-22,-121,-107,-77,-122,-46,-20,-6,-9,-77,-99,-117,-47,-43,-12,-22,10,-86,-49,-91,-25,-32,-14,2,-17,-44,-79,-52,-30,-22,-22,11,8,-66,-23,-38,-28,-35,-39,-12,-3,-54,-20,-29,-25,-28,-6,-29,51,-15,-27,-29,-25,-27,-33,-22,17,37,71,158,124,44,33,22,33,49,-15,30,43,62,68,-9,72,24,-15,34,39,65,82,69,48,10,8,11,37,49,60,39,52,6,0,12,18,18,7,15,42,-16,0,0,8,2,6,5,11,-37,-29,-38,-18,-16,-16,-7,-6,-25,-23,-7,-28,-9,-1,-7,2,0,0,0,0,0,0,0,-1,16,4,6,5,1,13,18,15,14,5,1,5,2,7,12,18,13,8,15,13,14,5,8,7,15,12,12,13,10,-3,0,6,9,11,10,1,1,-9,-3,8,5,-31,-34,-65,-108,-81,334,-15,0,-1,0,0,0,0,0,0,12,-10,9,-5,1,20,-5,19,15,7,-2,2,1,2,7,18,-1,-1,0,1,0,0,1,9,-4,-1,-6,7,2,4,13,3,6,2,8,14,19,14,13,24,4,19,16,20,38,28,34,31,7,12,31,27,27,30,42,22,6,16,21,20,34,37,26,21,11,33,-2,4,14,11,-5,-6,3,9,1,4,3,6,9,-12,20,2,1,-1,-2,-3,-7,17,12,0,-7,-1,-10,-3,8,9,0,-8,-18,-12,-4,-1,4,11,-1,-8,-13,-14,-2,-11,-2,26,-3,-23,-17,-7,1,6,6,17,-23,-6,0,4,5,10,-14,-4,0,-5,8,13,19,13,24,6,-19,-10,-7,-9,0,7,18,2,-16,-5,-13,-5,-7,12,7,5,-31,-20,-13,-4,7,18,21,0,-18,-16,-13,-6,2,15,15,5,-12,-9,-9,3,11,21,13,4,-8,-8,-9,1,0,4,0,4,-8,2,6,6,11,12,13,27,-36,-25,-60,-78,-53,-27,-28,2,-12,-28,-40,-35,-14,-24,-7,41,-26,-10,-9,-29,-18,-5,-4,21,-9,-14,2,3,11,1,11,29,9,11,6,25,13,8,18,11,0,4,26,15,13,14,16,31,6,19,15,14,8,24,-1,6,22,-27,-7,4,9,-3,-7,-3,17,24,18,-5,0,3,24,35,3,15,2,-7,-11,3,14,30,-4,-10,-6,-16,-9,-5,3,31,-5,-11,-23,-14,-19,10,24,32,-15,-39,-41,-54,-43,9,27,14,-35,-52,-60,-92,-82,-63,-47,-30,-26,-79,-88,-84,-85,-73,-79,-169,-7,-66,-70,-89,-85,67,-134,-329,1,0,1,0,-1,0,0,0,44,81,68,65,97,90,78,63,36,53,57,53,53,46,36,19,24,31,37,40,33,20,11,6,15,18,21,23,26,14,0,-1,7,11,14,13,14,7,0,0,9,7,9,5,3,-2,-3,4,-1,0,0,0,0,0,1,0,84,76,60,44,44,92,78,110,37,38,38,30,31,41,16,7,38,57,37,39,31,48,30,25,43,50,45,41,47,31,44,34,49,50,44,41,37,32,31,23,46,42,37,35,35,28,26,23,74,53,36,29,27,17,27,31,67,38,39,19,14,29,14,28,31,37,20,46,35,70,38,15,26,18,28,12,32,17,25,8,8,34,30,36,30,39,29,28,31,34,46,32,49,37,49,25,32,48,43,49,36,54,28,24,37,37,46,32,42,33,33,31,26,44,31,35,35,20,29,29,42,46,38,23,33,24,25,31,92,75,94,95,84,92,78,74,91,90,91,95,83,82,75,78,111,100,98,95,90,77,78,86,109,94,100,94,82,78,72,88,102,98,103,101,97,85,76,84,100,101,101,94,84,82,70,84,95,95,89,94,87,75,73,72,98,95,94,93,88,75,79,94,159,185,178,176,162,165,175,203,178,181,173,162,171,157,178,169,190,193,179,167,161,165,172,204,203,181,179,167,164,172,189,206,202,197,188,178,176,176,192,221,210,204,199,167,182,192,226,238,199,207,204,190,191,212,244,231,194,200,216,215,190,216,250,183,14,-7,28,18,55,72,55,55,19,34,32,25,50,47,44,69,11,19,40,37,54,54,52,55,9,22,21,22,27,35,39,39,-5,-3,9,10,8,9,15,13,-28,-25,-2,-7,-9,-11,-16,-17,-49,-21,-18,-19,-21,-22,-26,-24,-35,-39,-28,-28,-22,-22,-30,-34,0,0,0,0,-1,0,0,0,9,0,1,-21,34,-22,0,5,7,8,-6,-199,24,-195,0,8,10,8,2,3,81,5,11,8,4,9,11,3,-7,9,0,3,-5,10,13,-9,21,-4,11,-5,-16,32,-14,-29,47,-40,15,2,0,0,0,0,0,0,0,0,18,-14,0,-1,-1,0,5,-25,-7,-6,20,-49,0,-75,9,4,8,7,-55,-22,13,-28,-57,4,-1,-6,4,4,63,0,2,-3,4,0,-50,-9,-10,-4,-41,-6,4,-2,3,-49,-9,-66,9,2,18,16,0,-7,7,21,8,6,9,34,-1,1,24,-1,-3,14,1,-47,16,-5,-1,-9,16,-87,2,3,-69,24,-8,21,-76,23,10,-2,22,-79,16,-89,19,-1,6,10,-20,8,44,14,-12,11,11,-5,18,-70,-3,-66,15,-10,-5,17,-39,19,-2,21,-49,10,-2,-9,14,13,16,-1,25,-23,-47,2,2,12,34,17,8,18,11,24,-2,-5,-7,-4,9,26,17,1,15,-3,-2,6,9,14,-5,5,9,-15,-24,-17,17,0,5,1,-8,-18,60,-22,2,2,7,5,11,-17,-36,-2,19,8,14,9,24,7,14,23,26,18,8,21,9,5,11,13,16,20,3,19,9,0,29,2,19,15,-2,3,-5,-10,-7,-2,6,14,9,-7,-10,4,-8,5,-6,14,-11,-7,2,-21,-13,-23,4,15,4,0,-9,-15,33,-17,0,1,-4,2,0,-31,-27,-16,-2,1,-7,3,4,0,0,7,12,2,1,15,3,5,13,23,14,19,-8,-7,-4,-6,28,0,16,9,-23,27,-4,9,-4,9,-5,29,-1,-4,28,22,10,17,18,-7,-54,9,15,-5,-4,-22,12,17,-11,1,4,-13,-2,-8,8,22,-27,5,-8,-16,-23,-15,21,-3,-32,0,0,7,8,1,-1,-6,-16,22,0,13,2,2,-12,2,-28,-3,15,-158,1,-210,-1,-129,0,0,0,0,0,0,0,-1,10,4,6,22,-26,21,-6,26,0,7,18,12,6,-1,19,15,-1,3,0,6,-300,11,4,1,-5,-2,1,13,-29,18,-3,0,-3,0,-9,-2,-21,0,-5,-1,-5,2,-7,4,-23,4,-3,-2,0,0,0,0,0,0,0,0,12,-7,-14,6,-20,29,8,30,9,-27,-19,75,14,82,-25,-33,16,9,67,-30,5,2,69,29,0,-4,1,8,93,2,0,-12,-10,7,52,-6,-26,0,61,12,-5,-15,-13,55,-9,53,-9,-3,-11,-10,-7,-5,-19,-8,0,0,-4,-13,-15,-10,0,-11,8,-14,-3,73,-9,13,0,6,-19,131,20,-21,76,-15,23,-23,45,-20,-16,13,-4,74,-14,58,-14,20,39,-2,17,-8,131,-12,16,-5,-8,27,-11,58,-22,69,-18,22,15,-14,45,-11,-3,-15,62,-16,-12,40,-14,10,-21,12,-11,57,38,-13,2,-13,27,-15,10,-21,6,-4,9,-2,43,-1,13,12,8,10,0,-2,32,5,1,15,0,4,2,-9,47,-2,15,14,13,15,21,47,75,54,29,26,-19,-11,-6,0,35,6,0,-1,-8,2,-12,2,23,0,-1,-3,-10,-3,-2,-2,16,-1,9,5,-11,-1,-2,-1,21,-5,1,-9,51,61,4,42,54,28,21,66,43,41,67,34,66,47,68,34,26,47,43,61,79,85,42,33,44,43,62,75,112,64,56,38,12,32,22,84,56,83,16,39,29,20,46,25,51,26,57,23,16,45,16,20,32,30,17,64,41,17,25,14,48,16,28,19,1,-74,-43,-25,29,-42,-8,-83,-50,-37,-44,-28,-29,-22,-12,-3,-32,-35,-21,-24,-4,-5,-7,-13,-20,-19,-28,-3,-128,-5,-15,-9,-12,-11,-5,6,31,1,-7,-15,-3,-2,-7,1,0,4,-4,5,16,-2,-2,-1,0,6,9,7,9,9,3,9,9,16,14,21,1,0,0,0,0,0,0,0,1,-3,0,-35,-3,-3,-1,-7,0,-2,0,-34,-1,-10,-2,-5,-1,-4,16,-32,7,-3,-6,-2,1,0,21,-300,1,0,1,0,5,12,17,18,-5,16,12,0,23,-7,41,4,25,-12,10,11,0,0,0,1,0,0,0,0,-12,-4,-14,0,-17,0,-14,-16,7,-6,0,-20,0,-6,-5,-16,-6,-10,57,-11,49,-14,-9,-4,3,64,4,-20,2,51,13,-8,-12,17,7,112,1,10,4,7,14,63,3,11,-24,61,16,3,-1,0,72,18,73,-13,-16,7,30,-9,13,-17,27,-16,19,12,-5,14,-17,12,-17,5,-15,42,57,-10,13,-21,11,-9,43,-19,-14,59,-6,-5,-12,48,-11,22,20,-1,73,-22,54,-9,29,-7,-4,15,7,129,-8,12,5,19,13,2,56,6,50,-8,17,2,4,49,-12,22,-10,55,-10,-7,87,-15,18,-13,10,-3,78,3,-10,-2,-8,23,0,-4,-4,-10,-3,-6,2,20,0,-3,-2,-6,-8,-10,-2,25,2,-12,-5,-14,-7,-12,0,31,-2,-5,-4,-11,26,30,50,65,48,28,26,16,19,21,0,54,-9,12,11,16,16,1,-5,32,-5,-6,6,11,16,7,-4,32,10,6,0,13,5,13,-7,13,1,9,-5,29,37,2,9,8,9,8,27,-14,0,39,10,25,14,33,2,19,13,2,53,30,56,7,17,7,31,31,49,80,50,42,21,35,26,27,53,54,38,23,32,26,30,35,7,35,18,42,30,31,51,2,14,26,34,33,34,27,1,1,3,0,5,7,12,10,-7,0,0,-6,-1,7,1,9,1,-2,7,-4,2,-1,5,-7,2,10,18,32,11,-2,-5,-8,12,-2,11,-62,6,-2,-6,-10,-8,12,-20,8,-11,-10,-28,-18,-43,-24,-44,-43,-23,-9,-32,-44,-88,-78,-71,4,-32,-33,-77,-30,0,0,0,0,0,0,0,1,11,-11,-31,0,-28,-42,6,-6,0,2,-11,-3,-9,4,0,-5,2,5,10,-4,-4,10,8,1,4,10,2,88,0,2,7,5,5,2,-191,55,-163,-2,5,6,1,2,-30,56,-38,-8,3,6,0,0,0,0,0,0,0,-1,14,0,5,16,14,2,10,14,8,-1,11,2,9,-4,21,0,10,11,-42,-6,-31,1,5,12,-10,-42,2,-7,-19,-30,0,5,-2,-3,7,86,3,-1,0,-6,-3,-49,-31,27,-16,-53,2,7,-3,17,-64,9,-50,10,1,2,-17,-5,0,-11,-8,1,-18,22,-3,0,7,25,4,11,5,-39,-21,19,1,16,0,7,-24,20,13,-32,10,-18,21,-53,19,-12,-12,8,-56,-2,-56,21,-11,18,7,-17,10,69,8,-15,18,-5,-6,10,-74,29,-66,12,3,12,12,-79,17,-2,13,-61,1,7,-105,4,-12,-2,-11,14,-41,2,17,19,2,26,9,3,15,16,18,10,-1,8,5,10,17,13,14,10,17,-4,12,12,10,14,10,21,-3,-27,-1,11,8,13,11,3,-6,61,-7,-1,6,9,-4,4,-20,-12,-6,10,12,11,11,16,2,0,5,9,12,23,24,10,0,-3,0,1,24,19,4,-7,-1,12,-2,6,1,13,17,4,4,10,4,6,11,12,16,6,4,-4,7,-12,10,-2,3,10,-14,-8,-20,5,2,0,3,2,-3,46,-5,-5,15,9,0,-1,-9,1,-9,9,15,12,-3,-4,2,-6,6,-3,0,21,13,9,-2,-6,4,4,18,6,-1,6,-25,6,-86,6,7,23,7,2,9,15,15,0,27,-15,4,-14,7,5,23,-5,8,7,5,6,-7,-1,-16,5,-5,-17,16,4,-9,0,-8,-2,8,6,10,24,-20,10,-14,12,13,-8,19,14,13,16,18,9,-3,0,33,-10,-1,4,1,-5,14,-14,0,0,0,1,0,0,0,0,11,1,14,-14,7,-16,7,15,12,14,-8,7,-19,7,-6,10,7,2,9,-8,4,-11,8,11,12,15,-3,17,-10,11,-9,13,12,10,18,2,18,5,18,16,4,50,-20,37,-33,66,-37,39,0,0,0,0,1,0,0,1,12,15,11,3,11,7,4,11,6,7,9,9,9,5,5,5,20,4,17,-5,12,0,16,6,5,12,0,6,-1,12,4,16,25,17,7,7,0,-1,5,6,18,17,-1,11,2,11,8,9,13,16,21,9,-1,0,-8,23,26,23,20,21,20,7,21,23,16,28,-8,34,4,35,8,33,15,1,29,-8,26,-9,25,15,2,26,-18,29,-24,27,-3,30,26,-2,28,-35,24,-21,28,1,-3,27,-16,29,-33,28,-15,22,21,-22,34,-7,26,-21,31,-11,-3,28,-5,23,-4,32,-27,26,12,10,30,-4,30,-5,43,1,29,23,33,25,32,19,23,15,32,41,25,41,24,40,21,35,43,35,34,28,48,31,38,26,34,41,35,47,29,51,27,39,35,29,38,23,41,25,35,23,21,32,23,30,15,34,15,40,28,24,33,12,24,9,18,27,19,26,33,25,24,26,19,32,52,36,51,30,56,21,53,28,34,58,28,65,28,65,32,61,69,34,70,41,72,37,70,41,30,80,52,74,51,79,45,66,74,42,76,47,67,43,71,33,38,75,37,70,45,62,35,69,65,35,63,60,60,53,82,56,-68,69,-220,59,22,78,-210,78,19,-33,12,-18,18,-23,1,-27,-32,6,-37,15,-19,11,-31,14,18,-25,23,-19,26,-21,15,-17,-3,35,-2,36,-3,38,3,46,41,26,41,13,35,5,47,18,54,59,37,37,21,38,18,57,57,50,55,28,31,8,50,41,-14,66,69,39,76,47,74,100,0,0,0,0,0,0,1,1,49,-38,37,-35,39,-30,10,-17,19,-2,-16,7,-28,8,-12,11,9,-8,8,-16,0,-35,0,-7,0,3,-10,-5,-19,-7,-19,0,1,-6,-2,-12,-5,-20,-3,-6,2,-1,-6,3,-14,-2,-11,-3,0,0,0,0,0,0,0,0,0,1,-11,25,-18,14,-6,-10,3,10,-19,5,13,10,16,8,2,-11,13,1,6,0,13,5,4,-12,6,-17,14,-9,10,4,-17,-1,-7,4,-16,0,-16,-1,-15,-6,-11,-10,-10,-18,-14,-12,-4,-16,-13,-12,-19,-25,-16,-9,-5,-15,-12,-13,-14,-25,-13,-14,-173,53,-190,61,-213,56,-199,47,52,-169,71,-156,78,-161,55,-150,-213,70,-269,66,-189,69,-263,59,59,-224,70,-200,73,-257,62,-194,-179,63,-294,55,-315,60,-254,51,52,-186,54,-256,47,-186,48,-237,-125,47,-232,52,-154,38,-130,45,32,-147,48,-159,47,-117,30,-106,-20,-39,-15,-32,-17,-26,-21,-21,-29,-39,-36,-27,-35,-34,-46,-25,-28,-53,-26,-42,-24,-47,-28,-34,-41,-39,-31,-44,-33,-38,-31,-33,-35,-43,-33,-42,-31,-35,-28,-35,-37,-37,-29,-27,-30,-37,-23,-26,-30,-32,-27,-37,-29,-42,-35,-37,-34,-31,-28,-30,-30,-33,-31,-33,-69,-56,-75,-62,-73,-46,-68,-37,-56,-95,-59,-101,-54,-100,-49,-61,-70,-56,-106,-44,-97,-31,-68,-46,-58,-86,-44,-112,-34,-92,-37,-69,-84,-52,-97,-44,-96,-33,-92,-39,-50,-93,-46,-88,-50,-97,-46,-79,-82,-44,-79,-61,-87,-55,-92,-45,-49,-83,-51,-78,-56,-87,-41,-70,-57,4,52,20,50,56,69,-36,16,-3,34,37,76,49,72,6,13,24,14,41,23,42,34,21,-7,-9,3,-7,14,2,11,19,8,-6,-8,1,-6,0,6,-1,0,8,1,3,1,0,6,16,22,9,13,7,7,7,23,11,13,21,13,12,9,20,16,28,0,0,0,0,0,0,0,0,-4,-8,-8,-24,-16,-12,-13,-9,-5,-10,-13,-17,-16,-13,-9,-8,-5,-9,-10,-12,-13,-13,-9,-8,-10,-12,-11,-8,-8,-12,-10,-11,-15,-19,-25,-20,-25,-19,-18,-19,-27,-20,-23,-18,-26,-43,-11,-14,0,0,0,0,0,0,0,0,11,-19,1,-4,-1,-11,-21,-6,-5,-3,-5,-6,-7,-3,-9,0,-11,-4,-8,5,2,-1,-5,-14,-13,1,1,0,0,0,8,-7,0,-13,0,-1,3,-8,0,-10,-24,-15,-11,-9,-5,-15,-8,-6,-5,-9,-26,3,-18,-11,-2,-9,10,17,-14,2,17,-1,-1,14,-1,0,-10,-7,-12,-20,-21,0,-15,-6,-6,-6,-8,-7,-13,-3,1,-5,-8,-11,-5,-9,-9,0,-2,5,-5,-8,-11,-5,-7,8,-5,-7,-2,-12,-13,-18,-1,-10,-11,-7,-19,-6,-5,-3,-12,-7,5,0,7,5,12,7,3,-8,-2,5,5,10,1,17,-1,-4,-19,-4,0,-4,-3,-12,-5,-17,-6,6,3,0,4,0,10,-4,4,8,10,12,9,10,9,8,15,15,17,23,14,15,12,16,5,11,13,19,17,17,5,13,4,9,14,11,16,9,17,8,-3,4,4,6,3,2,2,3,-26,-6,1,5,-3,-2,-7,-13,79,86,83,57,76,74,80,90,81,84,74,78,77,80,81,88,88,81,93,88,93,86,88,93,76,85,94,91,95,99,94,92,72,75,82,82,86,87,80,64,60,62,63,81,83,76,77,72,71,77,89,80,76,78,67,66,25,41,27,40,44,28,42,35,-8,-8,-5,-7,-4,-5,-2,1,-37,-18,-13,-9,-8,-4,-11,-13,-28,-28,-22,-8,-8,-7,-18,-20,-45,-39,-30,-28,-22,-31,-42,-46,-46,-48,-48,-48,-37,-41,-51,-44,-48,-62,-48,-48,-35,-48,-54,-61,-45,-49,-42,-40,-41,-54,-56,-44,-58,-50,-62,-46,-39,-61,-68,-52,0,1,0,0,0,0,0,0,38,22,20,25,17,28,12,29,19,17,13,13,7,13,16,12,16,8,2,-1,-8,-2,1,9,10,6,0,-7,-10,-14,2,6,11,10,4,0,-3,-3,9,10,16,16,19,18,14,22,22,17,0,0,1,0,0,1,0,0,24,9,7,29,31,18,37,31,27,9,22,15,12,14,13,24,14,15,6,3,3,0,0,8,19,13,3,0,6,0,4,17,29,21,7,-2,2,0,3,18,23,18,12,7,6,5,12,15,36,33,28,22,20,30,31,36,39,22,40,30,34,35,23,42,14,24,24,12,20,29,24,20,24,18,15,16,21,26,14,16,35,12,5,0,4,1,15,20,29,15,7,-1,3,5,14,22,26,19,10,0,4,4,6,25,23,18,17,14,8,14,16,19,23,33,27,25,25,36,36,29,38,31,23,38,43,22,33,28,57,57,40,49,50,61,52,61,52,51,43,38,47,53,56,49,49,39,30,34,35,33,46,50,47,42,31,24,28,30,43,47,52,44,39,32,33,35,45,52,60,52,45,43,43,45,51,61,62,59,55,46,44,51,61,67,53,52,48,42,40,46,54,53,68,61,55,62,63,67,69,84,106,88,78,71,76,75,99,99,102,84,69,63,65,64,87,96,99,83,71,56,63,63,77,91,97,84,74,67,71,68,83,94,103,90,80,80,82,79,90,95,92,87,87,79,79,91,90,88,91,84,78,79,77,74,82,80,70,62,65,65,75,60,67,68,50,56,60,65,72,68,65,54,52,52,64,74,80,84,74,64,43,52,62,69,73,75,67,59,5,21,36,43,48,44,28,13,-69,-72,-43,-43,-48,-58,-81,-81,-280,-213,-147,-131,-136,-156,-184,-184,-197,-241,-251,-213,-230,-254,-260,-252,0,0,-1,0,0,0,0,0,10,13,-1,-3,18,7,0,8,13,14,7,-11,4,0,4,15,12,-3,12,-8,9,-13,33,11,6,4,60,-18,19,11,26,26,3,-2,-23,62,-16,3,20,-7,-67,58,63,56,106,43,25,-40,0,0,-1,0,0,0,0,0,-20,6,-14,31,-14,35,-8,21,-5,19,9,13,13,16,-1,7,4,16,7,-5,8,4,33,-4,22,-6,36,-12,34,-7,9,6,10,21,6,-24,-11,36,-5,17,-9,-26,7,15,23,-3,3,-14,7,70,29,10,25,74,14,4,-23,-10,14,24,63,11,7,-18,14,6,9,11,-9,5,-3,-1,-11,27,9,11,41,13,0,31,15,29,24,6,6,14,26,-32,8,26,-2,27,21,28,-39,-4,27,1,56,-27,37,-30,29,13,-23,-1,-28,32,-12,35,17,27,12,21,52,-15,62,19,43,-17,-26,13,-6,34,2,43,-7,5,14,5,9,32,-18,29,-3,17,1,8,6,27,51,9,-2,1,-10,35,2,31,-8,24,12,17,34,14,-3,41,24,19,-4,13,12,33,16,23,27,33,22,34,37,37,24,30,54,30,2,36,-18,12,0,34,9,13,-32,16,50,26,37,43,42,28,5,45,53,45,62,55,22,56,47,48,30,74,57,73,98,51,53,51,54,74,70,68,54,67,73,39,84,76,45,94,85,77,51,75,76,84,86,67,98,62,105,48,69,82,58,80,64,107,56,97,56,80,71,44,79,57,124,46,81,76,57,96,117,107,76,107,-11,-5,8,9,6,6,9,-3,0,18,2,-5,36,0,-12,-1,11,18,15,1,-13,-13,-10,-7,31,17,-1,1,-21,-6,-21,1,34,13,31,11,-1,12,18,7,29,28,31,32,23,14,49,36,34,31,64,54,51,15,31,51,38,-12,39,33,15,7,17,19,0,0,0,0,0,0,0,0,-29,0,-97,61,-197,75,-149,40,-30,15,-39,-51,8,-35,-38,19,-5,6,-1,-9,8,-20,21,4,0,0,-3,-17,15,4,16,11,2,-5,3,0,11,1,5,9,0,6,6,17,4,13,-11,12,0,0,0,0,0,0,1,0,-20,4,-88,45,13,25,-78,-38,-31,-4,42,-46,-36,-36,0,-23,29,-62,-58,-13,6,-12,-103,-47,-43,0,-6,-65,-54,-63,-14,-10,-36,15,-54,-5,-26,-11,-47,-9,-21,-3,-44,22,-62,-20,-28,0,-17,-42,0,-51,-3,-43,-29,-34,23,-27,7,-16,-14,-24,-2,-15,-39,-3,-17,-31,-12,8,-30,-22,-13,-4,-38,23,-73,32,-52,-10,-9,-26,0,-66,-9,-93,-17,-33,-40,-16,-52,-28,-9,-46,-27,-33,-13,-54,-29,-14,-65,2,-53,10,-23,-1,-49,19,-12,-46,-3,-41,-32,-21,-41,-35,-26,-15,-51,-7,-15,-25,-20,-12,-13,-26,-7,-30,-4,-22,-21,8,-60,9,-42,-7,-26,-25,-31,-27,-34,-23,-40,-16,-14,-30,-26,-38,-68,-32,-36,-45,-25,-51,-38,-54,-72,-52,-55,-32,-24,-36,-29,-67,-57,-47,-36,-3,-13,-24,-31,18,-71,-14,-12,11,-43,-35,-31,-61,-24,-36,-10,-29,-41,-47,-36,-28,-33,-24,-43,-16,-21,-45,-53,-18,-69,-37,-32,-24,-36,-45,-39,-11,-69,-8,-47,-21,-41,-51,-44,-45,-54,-72,-54,-47,-65,-44,-48,-58,-76,-58,-62,-41,-42,-62,-35,-57,-76,-49,-66,-14,-31,-34,-74,9,-66,-50,-30,-11,-55,-63,-74,-86,-51,-69,-69,-32,-61,-60,-68,-34,-45,-35,-44,-28,-28,-25,-75,-23,-66,-56,-209,-8,-15,41,-71,-65,-37,-35,-66,-31,0,2,-4,-33,-28,-60,-16,-29,8,15,1,-9,-13,-22,0,-8,8,3,21,0,-9,10,-7,11,42,37,-1,58,-8,22,20,33,16,21,20,-39,17,3,21,27,41,17,-23,17,1,17,13,32,0,0,0,0,0,0,0,0,0,0,-5,-18,-13,-9,-6,1,0,-5,-7,-13,-14,-10,-8,-1,-2,-6,-4,-9,-7,-7,-9,-2,-2,-4,-5,-9,-8,-8,-8,-2,-3,-2,-3,-4,0,-3,0,-2,0,6,5,7,29,15,15,6,0,0,1,0,0,0,-1,0,-63,-48,-62,-71,-71,-75,-53,-35,-34,-39,-40,-46,-45,-41,-46,-42,-39,-39,-40,-46,-46,-43,-45,-39,-43,-45,-48,-46,-51,-44,-55,-43,-41,-45,-34,-49,-31,-43,-38,-49,-33,-36,-26,-27,-19,-9,-27,-16,-28,-33,-18,-14,-4,-11,-20,-43,-16,-15,-22,-10,-13,1,-27,-11,-41,-81,-52,-85,-72,-62,-83,-50,-26,-39,-42,-45,-44,-45,-42,-30,-31,-42,-43,-44,-46,-44,-51,-38,-42,-38,-42,-49,-47,-45,-41,-39,-31,-40,-38,-48,-46,-42,-40,-39,-45,-40,-42,-47,-43,-41,-38,-37,-44,-60,-43,-37,-29,-44,-55,-34,-24,-42,-40,-31,-35,-25,-36,-31,-57,-62,-65,-63,-63,-63,-56,-58,-78,-93,-89,-91,-94,-83,-86,-82,-68,-74,-77,-80,-83,-78,-77,-67,-62,-63,-72,-74,-77,-75,-67,-62,-59,-62,-67,-73,-78,-70,-63,-60,-55,-62,-64,-67,-80,-67,-59,-60,-54,-61,-64,-66,-70,-66,-59,-56,-54,-57,-54,-58,-55,-58,-59,-48,-172,-184,-185,-185,-177,-191,-161,-159,-163,-170,-181,-181,-177,-181,-171,-156,-160,-167,-171,-179,-171,-174,-170,-157,-163,-164,-165,-170,-168,-166,-162,-160,-164,-159,-157,-157,-156,-156,-148,-161,-166,-160,-159,-153,-154,-155,-159,-164,-170,-172,-158,-151,-152,-160,-161,-163,-154,-157,-163,-160,-146,-149,-142,-144,-43,-7,7,-6,16,8,13,4,-19,1,4,8,13,16,10,-4,-23,2,2,13,13,8,4,-5,-22,-6,3,6,6,4,-4,-4,-24,-15,-7,-11,-6,-9,-15,-22,-30,-28,-26,-14,-20,-22,-28,-33,-52,-47,-29,-27,-25,-46,-60,-49,-62,-66,-68,-48,-60,-56,-75,-65,0,0,0,0,0,1,0,0,19,18,6,-4,1,3,-4,16,15,13,13,7,11,7,11,11,8,8,5,2,2,2,5,7,6,7,3,0,0,1,1,3,6,8,1,-6,-7,-5,3,0,1,5,2,-2,-3,4,6,2,0,0,-1,0,0,1,0,0,4,15,35,28,51,13,12,-3,44,36,34,53,56,47,40,41,53,55,49,48,51,55,52,59,46,45,49,36,48,44,43,48,40,48,36,39,36,40,44,45,39,38,38,31,30,25,34,32,38,38,35,34,31,37,37,43,52,35,44,38,35,40,35,53,41,43,58,64,56,24,57,14,51,52,46,53,53,48,54,49,50,45,56,51,56,51,59,45,45,46,47,52,52,54,45,47,52,54,46,44,52,46,51,42,47,49,44,36,33,35,38,45,54,46,47,44,41,40,45,55,45,44,40,53,41,45,42,56,109,108,109,107,106,103,102,110,90,86,86,85,83,91,88,91,90,94,92,85,90,93,93,90,90,87,89,85,85,87,89,89,83,89,83,86,85,78,87,90,84,85,85,74,73,69,77,83,82,88,82,78,77,81,85,89,78,81,81,75,74,77,82,83,271,283,281,277,271,281,275,271,201,205,200,207,203,205,201,214,207,213,205,206,200,207,202,209,206,206,209,203,193,201,204,204,206,212,197,209,194,195,204,212,206,201,194,189,188,189,195,203,211,207,207,203,193,199,195,210,218,206,208,211,195,201,196,200,-43,6,16,24,15,19,19,-55,6,14,12,9,22,18,21,17,1,-4,-1,-9,-15,-3,-7,6,0,1,-3,-14,-13,-8,1,12,3,3,-2,-4,-7,-1,6,4,8,9,6,3,3,7,6,4,0,-1,3,3,7,1,0,-5,0,-10,-15,-6,-26,-12,-23,-13,0,0,0,0,0,0,-1,0,2,-11,22,-89,30,-11,5,-6,5,-24,58,-95,58,-15,4,-3,0,-17,9,-74,17,-18,-4,-6,0,-13,6,-20,6,-17,-11,-4,-4,-7,11,-33,18,-9,-8,8,-43,-43,-9,-51,14,-43,10,-39,0,0,0,1,0,0,-1,0,-19,-30,-18,-15,-8,-21,-18,-28,-6,-25,6,-40,-1,-23,-7,-8,-27,-6,-16,-40,-14,1,-28,-34,-7,-26,-24,-5,-27,-24,-28,-27,-32,-10,-30,-32,-19,-17,-29,-20,-49,-23,-21,-35,-47,-54,-46,-33,-43,-22,-83,-42,-67,-26,-66,-23,-37,-35,-59,-43,-40,-35,-47,-12,7,-40,-18,-32,-19,-28,-12,-29,-30,14,-37,-14,-25,5,-17,-21,-20,-35,2,-49,6,-22,-31,-25,-15,-27,-35,-22,-40,-24,-43,-29,-15,-27,-18,-28,-23,-48,-21,-44,-32,-2,-40,-32,-42,-17,-56,-13,-23,-44,-29,-47,-44,-51,-25,-47,-34,-49,-63,-63,-46,-50,-64,-36,-37,-30,-19,-2,-22,-28,-45,-42,-31,-27,-22,-14,-30,-26,-49,-44,-21,-14,-27,-4,-33,-24,-30,-38,-25,-33,-26,-15,-33,-32,-54,-45,-41,-23,-31,3,-40,-34,-50,-39,-40,-28,-25,7,-41,-31,-43,-39,-62,-45,-51,-26,-53,-52,-69,-55,-61,-53,-47,-19,-36,-55,-52,-66,-84,-76,-79,-67,-76,-77,-89,-126,-83,-64,-83,-72,-71,-64,-88,-107,-79,-69,-67,-73,-64,-72,-84,-103,-78,-81,-90,-90,-71,-77,-101,-100,-91,-87,-83,-76,-87,-101,-97,-95,-108,-84,-87,-76,-104,-83,-116,-87,-102,-111,-116,-113,-125,-125,-99,-112,-125,-116,-153,-104,-136,-135,-124,-107,-39,9,9,23,13,15,8,2,-15,0,9,26,10,12,4,-4,-27,-1,14,28,17,1,-13,-12,5,-2,32,17,42,3,0,-16,-3,2,38,48,42,15,7,-4,-1,-13,24,28,37,-4,1,2,36,-40,22,5,13,-27,0,9,14,28,19,-142,3,-4,4,-4,0,1,0,0,-1,0,0,0,9,-24,-85,-102,-47,0,9,14,3,-11,-48,-108,-21,-3,-6,4,5,-16,-41,-127,-8,0,4,2,6,8,-39,-11,-16,11,9,5,7,8,6,7,5,7,13,8,7,13,13,3,7,7,12,11,0,-1,0,0,0,0,0,1,-40,-30,-126,9,-31,-23,14,-8,-35,16,-69,-24,-43,6,-12,24,2,-14,18,-5,9,-32,9,6,34,0,26,-201,19,3,26,11,18,-10,17,21,18,2,15,22,23,33,6,28,1,29,21,31,11,27,17,29,17,28,19,29,16,24,31,24,32,23,30,47,-39,16,-36,-4,-3,-3,16,12,34,-13,4,-71,2,-5,20,23,-7,22,-18,-3,-18,22,13,11,26,-7,25,-193,23,-4,18,12,-10,14,-5,33,11,17,-4,18,18,-9,32,14,25,0,34,2,4,32,20,34,20,25,-1,29,22,17,33,10,38,18,31,8,17,15,17,-9,7,27,31,10,31,16,19,-7,22,20,45,24,24,13,20,14,24,14,35,29,30,26,22,-165,13,19,32,27,31,23,29,20,35,32,44,42,45,25,26,20,22,31,52,35,25,16,22,2,29,26,17,40,36,26,20,5,29,30,35,31,-13,32,-27,-175,-33,7,-3,10,44,21,40,-41,7,31,26,39,26,31,22,36,24,15,36,30,45,47,47,-201,43,36,47,37,23,34,34,19,39,53,46,61,50,31,39,32,42,41,68,53,47,56,53,38,53,54,31,61,60,45,51,36,59,53,59,38,19,-3,-39,-34,-38,31,22,-20,-140,-27,-81,-56,-59,28,6,9,2,-36,-73,-25,-45,20,29,46,4,-24,-10,-30,-3,17,23,41,-18,-15,-19,0,-8,15,19,19,0,2,10,16,17,14,25,21,-4,0,29,26,28,10,7,9,-15,3,14,23,19,13,3,1,0,0,0,0,0,0,0,0,2,3,1,-107,-2,-2,2,2,2,4,-9,-101,-11,-1,2,0,1,4,-1,-105,-11,0,3,0,1,2,-9,-112,-10,3,3,0,-3,-1,-10,-124,-11,-3,1,5,-3,4,-41,-134,-30,3,0,8,0,0,0,0,1,0,0,0,11,0,-1,8,0,-7,8,9,11,0,8,-11,10,-9,0,6,10,0,-5,-6,-9,-6,0,4,12,-1,-5,-6,-11,-3,-4,0,5,5,-4,-17,-1,-4,5,13,5,4,-10,-4,0,-6,18,5,14,-29,-4,5,3,-23,7,-2,7,16,-14,-3,-9,0,6,32,2,-3,3,6,-6,7,8,23,11,7,-8,-1,0,7,7,21,11,-5,-4,-6,-8,-1,9,14,2,-4,-3,5,-10,-2,1,-6,-13,-3,-8,-8,0,-4,-11,0,-2,-17,-6,-2,0,-12,2,2,-12,-1,-9,-8,-14,6,4,-1,10,-15,-20,-19,1,0,-2,16,6,5,5,19,-4,-3,7,4,6,1,1,-8,-1,-2,2,6,10,-3,-1,-14,-5,0,6,4,7,3,0,-12,-6,-4,3,6,6,4,0,-20,-3,-2,5,10,7,-1,1,-22,-7,-3,2,8,7,1,-5,-7,-4,-3,0,0,1,2,-2,-13,-3,0,1,1,37,35,21,83,14,27,27,30,33,29,15,72,13,26,22,26,34,25,18,67,16,19,25,20,27,23,18,68,13,19,17,14,11,21,22,63,15,22,16,29,28,14,22,49,22,24,35,31,15,23,13,43,13,29,30,23,21,38,26,35,17,28,22,26,-35,-30,-27,54,-28,-19,-34,-41,-39,-32,-5,59,-17,-34,-41,-47,-44,-14,15,71,1,-24,-52,-57,-46,3,32,61,25,-19,-44,-67,-19,16,39,60,43,-5,-19,-56,-4,23,45,55,29,2,-21,-37,8,35,50,72,-5,-25,-17,-22,37,16,55,60,-9,-7,8,9,-1,0,0,0,0,1,0,0,38,37,40,-32,50,12,-7,21,19,28,15,-82,21,19,9,12,9,8,-1,-98,-4,6,5,5,7,3,-2,-122,-8,0,0,3,7,4,-2,-199,-8,0,1,0,6,2,-1,-149,-3,0,-1,0,0,0,0,0,0,0,1,0,20,37,30,29,12,14,4,32,17,23,18,3,9,25,17,0,12,30,14,-22,8,23,7,2,5,15,19,-18,18,13,7,13,2,2,-1,-28,2,0,-1,-4,0,-5,1,-48,-1,-9,-5,-7,0,-4,-3,-44,-4,-7,-9,-12,-10,-18,-12,-28,-6,-9,-9,-17,10,22,10,7,6,22,4,2,2,5,3,3,15,14,-10,0,15,17,18,-26,14,3,0,-1,12,14,13,-27,8,12,7,7,8,14,6,-32,-2,7,12,8,10,6,0,-32,-3,2,5,17,5,1,-2,-39,-2,0,-2,-4,-3,-12,-19,-20,-1,-2,4,1,26,16,10,52,22,17,26,18,30,26,19,40,29,26,27,20,33,28,28,49,24,26,26,17,27,21,19,54,22,18,19,15,23,25,18,60,22,17,17,13,20,18,27,70,26,18,19,13,13,24,28,77,29,24,12,15,25,24,25,103,29,24,17,14,11,11,9,46,13,27,31,21,18,23,24,15,24,38,23,14,21,19,29,11,35,36,22,21,17,17,17,15,21,22,23,21,20,20,9,12,16,19,18,17,17,20,15,17,13,21,14,14,15,7,13,19,16,15,2,12,17,11,7,33,22,18,16,24,38,46,49,13,49,54,45,3,43,44,36,27,40,45,47,28,44,34,26,5,13,42,37,32,29,20,-2,-41,-18,15,20,17,0,-7,-19,-63,-19,-1,4,6,-3,-15,-22,-63,-14,-6,-4,-5,-16,-16,-11,-48,-8,-8,-12,-11,-17,-6,-2,-44,-3,-7,-7,-9,0,1,0,0,0,1,-1,0,-6,32,15,6,5,3,5,8,4,1,19,26,14,2,0,2,-7,6,30,11,18,-6,4,-6,-3,2,-9,36,-7,2,-15,5,19,19,4,-27,-28,-20,2,10,46,35,13,-45,-44,-40,-41,-11,0,0,0,1,0,0,0,0,-24,16,-18,27,-19,12,1,25,-14,24,3,22,0,0,5,2,6,15,29,-4,22,3,-10,12,17,-7,20,0,12,8,8,-9,42,25,18,2,-17,5,1,-9,21,16,10,7,-19,-13,19,-3,27,24,8,-16,0,-14,2,-8,12,4,13,1,-30,1,-34,6,-2,8,-10,22,4,7,12,18,-18,37,-10,7,-16,5,18,35,15,10,3,-6,13,5,0,16,47,-1,21,-32,7,17,26,0,-15,-22,4,18,11,2,10,2,36,-1,8,-20,11,-7,11,-27,3,37,-1,24,-30,7,-15,2,30,14,19,-36,-7,-30,12,11,8,13,8,30,7,3,3,17,-36,36,4,21,4,7,14,11,10,9,-3,17,7,4,-30,33,16,28,32,0,16,7,20,16,16,20,10,14,30,0,3,31,5,37,18,18,0,-9,10,18,10,33,16,38,5,14,11,21,1,25,13,19,-4,1,-7,21,40,65,59,72,56,77,79,76,40,99,46,62,59,56,74,76,68,71,37,49,53,70,33,97,93,69,86,25,56,81,99,91,62,82,50,43,75,76,76,100,77,71,64,49,74,63,105,64,51,73,59,78,55,82,82,59,21,68,-188,-207,66,8,18,5,11,42,38,31,-3,-11,9,32,36,64,32,25,-4,-4,10,14,22,27,26,28,10,-2,-10,18,24,11,33,14,8,-4,-12,-30,9,5,-5,12,-4,-17,-32,-53,21,6,-4,-4,-9,-43,-30,-17,14,-14,-25,-26,-43,-56,-18,-37,-35,1,-29,-46,-37,-47,-40,-13,0,-1,0,1,0,0,0,0,-62,66,-97,70,-176,-96,-92,50,-70,61,-34,37,-40,-30,-9,-12,-6,-11,4,-22,27,-30,0,2,-7,-29,-11,-2,-2,-15,-9,-9,0,-10,-3,-14,-8,-11,-3,-2,-3,-10,-6,-15,-6,-4,6,2,-1,1,0,1,0,0,0,1,22,-34,74,-82,-10,-52,-38,5,30,-76,7,8,41,-94,5,8,-18,31,21,-49,-33,-13,28,-30,-70,52,-84,44,9,22,-50,0,-16,9,-10,26,-22,23,-3,8,0,-37,27,-31,26,-26,-5,4,-1,6,6,-7,-4,-17,3,-11,-34,-1,-9,6,-5,-3,-9,-1,14,49,-43,-19,13,-31,-29,-27,9,17,-54,21,-50,9,-33,7,21,-24,45,-12,5,-81,20,10,-24,24,25,38,-7,-12,-59,42,20,0,16,25,1,-11,-26,-53,-20,-9,-10,-7,7,-14,-15,-15,-14,2,-8,-21,-4,-11,-9,2,-11,-27,-18,1,-27,0,-10,-13,-32,-35,-56,1,-67,-54,-46,-16,-28,-2,-33,-5,-54,-49,-36,-29,-6,-20,0,-14,-15,-22,-38,-9,-10,-37,-14,2,-22,-33,-32,-34,-26,-24,-3,18,-19,-31,-43,-24,-33,-48,-17,-7,-17,-44,-45,-39,-17,-37,-22,-32,-28,-29,-44,-27,-19,-31,-8,-15,-24,-23,-20,-25,-44,-51,-101,-87,-72,-78,-87,-25,-54,-56,-87,-22,-110,-49,-72,-40,-66,-65,-45,-53,-41,-127,-36,-34,-83,-74,-50,-27,-71,-81,-107,-37,-64,-89,-41,-28,-53,-84,-85,-93,-105,-86,-86,-62,-59,-81,-102,-78,-76,-62,-78,-94,-72,-88,-101,-72,-68,-85,-81,-80,-91,-80,-71,-58,-195,6,-28,-6,-121,-51,-29,-92,-67,10,-160,2,2,-4,18,0,13,25,7,14,3,2,8,0,34,40,33,21,22,18,2,17,18,24,9,46,15,25,3,10,-9,-17,8,14,37,20,12,5,-13,-14,2,14,23,20,12,2,-24,-6,1,13,19,11,13,0,-1,0,0,0,0,0,0,0,-3,-20,-30,-29,-7,-7,-2,0,0,-16,-31,-36,-12,-23,-13,-6,-3,-11,-29,-33,-25,-14,-21,0,3,8,-8,-30,-25,-10,-14,7,24,5,58,-128,89,-34,18,14,21,-40,-25,-118,46,-46,33,19,0,0,1,0,0,0,-1,0,-6,-22,-4,-8,-10,-29,-25,-9,-41,-14,-30,-7,-29,-23,-18,-29,-10,-8,-18,-3,-10,-20,-24,-20,-5,0,0,-4,1,-8,-1,-18,12,0,40,0,26,-7,-8,10,10,63,-15,20,-25,69,-13,13,-2,8,-6,-16,21,-18,-19,15,-2,20,-19,-20,-3,4,-10,-10,0,-33,-30,-15,-8,-19,-12,-13,-36,-20,-42,-16,-31,-20,-15,-25,-37,-20,-27,-24,-19,-17,0,12,27,-41,-9,-6,-2,-8,29,-5,12,41,-44,11,-17,32,-16,-3,23,0,33,0,35,-38,-24,-13,23,-13,-18,-1,-17,-13,-18,-19,2,-26,7,-48,11,-31,-7,18,-25,-19,-40,10,-26,-25,-37,-32,-39,-29,-38,5,-27,-27,-36,-38,-40,-34,-39,0,-24,-36,-50,-49,-24,-13,-30,1,-17,-21,-30,-32,-5,-5,-36,8,-17,-18,-25,-22,-5,-16,-41,1,-21,-30,-22,-42,-9,-24,-26,-36,13,-21,-5,-25,-3,-29,-37,-28,4,-39,-19,-29,-51,-53,-64,-48,-47,-43,-19,-30,-47,-58,-62,-35,-52,-54,-49,-50,-61,-49,-51,-29,-34,-38,-51,-23,-33,-33,-38,-11,-12,-16,-25,-23,-3,-14,-33,18,-9,-12,-10,-21,-4,-8,-28,21,7,-34,-31,-25,-12,-25,-17,-3,0,-32,-43,-44,-42,-39,-50,-27,-14,-62,-24,-53,21,31,15,16,25,21,23,24,12,14,-11,11,16,18,20,19,9,-2,-15,-5,18,16,12,21,22,-1,-4,-4,7,12,4,10,12,3,3,0,3,10,0,9,0,7,20,4,20,15,16,21,-32,-11,11,-48,32,14,24,13,-38,-7,6,47,-8,0,-6,-9,0,0,0,0,0,0,0,1,-6,9,38,-33,-73,-31,0,-7,-1,7,34,-8,-18,-14,-6,-1,0,-1,8,5,-2,-1,-7,6,3,10,0,-12,1,6,4,7,9,5,0,-29,-9,0,7,4,9,-10,6,-69,23,-8,3,8,0,0,0,0,0,0,0,0,6,5,-37,-23,-25,-1,-1,-3,-26,34,4,-10,-17,21,5,-7,16,-2,10,-29,11,6,5,14,-9,-16,2,-11,1,2,2,4,-20,-3,-13,-9,-8,9,-11,19,-6,-9,-2,-16,-7,1,1,8,-13,-22,17,-309,23,-4,22,-4,8,-31,7,-40,8,-24,-1,-13,6,14,16,1,5,6,0,11,11,4,24,10,22,5,8,5,18,-3,15,0,9,20,-5,10,2,5,9,1,8,4,0,16,15,14,21,-38,1,6,26,16,0,10,-4,-4,-2,8,13,12,-3,-14,18,-209,23,6,-8,16,11,-2,14,-7,14,-9,-7,21,27,30,12,17,45,20,30,34,15,8,4,-4,25,1,20,14,24,14,1,-3,18,7,15,32,26,13,8,23,38,21,29,45,26,23,29,10,43,21,42,38,28,15,17,22,36,17,29,14,20,13,15,-13,31,3,21,25,22,6,0,49,11,12,22,31,40,16,43,-9,56,50,46,62,42,36,59,22,64,52,63,56,58,43,54,35,40,52,44,56,47,36,51,44,51,39,41,66,35,39,62,30,48,36,54,58,22,36,49,48,46,48,53,44,42,38,48,19,49,35,37,32,43,44,46,46,19,45,25,60,13,31,42,31,-22,-69,-17,-29,46,20,28,7,0,-47,-43,-26,18,48,17,21,10,-9,-15,10,38,32,32,25,20,4,16,3,34,34,28,20,19,11,19,31,26,19,9,14,11,16,21,22,13,3,-9,-26,24,23,3,19,0,-15,-17,-14,10,19,6,19,0,0,1,0,0,1,0,0,5,-6,-7,-13,-2,3,20,19,3,0,0,-10,0,1,36,36,7,8,-2,-1,5,3,69,44,10,5,8,10,3,-6,60,39,20,25,8,15,0,0,49,32,19,8,37,0,20,15,71,165,0,1,0,0,0,-1,0,1,-26,-5,13,-7,6,-11,-19,-6,10,7,-2,-6,-19,-6,-32,-23,-2,9,-5,-5,-12,-26,-29,-55,11,13,-4,-7,-10,-42,8,-93,20,12,7,6,-17,-33,-26,-78,0,15,11,2,-17,-22,53,17,19,56,5,1,-54,13,-3,66,29,1,26,9,5,9,-8,58,-3,-16,-13,-23,-15,-15,0,16,-6,-10,-26,-17,-13,-3,-1,-14,4,-1,0,-27,-14,-21,0,-30,6,19,-4,-7,-31,-16,1,-69,4,5,9,-6,-16,-12,17,-33,0,27,0,9,-15,-47,52,-38,-4,-6,21,4,10,-3,10,2,-9,9,13,28,7,28,32,16,-6,-12,-14,-16,-12,-27,-62,-36,-6,-22,-24,-11,-7,-22,-48,-46,-19,-21,-12,-24,-15,-36,-79,-62,-13,-8,-21,-15,-16,-37,-81,-72,-17,-23,-24,-21,-15,-36,-96,-79,-10,-16,-18,-19,-30,-43,-94,-68,-10,-19,-10,-21,-15,-22,-12,-34,-21,-20,-18,-26,-19,-19,-35,-18,-27,-29,-52,-47,-50,-32,-53,-8,-22,-47,-70,-66,-63,-74,-48,-82,-28,-25,-46,-63,-69,-77,-53,-88,-53,-33,-48,-41,-59,-65,-60,-112,-47,-4,-41,-3,-39,-51,-80,-81,-38,-6,-29,-34,-33,-84,-21,-174,-61,-44,-40,-12,-8,19,0,-7,-25,-38,-15,-4,7,43,-40,42,23,18,8,14,-4,-11,-11,-12,51,37,22,25,9,-9,-21,-24,33,30,24,15,8,-23,-31,-42,75,48,47,27,4,-25,-50,-77,55,69,56,40,8,-37,-114,-113,78,94,80,55,24,-2,-344,-72,70,102,100,119,61,2,22,-122,42,100,144,139,110,112,75,69,0,0,0,0,1,0,0,1,54,20,39,50,37,11,37,19,31,24,23,27,14,25,57,15,3,1,0,8,17,26,156,27,1,-10,2,6,14,39,166,48,-5,-10,-3,-3,1,20,171,69,-2,-5,-1,2,5,23,279,59,0,0,0,0,0,-1,-1,0,-11,-3,-3,24,12,17,53,15,-10,-2,13,27,25,28,26,66,-23,10,14,14,28,16,17,43,-5,-1,3,22,37,31,50,36,0,-1,11,10,14,26,34,23,5,0,5,15,17,6,41,28,6,1,-8,8,18,20,18,21,-34,0,-3,0,-10,16,24,3,14,2,36,50,16,-6,-13,36,3,16,31,47,44,23,1,29,7,11,5,42,33,44,15,70,32,31,18,17,38,50,36,41,24,15,28,11,20,46,71,72,11,16,16,24,26,25,70,51,36,16,15,25,24,23,17,70,0,0,20,21,13,26,2,12,13,16,22,9,31,36,40,47,12,25,25,21,35,38,42,46,14,14,20,20,44,33,65,40,13,17,12,17,31,44,65,47,13,9,17,16,35,40,59,50,5,8,5,3,23,15,39,43,-2,7,2,-3,0,-10,62,56,0,-2,3,18,6,21,78,10,125,63,107,87,103,87,120,91,22,76,60,106,120,112,143,118,40,43,54,71,104,114,82,115,45,48,61,58,94,87,106,106,60,60,67,68,79,88,94,122,32,52,56,72,76,85,76,115,61,75,47,66,72,47,116,147,41,38,38,55,44,56,98,68,12,-22,-22,-17,11,20,72,43,-53,-9,-31,-24,-9,23,18,58,-19,-27,-31,-20,-27,22,63,59,-18,-27,-17,-14,-11,7,16,11,-13,-29,-16,-16,-1,29,32,29,-21,-29,-17,-17,0,22,51,33,-19,-15,-8,-6,-1,11,31,20,16,-2,0,10,19,13,4,8,1,0,0,0,0,0,0,-1,-61,-296,-97,-6,11,6,2,3,-27,-147,-39,8,5,4,4,5,-9,-57,-12,5,4,3,4,5,-8,-17,-7,0,1,-1,0,1,-12,-17,-10,-2,-11,-6,-2,0,-18,-20,-20,-16,-32,-18,-7,-22,0,-1,0,0,0,0,0,0,-39,-201,-41,-81,-9,-3,3,4,-46,-126,-25,-112,-21,-6,3,8,-183,-83,-101,-48,-14,-7,-4,3,-97,-36,-74,-32,-20,-8,2,1,-46,-30,-31,-18,-8,-3,-5,1,-25,-11,-18,-5,-4,0,-3,10,-14,-5,-2,-9,-3,3,9,9,1,6,1,-2,5,11,20,4,-79,-381,-54,-49,-18,-12,-6,-8,-237,-158,-237,-25,-20,-6,-10,-1,-99,-158,-81,-147,-16,-15,-9,-12,-81,-48,-67,-65,-105,-19,-17,-4,-18,-38,-35,-60,-52,-173,-20,-19,-32,-14,-32,-30,-64,-43,-161,-15,-14,-22,-18,-35,-37,-72,-43,-181,-20,-11,-16,-16,-43,-32,-76,-54,-20,-118,-43,-51,-52,-56,-60,-53,-24,-94,-38,-41,-38,-39,-45,-45,-26,-102,-38,-34,-31,-33,-29,-25,-27,-110,-37,-30,-28,-31,-28,-26,-30,-101,-35,-25,-28,-27,-28,-27,-29,-99,-35,-25,-25,-25,-27,-29,-32,-93,-39,-33,-34,-32,-29,-33,-27,-84,-31,-22,-25,-28,-24,-31,-60,-93,-57,-67,-60,-64,-71,-70,-85,-100,-86,-66,-65,-56,-63,-83,-79,-117,-86,-74,-67,-66,-69,-90,-82,-98,-78,-90,-75,-67,-69,-80,-72,-86,-90,-88,-90,-77,-87,-81,-71,-82,-76,-99,-91,-96,-76,-84,-73,-101,-91,-87,-112,-99,-106,-85,-71,-86,-78,-93,-89,-89,-74,-76,-151,-401,-116,-10,22,28,33,26,-136,-322,-277,-36,9,20,23,22,-118,-176,-121,-32,4,16,19,24,-42,-48,-40,-5,12,16,20,23,1,11,3,6,10,17,17,24,24,22,13,6,9,12,19,25,28,21,20,8,6,15,17,23,13,25,24,0,11,13,12,4,0,-1,0,0,0,0,0,0,61,203,56,3,-12,17,0,18,52,149,49,1,0,12,8,5,35,98,30,-2,-2,1,0,0,19,39,10,1,0,-2,-5,-1,8,11,2,0,-1,-2,-2,-1,8,7,6,5,0,2,0,0,0,0,1,0,1,0,0,0,0,-34,-13,-9,-23,-13,-10,-7,-4,-35,-22,-1,-9,-11,-13,-10,-9,-22,4,-8,-21,-13,-6,-14,-4,9,-6,-7,-2,-5,-11,-8,-11,7,2,-1,0,-4,-5,-10,-7,7,1,0,-4,1,-2,-8,-15,4,-2,5,2,-6,-8,-8,-20,4,0,-7,-6,-4,-1,1,0,-8,2,-16,-14,-22,-16,-24,6,1,-2,0,-16,-10,-18,-5,-4,5,4,7,0,-14,-13,-11,-9,13,5,6,5,-5,-3,-2,-4,11,11,1,7,10,2,-11,-2,5,5,6,4,7,2,-5,-11,3,5,5,4,4,2,-4,-14,-7,0,0,3,2,-9,0,-15,-137,-1,0,-13,-10,-10,-6,-17,-55,-18,-15,-22,-27,-20,-18,-21,-31,-26,-22,-24,-18,-12,-17,-11,0,-8,-8,-9,-10,-3,-3,0,7,-2,-2,-6,-2,-6,-12,0,16,0,-1,-3,-1,-2,-8,5,23,3,-8,-2,-4,-11,-2,6,28,3,2,0,2,0,-5,12,82,18,17,14,21,-6,-6,2,-43,-1,10,2,17,7,-5,-1,0,7,16,18,-3,4,6,-1,26,14,8,15,9,7,6,12,28,19,11,8,22,16,-35,0,37,21,18,22,23,18,-8,-9,44,30,10,19,14,6,9,19,43,24,17,13,-8,14,1,39,-69,4,7,-4,12,16,-49,21,-14,0,11,3,2,1,0,24,5,17,7,-7,-22,-42,-10,28,25,25,15,-1,-15,-27,-23,27,27,25,16,3,-3,-8,-9,23,24,25,15,4,0,-4,-5,22,25,23,12,6,2,-1,1,14,12,16,8,6,0,3,-2,0,1,0,-1,1,0,1,0,7,7,5,4,-2,103,-14,0,6,4,0,3,-6,-13,-3,8,4,1,3,-3,1,-8,5,6,2,2,4,-1,4,-2,-1,7,10,8,5,4,9,8,6,7,19,22,4,11,15,25,5,5,0,0,0,0,0,0,0,0,14,15,7,0,15,21,8,-15,18,12,10,18,6,163,6,24,12,8,13,11,20,12,17,-17,5,6,11,9,16,13,19,15,13,7,14,11,17,2,11,16,13,14,15,18,8,22,9,29,20,20,18,23,13,21,12,20,12,15,9,10,16,7,26,10,9,16,14,16,-20,18,-23,8,26,17,17,17,13,164,4,11,17,17,14,21,13,20,4,18,14,19,21,10,20,7,26,-2,10,18,15,22,9,19,19,28,21,9,27,14,23,13,23,19,13,25,9,26,16,26,12,19,11,20,24,13,29,17,24,10,14,11,7,11,18,-38,24,16,8,0,1,-4,-7,247,-31,-19,7,12,10,17,20,21,21,23,15,17,17,20,21,21,26,23,21,15,22,21,18,22,22,27,27,29,30,23,26,28,27,28,29,28,24,25,27,28,23,27,25,25,24,24,29,27,31,27,41,43,45,46,19,12,15,41,50,46,46,36,26,261,7,30,42,54,39,49,48,54,42,55,56,54,56,52,51,51,51,44,45,54,53,58,50,52,49,54,48,49,57,46,54,48,49,44,44,57,40,51,36,50,33,47,59,53,54,35,52,50,53,43,-34,-27,-21,-16,-18,-13,-15,-29,-7,-10,-15,-8,-26,137,-16,-20,-9,-4,-8,-14,-23,-33,-30,-27,2,-6,-8,-18,-24,-40,-28,-16,6,-4,-11,-18,-24,-33,-14,-7,-7,-19,-16,-19,-20,-33,-6,-23,-2,5,-10,-24,-23,-32,-28,-24,21,-30,-25,-6,-6,-18,-26,-40,-1,0,0,0,-1,1,0,0,-21,-12,-38,1,38,13,34,-19,3,-5,1,7,-272,57,-285,-2,0,-6,2,-10,0,-8,10,-5,-2,-6,-4,-9,1,-16,-1,-7,-2,-7,-5,-8,-6,-12,-13,-6,0,-1,-2,-3,-10,-4,-13,-7,1,0,-1,0,0,0,0,0,0,2,-19,-285,23,49,42,-276,-2,-32,-10,5,10,-5,20,2,-1,-9,-18,-226,0,12,-13,-260,-8,-16,-7,-5,-126,-9,-223,19,-21,-14,-28,-11,-24,-4,-22,-1,-13,-16,-19,-26,-17,-28,-10,-16,-12,-18,-18,-24,-21,-12,-15,-20,-9,-14,-19,-23,-18,-16,-17,-18,-15,-12,2,-14,-238,23,20,3,-15,-7,-11,5,11,-19,13,-11,0,-16,-3,-5,-271,-4,-284,-1,-17,-3,-12,-262,-3,6,-5,-275,-11,-9,-52,-15,-7,-10,-21,-9,-12,-36,-17,-8,-24,-14,-17,-3,-12,-13,-13,-20,-23,-17,-18,-17,-10,-5,-20,-21,-19,-15,-14,-11,-6,0,-5,5,17,-15,15,16,-10,-14,-11,-1,10,19,28,47,-5,-4,-5,0,8,-21,9,1,-16,-22,-18,-17,-9,-27,4,-2,-23,-22,-11,-18,-19,-26,-14,-15,-23,-22,-20,-16,-19,-25,-8,-16,-18,-22,-23,-23,-24,-14,-14,-26,-22,-18,-19,-21,-17,-21,-8,-18,-33,-34,-39,-31,0,-29,30,-5,-19,-11,-8,19,9,-7,36,30,-20,-22,-18,-22,-12,1,15,10,-30,-22,-33,-9,-8,-2,0,4,-22,-27,-5,-25,-14,-9,-8,-12,-30,-16,-29,-19,-27,-10,-20,-8,-13,-29,-32,-35,-32,-14,-16,-18,-27,-19,-33,-33,-30,-12,-12,-18,-34,-13,-16,20,4,-13,-6,68,-24,-17,-14,15,0,2,20,43,-22,-26,-5,8,23,1,32,30,-17,-17,-2,9,17,18,32,18,-23,-12,-3,3,10,6,12,22,-12,-5,-7,4,1,2,2,5,-3,-6,-5,0,-1,2,-2,3,-11,-2,-1,-1,0,-1,0,5,0,0,0,1,0,0,0,-1,6,16,6,-4,-13,-1,1,11,16,26,4,0,-12,8,5,6,-5,35,12,-1,12,4,-7,6,-6,-6,34,23,28,6,22,14,-27,-2,-9,65,10,72,5,8,-21,-71,-21,-31,66,78,70,36,0,0,-1,0,0,0,0,0,8,12,21,2,15,9,13,29,14,20,7,10,12,24,25,17,4,4,18,5,12,5,13,15,6,25,14,28,6,10,0,23,33,-5,29,9,28,27,10,-18,-5,54,55,48,-22,-11,24,21,0,-54,-15,0,66,24,38,13,-32,-17,26,30,4,24,38,41,28,18,21,19,20,9,13,24,27,19,0,15,26,19,21,24,6,25,8,-10,6,24,15,44,10,20,7,4,-11,9,29,15,-9,8,34,-6,11,15,32,-1,24,0,5,35,27,-3,14,3,-22,2,-6,33,17,23,-1,15,-37,-16,6,14,25,50,4,25,-3,-7,-3,13,30,32,35,30,-1,1,-13,18,32,40,46,30,10,-10,2,6,27,24,25,28,0,-4,-3,16,24,8,12,33,-3,-34,-20,-19,42,7,13,10,-45,-45,-25,-5,25,39,24,30,-20,-40,-11,-3,12,21,36,35,6,-9,3,37,44,48,47,57,39,50,49,63,65,66,88,62,74,45,41,64,78,82,81,57,46,53,50,44,68,66,51,76,42,32,51,56,44,42,54,45,32,39,35,55,78,50,46,32,23,0,8,63,77,63,45,41,38,-60,-7,47,55,82,85,76,98,164,133,74,86,86,79,84,26,28,25,4,8,-2,5,13,20,17,0,9,-4,6,2,4,0,19,0,4,2,21,5,7,-21,-4,-3,8,21,14,21,5,-28,-1,16,16,14,33,35,8,-54,-7,13,27,23,28,32,24,-60,-59,-1,29,40,36,38,38,-37,-110,-36,-31,-3,26,39,-2,0,0,0,0,-1,0,0,0,3,0,-13,-45,58,-11,-17,56,6,31,-33,-22,3,-35,-15,4,1,19,7,-22,0,-5,-12,0,-4,8,2,-2,-17,0,-2,-5,14,16,16,-10,-21,-12,-7,-8,10,7,14,11,-14,-27,0,-14,0,-1,0,0,0,0,0,0,-31,-60,-36,-25,2,8,-10,17,-2,12,-29,-15,-12,-24,-3,6,-2,-2,-20,-16,-13,-40,-45,-20,-11,42,-3,-35,-30,-23,-28,-43,29,-30,15,5,-24,-39,-41,-23,-4,-5,13,-10,-19,-9,-34,-27,-27,-34,-21,-23,3,-37,-23,-38,-5,1,-11,-25,-26,-18,-9,-17,-25,-32,-19,5,-4,8,-1,5,-9,-58,-15,-22,19,-33,-25,-12,-13,2,-37,-19,-17,-32,-37,-81,12,2,-11,-43,-23,-21,-24,-25,24,-16,-16,-21,-31,-27,-10,-47,-27,3,12,8,-48,-20,-28,-9,-14,-13,-9,-24,10,-28,-14,-30,-14,2,-22,10,-25,-4,-43,-4,-40,-61,-66,-61,-42,-68,-56,-17,-49,-53,-69,-61,-55,-69,-45,-45,-28,-33,-44,-53,-53,-61,-53,-44,5,15,-3,-30,-37,-42,-28,-36,-12,4,-14,-27,-48,-40,-40,-37,-16,0,0,-10,-46,-45,-38,-33,2,11,-2,-10,-23,-31,-45,-79,-4,12,14,-52,-56,-63,-53,-59,-93,-65,-78,-58,-69,-76,-83,-43,-71,-94,-68,-63,-65,-79,-89,-63,-46,-45,-84,-58,-82,-68,-91,-77,-20,-26,-32,-83,-62,-70,-67,-88,-23,-13,-46,-53,-94,-82,-77,-93,-20,-26,-16,-34,-70,-84,-84,-86,-23,-17,-37,-50,-35,-67,-99,-101,-14,-23,-19,-38,-53,-71,-99,-103,-2,-38,17,-53,-3,-19,-81,-80,-1,20,1,0,0,-47,-49,-66,32,33,18,10,-23,-38,-51,-59,33,65,34,2,-26,-33,-43,-19,67,59,38,0,-27,-26,-5,-6,48,61,57,31,-30,-16,-29,-6,44,44,46,30,17,-13,-12,-2,27,36,49,23,-4,-6,5,6,0,-1,0,1,0,0,0,0,-5,14,-12,2,-4,-22,-27,-32,6,8,-4,4,2,-16,-7,-21,-10,6,-12,-6,-3,-21,6,-37,-32,8,-27,-7,-16,-58,15,-79,-69,27,-30,-32,22,-110,32,-73,-109,23,-37,-204,52,-157,7,-109,0,-1,0,0,0,1,0,0,-35,-23,-12,-25,-25,-10,-32,-22,-24,-30,-22,-32,-18,-18,-28,-30,-36,-25,-35,-23,4,-60,4,-54,-22,-19,-52,-27,-41,-18,-16,-53,-33,-37,-42,-19,-58,-34,-77,-42,-49,-37,-39,-91,-58,-97,-48,-34,-69,-33,-51,-75,-26,-109,-33,-91,-48,-27,-35,-40,-38,-79,-5,-43,-24,-38,-20,-32,-7,-40,-12,-37,-55,-15,-44,-18,-29,-11,-29,-19,-35,-28,-33,-13,-5,-40,0,-44,-45,-37,-31,-31,-26,-29,-32,-21,-4,-57,-27,-28,-65,-30,-64,-75,-54,-5,-78,-28,-42,-71,-46,-44,-34,-4,-38,-78,-19,-77,-12,-33,-34,-14,-30,-25,-67,-10,-26,-56,-33,-41,-41,-38,-25,-48,-69,-40,-45,-40,-45,-27,-41,-39,-25,-62,-26,-29,-27,-30,-14,-43,-25,-29,-20,-35,-32,-31,-20,-21,-49,-30,-34,-31,-32,-43,-34,-57,-60,-61,-25,-19,-20,-33,-17,-40,-19,-32,-27,-7,-33,-44,-3,-54,-38,-31,-32,8,-13,-52,9,-50,-22,-24,-82,-75,-78,-74,-68,-99,-82,-115,-93,-87,-90,-64,-91,-78,-70,-100,-78,-66,-77,-66,-51,-88,-64,-82,-83,-72,-73,-80,-59,-64,-88,-87,-68,-82,-76,-80,-99,-73,-105,-121,-79,-54,-102,-71,-59,-91,-66,-60,-74,-32,-78,-88,-40,-90,-98,-93,-74,-23,-45,-77,-64,-67,-50,-100,10,-5,-13,-12,8,-2,13,14,1,14,-13,0,-2,10,12,10,34,34,7,11,26,0,25,5,33,32,23,20,17,21,13,21,53,45,39,23,18,26,15,54,28,52,19,5,19,8,54,31,17,81,32,17,38,18,81,41,48,29,58,20,24,48,47,38,1,0,0,0,0,0,0,0,17,14,-7,50,-53,28,38,-24,-17,-21,-12,1,19,14,26,1,-7,-23,14,18,22,40,-7,19,-5,3,3,16,26,16,12,17,-3,11,19,6,14,-1,19,-7,-5,20,19,12,1,1,23,4,0,0,0,0,1,0,0,-1,4,38,12,39,39,31,19,-7,-24,48,22,19,4,45,34,0,-8,26,-1,16,33,5,-27,17,28,0,31,11,16,40,9,51,18,15,41,30,28,28,45,19,13,27,15,44,34,26,62,25,14,19,28,13,46,25,54,19,8,8,42,25,35,29,28,25,17,25,32,12,42,15,13,10,28,24,27,40,-2,55,48,5,-14,35,5,4,26,37,34,35,36,19,7,22,45,24,10,35,26,14,29,31,33,16,40,9,12,40,47,37,29,26,55,18,23,44,29,39,18,29,45,15,18,28,38,30,42,18,22,31,-1,24,32,15,48,16,28,13,7,37,21,26,41,10,35,28,26,64,44,48,58,47,67,29,4,42,26,29,36,7,34,15,11,39,20,15,50,-5,45,0,19,37,30,42,37,45,70,20,15,36,23,54,39,46,61,47,17,41,21,35,67,34,30,30,53,46,51,33,56,59,50,63,42,85,72,65,48,75,95,61,67,76,60,44,41,57,62,77,55,64,39,51,58,35,56,63,52,61,54,52,70,28,87,57,53,61,80,68,53,75,94,58,54,74,53,83,53,63,94,78,56,59,73,65,80,46,47,66,20,28,31,2,59,28,-2,26,16,-10,23,15,43,29,-9,4,13,6,4,26,35,18,19,-12,7,5,22,17,33,31,14,24,-13,5,15,12,19,12,2,-11,-3,1,16,22,2,14,-1,-10,19,22,18,25,-8,7,16,4,20,40,31,17,23,10,8,4,0,1,0,0,0,0,0,0,9,1,1,-8,-9,-26,-12,-7,13,2,10,-34,-11,-21,-5,-15,8,0,-7,-8,-6,-19,-19,-17,-6,13,-57,10,-77,30,-43,-3,-27,47,-58,56,-58,62,-25,3,-6,49,-49,65,-155,67,6,-19,1,0,0,0,0,0,0,-1,2,-1,-4,-13,-7,-25,-1,-38,-1,-25,-3,-13,1,-31,-9,0,-3,-28,0,-2,-27,15,-22,-28,-13,-18,-24,-5,4,2,-12,-5,-39,2,-76,-8,-41,-20,-5,-13,-27,-13,-41,27,-45,32,-21,-12,-19,-57,26,-33,-8,-42,1,-7,16,-28,16,-10,11,2,4,-8,-12,-13,-14,-7,-24,-8,-46,-24,-39,-21,-6,-8,-8,-26,-23,-30,-53,-52,-19,11,-32,15,-37,-29,-23,-70,-24,-17,24,-27,9,-26,-21,-20,-62,-43,-32,-15,-10,7,-7,-45,-22,-15,-56,0,-5,-35,-28,-23,-29,7,-75,-14,-22,-2,-36,0,-34,-8,-24,-34,-22,-3,-29,-44,-41,-41,-36,-47,-31,-38,-33,-35,-32,-38,-52,-19,-46,-21,-11,-28,-34,-14,-17,0,-17,-36,-30,-26,-38,-31,15,4,7,-24,-38,-51,-60,-61,-52,-23,-22,-41,-30,-33,-47,-19,-31,-7,-27,-12,-18,-13,-32,-25,-33,-3,-7,-5,-14,-8,-24,-5,-26,4,2,-10,-46,-66,-56,-40,-55,-64,-80,-59,-67,-55,-38,-38,-57,-32,-44,-49,-61,-84,-51,-21,-42,-14,-41,-61,-51,-64,-70,-34,-18,-19,-20,-39,-53,-75,-74,-61,-36,-45,-38,-59,-49,-66,-50,-49,-69,-25,-33,-49,-59,-54,-57,-17,-74,-39,-7,-29,-23,-6,-42,-2,-67,-16,-10,-10,-2,-18,-11,9,13,6,11,3,-16,-12,-11,20,14,32,11,32,-1,-21,-2,23,9,50,32,18,9,-1,-9,-17,13,13,35,45,-1,-4,-17,-26,-21,-19,16,31,-23,-16,-42,-36,-49,11,6,57,-3,-28,-32,-45,-77,27,7,40,-34,-16,-124,-49,-48,44,21,47,0,0,0,0,0,0,0,0,-10,-16,22,-16,-66,-35,-34,6,0,9,8,46,-7,21,-25,3,-7,0,4,10,59,2,16,0,-6,4,-1,19,18,34,10,5,3,-4,-4,-39,5,17,8,0,0,6,-1,-18,9,9,0,0,0,0,0,0,0,0,0,-1,8,15,-5,7,48,-18,-6,-5,-2,34,2,2,-15,33,-26,44,-13,7,-6,-10,21,17,-1,23,13,16,16,-14,41,-15,42,13,3,13,19,-2,29,26,58,19,0,21,7,47,21,50,6,27,-12,29,0,23,9,44,5,34,5,3,40,3,36,17,21,3,14,18,14,4,4,-21,20,31,6,8,34,-5,-6,-8,3,20,13,37,-2,3,-1,21,16,7,9,15,-7,-5,24,25,-5,18,29,-13,27,-1,28,31,36,0,2,29,27,31,20,26,10,24,26,38,23,7,18,20,11,19,27,38,8,29,-16,14,17,7,-1,8,7,24,13,18,15,0,28,22,24,38,27,20,27,18,24,23,12,38,10,22,20,21,24,20,11,35,-5,27,19,18,21,8,18,21,2,23,18,18,41,30,41,56,37,21,19,30,5,23,12,63,19,37,15,27,15,15,17,48,12,35,31,24,32,47,69,43,58,26,57,68,39,59,58,54,55,64,63,85,46,56,39,32,32,17,57,55,54,57,40,44,12,55,21,61,52,31,80,27,62,58,50,42,53,60,75,80,61,46,36,72,63,57,57,64,53,49,40,47,46,63,38,59,12,50,25,45,6,16,-8,-3,-1,-36,-64,-72,-29,-16,1,-24,0,-34,-53,-45,-6,-11,-27,-25,-15,-18,-41,-45,-41,-29,-25,-25,-2,-5,-14,-20,-20,-27,-15,-12,27,15,5,-2,-15,-22,-9,-9,30,13,21,0,0,11,-6,16,18,25,11,20,16,17,26,16,13,28,25,22,0,0,0,0,0,0,0,0,10,2,12,13,8,17,13,15,13,6,10,25,12,25,32,12,12,24,18,11,7,31,83,25,10,14,3,-5,1,7,1,10,-10,-11,1,-18,-31,-29,-21,-4,30,31,35,25,-38,-18,30,6,0,0,0,0,0,-1,1,0,27,21,19,25,25,27,25,29,33,24,23,29,22,30,27,26,24,22,23,19,19,21,41,50,25,1,32,21,24,22,27,32,5,29,10,39,11,22,19,14,41,3,37,28,57,27,10,7,11,-2,52,44,36,-7,28,-4,40,12,40,21,48,17,28,5,39,43,31,30,27,26,30,25,44,28,33,43,32,39,14,46,24,21,25,23,36,33,36,24,11,10,29,37,25,25,39,22,20,3,9,15,36,6,13,10,5,6,33,20,-1,11,33,71,38,19,27,13,22,20,44,24,37,42,34,26,20,48,16,33,18,34,17,14,15,25,35,32,29,18,8,20,10,20,19,50,28,38,10,15,18,44,33,42,29,17,31,22,16,22,35,50,40,27,12,28,30,25,36,30,23,9,22,25,18,22,16,26,8,15,4,17,10,16,0,10,21,16,10,19,19,18,19,25,69,61,73,54,57,67,63,55,69,59,48,60,54,59,45,70,51,46,30,29,43,52,37,41,27,26,36,22,6,20,29,48,37,21,22,11,30,-16,1,-4,40,28,51,36,40,54,1,42,50,58,60,49,66,71,34,31,67,37,60,59,82,76,38,51,18,0,3,0,-3,2,3,11,3,-12,-6,-6,-16,4,9,28,-8,-2,-5,-20,-14,-3,7,16,-22,-12,-10,-25,-26,-34,-31,-25,-36,-24,-34,-39,-55,-36,-73,-67,-43,-36,-39,-64,-83,-131,-99,-68,-40,-33,-64,-60,-42,-68,-88,-123,20,-43,-39,-43,-6,-9,4,-46,0,0,0,0,0,0,0,-1,-15,-16,-57,-17,-69,-1,-10,24,6,-5,-34,-4,-19,5,-14,25,1,-3,-6,-16,-14,-14,-41,-7,-2,0,-1,-4,-19,12,-13,-26,-5,1,-7,-3,-7,-8,8,-4,4,-1,-1,-2,-12,0,-5,0,0,0,0,0,0,0,0,0,-9,-57,-15,-11,-11,-5,-84,31,2,16,-1,-39,6,19,16,-10,-35,21,-8,29,21,1,28,14,4,26,-6,12,24,41,0,-5,-9,-1,22,16,3,37,-10,52,13,-4,-6,-2,-16,-3,2,4,-5,15,-7,11,3,-16,9,-26,16,-2,-13,-19,0,3,-5,-5,4,18,16,1,6,5,-9,5,-21,9,10,0,-8,12,-8,26,6,10,8,17,15,-2,19,24,0,22,13,20,41,17,20,-16,13,20,18,3,7,59,12,68,12,2,-9,-7,-4,-10,31,-4,12,-13,-4,0,-10,-5,-9,2,-14,-8,-5,-9,17,-13,-11,-17,-33,-19,-59,-34,-38,-57,-46,-15,-41,-25,-50,-40,-43,-34,-40,-25,-30,-21,-17,-19,-11,0,-17,-1,1,23,12,36,35,46,62,21,7,39,27,49,47,55,65,42,-11,0,-23,-11,-6,7,6,3,-15,-12,-20,-17,-27,-24,18,-29,-23,-14,-34,-23,-21,-18,-10,-26,-41,-25,-34,-41,-38,-59,-53,-52,-62,-21,-57,-49,-68,-50,-39,-39,-33,-30,-23,-28,-24,-62,-13,-30,-36,-7,-24,-9,-18,7,14,-52,-29,-6,-21,-26,-20,16,-5,-1,-44,-34,-65,-61,-53,-52,-13,-23,-39,-67,-65,-70,-81,-54,-35,-21,-65,-56,-72,-88,-49,-52,-49,-56,4,-11,8,11,11,122,21,85,-45,-14,-15,29,41,6,-16,72,-32,-22,14,46,42,28,-10,27,-6,10,21,42,53,26,37,5,23,11,30,37,49,62,40,26,7,-3,-1,0,16,17,32,29,-26,-30,-30,-28,-20,-13,-7,-25,5,-28,-39,-23,-16,-12,-31,-27,0,0,0,0,1,0,0,0,11,0,9,9,11,0,1,-4,9,5,16,-1,-8,-8,7,-4,10,0,13,2,0,-10,-9,-8,20,35,19,8,21,-10,18,8,10,36,20,6,-9,-7,6,45,4,10,60,4,-30,-66,24,-8,0,0,0,0,0,0,0,0,15,11,13,29,15,10,-2,21,14,13,25,9,7,12,12,33,42,-8,28,8,18,0,20,-1,17,34,30,12,31,-20,50,-4,4,45,15,48,0,16,-4,36,24,36,41,19,50,25,-28,23,37,50,30,39,-23,-48,-10,56,17,-14,1,-41,44,-22,-19,-7,25,8,20,22,14,5,24,23,-1,17,4,35,7,27,19,14,36,-12,34,6,18,15,45,5,39,25,27,33,13,27,12,41,26,26,43,11,57,3,46,8,17,53,36,52,0,21,7,64,4,39,62,19,36,-31,35,-11,19,23,-1,16,-11,-32,-18,54,18,12,32,6,41,28,21,31,25,19,-7,61,22,28,25,27,37,-10,30,28,11,36,21,24,50,21,41,14,43,40,24,35,49,3,22,13,22,49,39,24,48,17,19,21,30,35,49,31,35,15,8,23,20,63,28,35,45,23,1,23,37,52,39,63,59,32,55,27,62,43,62,55,32,50,11,82,41,34,60,71,53,-5,76,40,40,40,64,62,51,39,59,49,61,51,46,87,45,39,57,16,66,58,100,56,34,31,32,43,33,62,80,84,26,35,37,17,46,-7,63,105,20,-64,7,-137,0,2,80,129,15,9,18,3,16,10,2,-2,34,17,3,37,6,2,8,-16,50,22,17,15,0,8,9,-17,49,35,28,6,0,-3,-13,-22,43,48,21,11,-8,-19,-38,-20,48,52,57,27,5,-48,-100,-63,52,59,58,37,-23,-35,-134,-97,16,24,5,12,-39,-83,-115,-34,0,0,0,0,0,-1,0,0,33,-91,53,-94,61,4,-54,20,46,-26,22,4,-10,4,-2,-23,39,-29,29,-11,-3,-1,16,-24,14,-18,-12,-6,-8,-8,-6,-25,-5,-11,-12,1,-4,15,-7,-13,4,-16,-4,15,-2,17,-8,-13,0,0,-1,1,0,0,0,0,-11,-79,-45,-51,9,-22,-18,12,-23,-35,-42,-49,-20,-21,-8,-22,-39,-71,-34,-75,-2,-87,-48,-29,-28,-25,-60,-1,-65,-15,0,-29,-32,-27,-43,-18,-36,-15,-47,-29,-16,-37,-15,-19,-31,13,-37,-10,-39,-33,-30,-31,-24,-38,0,-38,-44,-27,-36,-18,-30,-37,-31,-21,-4,-30,-79,11,-71,-35,-18,-21,3,-76,21,-97,-5,-36,-49,-8,-40,0,-96,-38,-61,-33,-45,-38,41,-66,-31,-14,-27,-49,0,-30,-57,-21,-37,-19,-32,-17,-49,-1,-18,-34,-20,-14,-18,10,-24,-40,-9,-36,-11,-22,-37,-12,-16,-29,-22,-21,-20,-22,-1,-50,-29,-22,-18,-35,-33,-62,-25,-35,-84,-46,-19,-32,-38,-27,-21,-4,-57,-46,0,-21,-12,-27,-12,-18,-44,-63,-4,4,-12,-5,-18,-5,-54,-59,-16,-8,-29,-16,-27,-29,-62,-97,6,-6,-12,13,-24,21,-75,-77,1,0,10,2,-11,-22,-7,-71,-3,-5,-2,13,-4,7,-64,-64,-21,-98,-88,-66,-65,-41,-58,-64,-47,-79,-52,-94,-38,-41,-85,-81,-49,-50,-76,-55,-61,-54,-69,-78,-47,-63,-53,-39,-72,-34,-59,-75,-56,-62,-61,-49,-43,-55,-81,-88,-38,-53,-45,-32,-44,-6,-81,-91,-31,-52,-33,-43,-45,-48,-27,-117,-45,-45,-40,-41,-30,-39,-72,-91,57,6,6,-8,15,-21,-17,13,53,-15,31,0,23,-1,-5,-6,22,5,13,17,19,4,19,-25,27,12,12,23,15,5,4,-21,17,5,11,19,16,0,-13,-21,-1,-5,6,28,19,43,-23,-28,7,-7,18,15,32,1,14,-16,14,6,4,27,43,12,-4,-6,0,0,0,0,0,0,0,0,1,-19,9,-14,-12,2,4,0,1,-24,-8,-19,-5,-5,0,-1,18,-28,10,10,8,1,-2,3,9,65,20,37,17,6,-20,-12,8,-5,42,44,22,-15,12,-6,-12,-62,-14,-33,38,-2,3,-10,0,0,0,0,0,1,0,0,24,19,0,21,-10,12,6,14,7,-13,28,3,9,0,4,2,13,-9,18,7,3,6,5,-1,13,10,28,22,4,8,-1,-8,-2,40,7,21,-8,29,15,2,33,-6,50,-1,2,-19,8,-17,41,-46,55,13,16,-11,13,-20,-4,-22,15,10,-11,-28,-20,4,18,21,22,12,8,14,8,25,27,14,24,2,15,7,13,26,41,-2,7,14,0,13,33,1,-23,7,24,0,1,30,2,4,5,-18,41,-3,6,-3,5,12,-15,-11,10,47,-16,-19,0,1,8,-13,41,0,4,0,-14,-6,-11,9,-42,-3,-21,-2,-30,1,19,54,-12,29,27,0,22,22,22,34,37,-4,28,17,13,0,27,52,10,26,14,25,38,19,19,15,-5,0,11,-10,15,14,-9,6,9,7,10,11,22,22,16,1,24,4,17,12,33,17,-1,12,-3,11,4,9,2,9,-3,20,9,17,19,15,18,32,73,85,60,80,69,62,70,70,83,66,88,46,79,56,56,55,73,75,55,78,57,73,71,55,59,54,69,68,77,45,69,56,48,15,70,56,68,71,53,75,17,22,57,70,57,43,93,54,47,2,33,43,49,46,52,82,-68,-172,-13,0,8,56,27,44,38,14,1,19,13,-1,25,32,1,-5,14,-12,3,19,29,34,-31,-16,2,3,1,20,25,6,-54,3,-2,10,-1,7,-2,-2,-57,0,13,-3,-8,-10,-22,-30,-49,-5,37,28,-8,-17,-35,-31,-30,-2,44,45,-18,-17,-75,-31,-57,0,-6,6,0,-35,-24,-4,0,0,0,0,0,1,0,0,19,75,-60,80,38,-8,48,47,19,-18,25,-9,42,-11,42,5,13,-25,-9,-8,-10,-3,12,-19,16,11,-20,-8,-9,-4,11,-4,-21,4,1,-23,-12,-9,1,4,-1,-1,-7,0,-17,1,4,2,0,0,1,1,0,0,0,0,17,28,2,-5,-76,25,5,-12,21,-57,-43,-54,-11,-133,14,22,-78,22,-103,-27,-43,-25,-5,-10,-42,-13,-26,-50,-29,-18,3,-21,-66,10,-23,-7,-6,-17,-6,-15,0,-22,34,-3,-8,-28,-6,-26,0,-25,-14,-12,-11,-12,-30,-10,-9,-8,-21,4,-29,-8,-21,0,-12,-19,51,-53,0,-11,-19,-17,-108,27,-113,32,-28,-35,-18,8,3,-65,-5,-52,29,-57,9,23,-53,-17,-60,-36,-60,23,-31,-17,-72,33,-47,-21,-2,-37,18,-31,21,-14,35,-7,0,-32,-29,4,1,-4,-11,-6,-11,-29,-18,-25,4,-10,-13,-6,-15,-14,-37,-19,-86,-39,-124,-73,-116,-160,-82,-64,-23,-13,-40,-52,-36,-46,-31,-16,-40,-33,-39,-35,-41,-28,-9,-14,-55,-39,-74,-59,-54,-30,-22,-32,-44,-17,-54,-35,-29,-9,-29,-27,4,9,-14,3,-22,-40,-20,-51,0,0,5,-40,-1,-14,-25,-20,-13,10,-22,-33,-32,-11,-20,-26,-48,-51,-72,-89,-80,-99,-87,-109,-57,-24,-110,-51,-64,-88,-60,-66,-60,-57,-68,-79,-52,-73,-44,-27,-69,-52,-106,-81,-85,-46,-49,-80,-86,-28,-93,-74,-57,-62,-47,-61,-15,-46,-63,-36,-42,-95,-60,-63,-55,-42,-48,-80,-46,-79,-74,-75,-52,-38,-57,-64,-64,-60,-57,-86,30,-7,-8,-3,-11,41,25,-204,14,2,-22,-10,-25,25,14,19,17,11,4,-17,29,29,51,35,28,-3,-16,-2,8,40,41,53,-8,-5,-36,-13,7,27,43,34,25,-13,30,9,27,4,22,13,7,24,19,18,28,0,-6,-3,3,30,24,14,10,6,1,-6,0,0,0,0,0,0,0,0,2,5,9,22,30,-148,22,-136,5,8,6,6,7,-3,44,17,4,10,7,4,-2,-19,-11,5,1,6,4,1,-11,0,-4,0,0,4,6,-3,6,-2,7,-1,7,0,-2,-13,0,-17,24,-8,-1,0,0,0,0,0,0,-1,34,22,22,13,23,-64,15,-82,29,24,18,18,-47,-5,14,12,23,25,7,7,9,16,67,9,25,25,16,7,-34,-9,0,22,29,18,20,11,12,-29,7,-45,12,27,20,17,16,13,15,-11,32,20,35,26,-2,0,-1,22,8,26,25,21,23,10,-92,3,19,4,13,26,-68,27,-44,16,18,15,14,10,35,-64,14,-101,13,18,18,12,-1,14,57,20,19,15,23,0,18,-46,17,-53,6,23,5,15,-36,28,3,21,31,2,20,-23,25,5,25,8,-2,23,-43,25,23,10,27,14,2,-32,26,3,33,15,-5,6,30,32,32,37,35,21,-33,23,30,24,23,38,18,24,-59,14,13,6,8,-1,-16,-33,78,-71,33,26,26,29,23,21,-52,26,21,33,34,25,24,22,4,31,29,28,26,44,17,26,5,20,28,28,33,24,32,16,8,16,34,43,35,30,18,20,-8,18,43,44,42,45,11,39,-9,48,42,41,45,34,42,5,-9,-15,37,43,30,26,3,4,51,-14,42,35,42,26,28,-5,1,-8,40,38,26,35,4,36,8,42,44,38,30,26,30,25,22,26,35,37,24,38,27,21,23,26,17,43,32,31,15,28,11,34,-187,-127,-47,-39,34,6,0,12,-245,-120,-93,-24,4,-16,-33,-17,-184,-209,-48,-44,5,-24,4,-19,-214,-217,-258,-26,-3,-14,-20,-27,-151,-139,-30,-59,-8,-15,16,-21,-140,-196,-151,-37,-54,-25,-18,-34,-92,-172,-42,-171,-32,-138,-36,-91,-199,-89,-192,-54,-101,-77,-25,-176,-1,-1,0,0,0,0,0,0,7,9,8,25,-22,6,97,3,-1,-3,4,4,3,1,-302,38,-5,-3,-5,-3,4,-16,-6,14,-4,-6,-5,-3,-22,-9,-18,0,-4,-4,-6,-11,-10,-12,-14,1,-1,-2,-7,-3,-18,-3,-8,0,0,0,0,-1,0,0,-1,1,13,11,21,-21,-18,99,3,154,-16,-12,-11,15,86,15,-12,12,-24,-9,6,8,8,11,82,2,-19,-13,-13,5,64,-6,-7,0,-24,-13,-9,-9,-20,59,-12,93,-17,-17,-15,-4,-13,-6,-13,0,-13,-15,-23,-18,-11,-18,2,-22,-59,-18,-14,-15,-18,-16,-17,-14,7,-7,24,1,68,0,44,-21,-12,8,-21,14,-17,68,-9,54,5,-15,7,-4,30,-4,83,-16,-23,0,-7,12,-24,59,-22,83,-1,-23,3,-19,49,-25,-2,-7,-15,0,-15,40,-18,-4,-24,4,12,-19,38,-21,3,-21,-6,-20,-17,45,-18,4,-28,-1,-26,-13,-8,14,6,12,30,28,17,21,-8,0,2,-4,14,-5,42,25,-5,10,21,18,39,65,9,68,-21,-30,-6,-12,-11,-5,37,-4,-24,-29,-16,-18,-19,4,12,-11,-27,-23,-8,-22,-8,-5,17,-8,-27,-29,-15,-19,-20,-14,6,-21,-24,-26,-21,-21,-18,-18,6,-16,1,7,0,24,77,59,67,13,-21,-6,-3,24,32,61,75,76,-1,7,31,31,53,86,114,95,-33,-15,-8,12,0,70,58,79,-19,-21,1,-27,44,-3,42,11,-33,-9,-12,36,-14,-1,32,2,-13,-19,15,-24,-18,-19,27,-19,-37,21,-24,-21,-27,-5,27,-4,-128,-43,-129,-33,11,-182,-120,18,-91,-28,-44,-30,-49,-6,-29,26,-23,-25,-23,-16,1,2,-59,24,-22,-22,-22,-15,-11,-15,-3,22,-22,-26,-20,-9,-19,-31,-11,-22,-27,-16,-5,-10,-14,-17,-13,-5,-16,-8,-5,-6,-9,-7,-9,-3,-19,-6,-1,-1,-3,-6,-5,0,1,-1,0,1,0,0,1,0,-19,-24,-8,-11,-8,-10,-7,-4,-36,-12,-8,-9,-9,-7,-7,-1,-74,-29,-8,-4,-6,-4,-6,-1,-155,-30,-3,4,-4,-1,0,-5,-184,2,19,8,4,-3,-9,0,9,-23,4,10,-47,11,-31,-12,0,0,0,0,0,0,0,0,-11,-20,-43,-16,-28,-18,-17,-14,-19,-19,-44,-17,-20,-25,-16,-32,-15,14,-23,-37,-20,-21,-24,-18,8,-40,0,-20,-23,-22,-36,-16,11,-33,-16,-28,-19,-25,-18,-23,-6,-8,0,-9,-23,-24,-21,-29,31,20,0,-9,-15,-18,-16,-30,17,59,12,-7,-47,-20,-30,8,-18,-48,-21,-17,-4,-5,10,-2,-4,-40,-17,-16,-10,-11,-8,-14,0,-24,0,-17,-14,-8,-11,-14,23,-31,-15,-13,-25,-17,-19,-4,24,-17,-21,-22,-18,-25,-22,-18,22,12,-15,-18,-19,-27,-26,-19,31,18,11,-9,-58,-17,-26,-24,-12,-29,16,-28,-23,-43,-43,-23,-30,-38,-26,-29,-26,-30,-15,-19,-20,-42,-28,-40,-35,-30,-18,-20,-21,-25,-28,-34,-36,-30,-21,-18,-50,-32,-39,-37,-31,-29,-24,-21,-40,-10,-8,-12,-9,-15,-11,-9,-20,-9,-10,-21,-24,-23,-17,-19,-23,-23,-23,-35,-30,-35,-30,-30,18,-49,-24,-30,-42,-27,-29,-38,-1,-53,-32,-35,-23,-27,-19,-32,-2,-47,-33,-38,-39,-27,-31,-31,10,-30,-20,-39,-37,-26,-26,-33,14,-37,-30,-33,-43,-35,-37,-28,-8,-15,-20,-33,-32,-38,-37,-27,2,-9,-37,-33,-24,-46,-31,-53,8,-53,-43,-46,-54,-38,-36,-52,4,-42,-36,-45,-72,-31,-35,-37,-26,15,23,16,10,16,3,5,10,7,19,12,6,0,-1,-7,35,0,17,9,-1,-9,-13,-13,59,16,16,5,-10,-21,-21,-11,84,71,22,3,-9,-11,-14,-14,63,108,43,16,13,0,9,4,128,97,70,50,14,6,14,16,118,81,65,32,-2,7,34,-4,0,0,0,0,1,0,0,0,40,32,17,-1,-41,-6,-7,23,-12,16,19,13,16,14,13,13,-36,9,26,16,12,7,12,9,-106,0,22,9,7,8,14,10,-170,-20,8,10,8,9,11,11,-168,-12,23,10,10,13,8,8,0,0,0,0,0,-1,0,-1,46,31,31,-1,6,10,26,6,27,5,39,22,32,13,22,12,-18,26,29,28,37,24,12,18,-5,37,9,35,23,28,22,27,-42,35,15,23,17,19,15,18,-18,14,11,14,20,10,15,13,-167,1,11,9,16,20,14,4,17,4,25,18,7,18,3,27,19,19,13,12,-17,-15,-4,37,-3,31,30,-10,-10,11,16,18,-3,16,10,14,19,13,20,25,1,7,12,25,26,14,13,15,-64,1,18,25,24,14,15,11,-24,-5,9,21,19,17,21,13,-101,12,4,5,18,21,16,-4,-6,36,8,4,0,12,9,20,42,35,31,24,27,33,34,31,41,38,39,30,23,27,30,35,43,35,45,40,38,37,37,36,56,27,26,27,26,37,35,32,47,16,21,10,25,18,28,20,94,17,27,28,15,27,25,17,106,35,33,27,27,27,13,23,115,25,27,39,27,35,33,26,4,2,0,11,5,0,15,11,21,30,16,4,5,33,15,11,34,31,35,36,41,34,18,34,41,37,41,34,34,28,26,11,15,19,31,21,19,15,10,2,49,20,37,24,15,23,1,-6,40,22,11,10,14,17,14,-15,82,1,-1,3,2,10,14,10,70,23,26,28,49,29,26,8,12,37,33,52,26,28,33,22,5,3,17,32,37,38,34,22,-43,-11,6,16,24,25,28,31,-52,-22,5,13,20,16,30,29,-58,-1,11,11,17,18,21,20,-134,-2,18,6,17,18,13,11,-12,-36,-12,18,8,5,10,6,0,-1,0,1,1,1,0,0,28,27,24,18,19,20,20,23,26,29,25,20,22,24,24,22,28,30,26,22,23,23,27,23,32,33,28,26,26,17,24,24,41,45,37,27,21,27,19,24,35,42,34,12,-8,14,-3,17,-1,0,0,0,0,1,0,0,76,65,69,67,63,61,63,65,69,66,66,69,68,68,64,65,66,70,66,68,67,66,69,67,67,69,68,71,67,66,72,67,76,69,73,71,67,67,67,70,77,68,76,63,68,66,62,75,77,85,55,81,75,78,92,65,42,100,102,97,98,132,118,158,74,64,63,70,64,63,55,71,67,65,71,66,65,66,63,61,66,71,66,70,66,66,61,67,60,65,65,64,69,61,69,65,73,62,65,66,64,68,65,60,79,63,72,63,72,80,67,73,69,78,62,74,78,72,88,68,63,73,86,82,84,104,85,64,112,112,108,106,104,105,108,108,112,113,110,107,104,102,104,112,116,114,111,111,109,104,106,110,114,114,107,107,105,106,107,108,111,114,113,107,108,106,105,106,113,109,109,106,110,114,114,115,108,111,106,103,108,102,109,101,115,114,123,118,117,126,124,125,-10,-17,-21,-19,-18,-16,-12,-9,-14,-16,-17,-17,-16,-19,-19,-30,-16,-17,-17,-14,-18,-13,-16,-17,-19,-22,-20,-27,-21,-22,-18,-20,-17,-14,-24,-28,-27,-27,-31,-22,-3,-20,-24,-31,-37,-61,-46,-26,4,1,-13,-21,-30,-35,-23,-14,3,-30,-35,-39,-32,-33,-14,-12,12,12,14,13,7,10,5,5,19,11,15,21,17,13,8,6,25,16,21,22,18,17,16,9,24,9,20,19,20,17,16,20,19,11,14,11,14,12,19,25,12,4,14,10,2,17,8,33,19,65,6,-13,0,-15,73,32,-4,28,17,-12,0,17,42,4,0,0,0,0,-1,0,-1,-1,-1,7,13,3,11,3,13,-2,-8,-3,3,12,10,9,-2,-11,-8,-8,-3,-3,-6,-7,-4,-8,-10,-11,-11,-11,-12,-11,-8,-6,-7,-11,-7,-12,-11,-6,-9,-9,-9,-10,-10,-9,-11,-8,-6,-9,0,0,0,0,0,0,0,0,-36,-72,-54,-68,-60,-49,-47,-53,-59,-72,-56,-61,-57,-45,-58,-48,-67,-52,-52,-63,-63,-62,-56,-52,-68,-60,-62,-57,-61,-58,-55,-58,-63,-71,-63,-60,-63,-61,-58,-59,-60,-67,-61,-62,-61,-59,-59,-56,-62,-65,-62,-59,-58,-58,-58,-58,-72,-59,-67,-56,-57,-58,-58,-58,-73,-78,-89,-74,-81,-78,-68,-70,-72,-57,-73,-85,-91,-65,-59,-60,-83,-67,-64,-71,-73,-67,-66,-68,-71,-59,-63,-63,-67,-67,-64,-63,-72,-68,-66,-67,-64,-68,-67,-67,-64,-68,-68,-65,-68,-65,-64,-64,-68,-63,-62,-64,-66,-64,-60,-63,-62,-61,-63,-63,-63,-62,-68,-54,-111,-102,-99,-99,-104,-98,-100,-107,-110,-104,-104,-100,-103,-98,-94,-97,-120,-119,-115,-117,-114,-104,-104,-105,-121,-116,-116,-116,-111,-109,-108,-108,-109,-117,-113,-112,-111,-105,-104,-104,-106,-107,-110,-106,-104,-103,-98,-106,-108,-106,-107,-106,-105,-104,-105,-106,-111,-110,-111,-108,-106,-106,-103,-111,29,24,33,38,38,38,32,25,17,23,18,24,23,18,22,23,14,8,19,12,19,25,17,23,11,17,7,24,21,16,21,16,20,8,17,20,20,9,21,14,3,17,17,17,11,16,16,12,12,10,16,15,14,12,12,11,7,11,13,14,18,13,0,-2,18,11,-18,-54,-46,-23,3,16,7,-9,-33,-68,-51,-24,-15,-25,2,-34,-55,-23,-14,-29,-9,-14,2,-20,-14,-13,-10,1,5,12,4,-19,-7,-1,0,9,6,11,3,0,7,12,14,15,15,19,10,9,15,17,19,24,24,25,6,18,21,21,20,22,28,24,0,0,1,0,0,-1,0,0,8,7,0,-15,-88,-42,1,11,3,12,-7,-11,-98,-10,2,8,8,11,8,-11,-11,0,9,11,4,5,4,1,-9,-1,9,15,3,0,-5,5,-12,-6,-3,8,-6,5,11,3,0,-9,2,-6,0,1,0,0,1,0,-1,0,11,0,-2,-36,-21,-29,0,13,2,4,-40,13,-92,-14,-36,0,-9,0,-24,-13,-60,-7,-21,-6,-3,-5,-8,-3,-5,-20,-26,-6,5,-14,9,-14,-2,-26,-5,-2,6,2,3,14,-21,7,0,3,4,15,31,16,-8,2,6,17,-23,15,13,0,-9,10,4,-15,0,18,-9,2,-8,11,12,-2,26,-12,1,5,-33,1,-6,13,1,13,-2,11,-60,-6,-9,1,6,6,10,0,2,-2,0,2,-1,7,0,11,-1,6,5,9,6,-14,6,4,0,15,7,7,-3,10,7,13,14,15,21,16,-3,3,1,5,10,-3,28,16,20,21,19,24,37,18,25,25,22,21,17,23,31,21,30,31,17,31,27,28,5,25,25,27,25,27,13,35,8,19,25,16,23,26,29,25,13,25,27,24,35,33,32,34,16,24,32,32,30,33,32,28,6,25,26,26,33,38,33,35,29,31,39,33,31,34,43,56,63,49,44,35,44,29,48,50,44,32,33,12,25,44,31,51,30,32,25,28,35,45,31,51,30,25,29,12,44,46,37,44,34,22,25,21,46,42,41,26,27,20,29,35,42,41,40,29,7,34,29,25,28,29,36,31,5,18,27,19,43,28,15,-5,-46,-39,-10,8,46,24,15,-32,-76,-32,-1,15,40,32,13,-10,-45,-21,5,25,44,44,29,8,6,12,30,27,50,56,51,50,45,46,45,43,65,65,61,62,56,67,72,63,72,82,67,49,75,85,82,69,44,82,88,73,19,100,89,80,0,0,0,0,1,0,0,0,28,-1,-33,-18,-224,-99,-37,-6,21,9,-23,60,-434,100,-11,5,4,1,-15,45,-429,44,-12,-2,0,-6,-4,-21,-17,-2,-6,-1,-1,-7,-4,-19,