{"l1_biases":[-48,-142,-54,-150,-88,224,5,-66,-71,-60,-77,-7,-96,-21,-66,10,37,-5,1,-5,-95,-117,-35,-117,35,-95,-161,-174,-196,-66,-50,-33,63,-60,-18,25,-30,-87,-67,-148,-72,-99,-64,-145,21,-144,146,32,18,-57,9,-93,-24,-21,-135,-61,70,-283,-11,59,-29,-181,-164,40,-38,45,-63,-63,-9,-30,-21,-89,125,-63,-27,-6,-12,-24,-77,17,-176,276,45,-68,-6,-260,-22,-54,-133,-56,117,-49,-58,-32,2,-62],"l1_weights":[-2,-5,-8,1,1,7,-7,-4,0,-1,32,2,26,41,46,22,-8,-11,24,13,28,19,44,31,-13,-48,23,4,24,35,54,35,-1,-23,11,-14,-1,11,50,64,-14,33,-49,56,36,83,34,22,-55,28,76,-8,91,45,-18,-24,0,-4,2,3,-8,7,8,0,-34,33,-6,50,32,48,48,54,-1,56,8,59,8,81,54,78,52,25,44,8,33,48,73,34,60,-40,59,-19,67,43,83,63,0,43,56,60,28,56,7,78,-11,9,-92,90,93,79,31,57,-94,45,8,33,29,99,26,60,-9,-30,-31,-30,129,15,91,24,21,49,32,69,25,66,6,20,29,37,19,66,49,82,49,8,15,31,74,49,-6,32,71,43,83,-34,15,-26,75,58,45,13,49,-5,20,-12,51,17,43,90,50,17,2,32,18,80,68,-54,-52,56,59,33,32,50,35,63,21,46,43,32,90,76,39,43,51,71,26,52,79,5,40,45,45,74,6,104,35,162,16,35,49,60,48,24,2,18,131,50,101,86,11,24,80,64,66,33,58,83,79,79,50,60,90,73,30,49,20,73,106,59,55,42,56,68,30,94,38,60,48,67,47,26,0,20,4,9,32,25,147,152,161,148,171,75,84,105,186,192,113,191,157,299,128,-245,127,115,174,58,68,82,254,93,223,109,86,7,202,165,171,83,151,91,135,49,132,98,135,163,149,104,143,73,185,133,94,65,5,139,92,116,108,199,106,138,-319,-376,-70,-282,85,-136,-211,-164,-6,-67,-3,2,4,-23,3,-3,-60,-39,-16,-10,-6,37,15,24,-82,-116,-24,-40,-23,-20,38,40,-62,-87,-50,-26,14,35,59,50,-79,-89,-84,-11,45,57,106,98,-114,-127,-63,-34,29,112,107,72,-96,-115,-71,-29,112,119,124,128,-40,-180,6,-153,101,140,163,142,-4,0,-5,8,-4,8,4,1,-84,9,-203,12,25,-269,-76,5,-90,-19,-165,2,-360,81,-116,48,-8,-61,13,-14,-28,-11,-5,6,13,-57,24,-19,-9,-23,-10,-24,6,-31,21,-6,-10,-29,-7,-25,3,-16,12,-21,-18,-21,-18,-18,5,7,-4,0,-8,3,-7,-4,-8,-5,-153,-426,15,-84,-71,-301,-10,-99,16,13,-114,-344,-41,-3,7,-44,-76,-127,12,-56,-23,-308,-44,12,-10,18,-361,-16,8,-5,-17,7,-107,-17,-11,8,-49,-74,-38,-37,-8,-24,-69,-51,-15,-28,-22,-72,-11,-68,1,-43,-35,-56,-6,-38,-49,-37,-59,-59,-37,-34,-56,21,-186,-29,-366,52,-144,-36,-45,-24,-36,-44,43,-120,9,-40,-51,-68,-109,6,-411,-30,-382,25,8,-80,41,-4,-3,-79,-23,-317,-81,40,-27,3,-45,-28,-26,-17,2,-24,-81,-54,-62,-20,1,-26,-22,-25,-49,-54,-49,-51,-22,-52,-38,-45,-60,-59,-65,-41,-46,-48,-39,-17,-91,-8,-24,-50,-47,-54,-75,-58,-140,-43,-105,-77,-100,-18,-43,-62,-35,-7,-70,-78,-26,-35,-43,-65,-36,-23,-41,-33,-56,7,-55,-73,-75,-31,-72,-54,-27,-2,-40,-65,-72,-18,-151,-25,-29,-37,-93,-75,-13,-71,-89,-57,-55,-32,-70,-86,-41,-34,-47,-56,-45,-48,-184,-132,-181,-180,-199,-148,-155,-185,-119,-59,-143,-83,-149,-216,-197,-122,-73,-114,-92,-101,-160,-147,-135,-141,-81,-77,-75,-53,-146,-106,-169,-68,-104,-94,-145,-124,-113,-129,-85,-124,-104,-102,-210,-92,-222,-88,-96,-112,-142,-120,-115,-156,-154,-142,-136,-142,-128,-147,-151,-137,-132,-153,-189,-155,73,91,163,131,32,58,88,87,122,105,106,93,80,77,-273,148,118,108,80,87,80,77,59,69,94,61,93,73,92,69,71,60,84,64,60,74,32,30,31,49,30,17,-22,8,-24,0,-13,-15,33,51,5,-30,-8,-31,-5,0,21,27,-46,4,0,-37,-14,-24,8,7,-3,7,-7,-4,0,8,-3,-1,-6,-4,1,-1,0,1,-3,-5,-6,0,-2,0,6,2,-4,-4,-6,-5,3,-17,12,-3,-11,0,-8,-21,381,-16,427,-10,-14,-16,-12,-46,-22,-94,-31,-4,0,-4,11,-36,-28,-50,-14,15,0,-6,6,3,2,-6,7,-4,-24,-18,-23,-21,-20,-26,-20,-28,-16,-27,-27,-19,-27,-12,-36,-23,-24,-26,-23,-2,-27,-5,-25,-7,-24,-19,-9,-36,-21,-26,-2,-40,-18,-31,-36,-8,60,-37,24,-2,-30,-23,-6,-39,-52,-56,-41,-53,-7,-54,-25,-36,-58,-27,-38,409,-17,-9,-34,-35,-81,-54,-68,-55,0,-37,-15,-33,-7,-33,-17,-25,-46,1,-37,-15,-34,-11,-30,-3,-21,-41,4,-37,-14,-35,4,-29,-27,-19,-35,29,-45,2,-47,105,-17,-21,-28,-32,139,-47,154,-32,-33,-16,-37,-21,-41,-66,-40,10,-1,-20,-10,-45,-28,-69,39,-44,-15,6,-34,-12,-45,-21,-44,133,-42,-42,-38,-33,-24,-22,-26,-35,-40,-48,-32,-38,-19,-27,-30,-36,-40,-44,-42,-30,-13,-12,-30,-38,-39,-45,-35,-39,-15,-8,-25,-48,-34,-25,-25,-14,25,52,6,-3,-36,-42,-43,-44,-37,-76,16,-27,-49,-51,-60,-60,-57,-53,-65,-54,-49,-41,-50,-55,-62,-46,-54,-42,-23,-59,-54,-50,-46,-40,-51,-47,-67,-51,-53,-57,-46,-59,-53,-43,-58,-59,-46,-58,-60,-55,-68,-56,-55,-78,-69,-28,-76,-47,-76,-34,-51,-38,-65,-62,93,-39,59,-67,-61,-78,-74,-66,-45,-66,-23,-46,-70,-59,-72,-88,-60,-83,-504,-74,-68,-96,-95,-148,-102,-504,-88,-92,-33,-16,-21,-15,-25,-18,-28,-21,-34,-39,-19,-30,-21,-38,-28,-34,-40,-31,-39,-29,-35,-36,-47,-27,-33,-47,-41,-38,-33,-35,-36,-38,-35,-33,-56,-49,-53,-86,-61,-54,-53,-50,-63,-98,-126,-122,-81,-123,-57,-46,-51,-144,-131,-176,-144,-253,-45,-91,-62,-76,-125,-131,-116,-143,0,-2,4,6,7,2,-1,4,-13,16,-15,24,-5,21,-23,23,12,7,-2,5,21,-2,17,-6,3,1,0,2,7,3,15,2,3,0,5,-5,36,-14,29,-2,1,2,6,-21,20,324,15,-12,1,1,5,3,14,1,22,6,-8,-4,-4,6,6,-4,5,-4,8,10,30,12,14,8,1,9,9,15,33,21,30,24,13,9,27,32,14,28,20,14,31,9,17,18,13,28,14,27,-8,22,25,14,19,13,51,28,27,-2,22,19,19,19,28,-504,17,26,23,27,28,-1,28,22,36,-16,14,13,29,27,-13,24,-4,33,11,46,34,15,5,12,37,21,14,50,30,29,29,36,25,39,23,15,12,35,26,23,25,28,22,8,22,10,39,15,30,-18,21,18,11,28,57,36,-4,20,24,17,32,1,39,-504,33,-3,33,27,12,33,-6,34,-22,30,27,18,30,-3,32,0,27,-60,22,30,26,26,30,32,27,34,34,35,32,34,34,24,35,42,31,40,34,38,30,36,37,43,37,39,35,39,41,42,42,49,41,31,23,29,51,16,27,28,24,20,16,-13,-21,-485,-32,-10,41,34,39,30,14,6,41,27,33,36,27,29,21,13,14,39,40,47,38,41,68,45,61,17,57,73,62,83,73,74,75,73,77,62,70,68,77,58,78,71,70,68,69,81,79,82,82,28,68,70,68,76,71,61,48,69,65,63,58,41,50,-504,25,31,74,66,64,66,35,48,51,62,57,67,61,51,58,48,58,47,-114,-118,-160,-159,-109,-95,-354,-75,-80,-133,-95,-67,-65,-135,-86,-65,-82,-107,-80,-62,-25,-30,-46,-29,-83,-94,-63,-35,1,2,-3,-17,-75,-58,-42,-21,-11,4,-29,-18,-60,-41,-37,-30,-17,-201,-9,-24,-47,-42,-31,-35,-33,-20,-4,-29,-35,-24,-33,-31,-36,-29,-36,-20,-6,6,-9,-4,-1,2,2,-8,-227,-185,-24,7,14,8,9,9,-120,-75,0,12,8,11,7,9,-46,-13,7,4,7,3,6,6,-15,-1,2,2,-2,-2,-3,-2,-17,-14,-9,-20,-19,-21,-18,-8,-32,-15,-36,-34,-33,-52,-49,-28,-3,5,-4,2,6,-1,-6,8,-209,-211,-153,-65,-35,-9,10,10,-195,-116,-237,-87,-35,-15,-11,-12,-364,-259,-146,-69,-29,-11,-7,-2,-105,-149,-64,-35,-13,-10,-5,4,-54,-51,-31,-11,-7,-5,2,1,-9,-6,1,-2,-1,-1,2,11,7,7,-1,-7,3,8,2,13,20,7,8,7,4,4,11,2,-423,-298,-113,-51,-20,-2,-6,6,-476,-462,-131,-32,-18,-14,-6,-4,-382,-246,-485,-86,-44,-16,-13,-5,-72,-86,-175,-245,-73,-42,-18,-18,-23,-24,-66,-121,-271,-82,-33,-15,-16,-14,-17,-60,-138,-252,-77,-53,-15,-13,-11,-19,-65,-152,-222,-103,-13,-16,-12,-16,-16,-74,-165,-267,-247,-160,-125,-128,-157,-151,-141,-119,-207,-146,-110,-93,-97,-95,-82,-77,-221,-116,-86,-55,-64,-50,-43,-43,-189,-127,-63,-47,-44,-45,-40,-38,-184,-113,-57,-45,-42,-42,-41,-42,-179,-114,-64,-48,-41,-43,-39,-42,-161,-110,-62,-51,-45,-45,-42,-48,-159,-105,-60,-45,-40,-36,-38,-46,-191,-139,-109,-129,-124,-109,-104,-107,-201,-195,-133,-110,-109,-123,-99,-93,-175,-175,-161,-104,-102,-116,-101,-121,-185,-138,-146,-109,-117,-112,-128,-115,-141,-132,-113,-125,-125,-125,-120,-122,-153,-135,-117,-136,-130,-144,-131,-119,-159,-126,-118,-118,-140,-134,-119,-118,-144,-126,-107,-138,-128,-129,-115,-105,-473,-435,-118,-5,40,47,44,49,-355,-397,-161,-8,23,33,32,30,-238,-255,-115,-4,16,26,29,33,-30,-69,-13,12,21,21,25,27,18,2,14,20,21,21,22,25,37,31,24,22,18,22,24,26,34,35,30,20,20,20,28,29,33,22,40,25,16,14,14,4,3,2,-7,-4,-4,3,-4,-8,275,216,117,41,28,35,21,30,210,161,70,19,1,-1,-10,0,122,82,13,-4,-5,-5,0,-4,54,25,0,-1,-3,-5,-7,-8,16,6,1,1,-1,-3,-4,-3,15,9,8,4,4,1,1,0,0,0,-3,-6,1,5,8,3,-60,0,-3,-5,-10,-12,-109,5,-70,-19,7,-3,-7,-26,-28,-33,-13,5,6,-3,-19,-31,-22,-29,-4,4,4,-2,-7,-14,-10,-31,5,0,8,-1,0,-5,-10,-18,-3,7,6,0,-3,-4,-4,-12,-20,2,1,4,1,-1,-4,-9,16,-4,-2,3,3,-2,9,-2,0,0,-10,-5,-12,-10,-32,-9,-16,14,5,-9,-8,-12,-22,-34,-10,2,2,6,-14,-15,-28,-11,6,0,12,10,6,-23,-12,-21,-2,4,7,9,12,4,-7,-8,-1,7,7,2,8,8,-2,-16,0,9,5,0,-5,11,9,-4,4,-10,9,-3,9,7,4,13,-190,-47,-11,8,8,7,8,14,-93,-47,-40,-43,-48,-43,-50,-39,-43,-20,-16,-21,-26,-28,-18,-25,11,7,6,2,-21,-16,-8,-15,25,22,12,0,-5,-13,-15,-22,31,27,20,2,1,-13,-2,-13,36,34,13,5,0,13,-15,-16,49,35,19,10,10,10,10,5,105,116,90,97,47,41,40,51,47,60,57,45,23,37,32,0,35,43,41,45,17,16,5,1,50,37,52,49,46,37,7,-4,45,53,27,37,45,22,37,8,55,47,29,20,30,41,34,16,58,62,37,41,35,41,53,18,70,60,51,38,37,44,0,42,-21,0,1,15,0,2,3,-5,-19,10,24,31,17,-1,7,13,15,24,26,16,-5,-25,-22,-12,21,29,27,13,4,-3,-5,-7,23,24,20,14,2,-4,-4,-10,23,21,18,14,5,0,1,-4,21,26,23,14,12,11,6,7,12,18,21,19,14,10,7,9,5,-3,-9,7,-3,6,-5,-2,9,9,-9,5,13,-18,17,4,0,6,-16,-15,-29,-23,-17,-19,0,11,-13,0,-18,-31,19,-22,-2,8,29,-44,-14,-69,-62,-25,-33,43,-26,-8,-24,-82,-3,-43,-64,119,-87,-22,-45,-5,-28,35,7,6,-4,-3,-6,2,-5,-4,-3,17,0,0,-22,-28,7,-39,1,-6,-7,10,-10,-18,-43,10,-1,11,-5,-2,-30,-27,-31,-7,16,-59,67,-38,76,-33,3,-11,-21,26,-4,-36,2,-24,32,-77,-154,6,-200,31,-226,8,-30,118,-32,95,-104,-80,-82,4,-108,55,-62,-14,-1,-8,-261,-61,-13,8,-9,-33,-37,-12,-67,13,-88,3,-10,-33,-18,-42,24,-57,-8,-67,-11,-17,-6,-2,-25,1,-79,30,-18,26,-22,-15,10,-41,21,-7,-35,-18,48,-38,-25,-41,-19,-17,5,13,-15,-32,65,-27,-36,7,-98,7,-87,-61,31,4,-149,34,-8,-10,-34,28,4,-18,22,-46,3,17,-8,-18,-21,-12,-14,-26,18,-13,28,-13,-2,-16,-63,20,12,52,6,40,0,-8,5,-37,40,41,59,35,58,72,41,49,19,87,37,70,11,50,40,-10,48,38,41,37,22,71,30,83,25,61,20,3,4,32,66,63,-35,41,-41,-15,2,36,56,64,-52,-77,-93,-81,-88,-66,-126,-45,-79,-114,-58,-75,-54,-101,-137,-57,-40,-34,-62,-1,-47,-29,-116,-22,-19,14,-3,-31,37,9,-6,14,-35,27,43,7,-49,14,-6,-14,14,20,27,27,16,-9,-30,-20,0,58,2,-11,30,-18,-221,53,-58,-92,-74,-24,-6,17,28,-32,-20,-28,-37,-61,-60,-63,-77,-49,-31,-33,-41,-68,-18,-47,-51,-10,35,6,0,-3,12,41,35,73,108,69,50,48,57,76,143,131,36,23,63,62,88,128,145,173,1,5,-10,65,148,165,227,180,-38,27,-7,45,195,251,270,201,-138,23,28,63,160,187,221,-161,2,2,5,1,-4,-8,6,3,71,27,126,61,172,61,49,61,-30,-1,67,72,14,-2,-16,-31,2,9,16,35,15,-31,36,-28,-2,27,18,10,-1,34,25,-8,8,33,19,7,-7,18,11,-1,0,24,26,7,-7,27,38,-20,-8,0,8,8,-5,-8,7,8,76,46,79,-21,86,56,72,72,36,-20,95,79,39,37,43,45,83,69,108,43,81,36,55,15,61,34,16,71,33,15,57,-4,39,36,60,60,23,46,31,-10,43,26,37,12,66,35,43,54,22,39,43,59,19,44,57,41,-9,36,41,66,40,57,53,44,56,40,84,44,41,153,64,74,84,56,104,52,66,11,42,90,-21,73,-13,84,11,-100,50,-201,80,-14,43,12,23,66,-1,25,-40,66,2,65,22,61,80,-13,51,-1,57,26,59,33,44,85,4,37,75,30,70,27,71,60,38,83,43,60,51,72,72,-45,17,73,64,36,79,30,43,14,-16,1,-10,-5,7,10,8,-1,-56,45,34,19,34,0,17,-20,17,46,12,54,36,30,27,48,0,36,15,41,39,0,-10,49,39,24,68,-48,97,39,49,94,41,40,45,53,29,2,72,71,35,65,22,46,56,33,23,65,61,62,90,37,34,-5,48,18,85,70,107,85,120,56,55,131,2,59,29,35,54,-115,83,6,66,-80,2,59,54,92,-32,89,-64,36,-34,110,54,70,57,95,73,12,106,-103,126,60,108,147,24,66,113,55,88,35,122,111,75,126,77,90,123,80,69,102,37,-43,6,-47,3,-5,-18,-10,38,11,27,52,25,-18,-45,-9,28,44,33,38,0,-61,-96,-88,54,34,35,42,-22,-37,-361,-106,-18,47,13,2,-54,-103,-77,-101,24,-5,-17,-46,-48,-61,-15,-61,5,-9,8,-51,-45,-48,25,-7,23,7,-28,-49,-27,-25,0,0,8,7,-4,4,-8,-4,-3,-1,5,6,4,19,21,27,28,16,8,6,8,13,7,7,151,-18,8,7,6,14,9,24,-62,-9,4,10,14,18,7,8,8,-31,3,17,9,9,22,3,8,-30,2,3,-35,-22,22,104,9,-47,-4,7,-5,-1,-7,1,-2,1,59,39,31,48,33,75,24,67,30,44,47,46,39,34,55,43,40,48,30,44,61,27,228,-5,31,40,50,49,36,47,14,36,49,38,48,36,55,55,59,36,44,6,62,43,47,59,30,5,40,46,8,40,46,65,61,30,-24,-4,-35,10,-4,32,-3,30,50,31,47,44,45,43,38,61,34,47,38,49,58,41,57,-70,45,34,39,45,46,35,254,46,46,31,19,35,22,67,16,-114,51,40,38,37,45,24,45,48,36,23,37,56,36,-4,32,13,34,32,30,37,-18,65,50,17,21,0,-49,-40,49,16,64,26,61,62,58,47,48,69,13,65,73,60,68,52,53,63,-9,55,57,64,60,70,82,29,198,-80,59,44,42,45,39,67,8,61,52,46,38,57,33,61,83,58,54,35,36,54,50,63,51,72,44,48,42,50,42,56,45,64,45,25,21,40,53,26,48,37,95,88,88,84,68,101,0,96,93,94,86,80,94,61,15,-2,100,82,69,88,72,26,-75,-46,90,81,61,75,43,11,10,-143,76,78,76,57,26,67,34,66,84,80,56,39,61,76,79,37,84,61,38,45,32,61,76,58,70,65,44,41,75,53,39,55,14,-20,-21,-30,-16,-10,0,-20,-6,-3,-28,-25,-16,0,25,5,-14,-33,-21,-28,-33,-43,-161,-20,0,-15,-23,-19,-43,-38,-29,-56,-31,-24,-5,-27,-44,-20,-29,-21,-89,-5,-21,0,6,-15,24,29,-26,-34,-13,13,3,80,25,-1,-91,-28,-16,169,24,68,43,20,-3,-3,-2,5,-2,1,-4,-4,44,-61,-27,-53,-325,142,-448,32,-2,0,-14,-9,-14,-8,6,-11,-14,-11,-21,-20,-29,-368,35,-342,-11,-10,-10,-5,-9,-12,14,31,-7,-13,-5,-7,-4,-2,-15,11,-5,-12,-4,-6,-4,-2,3,6,4,-4,0,2,-4,9,3,3,12,-7,-72,-106,-82,-63,-40,-32,-26,-33,-122,-107,-77,-30,4,-75,-63,-45,-80,-40,-60,-6,-169,-38,-44,-31,-47,-40,-42,-8,-51,-4,-46,-45,-27,-31,-33,-46,-18,-53,-38,-40,-37,-30,-15,-48,-13,-62,-44,-35,-28,-36,-34,-31,-37,-27,-26,-42,-36,-28,-33,-18,-35,-30,-14,-44,-4,-80,-88,44,-81,-56,-24,-24,-95,1,-84,-43,-110,60,-37,-51,-32,-76,3,-64,31,-135,-65,-26,-78,-52,-70,-24,-37,17,-23,-59,-41,-55,-25,-53,-11,-56,-57,-43,-37,-20,-50,-20,-70,-37,-40,-50,-25,-52,-18,-41,-32,-54,-56,-25,-49,-4,-59,-31,-50,-19,-43,-79,-62,-56,-77,-15,-76,-45,-56,-60,-72,-68,-54,-57,-78,-70,-49,-68,-58,-58,-74,-54,84,5,-53,-42,-50,-24,-31,-6,13,-28,-46,-47,-33,-43,-24,-31,-15,-18,-51,-43,-27,-29,-39,-53,-19,-32,-46,-45,-44,-36,-38,-36,-27,-40,-56,-51,-48,-42,-41,-45,-35,-41,7,-62,0,-35,-44,-46,-42,-48,-53,-43,-64,-27,-77,11,2,8,-29,-45,-9,-62,-58,-31,12,10,-59,-25,-42,-50,-177,11,-11,0,-34,-53,-30,-102,0,-50,-10,-50,-63,-49,-43,-3,-38,-40,-62,-35,-46,-48,-38,-44,-21,-58,-52,-53,-63,-25,-48,-36,-58,-55,-67,-56,-112,-15,-3,-9,23,-140,-231,-179,-71,-53,-67,-19,-49,-76,480,0,-62,-74,-16,-61,-35,-34,34,-83,-63,-18,-29,-23,-3,38,-53,75,12,-23,-5,-15,21,18,37,25,15,14,17,13,-10,-10,-41,-8,13,24,20,14,-6,-23,-29,-26,-3,12,4,11,-12,-11,-29,-9,2,-4,8,7,0,6,4,-4,4,-14,-21,-34,-14,-17,-9,4,0,-11,-14,-23,-16,-9,-3,-3,2,-13,-15,-10,-19,-21,-8,2,0,-9,6,-7,15,-1,-12,-1,25,1,12,0,-5,41,-11,-15,503,33,490,96,504,-26,28,-53,7,6,-8,-6,-8,0,-8,-4,-12,-51,-64,-57,-66,-60,-54,-32,-34,-53,-49,-52,-50,-49,-36,-51,-42,-41,-36,-35,-54,-41,-38,-52,-7,-57,48,-48,60,-45,-35,-46,-33,17,-19,-19,-32,-10,-42,-29,-23,-42,333,-15,477,406,-28,-28,302,264,388,377,504,-141,441,15,20,415,267,114,401,60,38,-6,-57,-72,-74,-80,-52,-55,-65,-74,-51,-54,-47,-68,-67,-26,-56,-47,-22,-54,-65,-60,-59,-71,-21,-41,-30,9,-60,-44,-50,-30,-45,-53,-62,-40,18,-63,-29,-41,-22,-73,450,-63,-38,-36,-49,-37,-77,504,157,-5,-20,421,447,-59,-51,-7,-24,271,390,102,45,244,-116,-32,-71,-59,-66,-60,-57,-65,-62,-68,-43,-61,-63,-52,-12,-39,-80,-68,-79,-32,-58,-18,-26,-30,-37,-80,-72,-28,121,251,326,161,125,-52,-54,89,-16,317,181,-14,-14,-44,-11,0,231,185,93,88,4,-54,-34,212,161,174,143,51,-23,-25,3,145,30,262,99,171,217,35,-116,-112,-119,-92,-106,-136,-121,-134,-113,-100,-100,-70,-78,-81,-109,-71,-112,-88,-55,-98,-47,-78,-13,-80,-80,288,233,308,238,276,332,-55,425,251,281,255,278,255,242,-93,61,53,275,170,59,98,-19,64,204,233,51,-42,181,-57,-56,-53,101,296,143,191,94,83,24,97,-8,29,24,33,41,39,48,51,40,22,28,44,45,40,42,43,355,66,64,51,48,47,56,421,304,398,190,268,132,279,189,283,339,330,356,346,343,391,280,320,177,263,224,281,111,50,35,62,205,111,184,263,54,41,-26,49,208,23,68,95,17,169,41,-504,6,-4,5,1,0,5,6,8,-81,264,400,-40,36,-25,-21,2,1,8,-8,37,13,16,60,-5,6,13,15,18,31,5,34,-2,-3,5,10,1,19,-14,4,6,-5,1,3,-9,7,-11,2,-2,-3,5,2,5,-16,2,1,5,8,8,-4,6,8,7,1,0,69,7,28,88,249,34,32,54,-14,229,389,322,323,226,194,119,68,406,349,140,364,69,141,68,60,43,56,49,64,53,58,50,16,44,27,73,23,50,37,33,31,31,29,32,41,24,33,27,18,24,29,41,29,15,18,26,-5,37,25,15,18,25,25,1,48,81,298,176,86,408,82,26,2,150,287,70,308,92,493,65,361,51,53,46,8,118,70,-13,51,76,41,68,84,48,50,56,25,2,50,56,46,50,36,35,10,25,40,55,35,30,37,15,12,42,9,40,21,19,25,38,22,24,41,23,20,15,25,28,20,61,248,90,136,217,129,58,22,10,3,62,28,53,51,43,7,-4,18,3,28,4,26,58,20,-1,-12,-1,10,7,22,35,28,7,10,2,27,2,-4,31,32,11,16,40,18,18,0,34,21,34,13,31,51,11,39,17,15,33,26,37,37,29,23,28,38,44,163,310,295,290,95,27,21,85,69,146,84,158,59,58,83,34,190,82,180,127,157,83,88,376,173,472,364,446,437,447,173,425,266,86,393,151,449,71,88,135,102,383,109,176,81,67,70,65,67,113,102,64,69,31,51,63,64,63,70,72,82,47,156,-5,74,14,-57,54,108,81,46,-6,52,188,14,-9,124,93,-3,17,120,93,22,43,72,-7,110,79,84,80,69,37,110,89,97,83,61,32,55,88,88,118,62,65,32,46,24,51,59,99,63,56,44,50,49,54,69,84,36,51,54,52,59,67,66,64,8,7,7,3,-5,5,0,-1,-44,7,-42,10,0,-3,1,0,-40,11,-47,21,-31,-13,-20,3,-63,22,-56,0,-17,-34,1,-8,-94,18,-52,-44,-6,-118,44,-12,-44,5,18,-195,7,-127,25,-20,-146,38,106,-486,133,-305,64,-94,-2,-1,-3,-8,8,-7,5,7,-28,-43,-7,-35,-46,-33,-55,-8,-44,-60,-50,-44,-51,-38,-70,-53,-80,3,-77,-64,-47,-54,-30,-15,-71,-41,-98,-61,-29,-69,-41,-85,-71,-78,-18,-105,-127,-106,21,-66,-41,-215,-17,-374,40,-83,-34,-88,-376,36,-10,-50,-377,-109,-27,-20,-36,30,-175,-485,-43,-17,-57,-399,-67,-45,-38,-72,-16,-44,-25,-37,-96,-59,-69,-48,-51,-51,-31,-59,-62,-60,-45,-70,-27,-78,-19,-56,-18,-54,-79,-58,-56,-30,-125,14,-94,-23,-81,-75,-107,-141,22,-416,-165,-9,-49,-78,-447,-41,-495,-17,-105,-2,-10,-166,55,-206,-18,-116,-35,-51,-54,-82,-144,-86,-112,-70,-55,-57,-66,-74,-85,-68,-41,-39,-64,-52,-95,-94,-43,-93,-34,-12,-73,-53,-107,-106,-84,-104,-42,-16,-53,-99,-74,-113,-100,-62,-58,-43,-88,-88,-101,-143,-115,-136,-91,-31,-92,-63,-93,-94,-93,-145,-75,-98,-40,-57,-39,-106,-68,-100,-49,-62,-110,-63,-35,-344,-51,-205,-40,-100,-116,-83,-83,-88,-88,-82,-54,-102,-136,-106,-114,-109,-76,-140,-52,-115,-109,-73,-121,-136,-84,-129,-54,-33,-43,-83,-52,-159,-113,-83,-77,-65,-90,-87,-93,-65,-167,-141,-43,-108,-110,-29,-43,-105,-136,-105,-136,-76,-109,10,-20,-138,-26,-187,-23,-116,-32,-22,-48,-92,-71,-7,-47,-92,-36,-33,9,-30,-11,0,11,-14,12,10,-7,-32,23,9,32,20,41,57,-3,-15,11,9,42,38,43,34,7,-2,-16,7,33,66,70,100,57,22,10,28,40,61,62,121,80,36,59,32,40,49,0,96,103,29,115,30,125,-20,36,69,78,14,36,25,55,61,-1,7,4,-1,2,-5,-2,0,-47,90,21,127,91,-2,14,-35,60,28,42,52,43,21,-25,18,41,3,22,8,-1,34,46,29,37,33,-1,-20,6,10,40,32,21,43,15,-13,-6,6,8,47,18,44,-9,4,6,22,14,26,-9,-2,-2,-5,8,8,-5,0,41,-59,39,27,-51,-50,-122,-123,-38,19,33,-5,72,22,-94,-68,-35,33,59,-6,-34,-18,19,-42,16,-10,-9,19,-28,46,-23,18,11,19,29,45,-8,32,5,58,19,61,8,14,70,11,63,0,55,3,59,4,64,25,37,17,36,26,52,40,20,43,22,8,51,-79,95,7,-3,-95,8,-3,44,63,18,-5,36,29,-35,55,4,55,-5,18,51,32,28,-27,50,-4,46,13,-44,62,10,34,-13,46,14,50,53,12,47,-17,1,89,57,55,53,36,36,45,25,40,45,55,50,74,47,46,11,64,51,30,37,48,63,77,17,45,43,-8,41,-10,14,-42,-26,66,35,15,21,-59,0,-35,-20,61,45,12,39,15,19,23,-16,83,74,7,43,-7,103,57,24,72,43,27,57,24,57,45,16,109,88,53,54,31,129,44,64,67,72,47,55,102,41,18,43,54,126,23,69,23,60,40,36,76,107,95,65,75,-254,-179,62,108,74,46,63,25,43,54,54,119,85,100,132,107,44,62,62,96,107,77,107,128,142,-5,40,133,33,127,158,133,107,130,43,200,97,169,125,89,221,84,93,148,141,140,127,199,108,36,62,167,201,112,162,104,136,60,33,60,83,77,46,71,56,74,75,95,73,32,43,68,93,52,63,75,60,31,33,41,30,33,24,21,42,6,-8,-13,8,8,-24,0,-2,-8,-12,-14,-16,1,-18,13,-1,-13,-37,-21,-7,-3,10,7,-30,-8,-4,1,-7,2,6,41,24,-14,9,-9,6,6,-7,6,-5,-2,-3,-1,-6,0,1,-5,8,22,41,17,3,20,5,-11,3,21,34,-6,-15,27,-5,-22,-8,14,16,5,1,25,-3,-9,-15,-27,5,-6,29,14,43,39,28,6,-57,-6,-13,31,22,72,94,70,-48,62,0,54,1,-6,-4,-8,-9,-6,5,-6,56,37,17,74,59,83,40,36,36,14,43,52,74,32,59,16,36,32,41,32,56,16,62,34,38,-4,70,-16,62,14,25,55,55,59,2,53,-1,14,-46,51,37,69,-4,81,54,13,8,26,41,16,27,49,56,-77,-81,32,33,-61,4,-13,49,-8,-15,19,56,34,44,41,88,26,46,60,5,49,49,65,58,55,41,82,51,-5,58,12,79,13,72,6,-38,34,-36,40,12,47,-73,88,73,-42,49,-53,91,-85,78,51,13,95,-62,89,-430,40,-46,90,59,31,78,-93,39,-44,68,37,22,58,27,45,-74,66,-45,60,68,101,30,84,39,123,85,48,67,64,78,69,21,36,122,23,67,76,57,61,29,74,111,63,83,59,82,0,6,83,89,40,33,74,31,24,-32,67,82,17,35,48,67,40,98,56,72,40,67,79,78,108,55,91,93,94,62,63,69,60,115,65,98,47,128,175,82,134,133,185,112,119,99,103,130,95,75,82,141,92,128,94,109,84,94,80,143,81,85,86,105,-8,28,89,34,114,119,76,94,54,73,60,98,43,133,139,117,147,83,86,53,97,149,128,148,123,169,150,114,123,67,109,91,159,59,177,137,97,-191,0,-11,45,46,63,12,-8,-194,-44,11,26,54,-9,-16,-36,-183,-44,-28,10,-2,-16,-97,-75,-90,-238,-135,-226,-136,-275,-156,-299,-356,-118,-437,-141,-150,-232,-68,-25,-246,-93,-92,-115,-441,-394,-167,7,-107,-17,-73,-83,-76,-149,-63,-39,12,-61,44,-136,-232,-114,-85,-101,-7,-1,8,3,0,-1,-5,-9,-27,73,-271,175,293,195,219,-401,-26,-40,-16,-104,38,-158,34,-56,0,-24,-11,-36,19,-76,0,-13,8,-12,7,-10,19,-19,-12,6,10,-11,11,-4,37,3,-9,8,0,11,-6,22,-9,-15,-33,-6,0,1,4,-6,1,-8,-5,-3,32,-94,-24,20,-22,62,183,-77,2,-39,-20,-330,46,5,-140,-307,-214,15,-176,23,-275,-10,-117,-57,-69,-14,-104,2,-60,-67,-14,-65,-19,-52,-10,-41,-1,-40,-6,-68,-35,-41,-24,-32,-48,-10,-30,-12,-3,-34,3,-43,-30,-46,-4,-26,0,-22,-48,-24,-45,-23,-19,-36,16,-40,9,-35,-8,-21,77,-77,-130,6,-237,8,-251,-7,-54,-131,-9,-135,-18,-265,17,-47,-16,-280,-102,-60,-138,2,-46,-9,-13,-103,-90,-142,-3,-10,-50,-41,-31,-66,-108,-40,-67,-37,-74,-13,-31,-37,-24,-14,-52,-43,-46,-43,-24,-55,-7,-36,-24,-47,-16,-50,-15,-22,-504,-343,-464,-165,-405,-386,-50,-103,-50,-50,-45,-37,21,-47,-6,-95,-52,-80,-46,-52,-17,-61,-85,-111,-73,-60,-42,-43,-14,-47,-97,-70,-68,-81,-74,-48,-21,-75,-47,-73,-85,-73,-99,-65,-75,-39,-43,-47,-70,-92,-62,-156,-32,-124,-89,-106,-76,-74,-66,-83,-63,-84,-86,-82,-22,-39,9,-41,-76,-236,-14,-15,-74,-25,-133,-34,-100,-15,-22,-187,-52,-125,-62,-166,-32,-58,-77,-307,-109,-63,-81,-35,-94,-21,-50,-131,-92,-124,-86,-100,-81,-73,-32,-105,-103,-86,-152,-64,-157,-20,-19,-86,-67,-66,-71,-106,-46,-76,-56,-143,-78,-90,-75,-86,-79,-44,-69,-96,0,27,-213,-112,-204,-149,-173,-180,-57,30,-165,-67,-264,-406,-42,-158,-5,16,11,0,-69,-56,-23,-146,13,21,0,43,19,31,-30,-32,42,-10,15,34,29,24,0,-42,2,-16,-34,-15,-45,6,-26,-19,-8,0,-4,-39,-5,4,16,-32,0,16,-8,14,-12,26,-3,-14,-8,1,6,3,1,7,7,9,10,19,2,-8,16,27,25,17,3,11,28,-3,18,19,3,23,-1,1,7,13,37,9,0,4,6,-8,-12,0,20,4,39,4,20,-3,-26,-60,25,39,71,38,127,90,23,160,130,64,-65,4,5,-8,-8,-1,8,4,2,-2,25,56,76,77,58,31,31,8,32,68,27,105,40,41,44,16,41,37,76,79,74,62,16,5,83,58,34,27,47,52,15,49,56,15,36,29,90,24,51,61,62,61,-21,2,-9,43,-10,-33,42,6,34,83,50,15,-7,16,61,80,28,32,26,-13,-9,-78,57,72,48,74,41,44,66,47,90,68,68,35,37,69,54,68,70,95,55,68,72,51,31,31,123,16,54,64,50,62,-29,64,27,82,27,57,105,62,57,45,68,-22,50,-46,38,33,81,78,60,55,-5,47,38,62,102,21,89,49,20,37,73,-5,34,70,39,71,129,83,92,31,48,26,40,83,67,124,57,45,39,22,45,59,106,95,86,36,-17,21,40,107,63,79,5,58,-7,32,62,88,108,57,68,64,51,18,65,98,98,66,68,35,52,79,1,14,74,30,43,12,-28,27,16,72,120,76,45,40,58,25,55,103,136,76,108,74,130,60,101,81,111,101,83,87,93,91,81,107,97,122,124,73,36,47,100,73,104,71,65,104,5,60,70,129,87,66,90,113,127,62,118,55,106,9,53,58,115,74,87,87,58,91,49,82,140,27,125,82,90,110,97,61,154,19,15,10,51,2,3,-46,-3,-26,-8,-21,13,22,-16,-17,-35,-42,-10,-64,14,4,-3,-44,-46,-39,-106,-47,-57,-19,-30,0,-12,57,-95,-189,-67,-68,13,17,70,58,-67,-105,-30,-31,24,0,62,111,-61,5,4,-28,16,52,113,71,-108,-1,-11,-4,13,83,58,91,3,8,0,6,5,0,-2,3,-76,93,100,3,105,-149,15,-70,-59,33,-42,-55,-26,-7,-21,-41,-27,-15,-19,-81,-8,-28,-15,20,2,-52,5,-85,2,-17,-20,58,5,-25,7,-94,8,-24,-29,18,5,-12,18,-91,13,-35,-31,10,-3,6,-4,-2,-4,-2,8,-1,-16,63,-5,-33,-106,-46,-165,-17,-190,-37,12,0,-67,-73,-108,-35,-60,-47,-82,-106,1,-116,33,-95,-31,-104,-30,-76,19,-91,-29,-73,-51,-36,-44,-14,-52,-26,-29,-3,-26,-30,-46,-32,-59,13,-68,7,-27,-20,-32,-51,-46,-34,-50,-9,-30,-26,0,-56,12,-62,10,-39,-25,-5,-45,21,-42,-29,-74,-57,-51,-31,-24,-111,10,-85,0,-52,-167,-10,-63,-31,-176,21,-40,-6,-64,-77,6,-50,-1,-120,-7,-8,-131,-33,-44,11,17,-28,-150,-68,-64,-50,-49,-51,-32,-41,-79,-122,-48,-49,-46,-43,-53,-49,-43,-64,-73,-30,-28,-51,-84,-53,-24,-30,-61,16,12,-92,-6,-69,-68,-66,-23,6,0,-40,-39,-45,-46,-16,-51,-2,-25,-42,-27,-21,-81,-46,-29,-23,-6,-37,-43,-17,-76,-26,-70,-35,-33,-32,-30,-46,-54,-39,-57,-63,-29,-87,-63,-23,-47,0,-69,-73,-109,-80,-69,-33,-79,-15,-65,-70,-64,-92,-67,-71,-85,-28,58,100,39,58,-33,68,-28,-25,-46,-3,26,-75,20,-67,53,-47,-95,7,20,-12,-85,33,-33,-44,-15,-35,42,15,34,-51,9,1,-132,-18,-8,50,1,-36,-88,-61,-64,-36,17,-30,-54,-2,-75,-26,-75,-48,-73,-20,-65,-32,-53,-33,-47,-41,-14,-43,-56,-57,-73,-48,-17,50,29,-4,63,-104,-244,80,36,94,65,33,68,-112,-134,-203,76,68,73,24,37,11,-80,-383,72,96,83,34,49,-6,-32,-24,74,60,79,54,26,-30,-55,-20,45,28,47,29,9,-20,-47,-30,-20,-25,-20,9,-11,-29,-39,-21,-54,-13,-13,-15,-14,-33,-1,1,-8,5,5,3,-2,8,6,-5,16,-4,-5,11,10,11,4,2,11,13,-13,5,6,1,6,3,19,17,13,11,3,7,15,2,29,50,504,60,17,10,-6,11,9,60,57,38,45,15,15,21,13,58,82,73,34,10,9,7,-1,-2,1,-8,7,-8,-5,3,-19,-28,27,-5,-4,-8,-14,-28,-6,-6,-28,2,-6,9,-12,-21,-24,148,-9,95,-17,3,2,1,145,30,3,2,83,34,1,0,78,-4,195,-9,20,-7,12,6,152,-24,32,2,121,25,23,-6,11,189,45,108,21,-4,19,-6,3,45,-22,62,22,42,-5,-3,16,-22,12,-13,18,4,69,4,0,16,-19,23,6,43,7,33,96,21,21,-8,63,18,29,-4,39,143,29,86,17,34,11,26,123,26,229,17,29,20,6,10,14,95,18,66,14,34,6,46,232,0,39,20,65,8,26,-29,10,4,28,43,13,102,28,-14,20,20,64,14,16,13,12,6,10,15,62,24,11,21,12,3,0,23,60,10,-8,15,26,-2,10,9,84,-12,12,5,13,4,118,153,191,107,79,88,64,49,86,43,88,9,8,42,37,20,67,26,70,37,43,55,38,42,82,23,67,34,17,28,40,15,72,45,100,68,80,61,105,45,69,69,87,88,67,99,52,66,147,86,117,55,95,81,79,57,96,152,142,112,75,84,65,74,206,178,283,148,136,112,121,95,129,170,162,129,92,120,96,93,167,66,128,116,129,71,123,88,66,-471,137,-289,117,141,134,93,-35,-16,-15,-19,-15,-4,-10,-9,-10,-5,-13,-15,-12,-16,-7,-9,17,21,10,-12,-12,-16,-13,-10,61,84,68,55,4,0,0,-4,50,44,38,27,8,8,1,13,31,91,31,20,6,-8,-7,-19,45,29,37,27,28,-16,-53,-46,69,3,28,-7,-122,-105,-42,-14,-1,0,2,-8,5,-7,-7,8,49,-327,25,-128,-423,12,-31,-89,21,-1,-11,1,-40,9,-30,-28,15,16,-12,14,-3,7,4,-6,23,2,46,9,14,5,7,3,14,-275,27,-197,-2,3,0,-1,18,-27,27,-37,0,-6,-5,0,8,6,6,3,-9,8,0,0,-8,-46,25,6,-14,15,3,7,-24,-10,5,-4,-20,42,7,0,-7,-43,-11,-25,-1,0,-2,10,-14,-3,-35,-9,-42,-7,3,-12,18,-21,58,0,16,-6,0,15,-48,-22,11,-37,-31,-15,-10,3,2,-110,11,-54,0,-14,-14,-5,-39,-15,-43,-28,-14,-6,-5,-17,13,-13,36,-31,-41,-1,-10,17,14,3,4,-29,-16,9,2,-19,-129,1,-38,6,-41,-5,-9,-18,-12,-110,-18,-50,-11,-14,2,-20,-7,-3,71,-3,4,5,1,27,8,-96,4,-105,15,-9,6,0,-110,11,-32,5,-92,-8,-6,-8,-16,-40,-25,-34,2,-58,-10,-5,3,-34,-3,-20,-30,7,0,-19,-21,-29,-36,-19,-26,8,-6,-29,-36,-15,-62,-34,-29,-17,-34,-25,-34,-26,-86,-38,-33,-26,-31,-29,9,-38,18,-24,-40,-36,-29,-22,-51,-29,-81,-39,-17,-39,-37,-27,-13,-32,-27,-31,-21,-19,-10,-25,-38,-45,-49,-36,-31,-7,-24,-14,-5,-83,12,-67,-19,-48,-1,-91,-46,-3,-56,-51,-57,-54,-48,-79,-86,-63,-76,-91,-117,-85,-76,-104,-80,-302,-119,-116,-99,-88,-93,-118,-97,-72,-14,-72,-101,-96,-57,-69,-95,-80,-101,-116,-61,-94,-88,-88,-91,-64,-87,-75,-100,-66,-45,-102,-93,-104,-91,-92,-81,-63,-18,-63,-5,-262,-31,10,-12,38,50,56,-65,50,27,31,23,67,69,61,-19,32,16,13,-3,25,49,29,-9,-85,-456,-18,3,13,3,-2,-19,-56,-29,-26,-4,0,13,8,-13,-74,-504,-67,-3,10,-14,2,15,3,-7,-2,20,4,12,-1,-26,7,6,7,8,37,2,5,0,1,7,5,-6,0,-8,-4,-1,-3,-6,-21,-11,0,-8,-2,-1,-9,0,-4,-24,-6,-15,0,-3,-7,-9,-7,-8,1,-35,33,0,-6,-16,-4,24,5,381,12,-6,2,2,1,31,7,59,13,-24,-38,-30,17,-34,-9,-39,-38,-6,8,3,-1,-2,-2,0,0,7,-8,-19,4,4,-19,23,-13,-8,0,-9,-3,0,7,-2,4,-7,-9,-7,-15,-26,52,0,73,0,-9,-20,3,53,0,-17,4,-9,-5,-4,6,22,7,227,11,-2,-14,1,20,101,-12,0,4,-28,22,-6,-10,-7,75,27,240,50,-16,-41,52,10,20,-12,52,7,3,40,0,0,-3,-8,0,18,13,-12,36,-1,13,-7,-13,7,0,17,-3,44,-9,-8,-8,-3,3,10,26,-1,39,-18,87,14,-4,12,9,20,3,205,12,-24,35,-3,2,9,68,23,57,3,4,20,1,65,8,27,3,7,-28,-6,95,11,-2,8,36,-12,-14,-9,-3,1,10,34,3,-13,-15,-4,-4,1,10,31,12,-7,-10,-4,1,-12,19,67,11,-8,-22,-10,-4,-14,12,60,12,-6,7,22,28,44,95,219,89,-2,-7,9,14,8,4,66,33,16,12,17,22,29,22,60,39,-7,7,21,20,23,26,58,32,45,42,42,35,39,41,62,48,46,46,39,53,36,43,85,37,34,45,43,51,39,43,116,40,31,29,56,51,40,78,88,152,47,42,55,73,86,100,263,121,21,59,71,58,67,103,119,93,20,54,55,52,84,63,165,78,24,18,63,136,79,-381,85,73,-5,-9,-10,1,-5,-6,-9,-10,0,-11,-5,-12,-1,-18,-10,-9,-25,-14,-15,-7,-18,-28,-9,-14,-15,-23,-27,-20,-6,1,43,48,-4,-17,-35,-21,-10,20,-27,40,4,-10,-27,-20,-27,1,13,3,-20,-28,-17,-87,-47,-30,-10,-47,-35,9,-1,-15,-75,-16,-39,42,-6,8,-4,-4,8,7,1,-5,-22,-22,-41,7,-94,-32,92,-57,0,0,8,-4,6,-12,30,0,6,4,8,10,8,-19,-4,12,11,7,8,4,9,-1,104,20,9,12,3,7,5,-175,4,-206,11,11,9,8,-3,-34,2,-11,-1,-2,7,0,8,-3,-8,4,5,17,21,33,-23,0,-2,-8,3,4,24,6,-13,1,10,-50,23,9,2,2,-22,-130,-12,-197,17,6,14,-3,-55,-40,-9,-3,19,21,2,1,-12,-9,93,-35,9,13,7,-3,-88,-9,-2,-11,20,11,-1,10,8,-38,-12,-111,14,11,14,-20,-2,-16,-20,-19,4,0,-47,-3,-4,2,34,-8,2,-3,-21,-34,5,-18,25,-28,5,-21,-11,0,-112,2,-1,18,12,-1,10,0,16,-153,-17,-93,-1,12,3,-1,-20,-5,95,-419,5,1,8,-4,11,-102,-11,-45,-1,3,7,2,-79,18,-5,32,4,10,-1,-70,0,-5,-65,-10,1,4,10,8,-3,-43,-7,-25,9,14,16,10,13,-7,-40,-15,1,18,22,15,15,1,-42,1,8,1,11,12,9,-11,-120,-11,4,1,3,-23,-31,-66,77,-43,7,5,4,-9,15,15,-60,-14,15,10,17,11,12,9,-47,13,12,13,10,23,-3,-11,-38,-11,-21,-24,-19,-6,-29,-31,7,-12,-3,-20,-6,-28,1,-9,0,-36,-25,-13,-5,-10,-24,-7,-71,2,0,-29,-12,-9,8,-64,-71,6,-16,-12,-8,-24,-42,-41,51,-41,-5,-18,-3,-32,2,-9,-26,-34,-17,-24,-15,-15,-32,10,-20,1,-11,-20,-10,-12,-24,-23,-23,-53,-20,-58,-60,-11,-3,-30,-64,-22,-54,-30,-60,0,-63,-21,-3,-19,-57,-40,-24,-22,6,-19,11,-35,-65,-45,-50,-11,-15,-159,-67,-115,-50,-40,-2,-7,-18,-108,7,-170,-50,-47,-22,0,1,-37,-160,-36,-37,-25,-11,-2,19,22,5,14,-25,-44,-21,27,-10,3,2,14,5,-7,4,-6,8,6,8,7,16,0,-10,-386,-13,0,2,2,14,6,-14,-231,-27,-3,6,3,13,12,-6,-188,-13,1,4,9,13,5,-1,-153,-1,-3,13,10,8,-4,4,-27,-2,-2,13,14,7,53,55,48,71,20,11,23,-4,-1,-7,6,4,-5,7,0,-48,-51,-62,-84,-52,-49,-33,-41,-57,-52,-46,-504,-41,-39,-28,-34,-32,-43,-39,-153,-34,-49,-36,-32,-27,-40,-19,-124,-13,-33,-31,-29,-20,-6,-10,-87,-21,-2,-20,-17,-15,1,-14,-47,-43,11,-1,-11,1,32,-11,-1,-13,-24,14,-14,20,11,44,0,22,13,32,6,-31,-38,-48,-64,-37,-22,-27,-10,-1,-32,-37,-504,-21,-32,-18,-26,-20,-10,-44,-106,-31,-22,-24,-4,-24,-8,-13,-94,-30,-15,-13,-8,12,-6,7,-75,-25,-17,-20,-23,-27,-14,8,-41,-2,-41,-32,-33,-3,-11,0,-18,0,-22,-25,-33,-37,0,-12,4,-22,28,15,-24,-8,-15,-8,103,-8,-18,-23,-24,-10,-5,-2,108,2,-17,-22,-16,-8,-15,-13,66,0,-20,-8,-16,-5,0,-21,52,-11,-9,-7,-14,11,-7,-15,8,-16,-8,-1,0,16,-3,-6,7,-21,-10,9,10,8,-3,-8,11,-12,-3,21,13,26,8,-4,52,6,3,26,10,-10,-16,-3,43,-4,-17,-31,-3,-11,-20,-5,10,-1,-28,-23,-29,-28,5,-7,19,-13,-16,-26,-32,-19,-15,-19,32,-23,-25,-18,-28,-24,-22,3,-16,-9,-19,-20,-9,-19,-12,-1,-5,0,1,0,-21,2,0,30,-3,-14,0,-2,-23,7,24,-11,58,-44,-24,21,26,14,5,-6,-48,-6,0,3,5,8,-2,-14,-106,-11,-1,4,19,18,8,-22,-47,-27,-2,14,28,33,18,-23,-52,-11,8,17,30,40,41,23,-11,1,15,36,41,62,56,51,-4,21,46,64,54,75,71,29,49,10,88,88,44,75,76,56,42,59,88,69,69,-2,4,-1,2,-3,7,-7,3,20,-77,-178,-504,-154,-83,-18,4,14,-34,-72,-504,504,-30,-1,11,1,0,-26,-504,-22,-2,-3,6,0,-5,-4,-126,-6,-3,-3,2,0,-2,-14,-60,-9,-8,0,0,-2,2,-25,-99,-18,-11,-1,5,3,5,-7,2,7,3,7,3,63,36,-18,37,31,20,27,39,60,44,45,67,31,37,38,60,44,61,42,60,46,42,42,50,28,46,41,13,26,23,32,42,31,39,19,40,18,25,16,25,25,22,6,39,-4,5,22,21,35,16,32,12,29,-6,8,30,23,32,19,12,11,-3,30,34,33,18,-29,23,1,-11,3,25,10,17,51,38,12,17,26,29,19,14,30,44,54,6,9,21,6,26,1,18,23,11,-5,27,41,6,1,34,14,9,36,24,31,3,-10,37,-13,14,35,48,23,25,-4,17,0,15,26,42,25,24,19,4,1,19,27,33,45,20,28,45,20,12,34,31,37,30,26,14,28,14,36,18,19,10,10,-3,15,17,18,18,21,14,21,-18,11,12,18,24,20,10,17,5,22,25,15,25,9,20,-3,3,-1,8,8,7,16,8,11,-12,1,8,4,18,19,26,18,25,6,9,11,22,21,47,27,117,28,65,10,15,44,47,67,51,45,60,20,42,8,22,29,79,50,54,36,39,6,12,14,75,20,24,23,37,-12,15,10,81,14,23,32,38,31,3,-11,90,7,15,25,52,33,17,4,83,5,21,32,53,16,40,22,84,21,41,47,39,-3,26,59,180,172,39,14,14,66,43,136,167,138,91,20,20,-4,36,105,142,120,33,6,6,-19,28,69,73,72,18,-38,-44,-15,10,26,55,25,0,-32,-29,-25,-20,0,39,6,-4,-17,-33,-21,-13,-22,36,-11,-14,-18,-18,1,-6,-21,45,-12,-4,-8,-18,-5,2,-1,-5,-6,0,9,-8,5,3,0,24,-34,35,-29,5,4,7,9,3,-353,33,-300,3,4,9,5,5,6,74,1,7,0,7,15,2,3,7,11,5,-7,2,7,5,-6,28,-2,7,-14,0,-13,-72,-136,79,-42,-43,-3,-2,9,6,1,8,0,-4,32,21,-12,0,-16,4,-15,6,4,3,1,25,-88,0,-82,7,14,9,5,-83,0,9,-3,-84,14,-3,2,4,3,90,-6,10,13,8,-21,-82,-8,-1,12,-261,8,9,-1,15,-156,3,-102,24,25,16,17,-21,-8,-4,13,-19,20,4,21,20,24,45,27,-9,3,-1,-73,16,-4,-15,-1,3,6,-1,0,-82,18,2,18,-119,-5,4,7,20,-98,9,-91,20,19,12,6,-16,6,42,1,-6,3,12,3,19,-117,-14,-71,20,-3,2,18,-61,22,10,26,-103,-24,9,-24,18,-14,43,0,-2,-3,-61,12,-3,14,37,38,1,12,17,34,5,-8,-6,1,4,9,23,10,17,5,5,15,16,6,4,0,10,5,-60,9,8,13,8,-5,-25,-28,88,-24,-2,5,9,17,21,6,-90,7,26,9,26,14,22,28,2,29,18,5,13,28,23,11,0,14,16,14,27,29,31,13,53,-2,23,21,19,19,7,0,25,23,12,9,20,0,0,29,20,36,0,0,4,12,34,-15,-4,8,18,12,20,10,-38,-6,53,6,-2,18,36,3,25,-29,-37,-29,31,16,38,15,-9,22,-20,33,-27,23,25,22,17,35,24,33,-3,-2,-4,-18,46,-17,65,12,19,-61,-24,23,-8,-1,3,-1,-23,-58,1,-7,18,18,11,12,21,-37,-38,6,9,-35,-26,-11,9,-24,-12,-4,6,-38,11,-25,11,-40,-11,3,19,-35,-25,-13,-6,-52,-1,21,22,28,20,19,5,-45,-404,5,17,18,-8,24,-45,-33,-64,-12,38,-2,29,-25,-50,4,3,9,-1,0,-2,6,-6,-15,-17,52,-20,37,-47,7,7,-12,0,11,-2,30,-28,40,3,-4,1,3,-1,11,-371,0,8,-5,-5,-3,-1,7,-20,13,6,-4,0,-1,-9,5,-9,2,-1,-1,-1,4,3,6,-3,-1,6,0,0,4,-7,7,-3,-7,5,-19,-2,39,12,19,-19,76,3,21,3,-27,-1,142,53,153,-12,-1,0,50,103,-14,-2,-17,173,22,-3,-3,9,4,210,-16,37,-13,-4,16,94,-1,-10,25,134,-14,-18,-9,-19,87,3,100,-9,-22,-7,-6,-11,3,-10,11,-21,-3,-21,-25,-4,-17,17,-8,23,-19,5,67,0,35,-8,-5,-4,-19,12,-9,56,13,21,12,71,35,-9,8,-3,66,1,69,-5,-1,5,-5,6,10,249,-14,23,-2,-6,12,-4,58,-5,84,9,-4,8,-13,54,-17,7,-4,68,3,-7,42,-14,5,-15,11,-1,-9,57,-14,-1,-15,10,-6,-6,1,9,-6,10,-7,44,2,23,14,16,18,8,9,55,3,18,3,22,22,14,6,69,27,35,13,8,28,42,58,221,72,54,-21,-8,-19,-14,-17,68,20,-5,-18,-12,-13,-24,-5,52,0,-1,-18,-6,-12,-2,-6,19,8,-17,-6,-11,-9,-4,-7,10,-8,-11,-1,16,68,31,11,57,8,17,35,30,9,62,37,63,19,29,22,-5,7,46,79,80,67,45,19,4,42,52,69,237,69,58,-15,10,-5,-8,42,76,83,15,13,-2,-5,21,4,53,8,45,-6,-1,20,-3,0,16,10,-1,5,21,-6,-11,-12,22,-6,-1,63,73,-37,-61,-69,-59,-56,-46,8,6,-6,-33,-40,-17,-5,-11,-8,-6,-1,-2,6,3,11,10,14,-10,-9,-14,3,-373,21,10,0,-4,-6,-16,-3,38,12,7,5,-9,-12,-18,-13,-3,-9,1,2,-1,-9,-4,-5,-3,-4,0,-16,-8,-5,-13,-4,2,-7,-3,-2,-4,-2,0,7,4,7,2,0,0,-4,0,4,-9,0,-6,0,0,1,-6,-7,2,-4,-1,-3,6,-5,0,-5,2,-4,-10,-12,6,-1,16,-15,3,-11,-21,-8,38,-495,73,-13,-13,-2,-22,-50,19,24,-107,33,-25,13,-11,-1,4,-8,0,2,0,-1,-7,-47,-41,-62,-65,-56,-54,-41,-49,-52,-73,-54,-62,-51,-49,-51,-45,-58,-51,-66,-78,-59,-67,-52,-61,-106,-61,-121,-40,-76,-62,-66,-65,-57,-56,-504,-81,-504,-63,-48,-53,-31,-504,-23,-55,4,-504,-67,-55,-41,-19,-60,-131,-231,17,-43,-47,-37,-504,-48,-69,-25,-504,-55,4,-42,-41,-43,-61,-64,-50,-64,-37,-42,-45,-60,-48,-51,-69,-50,-45,-49,-54,-53,-69,-65,-55,-54,-40,-89,-51,-53,-75,-55,-61,-41,-33,-33,-504,-69,-53,-73,-57,-42,-75,-32,8,-504,-41,-56,-35,-53,-32,-63,-54,-27,-87,-39,-74,-68,-55,-61,-51,-60,-45,-78,-63,-59,-52,-83,-81,-85,-91,-83,-86,-78,-87,-78,-90,-88,-92,-87,-82,-99,-74,-81,-87,-88,-88,-90,-91,-88,-91,-77,-93,-91,-71,-85,-85,-95,-77,-86,-85,-90,-97,-83,-83,-91,-72,-93,-88,-97,-504,-104,-106,-104,-86,-61,-61,-77,-65,-71,-74,-84,-68,-97,-67,-58,-104,-70,-81,-82,-69,-141,-133,-151,-153,-145,-145,-137,-149,-145,-141,-136,-151,-130,-141,-136,-134,-139,-130,-122,-143,-136,-130,-124,-137,-134,-132,-145,-124,-125,-138,-123,-123,-154,-176,-166,-170,-132,-143,-122,-131,-168,-156,-367,-192,-168,-143,-144,-120,-160,-170,-154,-158,-156,-154,-121,-120,-195,-171,-149,-138,-158,-170,-151,-133,17,16,15,4,12,4,14,8,14,20,4,7,5,5,10,11,6,10,12,10,11,10,4,8,-2,-4,0,3,7,6,7,5,-13,-29,-4,-8,-3,-1,-3,9,-17,-9,-193,-6,-194,0,7,3,-49,-24,-50,-6,-128,-10,10,7,-40,-36,-163,-83,-4,0,-5,8,-2,-3,5,6,-7,-3,-1,3,27,33,23,51,39,56,37,23,13,22,39,42,21,41,16,18,23,31,31,28,18,23,21,15,20,21,30,24,21,22,15,13,18,23,20,30,13,9,9,10,8,15,12,47,27,0,6,8,6,-1,2,-4,8,-4,-4,3,30,40,44,42,40,9,11,48,55,45,60,43,51,84,30,29,62,38,64,48,47,38,44,30,64,39,46,40,54,40,46,28,36,49,35,50,33,44,35,32,39,44,33,55,30,38,33,32,23,35,24,55,36,32,34,25,28,27,34,25,42,37,31,21,36,53,28,54,45,13,28,21,53,47,44,53,30,50,22,30,52,45,60,57,48,42,34,31,53,34,53,40,53,31,31,37,34,37,46,45,47,37,32,36,39,49,43,34,26,44,48,37,35,33,12,55,17,36,32,31,28,19,29,24,37,31,32,41,90,91,83,89,86,80,81,80,82,101,81,94,95,94,87,78,81,93,84,88,91,88,83,71,87,83,86,69,94,82,90,68,50,77,63,77,73,59,66,66,50,87,78,81,70,82,84,53,58,63,39,113,69,65,56,69,62,72,56,40,74,59,69,55,-316,-327,-344,226,-340,-116,193,-92,205,226,213,191,201,209,188,192,191,189,199,226,193,167,189,154,204,196,221,179,186,184,169,185,125,167,198,167,183,167,161,172,172,236,325,202,161,185,226,184,128,82,-249,504,146,134,150,163,121,135,99,-148,141,138,176,155,-15,43,26,7,-3,18,20,-37,37,33,24,37,15,22,26,21,31,21,11,33,8,9,11,15,7,14,13,8,6,-4,-5,-7,21,0,13,1,0,-7,-11,-14,12,36,27,28,5,6,-2,-7,8,9,9,64,-7,-5,-9,-7,-2,3,2,8,8,6,-11,-6,-2,7,-2,8,7,5,0,6,152,3,-13,-6,-12,-9,-6,-11,133,-7,-9,-12,-14,-6,-5,-4,125,-13,-6,-5,-4,-6,-12,-15,79,-28,8,-13,-16,-13,-12,-14,-179,-28,16,16,-13,-13,-18,-7,-200,-73,-8,-2,-10,-14,-17,7,1,0,-2,0,-8,-3,-4,1,-59,-39,-45,-59,-44,-34,-40,-33,-1,-53,-36,-43,-45,-49,-40,-40,-28,-57,-46,-42,-45,-39,-38,-46,-44,-67,-73,-51,-37,-48,-50,-35,-28,-62,-66,-62,-50,-41,-30,-28,-5,-65,-75,-59,-71,-41,-55,-26,-47,-74,-103,-52,-29,-73,-28,-36,0,-65,-42,-9,-44,-12,11,-3,-38,-56,-54,-70,-55,-60,-33,-50,-12,-28,-62,-62,-58,-50,-60,-38,-39,-68,-67,-46,-50,-61,-33,-40,-45,-73,-59,-56,-50,-36,-40,-42,-56,-70,-57,-61,-58,-55,-44,-34,-62,-52,-66,-47,-33,-50,-56,-44,-75,-74,-72,-57,-51,-50,-59,-33,-36,-33,-48,-37,-28,-43,-24,-31,194,-60,-57,-53,-56,-55,-55,-52,96,-60,-41,-45,-39,-65,-55,-65,148,-44,-51,-45,-71,-44,-65,-68,168,-68,-32,-50,-31,-33,-46,-55,93,-81,-70,-51,-69,-54,-42,-45,71,-74,-66,-57,-58,-41,-50,-53,-53,-53,-62,-51,-65,-60,-55,-58,-64,-67,-78,-64,-67,-64,-67,-49,-170,-145,-153,-137,-148,-133,-145,-117,-97,-125,-124,-129,-133,-141,-144,-140,-118,-126,-138,-107,-131,-128,-132,-131,-119,-140,-105,-130,-112,-94,-112,-95,-135,-129,-144,-127,-108,-99,-88,-124,-117,-153,-136,-97,-106,-92,-88,-103,-90,-122,-113,-107,-100,-119,-117,-98,-161,-173,-145,-88,-167,-117,-90,-105,401,-59,-66,-37,-2,-7,1,3,190,5,-21,-16,-3,-9,8,4,129,28,-4,2,0,7,10,8,14,-24,-9,0,-1,6,2,11,4,-28,0,-6,-9,-9,-13,2,-17,-50,4,-11,-3,-29,-16,-14,-65,-55,-40,0,-46,-46,-42,-28,-10,-70,-41,-50,-23,-60,-107,-71,0,8,7,0,-7,-2,-8,0,-501,11,146,131,134,41,-47,-17,-150,50,65,6,28,14,12,7,-58,7,0,6,13,10,11,3,-7,26,-1,1,4,3,4,6,7,10,0,1,1,-2,3,0,-7,19,0,3,2,1,4,2,3,3,-7,4,4,-4,-2,-1,-126,79,77,27,49,31,51,-4,504,93,4,83,39,25,25,14,-124,14,102,48,57,41,46,21,-1,60,62,45,27,29,18,55,27,46,66,29,36,29,44,38,25,62,43,31,31,33,42,37,5,48,46,42,40,38,30,42,33,35,32,38,37,41,41,28,-7,88,43,53,51,-35,24,50,-179,-18,99,55,71,40,47,25,-129,92,40,51,21,48,33,54,-14,46,51,22,64,21,39,32,9,67,23,64,20,46,59,38,25,22,66,35,49,45,47,47,8,64,40,69,40,55,37,53,41,17,49,63,71,41,58,60,85,52,20,52,62,60,90,65,-239,5,48,70,74,70,68,65,119,47,78,87,75,70,79,89,106,59,65,84,65,56,55,80,91,62,50,61,67,51,60,64,74,63,50,83,71,71,74,73,71,52,62,67,67,57,67,85,75,64,64,77,75,75,68,67,-132,239,249,271,246,293,200,201,504,92,107,226,146,211,145,178,-33,156,134,158,136,181,141,151,-52,89,153,140,188,163,150,182,119,146,123,177,163,154,173,180,101,133,132,172,168,175,187,180,116,161,172,175,168,167,176,183,125,167,172,166,173,169,163,176,85,8,-4,12,-12,19,-152,-46,24,0,25,10,-20,-39,-387,-88,160,50,9,0,-9,-43,-48,-60,97,89,-7,4,6,-20,-25,-8,75,26,5,-2,4,-2,0,-13,57,-3,0,5,0,3,4,11,5,-1,-1,-5,-4,-6,-12,1,-27,-13,-11,-7,-17,-3,-9,-4,8,2,-7,-4,0,-4,1,5,35,64,26,26,26,21,15,16,39,63,39,27,35,13,15,17,12,67,33,21,29,22,13,12,-59,-20,-37,4,36,11,-3,0,-110,-365,-105,-73,-34,64,-4,33,-328,-295,-343,-81,-14,67,32,58,6,6,-1,-4,6,0,5,0,39,40,62,22,54,38,48,52,66,69,34,34,23,67,28,53,23,45,21,23,33,31,27,38,-57,35,-15,45,15,23,16,16,46,-52,19,-45,33,13,40,33,-42,66,33,55,-10,45,20,68,-295,29,65,-33,26,-30,35,44,-171,-144,-312,-40,-61,19,30,19,32,12,19,21,51,50,10,51,18,59,-7,43,33,55,47,47,-5,45,22,-1,10,32,31,42,-22,11,36,-40,-4,-3,29,34,-114,5,-33,41,-8,-6,35,-51,11,-91,12,-14,30,37,-37,51,-138,67,-236,32,-26,-9,36,44,34,-239,-224,-396,-22,9,31,39,27,18,60,26,43,43,65,68,0,18,9,47,-1,88,53,73,10,-41,7,3,24,39,72,83,-14,-60,42,11,20,54,69,78,20,-49,41,32,15,62,53,62,-132,-292,-109,-29,-64,2,50,46,-99,-407,-108,-80,-40,-2,31,14,-70,-220,-67,-27,3,36,62,38,83,142,151,128,154,173,167,196,112,167,107,161,129,195,189,147,76,79,74,53,133,145,139,153,64,-13,52,21,125,118,158,149,-42,2,21,197,-17,133,125,129,69,-10,101,117,165,108,149,172,-182,-73,-45,56,-30,147,1,138,115,-72,-150,-254,-20,-302,-312,94,64,36,22,-13,4,0,8,15,25,48,3,7,8,3,-8,2,39,13,15,10,12,16,10,-8,42,48,36,24,31,13,11,-5,21,4,20,13,36,16,0,1,-14,4,22,46,78,28,32,31,-85,-90,1,54,101,86,85,7,-35,-357,-43,-17,35,57,103,-13,-4,2,5,2,5,-6,6,-2,86,-313,57,-102,9,21,82,59,-31,52,-86,19,-58,18,-36,3,-34,26,-8,-14,-4,-13,-23,-5,-39,23,-3,-12,7,-4,-17,-20,-13,4,-12,-11,4,-3,-15,-17,0,-23,4,-15,-4,-7,-15,-21,-4,5,-6,-1,-2,3,1,8,-12,-121,-101,-343,-127,-42,-1,7,-28,-46,-54,-107,-88,-64,-29,-52,-49,-68,-11,-114,-72,-77,-52,-47,-68,27,-21,-25,-39,-35,-60,-43,-2,35,25,21,-33,-34,-62,-45,-18,-79,-22,-37,-5,-35,-58,-63,-70,-32,-53,-36,-48,-49,-6,-71,-87,-42,-22,-39,-38,-41,-56,-98,-50,-74,-175,-56,-65,-36,-56,-51,-50,-196,-41,-98,-60,-73,-62,-17,-136,-10,-61,-31,-126,-51,-62,-36,-16,18,1,-48,-43,-49,-34,-89,23,26,17,-29,-30,-37,-56,-52,-21,-57,-37,-12,-45,-34,-80,-68,-45,-76,-36,-53,-47,-54,-37,-57,-79,-10,-44,0,-63,-46,-63,-58,-151,-414,-220,-194,-144,-164,-117,-128,-155,-293,-248,-194,-177,-173,-121,-126,-104,-133,-123,-109,-121,-126,-142,-105,-46,-17,-38,-58,-65,-106,-98,-79,-34,6,-45,-9,-65,-111,-91,-113,-75,-115,-50,-103,-56,-105,-171,-136,-101,-26,-113,-69,-59,-78,-116,-117,-35,-60,-37,-85,-82,-105,-102,-123,-131,-225,-155,-188,-150,-159,-149,-169,-225,-287,-156,-246,-156,-203,-195,-162,-196,-193,-126,-146,-207,-198,-152,-135,-125,-123,-69,-141,-180,-151,-120,-123,-66,-77,-96,-87,-158,-178,-173,-198,-154,-210,-121,-171,-167,-170,-268,-234,-152,-134,-163,-136,-169,-175,-178,-225,-124,-128,-98,-127,-177,-189,-201,-180,-301,-409,-319,16,-163,-119,-342,-132,-78,-421,-253,-283,-158,-138,-372,-289,-97,-72,-251,-207,-191,-205,-252,-107,6,35,-24,-32,-77,-119,-125,-145,50,85,48,19,-22,-62,-64,-79,96,82,74,22,-18,-34,-72,-29,79,94,80,56,2,-13,-8,-20,74,94,95,72,10,19,23,25,4,-2,-7,1,-4,3,-5,-3,35,1,17,-14,14,-13,23,14,24,27,-18,0,-23,10,4,14,20,20,10,-24,2,-14,18,16,27,23,-4,17,-36,24,-12,23,10,13,15,-29,22,-49,18,17,11,60,-40,92,-23,117,11,88,5,7,0,3,7,-5,6,7,12,12,12,-3,18,6,0,11,10,6,11,6,-5,-3,0,6,21,1,7,-9,0,1,8,14,4,25,-5,11,-19,2,-10,22,16,4,9,-17,-7,-24,8,-15,32,14,3,9,-9,-9,-3,12,-6,0,22,-3,-10,28,-18,25,12,-3,0,0,-13,16,3,36,14,24,5,19,15,35,2,24,16,4,18,-8,23,-6,20,16,22,22,-16,20,-8,12,14,15,3,0,24,-35,6,0,6,12,-8,14,-16,26,-33,18,0,13,29,-2,19,17,9,-8,37,21,4,23,35,6,13,24,7,28,-1,35,6,24,15,16,34,-10,52,36,39,14,39,30,25,32,44,46,33,45,31,54,19,45,66,35,64,26,77,32,55,32,44,58,43,71,44,58,33,66,59,24,56,25,60,28,40,45,34,35,33,41,20,48,16,66,24,9,41,8,39,26,26,22,34,22,51,22,39,45,44,63,127,85,111,71,116,86,95,81,64,154,74,137,83,131,57,135,151,67,204,82,167,80,147,109,61,177,105,229,86,184,104,177,138,67,182,98,175,86,171,87,57,121,66,157,70,172,76,205,104,22,117,79,153,78,170,106,-81,127,-219,156,-202,147,253,258,54,-13,27,-13,24,-10,15,-27,3,38,-16,31,-18,17,-28,15,59,-5,42,-13,32,-21,18,-18,16,48,-1,45,-18,30,-20,31,42,16,48,2,30,-19,27,-5,28,56,29,33,-20,-29,12,39,72,93,64,52,-37,-15,80,39,35,80,89,-27,37,-56,12,-137,0,0,-2,4,-2,-3,4,0,32,-52,40,-237,15,-40,-16,-6,32,2,13,-5,-26,8,-23,14,12,-14,0,-32,-4,-32,-3,0,-6,-8,-21,-8,-34,-5,-23,-5,-3,-18,-7,-13,1,-39,1,-6,-4,-12,-8,1,-11,4,-11,-3,6,2,7,0,0,0,0,5,32,33,-34,18,-14,6,-19,-14,0,33,-34,-23,-2,25,-1,0,-23,-2,-10,-8,4,-1,-11,15,3,-13,5,-19,2,-23,0,7,-3,-11,-3,-10,-14,-5,-8,-1,-20,-19,-18,-26,-21,-43,-22,-8,-11,-19,-17,-23,-30,-31,-24,-19,9,-24,-8,-22,-12,-26,-24,-14,-159,14,-196,34,-141,15,-129,36,56,-504,76,-179,75,-146,24,-124,-202,59,-445,54,-221,42,-185,66,53,-374,55,-483,58,-239,60,-202,-238,39,-462,36,-504,48,-296,63,37,-205,33,-202,49,-504,34,-173,-129,31,-208,43,-193,34,-490,25,27,-99,39,-181,46,-153,35,-252,-58,-78,-39,-77,-49,-51,-76,-61,-53,-66,-60,-44,-59,-47,-70,-44,-33,-70,-40,-60,-38,-63,-45,-60,-67,-63,-61,-61,-71,-57,-57,-56,-55,-70,-62,-66,-58,-47,-49,-66,-52,-57,-63,-60,-52,-54,-67,-45,-40,-53,-59,-60,-49,-64,-56,-68,-50,-43,-46,-46,-53,-52,-55,-54,-145,-145,-134,-139,-158,-139,-174,-122,-97,-160,-98,-169,-110,-155,-125,-143,-127,-103,-171,-91,-165,-112,-156,-114,-117,-167,-109,-213,-90,-165,-107,-141,-140,-118,-181,-116,-170,-112,-160,-113,-104,-147,-125,-177,-106,-181,-129,-149,-141,-107,-140,-126,-152,-121,-168,-100,-114,-141,-105,-130,-107,-149,-105,-126,-92,-14,-6,-20,-13,14,7,-24,-12,-54,-10,-20,7,-15,-2,6,-8,21,-9,10,3,30,5,20,17,-7,12,-11,21,2,28,6,17,4,-13,8,-3,29,11,7,16,9,7,-14,18,1,26,26,16,8,5,10,-1,17,20,9,-4,22,15,21,25,33,19,38,4,-1,8,7,3,7,3,-2,14,6,22,4,4,33,32,-6,6,8,47,0,-11,23,24,0,16,-20,22,34,9,29,30,0,22,-11,41,0,37,45,23,37,9,-62,14,63,49,50,72,47,82,-82,-28,73,124,105,106,59,0,-4,-2,-1,-2,0,8,5,38,11,1,30,6,31,19,9,30,-25,41,16,-7,25,32,0,9,-22,41,-21,66,3,13,14,41,-8,47,18,48,23,41,39,-59,22,-31,47,3,69,45,33,-139,-47,72,85,15,65,82,52,1,-12,-27,90,28,43,52,68,-1,-194,36,-11,59,24,65,46,44,-43,11,9,22,33,16,16,25,-19,22,13,21,34,17,31,39,40,0,-18,66,2,27,-7,15,-10,55,75,-24,25,-37,83,29,1,63,24,26,-8,82,13,-12,-3,-10,58,13,90,61,91,39,-57,48,-10,58,56,106,-32,-10,-25,-281,0,16,-36,58,24,72,58,5,48,63,42,40,62,60,38,45,48,55,52,20,62,31,72,-8,23,141,35,62,59,44,29,-14,55,74,53,16,36,45,53,14,41,84,93,22,32,72,29,61,53,78,94,71,78,48,46,14,93,93,104,60,54,65,85,56,43,90,64,71,66,133,92,64,78,100,136,119,113,109,56,101,105,119,121,102,126,91,147,26,33,195,107,144,102,83,93,83,160,102,137,76,153,84,88,55,103,158,124,173,124,52,77,84,140,153,134,143,169,89,-341,45,115,143,155,102,120,129,-205,14,85,176,157,109,136,-45,-38,5,14,0,30,5,2,-42,-11,37,7,7,3,18,-12,-39,0,4,6,13,24,15,-13,-89,-29,12,42,27,32,18,-21,-399,-293,7,45,23,41,7,-27,-401,-109,57,30,32,40,19,-2,-78,-87,61,60,20,41,50,51,-257,-142,-64,-7,-20,50,40,-48,-1,-2,-8,0,5,7,4,-3,71,-199,-132,54,-471,113,4,15,13,-107,44,-1,-46,63,-13,-1,-24,-27,32,-49,5,-31,0,0,-13,-17,16,-2,1,34,-21,-3,-16,8,-31,2,-59,17,0,-16,-18,26,-40,27,-86,18,-21,-13,5,0,-6,-4,-3,-8,-5,1,-66,-51,-40,-40,-6,-70,-2,-11,91,0,-349,-44,16,-8,-70,-17,-65,-47,-35,26,-34,-48,-78,-21,36,-21,-28,-71,-56,-17,-110,2,-87,-10,2,-22,10,-135,-50,-60,-33,9,-61,-20,-65,-32,-34,-35,-20,-44,-58,-33,-32,-28,-39,-60,-18,-35,-57,-36,-39,-42,-47,-35,-36,-77,-100,-26,-52,8,-14,-9,-47,-50,-56,-43,19,-20,-10,-8,-30,-46,-60,-34,-20,-12,-68,13,-120,1,-23,-88,-26,-72,26,-52,-30,11,-85,-41,-36,-35,-118,12,-33,3,-59,-7,-56,-38,-36,-70,-33,-34,-45,-54,-49,-33,-36,-15,-40,-45,-41,-48,-22,-45,-36,-45,-95,-169,-183,-124,-367,-107,-141,-121,-72,-59,-45,-63,-115,-64,-62,-83,-96,-17,-49,-99,-65,-77,-80,-90,-90,-66,-44,-94,-134,-81,-120,-67,-112,-37,-29,-86,-111,-91,-79,-113,-111,-23,-63,-83,-129,-71,-117,-71,-50,-68,-73,-117,-100,-57,-67,-94,-109,-49,-61,-90,-95,-64,-70,-78,-164,-207,-162,-135,-112,-139,-117,-143,-95,-149,-134,-105,-88,-111,-141,-111,-90,-117,-109,-127,-113,-119,-78,-134,-145,-94,-122,-115,-141,-128,-105,-110,-123,-63,-83,-99,-87,-138,-142,-99,-105,0,-115,-77,-109,-91,-126,-69,-60,-82,-110,-113,-92,-78,-103,-86,-121,-79,-100,-81,-65,-99,-84,-82,62,-150,-35,-23,-101,-78,-108,-6,79,10,-16,-16,-66,-38,-32,-9,70,-8,1,-16,-36,-38,-29,0,26,19,35,-21,-24,-43,-28,-18,23,50,30,5,-36,-28,-40,-18,13,61,14,24,-44,-20,-16,16,17,49,22,-12,14,-13,-9,8,8,23,0,20,35,0,20,30,7,6,0,-9,2,1,0,1,-18,-18,41,-34,65,-5,7,2,-18,-10,-16,-9,-28,7,-11,-2,-13,-15,4,18,-14,11,-13,-5,-15,-17,-17,0,-19,-4,-16,8,-1,-45,5,2,-1,39,-5,24,25,-293,57,-102,2,16,-5,36,2,7,-9,-5,0,-3,1,3,-62,-50,-70,-20,-14,-41,-39,-28,-51,-16,-55,-50,-66,-9,-55,-28,-44,-66,-33,-132,-28,-59,-39,-38,-65,-41,-52,-25,-35,-28,-35,-60,-42,-55,-42,-35,-28,-43,-45,-46,-88,-75,-41,-66,-43,-53,-92,-21,-46,-21,-61,-87,-67,-57,-78,-48,-34,-48,-45,-78,-59,-75,-64,-36,-65,-27,-76,-35,-54,0,-59,-52,-64,-90,-7,-85,-14,-73,-40,-64,-65,-48,-46,-205,-48,-39,-47,-48,-53,-52,11,-29,-2,-54,-32,-55,-71,15,-60,-14,-73,-54,-58,-24,-53,-67,-36,-65,-44,-47,-68,-53,-53,-52,-42,-84,-69,-48,-102,-52,-33,-68,-60,-74,-55,-108,-67,-51,-85,-81,-91,-45,-80,-56,-73,-88,-88,-105,-64,-42,-74,-82,-85,-63,-87,-78,-84,-181,-52,-58,-49,-79,-99,-86,-85,3,-69,-45,-74,-79,-95,-92,-68,-22,-72,-58,-74,-78,-115,-80,-93,-43,-95,-78,-105,-101,-116,-118,-103,-111,-95,-111,-110,-138,-130,-147,-120,-135,-125,-116,-130,-134,-147,-129,-167,-135,-147,-119,-154,-150,-156,-187,-119,-130,-123,-176,-168,-126,-148,-132,-128,-504,-106,-97,-122,-133,-145,-150,-122,-90,-83,-128,-121,-139,-167,-147,-129,-107,-142,-118,-131,-118,-199,-173,-141,-152,-134,-151,-186,-169,-181,-234,-157,-196,-148,-139,-246,-185,-166,-177,-170,-179,-150,-171,-184,-182,-1,-14,0,25,9,-2,1,-19,-25,-27,37,43,52,20,3,5,-4,0,45,9,81,33,22,-10,10,32,51,87,44,27,5,0,-37,18,4,5,6,8,-9,-22,0,-56,-13,-28,-24,-4,-32,-2,32,-132,-40,-89,-50,-36,-44,-3,-333,-123,-66,-235,-19,-47,-25,-5,7,1,-4,-5,1,-1,1,7,38,79,57,-94,-53,-81,-100,26,42,41,-73,-215,-48,-81,18,5,27,9,-79,-17,-68,-7,39,8,10,7,-1,11,6,12,22,16,7,7,20,23,16,17,18,20,12,15,12,21,14,16,21,13,-7,4,-6,0,6,0,0,-3,53,7,-153,-16,-219,17,-58,-9,24,-128,82,131,23,-83,15,52,99,48,106,-244,102,44,96,-11,-19,-55,45,89,55,-71,36,34,52,80,-53,56,-50,80,40,39,27,35,37,57,45,52,42,53,60,42,49,23,45,33,62,56,90,37,62,44,65,43,54,66,55,11,28,29,14,-11,85,32,28,42,41,53,-24,38,66,63,77,87,61,-316,48,-369,50,17,31,54,-38,65,-13,64,20,35,57,-49,75,58,65,-6,50,7,-19,55,21,76,44,55,12,72,58,29,53,45,59,33,57,21,32,58,41,55,54,62,48,60,79,64,30,66,67,56,58,58,50,40,64,31,48,58,51,48,52,30,46,-268,7,47,42,59,81,61,98,38,114,84,64,60,81,78,96,38,95,95,52,69,87,63,77,35,80,60,71,51,72,77,75,42,75,34,55,87,78,69,93,41,71,68,61,73,170,229,120,-189,107,103,113,104,127,97,118,83,96,88,70,128,129,161,117,-251,91,94,84,104,123,134,82,119,146,130,78,122,159,91,158,95,155,154,113,127,105,147,124,125,143,136,145,137,161,160,153,149,160,132,158,163,161,168,166,154,168,174,150,156,-45,-74,-75,-94,-85,-70,-115,-53,-75,-81,-139,-101,-222,-128,-41,-30,-65,-44,-69,-102,-118,-80,-62,0,-24,-57,-40,-48,-28,-34,-12,-19,-16,-28,-17,-9,-3,3,15,0,-7,-8,4,5,12,14,36,18,21,23,15,25,9,14,19,24,17,12,29,26,9,21,12,17,0,3,5,-3,5,3,-2,8,19,7,4,17,-37,16,27,-8,19,7,7,-24,15,16,-16,-4,20,38,-1,40,10,31,-18,9,32,29,45,14,57,52,27,14,56,52,39,19,64,63,54,35,-9,66,-100,-132,-194,-147,-78,-10,5,-7,0,1,3,-3,2,2,26,-8,38,-24,18,-24,0,2,18,10,4,-24,-26,-11,-2,-16,-10,-3,-11,26,-28,-2,21,-11,1,59,-30,10,24,32,72,6,3,-21,76,2,73,20,28,74,75,39,66,35,22,80,4,78,-4,79,112,51,-57,47,13,42,12,87,34,102,105,1,76,38,15,0,0,9,23,60,10,16,51,0,9,0,10,-11,16,-13,7,40,0,26,-29,-28,28,23,16,43,87,41,-30,8,7,14,-34,39,28,81,50,41,8,63,38,12,47,17,111,7,39,3,-9,24,-3,-14,6,95,51,30,-1,9,97,28,50,18,92,46,41,15,-3,13,41,-25,16,-6,31,22,19,17,2,-4,50,-37,59,31,8,0,26,21,64,-12,58,24,-69,19,-35,24,13,-29,74,-32,-6,-2,-2,22,34,-47,83,55,33,66,50,53,103,7,111,92,102,91,135,87,109,56,83,2,41,33,23,28,46,-38,101,103,69,81,121,30,75,2,124,82,97,76,65,43,129,52,92,109,64,70,35,68,150,42,100,107,66,89,18,76,67,46,98,55,38,95,31,69,49,127,130,107,61,32,61,35,98,-4,126,99,129,104,-61,123,15,98,117,113,-210,-11,-378,36,133,-64,49,-9,-16,-6,8,-8,2,-43,3,20,-6,-6,-18,-1,4,-27,51,35,18,10,3,-2,-40,-40,73,47,56,32,37,20,-14,-39,52,54,70,55,38,14,5,0,48,62,70,73,51,-25,36,38,55,93,55,196,59,15,107,13,67,64,55,62,-110,134,102,35,7,0,-7,-9,-1,-8,3,-5,92,-292,-226,-291,48,-262,45,-343,39,-5,-2,8,3,-63,49,-116,9,9,-48,33,-21,-29,29,-61,-16,2,-17,16,28,-27,14,-31,-22,-12,-21,-21,7,-23,0,-15,-8,-27,-12,-20,23,-47,-1,-30,-8,-6,0,8,5,3,7,-4,2,-31,6,31,23,69,63,-71,60,-47,-117,22,-11,-5,43,9,-28,0,-49,-20,-25,-52,7,-4,-24,-18,2,-28,-34,-15,72,-42,-13,-46,-30,-34,26,-35,15,-66,5,-23,-43,-23,3,4,5,-41,-10,1,-39,-11,-17,10,-15,2,-31,-30,-15,-39,-14,-11,-9,-19,-33,-66,-39,-29,-29,-30,-5,-37,9,-65,-74,-59,52,-105,91,-104,4,-49,-81,41,0,-18,-51,93,-1,-16,-34,-50,-7,-18,-4,-90,-15,-12,-24,-40,-18,-33,8,-30,39,-39,-9,-24,7,25,-17,11,-6,3,-37,18,-11,-7,10,-23,10,-58,-5,-18,-25,-12,-17,-9,-18,-108,-102,-54,6,-65,-20,-92,-23,-71,-43,-38,-17,-45,-9,-43,-25,-40,-32,9,-13,-16,-45,-57,-46,-39,-49,-53,-59,-79,-96,-56,-51,-45,-21,-12,-12,-44,-108,-43,0,-54,-23,-3,28,12,-4,-44,-67,-29,-58,14,-15,16,-49,-24,-42,-46,-51,-25,-10,-45,-26,-39,-139,-354,-163,-144,-132,-151,-165,-368,-43,-366,-218,-94,-65,-217,-94,-222,-82,-162,-178,6,-101,-109,-105,-134,-86,-131,-92,-207,-87,-121,-94,-178,-109,-67,-103,-56,-109,-113,-103,-143,-4,-137,-108,-66,-43,-47,-62,-125,-72,-80,-106,-26,-69,-36,-34,-92,-83,-86,-96,-77,-88,-104,-84,-101,178,-48,17,2,3,-8,42,19,16,12,2,24,29,36,51,-7,26,-284,19,-5,30,40,46,-8,-4,5,-15,-2,-26,9,12,33,8,-57,-23,-28,-29,-41,-10,11,9,-44,-10,19,21,-8,-28,-19,3,-8,-15,51,29,20,17,4,-40,-41,-2,0,30,-4,21,-25,4,-3,8,-8,-5,-8,5,1,20,-8,-22,10,-58,-2,-31,22,-16,1,-33,-4,-47,-14,-11,16,-19,26,-49,20,-49,26,-14,47,-12,-24,-54,14,-82,56,-45,34,18,-108,-12,4,-45,9,-2,21,59,-159,87,22,-105,-14,-103,-7,-5,-6,0,-4,0,-8,2,8,-63,-19,-79,-15,-67,-6,-14,-17,-38,-38,-59,-19,-49,-46,-49,-19,-27,-97,-34,-33,-55,-7,-59,2,-28,-66,-46,-3,-21,-27,-52,-36,-45,-8,-26,-57,-52,-16,-26,-46,34,-66,-3,-16,-41,1,-86,-33,15,-45,-20,-70,-45,-132,-36,-86,-43,-48,-20,-43,-48,-32,-345,-69,-59,-96,-61,-43,-38,-58,-29,-55,-21,-71,-64,-66,-64,-40,-60,-39,-47,-158,-17,-51,-32,-51,-54,-36,-30,-60,-29,-42,-52,-18,-42,-33,-99,-13,-71,15,-68,-62,-30,-35,-14,-99,-13,-31,-50,-68,-65,-72,-11,-98,-21,-24,-99,-59,-110,-61,-66,-64,-46,-81,-15,-83,-22,-99,-59,-42,-74,-33,-80,-31,-34,9,-46,-56,-44,-111,-34,-27,0,-14,-24,-91,-27,7,-72,-11,3,44,2,29,12,40,8,3,44,27,-12,30,-5,4,-14,-23,-17,38,4,-35,-50,-43,-87,-44,-32,-8,0,-56,-36,-32,-67,-62,-30,-26,11,-63,-4,-25,-94,-61,-37,-7,-132,-163,-150,-110,-143,-101,-86,-54,-124,-150,-116,-178,-113,-72,-99,-81,-105,-321,-56,-75,-120,-73,-69,-67,-52,-66,-66,-33,-67,-72,-53,-64,-100,-20,-59,-51,-42,-82,-52,-70,-70,-125,-87,-64,-119,-78,-65,-81,-67,-210,-80,-66,-147,-103,-78,-48,-64,-146,-127,-135,-144,-144,-100,-72,-19,-27,-44,-23,-22,-27,-26,-9,45,5,0,-64,0,-9,-21,-23,74,35,39,9,-4,-23,-4,16,79,84,66,41,-5,8,-1,16,106,80,43,44,-6,-24,-37,17,130,56,53,43,-23,-30,-46,29,137,121,84,79,-43,21,1,120,166,195,112,28,17,33,93,-123,2,0,-7,8,-4,7,4,6,-20,15,94,-17,150,-8,23,-7,-56,-81,29,-4,28,34,54,6,-52,0,-27,23,35,51,60,18,-8,28,22,18,32,41,66,29,6,12,27,21,10,28,33,41,0,22,13,8,23,23,22,28,6,-8,0,-5,3,-8,6,7,-80,8,6,30,120,-97,56,45,124,113,-12,-199,113,74,30,-304,10,-309,83,78,101,2,112,75,34,107,-36,18,44,113,52,75,-110,87,0,78,91,71,68,84,53,54,47,64,44,82,55,62,66,13,83,37,79,74,56,47,26,56,83,52,67,54,75,42,71,23,11,57,66,71,33,74,29,86,12,-14,121,42,79,-46,41,-55,-31,92,6,87,47,62,-27,15,17,53,95,2,81,43,-16,104,83,43,82,74,-29,52,83,86,54,61,23,82,46,9,93,70,57,64,57,47,56,56,54,57,64,49,47,64,-1,65,75,33,42,49,31,41,16,10,92,36,59,98,44,55,-6,63,75,26,46,84,47,66,24,91,100,5,71,51,45,96,50,49,96,-26,61,63,32,45,17,22,71,42,70,64,25,57,17,51,55,27,83,62,45,47,43,56,49,13,66,74,53,59,54,57,148,177,258,176,149,205,-132,-20,118,137,143,109,190,-36,115,-278,150,128,48,134,79,102,-187,85,94,25,97,76,149,73,53,-52,120,92,108,99,90,114,-271,78,171,127,136,120,54,105,69,84,159,111,121,106,98,109,97,90,132,91,113,112,111,122,86,115,-131,-246,16,11,62,56,66,149,-209,-250,-303,-5,4,89,137,112,-219,-233,-83,0,57,60,100,77,-225,-343,-56,-11,55,68,99,61,-259,-81,-11,-21,21,22,61,55,-53,11,0,-5,-14,-2,14,12,-19,19,-14,-14,-21,-19,-18,14,-34,-8,-9,-9,-27,-20,-9,-12,-2,5,4,-4,3,-8,-7,-5,2,-4,0,-3,-9,4,-4,-3,0,-3,-2,0,-16,2,-1,-4,-5,-2,-8,-3,-14,0,-6,-6,-2,-8,4,36,-8,46,11,-5,-11,7,5,41,313,151,9,-11,-10,-14,165,35,240,8,4,-12,-1,2,7,-1,3,1,-1,4,-23,-14,-17,-20,-13,-20,-22,-10,-21,-6,-6,-14,1,-18,-3,-23,-12,2,-10,-5,-20,0,-16,16,4,-20,-17,135,-6,133,-31,-20,-6,17,138,-1,-14,1,147,2,-2,-19,-1,19,270,0,18,-7,-20,32,148,15,16,-18,170,-20,-17,-78,-3,188,55,170,-45,-42,-12,3,-12,-3,-13,3,-19,9,45,-12,0,-16,0,-8,6,-11,-15,46,-15,3,-24,2,-8,59,7,-8,62,-9,-23,-11,63,-8,-2,12,-4,73,-18,72,-19,0,26,-23,-3,-19,248,-29,-10,-22,-8,-6,-20,75,-3,61,-27,-24,-20,-20,23,9,3,12,78,-36,-10,-11,-12,-3,35,-1,-3,-6,-25,-20,-18,-8,31,-7,-7,-14,-3,-1,-7,-7,41,3,-5,1,-4,2,-26,4,35,0,-16,-2,-14,-5,-13,-23,32,-20,-12,-22,53,59,68,82,242,73,46,16,33,32,27,41,88,9,52,35,38,52,20,54,40,35,14,3,14,24,8,13,50,18,16,22,46,13,13,-1,33,9,19,3,11,51,22,24,49,8,20,60,26,24,64,16,67,24,66,10,29,30,45,91,98,109,40,22,85,71,85,120,224,123,79,77,60,58,60,109,148,95,115,43,32,53,98,91,121,68,65,31,-28,-17,-14,-4,-9,-9,-14,-19,-29,-24,-13,-4,-11,-13,-18,-22,-20,-27,-18,-21,-24,-19,-14,-18,-15,-36,-33,-18,-25,-17,-18,-29,-35,-14,-11,1,15,16,-7,-17,-33,-43,-30,5,-25,10,-5,-63,-52,-53,-57,3,21,21,28,-77,-16,-84,-37,10,53,27,9,-93,-7,-8,1,-5,-4,-5,-1,1,13,-4,7,-14,72,-53,16,-22,18,24,9,8,-6,-12,11,3,5,8,7,5,-4,3,7,2,8,5,0,0,-17,-1,2,2,13,7,3,12,56,1,15,3,10,5,6,-317,24,-173,9,4,7,-8,3,-2,-7,-4,0,8,10,32,26,18,45,37,51,20,34,16,-2,24,14,5,15,13,15,22,26,-2,19,16,34,38,7,20,12,-76,-11,-55,24,5,15,-11,-77,-12,5,-6,-37,0,-8,9,8,9,106,12,-3,14,12,-3,-166,35,13,19,-147,-6,5,18,1,-139,-14,-110,13,-3,26,10,35,15,53,3,26,2,-62,31,5,39,43,28,26,19,16,-26,34,10,39,10,28,-55,-19,13,-61,34,8,32,-70,16,21,-5,4,-94,2,-91,5,0,9,5,1,11,85,7,-4,9,15,10,31,-106,27,-89,32,16,11,14,-105,19,-18,20,-114,14,14,10,3,-4,-30,-9,0,8,21,23,25,20,-15,15,28,14,15,34,10,9,-45,7,13,43,23,17,13,25,-50,6,15,4,17,20,12,15,-99,1,12,12,1,-17,-44,-61,107,-69,-61,-13,-2,7,8,-1,-74,-6,7,-7,8,6,0,8,-63,-9,5,14,0,7,-18,9,-14,-58,0,-13,-1,28,11,15,-8,2,10,-10,11,19,23,24,1,13,6,-2,23,20,-24,24,-23,21,-48,12,28,21,15,-64,-53,-59,7,-14,15,0,-34,-49,98,-15,-35,5,-3,8,33,-36,-36,-35,23,3,29,0,-50,38,-14,21,-47,12,-21,20,12,5,3,-23,32,90,14,30,17,13,25,10,67,21,21,46,42,33,13,18,25,29,27,36,22,29,26,24,18,22,11,17,14,-37,-25,-37,3,9,16,7,15,-58,-36,-54,12,1,-15,18,15,-49,-60,-50,31,0,26,-6,5,21,-7,13,11,-18,0,-7,8,4,-2,-1,6,1,-12,-17,-23,-35,-26,-12,-10,-10,-8,-10,-16,-8,-8,-19,-2,-11,-4,-12,-11,-11,-23,-7,-4,-10,5,-7,-19,-34,-24,-36,-14,-13,6,-17,-47,-100,-38,-31,-23,23,48,-37,-93,-504,-46,-245,-66,11,-5,4,-6,-1,-7,-7,1,-3,18,7,32,40,30,31,8,9,15,37,23,29,25,16,24,10,26,32,33,32,28,25,-6,23,46,27,72,22,42,14,24,2,-20,76,28,71,17,-24,26,18,44,43,-27,26,47,69,-58,24,-9,-71,46,-504,60,-87,4,15,-23,42,-245,-245,-27,-27,-13,-23,22,15,29,45,67,30,41,0,17,24,29,41,39,47,24,37,24,25,23,30,49,24,27,25,39,39,25,44,24,31,35,40,37,63,0,26,46,12,52,32,-9,-44,40,4,22,28,28,20,-8,23,54,70,-119,59,-13,41,-21,34,-432,-234,-84,-41,69,3,24,14,2,-1,5,5,-7,17,5,18,15,3,0,-7,10,-21,41,39,28,23,36,22,9,43,20,48,20,21,4,-3,26,19,33,43,47,25,-24,0,8,-7,19,28,36,58,-287,5,-14,-7,19,51,40,60,69,22,70,32,7,30,41,26,15,55,53,24,50,33,54,31,36,50,51,55,49,44,38,37,17,35,26,19,76,42,36,54,46,18,43,46,26,-354,81,84,27,81,84,50,84,90,107,51,-351,90,115,16,54,-4,141,-4,-16,26,22,21,-174,155,-12,-58,81,-34,-24,-8,-137,-107,-79,-377,-504,68,39,-40,-58,-11,0,20,11,10,-3,-13,-75,-32,-6,11,-4,0,-11,-22,-50,-38,-9,8,6,0,0,3,-58,-53,-28,-13,-8,0,13,9,-83,-21,-48,-37,-269,-12,-8,0,-16,-22,-26,-27,-19,6,4,-14,3,1,-9,-16,-39,-3,1,-61,-76,-152,-19,-105,-167,-91,-48,-80,0,-7,-2,2,1,0,-7,-2,11,34,94,89,108,45,-370,-62,15,10,-16,0,-10,-16,23,7,5,5,-1,-4,-10,-7,7,10,8,15,10,15,8,3,22,10,8,21,22,30,3,41,27,11,18,20,46,36,11,54,30,12,-1,-8,-2,4,7,0,-7,2,2,-2,10,4,9,21,0,-25,-12,4,-451,-16,7,-502,26,-6,-27,-9,15,23,27,14,11,33,-1,22,8,22,14,14,28,10,20,12,23,21,27,16,12,13,17,16,38,23,14,25,20,19,27,26,40,22,32,33,38,35,34,24,9,31,11,34,29,27,31,-11,20,2,17,49,-5,5,-5,5,-29,9,1,9,40,21,18,-12,-41,-21,9,11,22,18,-12,6,6,9,0,25,17,7,9,-8,22,17,23,20,26,18,-3,17,12,41,14,22,19,12,22,26,55,30,50,34,35,26,2,24,24,51,22,25,16,14,-82,-53,-33,-49,-19,-134,-37,-48,-71,-42,-49,-18,-15,-40,-12,-20,-70,-47,-50,-45,-21,-29,-21,-5,-73,-35,-39,-15,-47,-15,-15,6,-32,-14,-27,-31,-15,-7,3,18,-9,-23,-42,-28,-32,-43,-9,20,9,9,24,-17,17,7,30,9,22,24,27,42,12,23,20,23,-156,-152,-176,-165,-168,-347,-251,-331,-150,-157,-199,-165,-179,-198,-298,-130,-163,-145,-163,-144,-153,-172,-161,-233,-181,-139,-157,-186,-254,-178,-192,-194,-139,-152,-179,-138,-201,-190,-171,-172,-143,-151,-189,-218,-188,-227,-229,-271,-57,-42,-51,-42,469,-50,-80,-150,-81,-46,-26,-17,-93,-40,-86,-107,2,-8,-22,-5,15,8,24,2,-3,2,-3,-20,-27,35,30,98,0,-4,-3,-23,30,21,20,6,-5,-19,-10,-2,4,5,2,7,-30,-36,-14,-7,4,-2,1,7,-61,-49,-45,-2,-13,-5,-25,-12,-27,-25,3,19,0,14,-4,-9,-55,-10,-15,28,2,0,-11,-19,2,-5,-6,7,-8,-4,-3,4,7,-6,8,-12,6,-21,10,3,7,1,-7,0,-18,-14,-10,4,9,-13,5,-4,1,-23,13,-2,6,2,2,-10,-6,-43,2,15,4,-27,17,13,-38,15,-64,16,109,-101,95,78,66,138,115,-34,-8,1,7,-8,-2,3,-9,-4,-24,-15,-23,-30,-20,-11,-23,-42,-3,-4,-18,-27,-15,-2,-27,-21,-6,-30,-10,-45,11,-46,3,-38,-13,-46,-13,-28,-33,-16,-35,-5,9,-45,-31,-30,-19,-52,-328,-35,-72,-17,-38,13,-82,-16,-67,-374,48,-51,-123,-47,4,37,-47,-85,33,-119,12,-181,-10,19,102,30,-20,-52,-36,-8,-44,5,-12,-3,-42,-30,-16,-32,-5,-21,-3,-45,-47,-60,-29,-13,-6,-14,-9,-20,5,-52,-323,-23,-14,1,-43,-4,3,0,-43,-409,-6,-52,-33,-403,28,-14,-48,-22,-411,-7,-432,-30,23,-32,7,-28,-15,-96,10,-89,24,-37,-34,-14,-356,42,-52,-8,-24,-34,-11,-23,-8,-32,-6,-19,-34,-24,-28,-4,-13,13,-28,11,-33,-51,-11,-24,10,-48,1,-34,-47,-33,-8,8,-31,-11,-38,12,-23,-22,10,0,-22,-35,-4,-13,-35,-45,-31,-15,-9,-73,-45,-16,-13,-32,17,15,-44,-3,-8,1,7,-83,28,21,-5,19,10,-8,2,-49,-44,-36,-21,-21,0,-43,-22,-43,-47,-29,-22,22,-31,-40,-26,-55,1,-27,25,1,8,-40,-27,-18,-44,7,-9,40,-38,10,6,1,13,-56,25,22,3,-30,8,5,-25,0,-7,55,-7,14,33,34,60,4,47,22,63,-1,25,-43,58,68,8,-7,43,46,-70,-69,-36,-46,5,0,-13,-35,-76,-67,-77,-7,8,32,-9,-8,-60,-55,-22,-11,34,10,33,-6,-16,4,-22,6,-3,19,-12,7,16,-5,15,-28,-16,-59,5,-19,-69,8,1,9,-95,23,-59,3,6,-3,84,40,35,25,-37,-213,-58,-59,24,26,-104,11,-71,-186,-5,-2,5,3,0,0,6,9,100,172,3,-24,-10,14,6,13,7,25,-17,12,36,31,20,16,-16,-10,6,21,15,21,14,18,-20,-10,5,17,5,-3,26,17,-13,-2,6,6,1,-19,6,20,-6,-7,7,7,-3,-33,8,14,2,-2,1,2,0,-8,3,6,25,27,49,41,23,-2,38,47,17,51,57,-7,-9,32,49,52,39,40,10,63,15,28,19,56,12,11,34,15,57,-13,69,57,12,18,27,57,8,46,35,40,11,7,17,33,78,14,52,27,13,18,19,25,32,67,27,36,29,5,42,13,33,33,19,31,40,38,68,31,49,-53,84,15,38,84,15,84,-52,104,-9,72,63,-8,66,-3,95,-16,98,-5,-4,68,-5,100,-3,63,4,111,71,-16,85,20,62,-6,96,17,8,63,2,64,40,61,15,52,52,10,69,11,57,26,43,31,27,28,8,63,-4,39,-10,54,38,-17,61,27,-28,67,0,25,71,37,63,24,52,8,51,23,89,50,50,58,35,84,40,45,57,41,60,37,77,47,56,38,42,22,46,77,43,68,57,33,56,19,44,39,159,67,78,38,62,59,53,69,60,256,55,65,65,49,48,41,55,84,74,42,62,34,52,5,63,18,34,3,32,70,35,64,-2,58,5,45,49,34,46,18,56,4,92,45,56,80,23,66,32,79,44,76,63,23,67,58,61,40,75,34,42,43,30,55,164,61,75,69,68,25,54,33,40,241,50,41,85,44,11,33,42,84,62,45,-42,31,9,-26,34,98,43,56,38,32,17,-26,19,-10,33,-14,-12,7,-18,-4,-30,34,0,-37,-6,-30,-15,-51,-27,-39,-10,-20,-18,-31,-37,-33,-43,-81,-50,-27,-13,-26,-13,-33,0,-51,-13,-18,-46,-4,-17,7,-11,12,-24,-12,-8,-49,-18,-17,2,-15,-4,-22,3,-8,-9,0,1,8,0,2,-37,-8,-36,-3,-41,-9,-17,-73,-32,-9,-30,-20,-39,-38,-27,-80,-21,-24,-32,-22,-42,-64,-55,-116,-36,-36,-17,-35,-31,-94,1,-171,-63,-67,-32,-61,-49,-92,27,-454,-165,-155,-47,-187,-1,-118,-27,-329,-2,-4,2,7,7,4,5,-1,-36,-16,-32,-21,-36,-21,-30,-21,-31,-38,-9,-25,-10,-24,-15,-35,-26,-34,-12,-6,-13,-28,8,-23,-48,-21,-34,-7,-50,2,-61,-4,-41,-36,-46,-9,-22,-24,-62,-2,-41,-25,-23,-79,-53,-36,19,-61,-60,-105,17,-52,-11,-82,33,-44,-42,-30,-32,-53,-69,15,4,-57,-29,-24,-21,-36,14,-6,7,-31,-37,-22,-17,2,-23,2,0,-14,-51,-51,-22,-9,-7,5,15,-31,-69,-19,-5,16,13,4,-22,6,2,-7,5,8,-26,-30,-73,6,-91,-5,23,-29,-46,-64,22,-24,-24,-68,0,-62,-68,-56,-21,22,-26,0,-71,-22,-4,6,68,-21,-18,-14,-19,-7,-5,5,6,-46,-41,-20,-2,-26,12,-4,-7,-49,-36,-39,-50,0,-4,-9,-8,-69,-39,-4,0,19,28,9,1,-45,16,7,24,22,20,19,32,15,8,-3,-9,-18,-12,-3,52,12,-9,-9,-5,-8,4,-4,47,11,-4,9,0,-25,29,1,54,20,-37,-32,0,-12,-9,3,0,-44,-44,-46,-2,-6,-8,9,-4,-23,-66,-94,-40,6,7,48,15,-21,-120,-62,-3,47,38,48,7,2,-14,-50,12,55,51,58,-1,61,-87,-20,-13,-29,-40,5,98,2,-34,-68,27,-64,-3,1,37,24,-81,53,-16,-18,60,-13,-4,-9,-66,-62,-65,-38,-17,-9,-35,-34,-84,-111,-61,-41,7,30,2,-7,-44,-65,-33,8,52,75,63,35,-26,71,46,70,79,92,117,94,127,100,98,93,116,126,115,143,88,141,106,108,158,102,176,98,100,137,137,96,156,112,177,95,110,184,106,131,135,85,132,151,6,0,-5,8,6,9,-1,1,17,31,120,38,-226,-122,-36,-33,21,-4,7,2,14,-4,-55,3,-4,-3,-20,13,49,33,13,5,18,-11,18,21,41,37,51,-18,19,17,23,30,32,23,57,-33,25,21,23,26,22,35,54,-21,-4,-8,8,6,-5,2,-2,3,87,39,27,5,49,13,-65,26,19,57,21,29,50,-43,35,47,30,75,-37,49,38,65,80,30,9,49,2,31,18,27,25,25,12,13,3,18,46,39,80,34,29,-9,42,22,66,61,76,16,20,11,26,30,54,34,66,33,-3,31,20,22,44,51,40,55,37,49,-10,53,19,19,72,46,53,42,56,25,55,37,58,47,69,50,26,41,53,45,63,23,6,7,26,29,63,10,40,-7,18,29,46,19,33,39,41,54,33,27,-1,38,36,37,86,2,22,28,31,9,10,43,34,39,7,42,21,17,44,18,24,9,7,18,8,34,42,18,14,7,-12,-31,-2,9,-4,-28,3,-41,8,2,24,4,4,-9,23,15,-5,-22,19,-1,20,11,40,28,-25,-6,21,18,16,42,79,44,-12,-34,-8,21,9,41,18,48,-10,7,7,22,3,14,50,58,3,1,32,22,26,23,24,54,-64,-48,-23,-26,-86,-127,-65,-35,-43,-39,-15,-26,-12,-95,-91,-16,-31,-34,-6,2,-21,-23,4,57,-16,-35,-8,-31,-28,-3,66,23,-41,-27,13,-32,-6,49,74,90,-18,7,-16,47,20,51,69,87,22,38,36,39,15,51,62,106,15,48,62,41,41,36,63,91,33,62,36,25,44,34,10,-41,30,52,43,36,55,39,45,-87,18,16,34,30,17,25,2,-90,-9,21,33,19,7,1,-41,-56,1,18,18,13,7,4,-41,-92,-2,4,8,16,11,10,-1,-32,11,15,1,13,-14,23,30,-15,-9,25,27,-4,8,14,17,-46,0,5,0,0,0,7,-2,5,-3,0,-1,2,-7,1,-3,0,-3,-3,-3,-3,-3,-1,-1,0,-13,4,-3,-4,-10,0,-3,-3,0,23,51,12,3,-3,3,-6,2,167,340,116,32,-1,-13,-9,27,190,216,152,36,-54,-117,-41,-4,-8,6,-2,-1,4,-4,6,-41,-7,-13,-1,-5,-12,-7,-9,12,-9,9,-11,-6,-7,-29,-10,-16,0,-6,12,0,7,-3,-19,-23,167,2,125,-27,-8,-13,-8,149,8,17,3,141,15,-3,-11,36,32,245,1,22,-36,2,-42,201,43,-10,10,39,-34,-4,-12,31,254,55,77,-10,4,-24,-67,-14,4,4,8,-6,9,-6,31,-9,-1,16,-8,13,-5,25,-6,-9,12,-13,6,-5,39,15,6,127,-12,11,-1,60,7,10,1,-12,154,7,54,5,18,-4,7,71,7,255,11,-16,-1,-5,-16,1,89,15,95,6,-17,-73,-40,-119,-20,24,3,36,-92,-25,14,12,6,22,10,3,1,0,5,0,13,17,6,1,5,-8,0,0,3,11,2,-8,-13,-3,-2,-7,5,1,15,-36,-12,-28,-11,17,11,19,-6,-1,-9,-24,-6,9,17,-2,45,-2,-25,-16,-22,38,0,10,2,19,-4,2,-1,74,12,23,12,29,24,-15,5,-2,-7,32,6,4,-12,-31,6,7,-15,16,6,-4,-5,-18,-14,-7,10,7,-9,-10,27,-2,-21,98,-14,65,4,28,3,2,-2,42,89,80,45,-3,22,18,16,69,56,202,109,85,51,22,23,31,47,115,54,38,11,60,-6,46,36,103,107,60,-26,10,22,-12,-24,-5,-14,-15,-15,-16,-16,-19,-17,-15,-14,-15,-14,-26,-19,2,-13,-8,-15,-9,-21,-14,-18,14,16,12,0,-3,-20,-24,-34,20,53,53,52,7,-1,-18,-30,-7,51,32,49,-1,0,-27,-21,20,46,68,21,6,2,-29,-57,78,-3,48,31,-7,-33,-50,-55,-7,6,-8,3,-9,-5,0,5,19,-79,41,-10,1,-9,-13,10,-13,-20,8,-6,-13,15,-16,-7,12,16,10,11,0,10,4,1,7,5,-7,6,-2,8,8,0,9,11,26,11,0,4,6,7,13,-178,36,-241,16,0,5,8,-7,4,2,0,4,0,0,4,23,-9,22,23,36,18,19,8,-11,7,25,36,17,16,16,28,13,17,31,10,27,31,19,16,22,-43,-13,-66,11,17,16,3,-124,8,-5,3,-56,-2,13,6,18,-19,18,-7,-11,0,-21,12,-204,6,16,-1,-112,-20,-6,0,43,-146,-5,-118,13,-15,-5,5,-5,12,-19,5,15,5,6,-45,29,-4,46,10,15,13,-19,-32,9,2,18,17,3,0,-16,-36,-60,21,17,12,-43,-27,-5,-15,-11,-98,-7,-72,-4,3,-5,-3,-4,-42,8,-1,-10,-13,9,11,29,-109,-23,-100,30,0,-3,0,-121,16,-5,-1,-82,9,19,-14,1,-48,-87,-31,9,36,18,30,6,-55,-115,-39,6,27,9,10,-2,-51,-113,-24,-6,42,8,7,10,-32,-174,-27,0,15,20,4,-13,-28,-281,-24,13,5,8,-13,-45,-145,49,-122,-78,-49,-29,-30,-18,-10,-104,14,2,-15,-35,-14,-15,-12,-88,-14,-4,-12,-20,-11,-27,-82,-175,-460,-47,-28,-31,-8,-45,-133,-118,-69,-36,-28,-46,-26,-42,-24,-120,-20,-14,-11,0,-31,-35,-23,-147,-21,-43,-7,-6,-8,-8,-95,-177,-93,7,-15,7,-5,-79,-183,18,-140,-88,-42,-45,20,10,-48,-90,-25,34,-3,-12,-12,-53,23,-56,21,-66,-17,9,1,20,30,14,24,30,22,29,15,14,11,33,8,48,31,-11,15,26,16,27,20,16,28,12,10,5,22,-1,-8,-11,1,18,22,2,-62,-504,-184,4,10,10,8,-10,-504,-330,-503,-30,2,24,7,60,-125,-504,-73,13,14,-1,4,61,31,-47,-16,31,0,6,0,-7,7,-7,-4,1,-7,-6,-8,8,4,1,4,24,16,-87,-25,9,4,1,6,9,1,-85,-26,4,4,2,-2,8,7,-54,-23,-2,9,6,-2,19,13,-37,-14,-4,6,10,5,37,24,-4,33,-11,-19,1,4,13,68,56,108,-9,-4,-4,-4,-3,4,-3,0,5,14,14,6,2,31,9,51,8,1,-1,17,23,22,-16,8,4,4,8,23,15,36,6,14,3,12,9,21,31,31,26,13,10,4,12,13,42,64,16,53,-4,2,13,27,45,85,26,61,20,46,2,18,67,74,53,51,38,-2,39,47,72,45,64,-11,27,35,22,25,13,16,-1,4,25,22,24,23,28,35,-28,28,11,21,21,37,21,22,7,2,20,12,23,26,29,34,2,27,14,29,12,38,45,41,15,39,9,2,32,23,69,53,32,49,20,25,37,40,57,67,53,56,47,36,-2,44,49,-2,81,-4,28,21,20,24,31,52,190,152,33,15,19,28,25,64,165,168,26,18,14,34,38,53,141,158,28,15,17,21,14,51,135,116,12,0,10,6,30,55,131,115,0,1,21,41,32,33,112,106,18,10,41,34,50,78,112,89,3,-1,10,40,30,70,105,94,63,56,54,39,49,79,121,148,39,48,50,50,47,70,118,104,37,31,44,48,60,67,99,104,24,35,29,72,66,91,113,106,12,19,53,46,78,98,109,98,23,30,34,43,108,77,120,116,23,39,53,68,79,119,100,117,70,70,47,63,86,84,81,86,-3,-28,-27,-17,-26,-32,-42,22,-12,-6,-17,-17,-24,-24,-93,-16,9,-6,-18,-19,-22,-35,-78,-36,0,2,-20,-23,-28,-39,-119,-81,-1,-3,-22,-24,-13,-11,-133,-83,-24,12,2,0,-6,-29,-68,-23,5,27,0,12,-22,33,24,0,-26,44,25,-21,-55,3,22,-3,1,1,3,-8,-7,3,-4,3,31,0,-10,26,34,-10,38,211,1,0,-1,2,0,7,-51,37,0,4,3,-9,-1,-2,-71,0,2,9,4,-3,2,5,-68,-7,2,2,4,-1,11,9,-98,-20,3,4,6,7,15,22,-56,-14,0,-3,0,7,0,-5,-6,-6,19,-18,-14,27,-38,4,-78,10,14,-1,24,20,-82,-50,29,71,-18,13,10,4,-7,-80,5,-73,3,-14,5,-27,-19,-30,-13,-31,0,-4,-8,-10,-16,-14,-8,-15,-4,-7,-2,-13,-24,-12,-26,2,-4,-8,-9,-9,-13,0,-7,-3,11,0,1,-3,-23,-24,-2,-2,-26,-23,2,11,13,-2,90,33,4,8,-21,18,10,-29,55,19,13,6,3,4,-8,-65,10,4,7,-3,1,5,-48,-29,-10,-3,-6,5,11,-19,-6,-25,15,-22,5,5,-4,-10,-11,-25,-27,-17,13,2,-9,-3,-16,-7,-9,0,14,-30,-3,-8,-8,-22,-6,-26,-24,-27,-34,-44,-32,-57,-146,11,-20,-6,-5,-1,-2,-8,2,-27,-13,-10,-5,-2,-28,-17,-39,-32,-10,-17,1,-19,-7,-26,-38,-25,-8,1,13,-14,14,-5,-27,-14,-5,-9,-1,-11,-15,-13,-32,-8,0,-5,-12,0,-8,2,-27,-26,-5,-2,-8,-6,-8,-9,-16,-28,0,7,22,21,31,35,-66,79,-16,-19,-19,4,25,43,69,147,-24,-44,-20,10,-17,-15,63,89,-23,-15,-1,-7,-2,2,85,23,-13,-9,4,-27,17,26,65,55,-4,-9,-2,-2,-2,3,65,31,0,-10,-14,8,-2,20,67,32,-15,-5,-1,-7,-1,0,63,46,32,23,17,26,14,-108,-34,-134,-98,20,48,39,-5,-68,-300,-36,-13,28,45,30,-68,-91,-307,-247,-114,-13,-49,5,38,-59,-93,-12,-59,-57,-61,-19,13,46,37,48,-107,-107,-91,-66,-16,32,55,32,-104,-70,-65,-53,-47,-12,32,-6,-96,-78,-67,-59,-37,-51,14,-38,9,-6,-1,4,-3,4,-6,-6,-5,-2,0,-5,-10,-4,7,4,-8,0,-6,-9,-9,-7,4,6,-2,-10,-5,-1,-13,-8,7,3,-3,3,-6,-11,-2,-16,12,-1,22,24,21,22,5,33,59,44,106,121,151,100,42,-42,-5,134,-4,1,-8,0,2,-8,2,6,9,-2,0,-4,1,-9,-6,-7,-5,-7,-7,-3,-3,-1,-2,-6,-9,-8,-4,-8,-4,-6,8,-4,-6,-18,-11,0,-10,-6,0,-3,-17,6,-10,0,15,33,21,23,0,8,-2,4,-9,74,73,84,4,18,7,7,44,-13,4,18,54,46,85,0,-27,-44,-72,31,-5,4,5,3,-19,4,-8,0,14,1,7,4,6,-6,2,-9,29,21,-4,7,9,0,2,-3,13,28,27,0,-2,1,7,4,10,13,27,43,-3,11,12,9,15,0,32,30,60,45,70,44,6,18,13,11,15,12,21,119,50,20,57,-2,-36,-45,47,30,12,18,21,15,11,0,-12,-9,15,13,24,2,4,0,-12,-21,9,21,18,20,21,9,9,-5,28,26,14,23,5,12,6,-9,19,27,32,17,40,5,22,-23,38,36,39,31,20,13,28,-52,57,60,63,57,35,12,30,6,216,216,216,214,223,193,192,150,50,45,52,36,29,11,22,43,64,44,60,34,42,28,25,24,87,81,48,58,42,42,42,28,82,94,94,42,69,55,53,31,94,101,115,124,69,93,55,45,104,118,151,149,147,101,78,69,123,160,152,172,187,181,-119,157,195,202,228,230,114,108,155,80,-24,-20,-6,-5,-13,-27,-23,-27,-18,-19,-12,-8,-14,-22,-21,-30,-10,-24,-15,-9,-18,-25,-26,-36,0,-23,-22,-11,-23,-28,-31,-31,8,-8,-29,-16,-28,-46,-26,-69,-59,-33,-36,-37,-58,-15,0,-29,-67,-8,-49,-59,-64,-294,-66,-245,-170,-136,-160,-307,-273,-336,-17,-249,3,0,-2,7,-4,4,2,8,16,27,15,8,22,13,7,1,-2,6,6,10,5,8,22,23,0,-2,-6,6,-1,-5,24,22,0,-1,-7,-3,5,4,36,21,2,-8,-7,-5,-10,3,38,21,3,-10,-12,-16,-11,7,77,32,0,-5,-3,-2,-5,7,-4,-2,-10,24,30,24,-11,6,-12,-24,-2,3,12,10,11,-2,4,-5,7,14,-7,-4,10,5,5,14,11,-9,-2,-11,-5,-4,5,-2,-7,-6,-12,-20,-4,-1,0,11,-9,-25,-22,-14,-41,-14,-11,-6,-6,-23,-25,-22,-40,-18,39,1,-10,4,-5,-49,-39,-69,-18,-20,3,-13,32,-6,0,12,-10,-27,19,13,-12,-3,5,2,-9,-10,8,-6,12,6,-3,0,-12,-4,-8,-5,7,3,-7,-18,-10,-10,-1,-4,-1,-8,-13,-25,-20,-8,-8,-20,-22,-27,-37,-17,-24,4,0,-18,-29,-30,-29,-27,16,0,8,-18,-11,-22,-37,-20,17,2,-12,-9,-9,-9,1,6,11,5,-4,-17,-11,-9,-8,-3,10,-6,-2,-9,-26,-11,0,-11,5,0,-6,-8,-17,-13,-4,-4,12,14,-31,-17,-22,-21,-21,-4,2,9,-26,-33,-45,-19,-25,-27,-11,7,-54,-58,-60,-40,-32,-5,60,67,-48,-66,-63,-82,-115,-186,132,54,-25,-17,-25,-30,-30,11,-10,-12,-34,-23,-32,-26,-30,-26,-17,-16,-18,-18,-19,-27,-25,-25,-13,-20,-25,-16,-19,-17,-36,-28,-17,-17,-43,-27,-24,-36,-40,-29,-29,-12,-44,-51,-56,-53,-51,-38,-26,-11,-45,-69,-59,-56,-42,-30,27,8,-49,-31,-45,-53,-57,-14,77,83,-81,-138,-185,-217,-247,-178,-315,-188,-251,-104,-156,-156,-277,-440,-253,-403,-147,-201,-125,-301,-301,-246,-290,-371,-316,-214,-205,-108,-247,-364,-412,-437,-132,-238,-154,-176,-242,-420,-457,-504,-111,-177,-184,-184,-77,-366,-414,-411,-78,-120,-218,-106,-27,-41,-255,-253,-26,0,-9,32,89,130,127,39,-5,1,-4,-1,-9,-7,3,-8,4,4,4,5,-147,-1,6,4,4,5,3,-4,-205,-3,4,2,2,5,3,-6,-201,-2,4,2,1,4,3,-5,-193,-4,3,1,7,11,5,0,-167,-3,7,1,7,45,-7,-46,-96,-73,4,-355,-6,-8,5,-5,-2,7,-3,0,20,10,1,12,24,4,0,11,10,9,-1,9,-81,7,2,9,8,7,3,-1,-77,0,2,7,12,12,0,-3,-29,-3,0,12,15,10,0,-1,-39,0,-1,5,21,24,12,-27,8,-65,9,9,18,3,-30,9,5,4,-110,8,21,-5,39,22,-19,-5,11,13,12,10,7,1,28,6,17,5,15,10,10,7,-74,0,8,10,19,13,9,2,-72,-4,7,7,0,18,1,1,-25,5,0,0,11,-6,10,-5,-29,-5,2,-17,0,7,-29,14,-8,21,-10,10,3,5,8,-78,-5,-131,33,11,9,29,46,41,-63,34,28,2,19,18,21,16,7,15,20,18,18,20,10,11,-74,10,18,17,19,18,13,8,-69,8,13,17,18,15,14,7,-73,10,11,19,22,16,2,12,-69,5,9,15,22,13,9,12,-97,6,9,21,27,15,7,8,-65,15,24,17,13,-35,-107,-88,-28,-24,39,8,42,45,42,36,161,53,54,45,38,44,37,36,146,42,39,37,34,41,36,33,157,32,39,35,38,29,39,32,166,37,43,27,24,40,37,30,174,36,31,40,30,45,29,49,170,50,32,34,46,36,45,31,172,53,51,29,64,100,135,127,88,129,130,99,-102,-73,-47,-43,79,-51,-53,-60,-90,-71,-73,-33,77,-40,-63,-80,-93,-103,-97,-46,71,-40,-72,-106,-54,-112,-120,-40,56,-25,-99,-282,-51,-198,-94,-155,-4,-94,-243,-164,-84,-74,-147,-52,-97,-126,-88,-176,-66,-75,-224,-112,-161,-89,-160,-66,-119,-138,-112,-106,55,-45,-78,-73,8,1,-1,-4,-8,-1,-2,0,12,-23,-2,33,-187,60,5,2,-4,-4,5,21,-204,23,4,2,-2,0,-4,2,-408,6,0,1,0,-2,-3,-2,-463,2,-2,0,0,-2,-3,0,-397,0,-3,-2,0,-4,0,-4,-298,2,-2,-1,1,-1,-2,4,4,0,-7,-2,20,36,11,50,21,22,23,19,-12,0,10,6,-29,-9,16,6,-1,2,32,18,-50,8,29,-3,-7,-6,3,14,-58,20,4,-6,-3,4,-3,0,-75,-3,0,-2,-11,-4,-9,-5,-92,-11,-7,-10,-11,-10,-8,-9,-100,-7,-9,-9,-23,-12,-10,-6,-20,-11,-10,-13,6,8,-4,-21,-25,-2,20,1,-9,-10,7,-42,-20,-2,14,1,-5,-3,3,26,-60,16,12,-1,3,5,14,-1,-68,0,3,6,-4,8,-1,0,-76,-4,2,10,6,-4,-2,-7,-83,-8,-2,-5,-2,-6,-7,-5,-94,-6,-10,-3,-8,-13,-9,-5,-28,-11,-18,-12,2,-1,-7,-1,33,-4,-22,-2,-1,7,-1,1,28,2,0,4,-16,-3,0,9,26,-3,-15,-13,-5,-2,0,4,34,3,-3,-18,-8,-25,0,1,39,-4,-8,-22,-5,2,8,12,51,3,4,-12,-7,0,9,8,58,-1,-6,-19,-6,-2,-1,6,193,7,-6,-8,-14,-19,-25,27,-50,-13,-25,-8,-20,-16,-19,-33,-126,-8,-4,-17,-24,-16,-19,-3,-215,-4,-1,-15,-21,-18,-20,-18,-191,-19,-16,-10,-21,-13,-24,-21,-177,-17,-18,-24,-22,-24,-17,-28,-166,-24,-24,-25,-21,-27,-23,-24,-69,-25,-27,-29,-23,-24,-27,-28,-4,-23,-26,-20,-96,-65,26,-72,89,-5,-25,-285,-23,-35,-22,-12,30,-140,-10,-35,-9,-13,-17,-4,-178,28,22,-7,-11,-35,-23,-32,-240,-31,-24,-26,-12,-16,-20,-51,-158,-36,-26,-34,-13,-14,-21,-32,-141,-25,-19,-22,-17,-21,-17,-17,-217,-14,-20,-19,-20,-15,-12,-9,3,-13,-16,-16,-4,1,1,4,-3,6,-4,4,0,18,3,-35,12,-3,-5,-10,5,11,-1,-50,-19,-4,-11,-10,4,-1,30,-57,41,-12,6,-13,-12,4,-8,-38,39,-4,2,-1,-19,33,-13,35,-4,21,7,1,-94,32,-456,137,-146,-16,-70,-42,-3,-8,5,9,-5,5,-4,5,-38,-35,-40,-15,-55,-48,-35,-37,-39,-86,-29,-52,-4,-52,-33,-57,-50,-63,-16,-87,7,-55,-37,-32,-20,-34,-63,-5,-53,-11,-34,-59,-65,-40,-76,-15,-48,-45,-27,-14,-13,18,-89,-2,-71,2,-31,-1,2,-460,47,19,-2,-503,-26,-21,-35,-10,-2,4,-14,34,-37,-67,-19,-17,-40,-42,-45,-25,-31,-31,-23,-28,-29,-32,-10,-31,-35,-25,-54,-26,-22,-67,-13,-34,-28,-44,-54,-73,-35,43,-51,-33,-70,-58,-68,-52,-63,-35,-22,-46,-46,-56,-47,-83,-28,-15,-15,-61,-37,-41,-18,-37,-76,35,-112,-35,-45,-68,-102,-30,-60,-20,-41,-17,-33,-1,-60,-46,-47,-71,-45,-67,-46,-59,-35,-59,-18,-58,-21,-39,-50,-51,-60,-61,-60,-87,20,-59,-40,-53,-46,-58,-62,-22,-15,-26,-42,-46,-55,-52,-60,-123,-28,-47,-25,-59,-56,-48,-60,-80,-47,-50,-46,-37,-47,-49,-58,-79,-57,-54,-37,-62,-51,-41,-64,-41,-65,-51,-43,-54,-13,-25,-10,-11,-21,-36,-36,-68,-26,-21,-7,2,-26,-36,-59,-32,-54,-47,-37,-54,40,-64,-50,-34,-26,-32,-79,107,-54,-6,-61,-45,-39,-51,-67,-49,-25,-62,-55,-67,-46,-44,-56,-8,1,-86,-96,-62,-55,-86,-71,-9,-94,-80,-45,-71,-50,39,-116,-73,-111,-93,-40,-41,15,-2,9,20,-15,-21,11,14,1,10,8,27,-21,2,-4,17,23,10,-6,-34,-11,-19,0,34,20,6,-42,-2,-73,-12,3,40,31,12,-1,-58,-24,-15,27,34,35,30,21,-6,-38,17,33,41,42,59,30,0,-19,10,59,57,31,62,17,14,-52,23,67,132,7,-7,-6,0,-6,2,0,-2,9,-21,57,141,125,134,30,49,12,21,61,121,94,68,10,22,2,-2,10,122,36,55,19,13,11,2,34,-27,78,15,7,7,10,7,-6,-13,24,7,1,6,14,5,23,-43,30,7,5,3,0,-1,-5,-4,8,7,-7,-7,-5,8,25,43,48,81,55,57,15,28,94,29,56,74,86,78,27,58,54,22,24,97,89,73,24,43,77,61,53,35,71,22,24,38,36,13,48,66,50,37,22,16,60,26,75,13,40,20,8,30,22,39,20,41,18,26,-6,40,3,68,18,52,16,16,-36,11,3,69,-20,34,75,21,-24,-30,33,45,29,97,10,44,22,59,48,10,100,38,26,25,41,40,16,55,3,96,27,40,58,5,95,-58,59,21,94,28,13,74,29,40,24,32,17,70,90,29,53,23,22,12,24,7,19,39,24,66,9,26,5,33,46,67,52,79,77,63,65,51,38,61,56,71,68,68,67,43,14,28,29,65,27,44,28,32,7,7,26,54,65,14,29,27,30,11,27,57,7,19,34,26,35,23,33,120,27,32,44,38,6,35,21,84,18,27,29,30,16,23,4,94,27,40,31,32,69,127,122,115,89,107,117,126,24,33,95,81,76,100,78,103,55,95,68,79,95,82,73,68,66,63,64,44,101,107,63,87,72,38,97,5,70,74,99,52,36,65,65,113,44,47,68,81,71,85,63,74,49,38,34,58,50,42,29,77,35,44,3,29,-63,21,19,56,36,-3,-21,-44,-76,-43,41,57,59,51,-2,-62,-49,5,27,40,59,41,-5,-20,-34,-24,-4,28,51,40,19,7,-34,-28,13,16,42,27,18,-5,-47,-31,-7,0,24,15,-3,-8,-32,-16,0,-4,1,-1,-24,-2,-44,-9,4,20,5,-13,-25,-23,-3,0,0,1,-8,2,-2,-8,1,-23,5,-20,24,13,0,1,-14,-15,-4,-6,35,-10,9,-3,-11,-2,-11,-19,12,-29,5,-10,70,-26,57,-84,40,-94,22,-23,92,-3,5,25,-234,-56,-36,-26,80,-60,17,84,-49,-117,-36,-60,5,-5,1,-5,-8,2,-4,-3,-42,-37,-40,-5,-40,-12,-31,-14,-28,-24,-26,-48,-16,-51,-6,-51,7,-77,4,-72,-29,-38,-39,-10,33,-48,-19,-90,-44,-34,-31,-12,-72,45,-100,9,-103,8,-66,-23,-2,-2,-47,-16,-46,-15,-49,-11,57,-102,37,-9,31,-18,-9,-51,7,-104,37,-31,47,-79,3,-43,-14,-24,-25,-17,-24,-16,-27,-35,-15,-34,-15,-35,-29,-29,-40,-23,11,-17,-18,-33,-30,-33,-31,-71,26,-23,-13,-11,-50,-9,-83,-9,-50,-29,-14,-30,-6,-64,-23,1,5,-35,-69,-18,-37,-8,-26,-10,7,-66,8,-49,17,7,-11,-19,-3,-15,-61,25,-77,-14,-28,-31,-62,-41,-42,-34,-23,-30,-37,-28,-23,-27,-7,-24,14,-62,10,-58,-13,6,-2,-30,-40,4,-44,-16,-10,-11,-8,-62,-35,-69,-29,-49,-24,-28,-43,-36,-74,-68,-55,-43,-30,-73,-16,-59,0,-69,-43,-47,-30,-50,-55,-7,-70,-41,-44,-27,7,-14,8,33,6,2,33,-6,-67,-61,-64,-43,-43,-14,-35,-34,-51,-83,-39,-49,-6,-73,-19,-66,-29,-16,-30,-39,-70,10,-58,-30,17,-51,4,-44,-50,-35,-80,-34,-76,-24,-79,-7,-56,-42,-50,-35,-72,-68,-53,-26,-56,-19,-20,-32,-25,-117,-45,-14,-58,0,16,0,-72,-97,-77,-69,-34,-8,-2,-16,-46,-44,-45,5,-20,16,-9,19,-19,-48,4,-20,12,-3,8,-2,-26,2,-11,20,-6,41,8,35,-16,-20,12,-2,25,17,36,17,-42,-8,-23,-4,18,48,42,51,53,-50,-28,-3,37,38,74,55,19,-26,-19,40,38,134,97,98,-122,9,16,50,148,191,146,158,1,-5,-4,-1,-3,2,-6,6,-17,-5,50,21,44,25,47,3,6,56,19,29,-11,5,-10,12,38,59,34,19,-6,-2,2,5,42,91,3,-13,-3,-32,3,0,46,13,30,-31,0,-20,0,3,34,24,-1,0,-9,-14,14,3,-2,-2,-6,0,0,1,-2,-9,-1,60,-2,21,40,16,-5,-4,60,31,-5,48,20,-16,-1,47,35,16,25,0,34,7,44,5,33,8,34,30,29,-2,-10,37,34,67,12,19,33,-1,62,1,50,25,54,-17,74,13,24,10,51,53,48,40,8,18,18,8,21,24,40,48,-6,33,7,14,2,36,10,62,55,44,-31,76,58,-9,58,26,97,-16,93,0,20,87,17,65,-11,86,-10,91,66,46,93,-23,68,-33,91,9,54,92,-8,62,10,29,24,56,38,-11,88,-15,103,8,34,1,13,29,1,61,16,67,18,59,7,3,20,40,14,35,56,10,82,34,43,36,29,16,28,35,44,24,34,50,20,37,1,24,63,39,39,54,38,44,25,34,84,14,48,28,21,43,35,40,98,33,61,30,46,52,54,35,36,16,77,22,41,72,27,49,17,35,15,92,14,63,40,18,25,20,11,36,9,41,5,19,106,73,145,79,101,106,45,110,67,7,41,54,58,13,73,61,67,23,33,46,45,80,44,83,56,78,79,8,82,45,92,62,145,63,65,56,62,65,72,85,77,5,135,23,127,64,53,63,40,79,22,123,55,93,75,65,39,30,47,53,32,56,44,52,124,88,81,-2,18,-61,-43,-35,139,68,41,-13,-11,-28,-34,-7,90,102,41,0,-10,-43,-23,-17,88,64,28,1,-28,-35,-32,-22,51,60,22,5,-34,-32,-44,-20,58,55,33,0,-7,-32,-26,-20,43,37,23,38,-12,-10,-4,-9,-9,-5,-12,21,-4,-28,-22,-28,2,0,-3,1,7,6,8,6,6,51,24,1,23,34,19,12,16,42,36,32,12,18,20,16,14,61,26,17,14,34,31,20,51,67,43,44,25,41,38,24,52,65,40,53,48,26,18,19,55,-106,57,85,56,35,3,-42,8,6,7,7,-6,0,-5,7,66,52,54,59,60,69,69,56,42,61,58,60,61,64,64,47,64,54,51,69,66,62,62,54,65,78,88,64,63,59,72,70,52,89,48,93,55,96,46,61,43,90,59,80,84,65,61,35,90,86,70,92,63,85,72,51,44,74,69,38,109,-18,41,11,67,22,74,66,82,68,68,70,14,78,54,74,56,75,62,58,50,4,65,72,64,73,68,70,72,99,16,67,45,80,70,80,81,87,61,57,79,78,76,75,62,80,75,73,51,98,68,65,11,108,87,102,74,65,45,37,66,39,76,78,86,47,-27,33,143,15,160,98,138,77,118,96,89,47,105,108,93,92,98,98,111,-85,101,113,104,81,93,95,94,70,115,96,92,81,94,104,105,60,125,110,122,81,84,104,124,98,135,126,151,137,129,119,133,92,119,100,120,105,87,119,116,123,121,122,138,116,104,122,219,51,232,157,234,170,164,162,121,141,139,163,143,155,161,172,156,-132,134,184,175,142,128,148,138,108,124,165,146,171,135,170,155,115,147,161,145,149,129,160,143,130,139,160,143,151,100,142,104,159,137,186,157,131,153,163,151,142,159,174,175,174,148,180,6,2,43,21,5,2,-1,0,3,27,17,2,-3,-4,6,-6,8,22,-5,11,-5,-16,-16,3,45,36,20,5,-4,-10,-7,-17,34,34,30,7,2,0,5,4,29,33,26,30,16,-4,0,5,-1,49,25,27,25,-66,-72,-30,-52,46,23,35,-4,-52,-61,-30,-3,8,3,0,-7,-2,7,-5,67,-375,92,-380,88,-317,-12,-3,-24,-59,18,-58,-15,-34,-23,-29,24,-5,31,-9,-29,-15,-25,-9,2,-8,9,-2,0,-2,-10,-12,-15,-3,-6,-2,7,2,-9,-6,-15,-33,-15,-3,-11,-10,-14,-11,0,1,-2,4,-2,0,-6,-2,-116,-101,-51,-95,-97,-80,-87,-50,-288,-310,-441,15,-461,-145,-293,-103,-61,-487,-40,-504,-114,-500,-91,-113,-56,-120,-78,-84,-85,-108,-94,-94,-6,-94,-42,-100,-87,-90,-80,-78,-56,-85,-53,-58,-67,-72,-86,-64,-72,-74,-71,-59,-74,-88,-82,-77,-67,-69,-74,-46,-73,-71,-72,-68,-87,-57,-150,-85,-85,-85,-88,-83,-11,-372,-24,-340,-104,-164,-82,-111,-105,-101,-448,-64,-102,-106,-108,-81,-30,-110,-54,-116,-64,-118,-88,-90,-61,-112,-78,-62,-74,-69,-106,-79,-58,-73,-60,-60,-51,-93,-37,-67,-56,-104,-69,-75,-77,-57,-86,-44,-56,-67,-59,-80,-74,-86,-42,-63,-140,-487,-150,-440,-137,-479,-197,-146,-145,-104,-108,-132,-110,-126,-107,-123,-132,-111,-115,-131,-114,-111,-113,-110,-133,-78,-115,-149,-120,-111,-116,-126,-111,-75,-111,-158,-116,-110,-114,-117,-100,-64,-86,-101,-117,-96,-94,-95,-135,-96,-100,-107,-87,-121,-109,-130,-116,-109,-101,-113,-108,-112,-122,-117,-152,-139,-119,-133,-136,-121,-155,-139,-97,-250,-74,-168,-118,-159,-79,-184,-161,-168,-151,-110,-114,-120,-129,-140,-116,-163,-99,-150,-115,-145,-124,-128,-114,-183,-106,-199,-138,-123,-126,-124,-111,-141,-118,-112,-135,-133,-113,-98,-124,-177,-117,-123,-111,-126,-131,-145,-128,-191,-121,-127,-115,-131,-123,-151,73,-243,-61,-349,-26,-17,27,31,-27,-231,8,-256,3,8,40,35,-122,-57,-291,-2,9,27,28,50,-71,-41,-42,-7,2,5,17,19,-7,-48,-23,3,2,15,1,16,-45,-27,-10,-11,4,8,22,20,-15,-25,1,-16,0,-1,14,17,-3,-2,19,-2,21,6,8,21,8,-8,-3,1,5,-1,0,-7,1,-23,-33,-43,-8,-15,-5,-3,1,-1,-69,-4,-8,-16,-5,-6,-3,-7,-504,-1,-6,-12,0,-3,-12,28,-486,13,-5,1,7,3,-1,78,-502,70,-12,13,6,8,16,42,-504,76,-2,46,-8,18,8,6,8,4,4,8,-1,7,-4,4,0,-10,-15,5,11,2,-23,27,1,21,-27,9,9,7,0,20,2,2,-1,7,0,13,3,3,19,-1,11,9,4,7,46,35,-26,15,21,14,14,-2,36,25,58,38,18,8,27,19,84,64,29,25,26,42,26,-25,22,20,54,38,15,34,8,74,6,-12,-2,-4,0,18,14,30,24,-5,-2,-16,5,-2,30,23,-29,-6,5,-11,-6,28,34,19,-16,-31,19,-33,14,30,-1,27,22,1,0,24,1,-30,10,16,-44,41,-16,46,19,-10,17,-3,-3,2,37,-13,10,7,27,25,21,10,5,47,24,20,9,22,-2,2,1,-1,0,-7,-2,5,-8,4,8,-11,-4,-9,6,-9,0,-7,-22,-18,4,-7,-4,1,-30,-24,-43,-21,-2,-10,-9,-9,-40,-8,-30,10,-10,-2,-5,10,-32,-14,-56,0,-3,-8,-11,10,-27,-11,-63,7,-19,-14,-11,8,-42,-18,-59,-9,-9,-16,-13,9,2,-11,46,-29,-12,-7,-8,0,-14,-16,54,-33,-17,-26,-10,-31,-26,-17,43,-39,-16,-11,-21,-25,-38,-27,33,-51,-12,-18,-36,-21,-19,-18,41,-4,-20,-29,-29,-7,-38,0,15,16,-23,-38,-39,-14,10,23,5,-1,0,11,-17,-4,-12,72,48,34,5,51,-6,3,-16,-27,38,0,10,1,3,-4,-11,-14,25,-8,5,6,-2,-7,1,0,28,1,1,-2,0,-3,23,42,61,10,-2,-8,-6,-10,31,106,66,78,12,-11,-1,0,67,117,127,103,63,7,7,-3,82,98,110,105,56,7,28,-41,93,114,110,128,83,3,14,-62,0,-2,-1,4,-5,-3,7,0,15,14,28,19,-15,22,-7,-6,-3,18,-1,28,2,-2,6,2,8,-11,2,0,13,10,13,5,25,-26,-504,-27,13,6,10,8,19,-26,-465,-11,12,9,9,7,27,-36,-465,-10,10,12,9,6,2,3,-1,4,-5,1,0,5,17,16,-7,-13,16,24,-6,-5,24,-5,-24,-21,21,-8,15,-22,15,-37,-20,-6,15,-8,13,18,-8,-19,-64,-11,-4,-12,-7,-7,-62,-27,-70,-23,-35,-9,7,-8,-54,-34,-85,-21,-42,-11,-12,-10,-60,-35,-355,-28,-43,-7,-17,-6,-73,-84,-71,-43,-58,-11,-21,-20,11,-4,-15,-10,0,-55,5,-33,-26,-10,-12,-1,-24,-15,-46,-34,3,-17,-35,-17,-17,-49,-20,-21,3,-7,-153,-6,-41,-24,-31,-6,-11,-33,-56,-54,-25,3,0,-26,-20,1,-92,-19,-22,-8,-11,-7,23,-29,-87,-17,-16,-42,-8,-14,-7,-48,-65,-25,-31,-2,-24,-22,-7,17,-9,12,0,3,2,16,8,13,-23,11,0,4,0,9,18,20,-19,17,0,4,13,11,4,-5,-16,3,-11,4,-4,4,6,37,29,-3,-4,-3,9,3,-5,5,49,0,-21,-11,-17,-22,8,17,86,1,-23,-20,-1,-6,22,14,89,2,-17,-8,-10,-6,-4,0,-7,-17,-45,-18,-2,-7,-12,0,-12,-33,-30,-24,-20,9,-3,-8,-1,-5,-21,-35,-20,-13,-6,-2,-31,-1,-6,-11,-22,-1,0,11,-13,-10,-20,-3,-13,-3,7,23,11,-5,-13,-11,-27,-28,14,-8,9,-10,-14,-39,-7,-31,16,8,24,-3,-6,1,-9,-14,-77,10,44,47,80,61,70,66,2,0,3,59,67,62,53,39,24,-41,-53,10,61,64,80,76,-26,-55,-56,-27,34,55,65,63,-55,-81,-54,-28,24,35,46,62,-9,-60,-45,-6,24,27,49,43,-29,-48,-65,-11,12,22,42,42,-15,-42,-97,-17,21,25,33,44,-1,8,-6,0,-8,1,6,3,4,8,3,0,-24,0,-18,3,3,8,0,0,-20,14,-9,4,0,4,7,9,-352,32,-504,11,0,6,12,13,0,91,11,11,-8,-7,9,-17,36,-15,57,-4,-30,-35,14,-21,14,0,46,-4,2,1,-5,8,-5,3,-3,-2,6,5,5,-9,-12,-16,-3,-1,-2,9,-6,-3,-5,-12,-15,-28,-1,2,-9,10,-68,-2,-85,15,-1,-2,3,-58,-18,0,-28,-429,5,2,0,-19,-6,32,7,-3,6,15,-24,-470,-27,-18,-1,-423,0,-11,8,-44,-504,9,-390,-8,1,0,16,-8,-25,4,4,0,9,-66,-1,-11,2,-8,8,-14,9,2,-54,3,-6,-6,-12,1,2,5,-4,-86,19,-8,26,-121,0,4,7,9,-107,11,-347,14,8,12,3,-8,-2,35,-1,-18,-7,1,0,4,-184,-6,-132,7,3,0,-7,-95,-2,-4,13,-53,-5,10,10,12,-9,17,3,17,4,16,3,-1,-20,-11,-15,-6,2,-3,23,0,-14,-22,0,-33,2,2,2,14,3,-13,12,10,-4,-5,1,1,1,-52,-4,0,5,-9,-4,-17,-37,29,-17,2,-4,-2,12,9,-4,-41,13,10,3,4,10,3,18,-28,41,10,-9,-16,24,0,5,-19,22,2,-3,0,-20,-22,-22,-5,-29,-21,-2,-11,-1,-12,-17,-16,-9,-36,0,-9,-15,-14,8,-9,15,-42,-19,-14,-1,-2,-12,-23,-27,-5,-2,-4,-3,-13,-37,8,-16,-22,-27,-18,-3,0,-52,-23,-1,6,0,0,-4,-25,3,-14,33,-2,-55,-29,-11,-44,-19,-23,26,-16,-32,4,-11,-12,-7,6,-7,-5,-40,-17,24,-1,6,0,5,-10,-37,-15,-4,5,12,-5,1,-2,-15,-13,9,2,-9,-1,-9,14,-22,10,-6,-9,-17,-28,5,5,-66,-5,-13,-19,-37,-37,-30,1,-54,50,5,3,-39,-51,32,-4,-21,-11,10,-23,-23,-13,-9,-73,3,0,-2,-1,9,-3,-2,8,-16,3,5,6,-1,7,-31,26,-17,4,6,7,23,-2,22,9,-6,0,6,11,-6,27,6,13,-3,-1,-2,5,-7,-182,2,9,-2,-1,8,-3,-13,-14,16,1,-2,3,-2,-15,-6,-4,3,1,3,-5,0,-1,-5,-7,4,8,38,13,4,37,37,27,36,16,-14,-8,34,14,2,15,20,12,30,15,19,-6,40,18,79,-3,-5,22,16,49,0,11,2,71,0,2,-1,17,4,170,-4,30,-6,-6,4,41,-7,14,10,66,-10,1,-4,-7,57,0,59,-16,-17,-12,7,-11,6,-18,9,-30,5,58,13,20,0,25,-7,23,15,0,66,-1,28,6,8,7,0,12,0,45,4,19,-4,59,19,-7,23,6,49,1,46,5,1,16,1,27,-12,201,2,60,7,-3,19,-6,24,6,79,1,-3,17,-13,23,-8,10,-5,54,3,-8,33,-12,7,-11,-3,-10,7,10,35,9,29,25,32,15,9,22,24,15,30,40,24,21,5,6,20,0,8,8,18,7,-4,1,12,6,8,33,13,24,-1,-1,5,11,54,278,75,28,-8,-8,0,-2,5,48,29,4,-6,1,6,-3,19,37,6,0,0,-3,5,3,15,19,13,2,31,68,21,29,33,14,31,25,27,48,70,49,50,81,58,51,25,11,34,47,36,47,33,51,15,8,22,28,79,53,57,40,36,4,26,42,40,262,67,58,9,25,25,25,37,62,83,26,26,30,24,40,27,59,33,49,32,22,55,20,27,46,35,23,-63,-31,-18,-57,-22,-45,-55,-5,-50,-30,-45,-24,-31,-53,-41,-38,-12,-23,2,-7,-6,-11,19,-31,-26,-21,-12,3,12,-2,30,-9,-20,-16,-10,-3,17,-8,20,-4,-14,0,-3,9,7,34,7,11,1,-2,9,5,-3,5,6,1,-2,2,11,9,-2,6,3,7,-2,7,-4,2,2,6,-8,5,0,-28,11,-27,-14,-10,-10,-3,-2,-13,2,-24,-16,4,-12,-2,-1,-28,-4,-23,-23,2,-4,-8,15,-26,8,-25,-48,-31,-12,-12,42,-302,64,-339,-51,-91,-81,-38,-180,43,-434,-117,-68,-144,-37,-38,-8,4,-3,8,2,4,-3,0,10,-1,-10,10,-7,-10,-11,1,-3,16,9,2,-13,1,10,11,-1,-2,46,-11,13,-16,-15,-5,36,5,12,-3,0,14,3,-4,16,-336,6,60,-3,10,-2,-1,-293,84,-1,-11,49,11,37,-12,57,21,42,-18,73,8,14,23,81,80,-2,24,-108,34,15,-5,-3,21,-1,12,-17,5,-41,-7,29,14,35,-10,13,-17,0,-53,4,25,29,-3,11,-4,-115,33,57,-20,47,-6,29,-411,24,-6,-265,44,-65,55,-351,48,11,19,40,-320,43,-346,62,-38,-1,45,-43,62,-82,44,-16,18,-2,-19,38,-197,72,-116,62,44,40,-40,-3,2,8,-1,-7,-5,-14,-12,-8,7,18,-25,-13,-26,-30,9,7,-20,36,-13,-27,-34,-47,-52,-9,8,-8,0,-18,-18,-39,-29,-3,27,18,-11,-14,-34,-31,-31,-22,-18,-45,-11,-13,-50,-32,-27,-6,-238,10,-125,-28,-45,-28,-12,-16,58,4,4,28,12,34,26,-95,-92,-98,-91,-98,-123,-113,-108,-80,-77,-74,-113,-82,-130,-108,-116,-56,-78,-41,-80,-65,-123,-124,-108,-91,-69,-76,-75,-70,-111,-67,-90,-132,-43,-91,-49,-144,-73,-72,-63,-73,-161,-40,-235,-54,-105,-95,-39,-97,-12,-147,-105,-71,-165,-229,-128,-89,-257,-74,-154,-65,-139,-161,-165,-23,-11,-10,-3,14,-8,-4,-1,-5,7,2,9,-8,-10,-11,19,0,-6,31,-21,3,-29,0,2,9,7,0,1,-7,3,-9,5,42,38,15,57,8,24,18,7,56,29,53,50,72,53,41,46,65,6,59,83,78,77,69,52,36,97,70,89,80,93,61,37,-6,8,4,5,-6,8,0,-7,24,-3,-25,-336,-9,60,15,21,42,-2,34,13,25,13,51,3,7,28,20,44,-8,-6,6,-5,19,26,29,5,-14,4,10,2,20,17,20,-18,1,-8,3,0,23,7,4,18,-10,13,7,3,2,6,5,6,-8,0,8,0,-13,52,-6,100,19,44,38,15,65,55,27,-4,54,2,50,0,77,-1,65,18,46,24,-1,5,50,33,-7,24,-4,6,4,3,24,19,1,6,-33,3,-19,-9,1,6,-6,8,-5,-3,-19,-2,28,-12,40,-12,5,-23,0,-3,6,-5,-36,-2,-29,-11,3,-17,51,52,-17,0,49,-8,60,13,-6,27,28,43,-6,14,9,12,73,9,41,13,12,27,1,9,-3,25,2,22,11,-3,-4,-18,28,-3,-3,-15,8,10,13,-10,9,-9,-11,22,0,18,2,5,45,6,36,3,6,21,24,37,3,-2,1,-17,0,19,14,35,0,17,29,-14,14,-4,15,39,30,31,42,15,31,33,32,64,36,28,25,-1,17,2,29,45,-2,1,35,-17,30,-17,-1,18,26,10,21,-40,41,0,11,14,-7,25,-7,49,20,-2,3,14,37,-10,98,-15,9,4,-20,19,-3,28,-14,-10,14,-8,0,4,-27,-405,-198,-270,63,-410,145,-504,24,54,70,73,113,78,39,248,83,74,62,75,78,70,148,99,53,77,71,67,82,112,55,127,105,48,95,-51,145,67,89,113,88,72,55,206,60,98,82,120,135,74,291,51,98,112,125,156,90,131,77,93,113,89,109,178,176,114,181,85,153,16,188,36,89,160,166,149,106,121,131,128,109,130,111,102,83,78,95,64,94,101,62,61,59,20,43,31,40,33,19,10,10,-8,-5,-10,25,12,-2,-4,-29,-32,-32,-18,41,6,24,-21,-28,-9,-16,-17,7,13,-16,-9,-16,-18,-18,-14,-2,-2,5,-5,-3,-6,-6,4,-13,-7,4,-3,-35,-10,5,-8,-16,-11,0,-10,-1,-47,-1,-16,-11,-26,-11,-16,0,-3,-41,-17,-10,-16,-30,0,16,51,11,-138,7,-6,-9,-31,10,8,-61,-90,16,85,25,48,16,-88,47,37,1,-7,-3,4,5,8,3,5,-34,-32,-37,-29,-35,-28,-31,-18,-40,-39,-19,-38,-42,-36,0,-34,-28,-51,-38,-43,-30,-62,26,-7,-48,-38,-35,-35,-10,27,-42,-1,-49,-42,-34,-24,-21,-6,-12,129,-43,34,-63,-21,-9,-20,-7,-2,-34,-7,84,95,-27,-102,90,67,34,4,14,-43,-3,-68,-81,-47,-13,-11,-16,5,-11,-11,-20,14,-33,-9,-9,-18,-4,-12,-17,-19,7,-38,-17,-25,-27,-18,-59,-3,-41,12,-29,-22,-27,-47,5,-5,-41,-19,17,-24,-16,-27,-26,142,-29,-16,-10,0,-17,9,-33,21,-17,0,-30,21,28,-25,8,69,-12,-27,34,-27,-14,-67,-45,-10,-7,-17,-22,-28,-12,-7,-19,-4,-22,-16,-29,-24,-31,0,-15,-10,-7,-16,-18,-19,-33,-27,-1,10,-19,-8,-32,-30,-13,-34,-28,26,-8,-17,-19,-15,16,22,29,119,-9,-2,-6,0,-3,2,1,75,-19,-3,18,5,-19,-10,-42,38,31,44,55,22,58,48,23,34,82,83,99,108,94,69,98,116,62,80,83,89,94,109,71,94,94,52,87,83,68,75,63,115,54,72,38,80,77,48,107,135,60,75,90,55,140,92,136,250,43,74,59,66,37,78,117,164,80,77,85,70,75,3,69,150,-118,28,-188,-375,54,-299,51,60,-5,30,47,30,31,30,11,36,-32,-7,8,14,-32,22,9,37,-53,-31,-11,-22,0,3,18,10,-124,-52,-40,-15,-9,13,13,59,-69,-68,-31,-3,15,13,5,20,-152,-84,-65,-5,27,-8,-33,12,-180,-99,-81,-95,33,-101,-24,-162,-207,-295,-207,-223,-291,-191,-75,-217,2,0,6,-8,6,-6,6,1,-137,-138,-92,-63,-55,-75,-53,58,-46,-44,-21,-30,-30,12,-23,69,-21,-26,9,-7,-1,17,-47,47,-14,0,-6,2,-6,8,-15,69,-10,0,-1,3,-5,21,-180,31,-9,4,-2,15,-4,-10,-80,31,5,0,3,-7,-5,-3,-1,-7,14,48,108,85,88,28,54,-33,48,34,12,8,53,-4,35,45,49,21,34,-18,24,29,-227,79,24,25,20,35,-5,10,-20,45,23,31,18,13,12,20,59,84,19,29,23,13,56,-37,16,3,30,17,23,24,12,3,-79,39,7,31,17,29,0,18,3,-14,25,44,85,128,10,62,-12,25,32,-19,19,2,63,7,-16,50,32,40,-10,-3,41,-76,-40,44,24,8,28,10,-14,35,-267,26,-1,37,27,19,2,-16,41,16,24,3,4,17,22,29,-89,35,9,17,-3,19,15,-65,17,15,12,7,11,0,-4,32,-9,46,-14,-8,-4,-23,-21,-23,-31,-27,-23,-11,-24,-29,-20,-8,-44,-28,-3,-7,11,-5,29,7,1,-20,-9,1,-8,-4,-18,-7,-10,-51,-28,-15,2,-30,-25,1,-25,76,-11,-13,-17,-1,-1,28,-22,-100,-18,-28,-31,-6,18,-26,-28,-102,2,0,-7,-8,24,24,-46,-22,-144,-113,-100,-146,-134,-225,-150,-215,-74,-100,-86,-149,-129,-120,-274,-115,-51,-56,-133,-127,-81,-159,-74,-107,-37,-79,-83,-86,-127,-86,-162,-149,-82,-66,-66,-96,-107,-110,-102,-50,-45,-74,-91,-67,-48,-42,-104,-93,-74,-79,-68,-50,-50,-108,-82,-79,-53,-54,-52,-65,-36,-47,-100,-69,75,22,37,26,13,-27,-334,-26,55,17,9,-35,-26,-55,-310,18,23,44,12,1,6,-53,-10,1,70,24,44,26,22,46,9,55,16,44,11,27,19,28,28,22,13,-10,-17,-11,27,37,-27,34,-15,-34,-46,-4,17,31,7,20,0,-26,-16,-52,25,29,10,2,-6,-7,-9,2,1,2,5,-6,-30,9,-34,-19,-21,-36,-38,-35,-26,9,-41,-17,-26,-40,-28,-32,-20,-15,-34,-3,-32,-21,-40,-36,-5,-2,-30,1,-65,-7,-85,-25,0,23,-72,-112,-79,-70,-321,-18,8,19,-187,-72,-70,-89,-299,-58,6,-3,-4,-6,5,4,-7,8,-106,-69,-25,-72,-29,-76,-55,-79,-78,-64,-56,-63,-48,-58,-18,-52,-69,-43,-64,-31,-44,-34,-87,-65,-112,-12,-85,-7,-61,-25,-84,-49,-101,-53,-49,-48,-23,-166,-5,-113,-90,-55,-356,-153,-103,-122,-133,-187,-112,-211,-72,-186,-82,-147,-180,-66,-18,-107,-267,-159,-86,57,-112,9,-62,-58,-51,-51,-4,-42,-115,-74,-56,-67,-55,-60,-60,-32,-70,-69,-55,3,-36,-40,-19,-69,-43,-54,-129,-45,-37,-20,-34,-50,-66,-24,-48,-52,-82,-50,-32,-30,-6,-199,-128,-58,-109,-128,-105,-4,-145,-161,-84,-74,-154,-82,-74,-52,-114,-91,-138,-74,-96,-65,-95,-62,-35,-54,-90,-40,-86,-72,-70,-65,-81,-81,-48,-42,-65,-19,-33,-53,-70,-106,-51,-19,-42,-23,-36,-41,-69,-117,-65,-36,-33,-12,-26,-30,-25,-67,-64,-81,-107,-82,-115,-75,-83,-125,-80,-113,-145,-93,-169,-85,-96,-105,-102,-98,-225,-171,-87,-65,-93,-88,-65,-84,-134,-41,-58,-40,-79,-68,-139,-105,-130,-102,-91,-98,-128,-143,-126,-130,-147,-76,-99,-95,-113,-111,-122,-75,-75,-76,-45,-80,-103,-141,-233,-104,-85,-22,-83,-63,-76,-60,-106,-88,-112,-161,-132,-105,-23,-361,-134,-102,-209,-157,-144,-82,-300,-180,-117,-75,-160,-129,-96,-107,-163,-162,-110,-61,-139,-62,-142,-114,-98,-78,-44,-37,-30,-33,-1,13,-12,-25,-57,0,0,19,17,-7,-17,-23,-33,53,36,42,36,22,10,0,-59,17,20,23,29,26,5,27,30,-47,33,25,37,20,58,16,20,40,29,31,62,55,29,147,24,48,73,84,113,99,87,338,126,85,145,126,182,231,284,257,-6,5,-4,7,9,1,7,2,-79,-109,-77,-9,-89,-8,34,48,5,-35,-3,-15,5,40,51,19,62,36,54,49,54,35,33,40,60,26,52,49,51,47,57,54,56,33,38,49,46,53,12,55,54,33,26,49,61,26,7,54,8,4,-6,7,-7,1,0,-7,-8,-36,-28,45,-58,10,-64,-1,29,-20,32,153,-10,58,85,122,12,-5,100,0,66,82,70,51,-23,17,22,35,64,16,65,34,86,57,65,70,49,67,53,76,65,14,76,86,26,61,84,78,41,66,65,69,83,75,25,94,88,59,22,63,39,62,58,28,34,18,16,38,1,64,10,81,86,-69,68,106,44,88,107,103,43,17,56,73,92,51,83,108,0,61,114,71,76,51,13,65,83,64,99,74,32,38,60,62,96,74,38,83,18,73,26,85,81,80,64,19,105,36,41,59,69,95,65,78,-6,46,47,74,30,26,16,37,81,37,35,76,-2,26,-12,24,46,31,23,91,50,58,44,55,97,103,71,94,21,50,-1,53,99,97,70,67,34,59,-4,32,58,61,28,99,16,44,8,64,16,43,65,43,19,87,17,56,60,83,86,72,29,54,22,58,80,94,83,68,98,-7,125,79,116,123,17,120,6,-170,9,57,51,-73,-12,59,-53,2,4,39,87,90,67,88,-29,25,-21,-15,90,14,54,-80,116,60,59,101,39,80,23,105,92,101,69,150,72,85,79,125,104,168,125,134,149,158,114,145,90,145,145,126,114,110,115,103,64,46,29,14,-391,76,-124,22,153,40,159,-1,70,61,-116,45,-10,66,93,68,54,64,37,45,45,66,64,36,27,20,29,22,38,66,38,28,-6,6,13,16,45,33,8,12,-3,-8,-12,-32,47,39,-14,-17,19,25,-30,-29,84,25,10,-38,16,-24,-27,-38,1,6,2,4,-7,-6,0,-8,1,19,-6,10,-74,22,0,30,3,-3,-1,-32,-54,-9,37,20,3,10,1,-13,-18,10,26,13,-16,10,15,-22,-34,-6,5,18,-55,141,-10,22,-3,-34,9,15,-60,111,33,-135,81,-89,24,39,-4,4,2,-1,-1,6,4,-8,-39,-13,-86,-28,-45,-11,-8,-3,9,3,-25,-25,-9,-37,-19,-23,-26,-48,-30,-19,-53,-10,-60,-1,-16,-58,-42,-23,-1,-24,-73,-23,-53,29,-52,-41,-7,-49,3,-36,53,20,53,-78,112,-35,27,-21,50,20,-70,-12,70,34,-3,0,11,20,39,-4,100,41,-20,27,-39,-41,-13,-15,35,-25,-8,-33,-53,-7,-26,-2,-37,14,-45,-20,-31,-76,-39,-28,-28,-40,-37,-28,-32,-25,-94,-42,-1,-14,-37,14,71,-59,-17,-82,-8,-32,-3,-6,-23,66,-24,4,11,-35,-57,-10,-25,3,34,-44,39,-64,-40,1,9,45,-19,29,21,-4,-74,-18,-46,-37,-21,-54,-42,1,-30,-11,-14,-38,-24,-54,-72,-32,5,-41,-120,-112,-72,-44,-131,-49,-66,-35,-60,-79,-12,-58,-49,-51,-20,-61,-99,-40,-29,-53,-90,-40,-6,-26,-44,-42,-12,-60,-45,-32,-47,-44,-189,9,-97,-43,-52,-34,-48,-55,-150,-5,-59,-79,-8,-49,-37,-38,-69,-74,-57,-69,5,-18,-24,3,-68,-60,-78,-58,-35,-15,-40,-50,-95,-132,-112,-51,-59,-53,-96,-60,-62,-101,-95,-94,-7,-52,-63,-37,-54,-107,-75,-40,-66,-46,-25,-41,-67,-40,-68,-69,-21,-74,-26,-42,-105,-34,-74,-111,-37,-56,-81,-18,-130,-105,-88,-107,-46,-394,-61,-37,-504,-33,-9,35,54,15,-43,-9,-377,-372,-6,6,48,10,-13,-59,-239,-141,-103,-49,-47,-4,-65,-96,-72,-72,-92,-80,-51,-46,-72,-163,1,-15,-38,-56,-31,-49,-143,-116,-38,47,33,-69,-30,-66,-104,-139,-67,47,-19,-79,-22,-95,-90,-149,-77,-76,-43,-50,-29,-91,-93,-101,5,1,8,-2,-7,-4,-8,7,236,26,3,-34,-74,-19,39,61,114,102,42,62,7,31,61,33,-10,4,-1,18,0,-23,33,8,-16,-13,6,-24,-29,-5,28,3,-16,-6,4,-18,-59,-8,15,10,-17,11,10,-24,-27,-6,9,5,-3,-6,-2,5,9,-1,-9,5,142,32,93,-24,26,-56,91,34,75,127,44,67,-27,79,46,96,53,94,74,133,38,92,109,65,66,72,68,59,8,76,31,48,0,-9,63,0,34,0,59,0,29,-8,6,15,12,15,14,9,-21,33,-3,8,-9,12,24,11,6,3,-10,16,9,9,5,31,54,76,35,-7,-27,1,-32,63,59,29,62,3,36,-10,113,-4,53,76,64,109,-1,88,94,102,33,31,88,22,64,24,65,10,53,73,9,54,-19,52,37,38,70,19,66,-8,16,23,41,39,32,73,-14,30,1,44,17,66,36,21,23,6,50,7,73,43,43,126,83,91,108,82,99,98,122,136,128,102,133,131,105,135,33,77,25,21,80,12,30,42,-13,30,-12,10,93,29,-23,5,14,34,-9,14,94,27,-27,25,63,47,34,63,107,78,19,47,12,51,-472,35,103,41,26,34,28,22,2,20,91,31,21,34,236,194,124,80,150,161,90,138,190,146,135,150,105,-108,127,5,148,152,154,154,158,155,71,122,87,122,138,88,197,68,83,-72,91,149,72,144,92,80,-35,87,117,87,137,72,108,98,39,84,63,156,-322,105,132,88,76,87,112,99,86,80,125,85,103,60,-182,9,37,11,-3,-48,-28,-168,-125,-19,16,-65,-38,-57,-22,-24,-14,14,18,-7,-17,-57,-37,-30,-37,-2,-19,-20,-49,-73,-52,-69,-1,-22,-15,-41,-54,-62,-72,-77,0,-17,-18,-16,-52,-26,-23,-26,12,-10,-3,14,-8,-5,-9,-10,11,10,10,8,-7,0,2,0,3,1,8,7,-3,-8,7,5,-2,-2,-3,-6,-5,6,1,-1,-1,0,-6,8,-9,0,2,0,-4,3,9,-4,-348,-4,10,1,-6,4,9,1,22,-6,16,0,-11,0,5,11,-4,15,9,1,16,4,11,-9,3,-22,-1,9,7,5,0,-2,-2,-3,-8,-6,-29,10,-12,5,-12,12,-5,12,-2,-1,-9,41,2,35,-3,0,-2,7,37,0,7,-7,40,2,8,2,17,6,177,0,17,-3,11,15,40,0,8,-11,47,16,-4,2,2,42,7,38,-7,-2,5,21,12,18,-2,17,-10,21,2,4,10,4,27,-16,7,5,-1,58,-9,19,-7,16,-13,74,21,-3,49,-13,16,-13,55,-11,-3,24,-8,55,-5,55,-1,33,22,-4,22,0,213,-2,32,2,-7,23,-6,46,-7,34,5,23,13,0,61,-6,17,-11,58,-11,1,53,2,11,-10,13,-7,67,49,0,20,-12,23,-24,23,6,0,7,0,3,18,7,2,-3,0,0,-1,0,17,0,-5,0,-5,-1,-7,0,27,4,5,-3,10,15,15,32,209,50,29,21,3,8,0,-3,34,6,11,16,3,15,-2,0,18,9,12,8,8,8,6,5,14,2,2,6,1,15,3,17,27,20,0,7,19,38,2,-2,18,19,8,42,13,11,23,-3,25,9,26,3,3,13,0,26,28,36,5,15,20,15,18,32,242,33,31,22,-2,16,-1,36,39,29,9,20,6,14,25,0,12,7,16,11,12,34,16,8,9,8,11,43,41,10,2,2,23,15,0,13,-11,-1,2,-4,2,0,5,0,0,-4,1,-6,6,-3,0,0,2,-6,0,5,27,11,3,5,-8,0,-1,12,-181,18,3,2,5,0,2,13,13,9,9,-5,6,-9,3,-2,6,-13,-3,-5,15,0,0,-10,8,-8,-20,-24,-42,-11,-1,-7,-13,3,-11,-13,0,-1,7,-6,-6,-1,5,-3,-26,48,-9,-26,11,-9,16,15,-5,17,3,0,34,-6,26,-10,4,16,16,4,88,0,16,5,1,10,8,-358,31,-439,15,2,6,1,-3,-21,4,-19,5,-2,7,-4,-1,-21,-1,-18,2,-1,3,1,-8,-4,-7,-3,-3,5,4,4,-9,0,14,13,1,2,1,-3,-10,-349,-7,-277,-9,-20,-10,-15,-113,-13,6,-7,-244,-17,-8,-6,-11,-5,55,-8,-12,-22,-2,-19,-47,-14,4,-16,-69,-9,-7,-13,8,-59,2,-51,1,-22,0,4,-12,-14,-14,-14,-9,-8,14,2,-1,0,-16,2,-15,-3,2,-38,-3,3,11,-2,25,-73,-14,3,-40,-6,-11,10,-52,2,-5,-10,8,-84,4,-86,16,-15,-5,-2,-8,1,-312,13,-20,1,0,0,14,-79,10,-65,15,-16,0,2,-55,19,-12,19,-74,3,3,-41,1,-13,-4,-13,-1,-62,-49,0,-16,7,-11,1,-18,-6,-5,14,-4,-3,-15,-15,-4,9,1,5,5,6,-14,12,14,0,0,10,9,5,-28,5,8,6,3,-1,-13,-15,50,-24,-13,-10,-1,-1,8,3,-41,2,0,0,8,2,14,12,-10,8,8,-3,3,23,-2,1,-9,0,0,30,18,4,2,-3,-3,-11,9,3,14,31,-6,-17,3,-8,-37,1,8,10,5,4,-3,18,8,-16,0,11,13,-13,0,-17,19,-1,14,5,6,